#include <stdint.h>
#define _NO_OLDNAMES
#include <stdlib.h>

#include "params16bit.h"


typedef int16_t data_t;
typedef int int32_t;

data_t conv1_weight[CONV1_COUT][CONV1_CIN][CONV1_SIZE][CONV1_SIZE] = {
1242,
-5399,
-6046,
-345,
7187,
3858,
332,
4533,
-3438,
-1738,
-1498,
695,
6046,
-3843,
-8461,
6816,
783,
-1199,
-1585,
-1167,
548,
-1633,
3893,
3132,
4302,
-6510,
-4002,
3440,
-564,
2396,
4690,
1280,
6300,
8876,
3968,
5817,
2165,
3719,
8618,
1332,
-3237,
4576,
6799,
1245,
5675,
4324,
550,
-4878,
1328,
-4336,
8749,
8354,
-1097,
-7047,
-5711,
2893,
4915,
8452,
815,
-6410,
-2272,
-1892,
4656,
-3237,
3531,
-2006,
6297,
2624,
-4159,
-4847,
2871,
1072,
1344,
-541,
-6021,
4209,
5406,
8956,
8068,
3289,
-923,
1579,
-643,
-1874,
2043,
-1522,
8229,
2400,
3455,
2837,
6360,
1882,
-6357,
865,
1621,
-1450,
-8465,
-4298,
-7627,
-485,
1207,
681,
-2385,
-751,
-5122,
1724,
8155,
3732,
-1393,
-5662,
627,
-2326,
5446,
-7111,
3418,
-2736,
7490,
7118,
-6296,
2332,
-2624,
590,
5246,
-5627,
5720,
-4678,
-2752,
2531,
3845,
-6425,
-271,
-2253,
-703,
6138,
5206,
-159,
-2026,
8387,
-5278,
1487,
6770,
-2473,
6091,
519,
5835,
4613,
3881,
-4770,
-2994,
5327,
8168,
3646,
-1161,
893,
-5052,
4731,
-1717,
3903,
-10531,
-4803,
4254,
-4431,
-14216,
-9560,
6982,
-5138,
-10488,
-7348,
6425,
9034,
-4736,
-5944,
-4563,
61,
207,
7776,
1959,
3625,
8077,
5993,
1922,
1428,
6228,
-1222,
-4380,
1888,
-3012,
-4885,
-6498,
-272,
-7519,
-1103,
-6919,
1780,
4819,
-2635,
-1850,
385,
408,
-1340,
4802,
-434,
8159,
721,
-1621,
7139,
7195,
4831,
-1155,
6872,
2697,
2920,
-3048,
3150,
-2995,
-6691,
4509,
6378,
-1697,
8313,
-10482,
-9172,
-4432,
-4407,
-3075,
-3556,
-6473,
-10464,
-7797,
-9657,
-165,
2917,
682,
-9496,
-2770,
-1726,
-528,
3281,
3866,
-5287,
-4097,
2967,
-6001,
-435,
8993,
-945,
-4126,
-1104,
3333,
10817,
5122,
1786,
-2324,
-6836,
-7135,
4303,
4896,
-4571,
896,
6369,
2352,
9116,
3968,
-3465,
6528,
-5406,
3448,
-2101,
4103,
7284,
4106,
-5302,
114,
-3607,
-3073,
1029,
2644,
7855,
9005,
1379,
-4289,
4265,
-39,
5099,
7159,
3113,
1768,
-1429,
4458,
8382,
-1930,
-7014,
-8606,
-8446,
-2325,
-32,
-7194,
-5703,
-7032,
-2398,
-4021,
2426,
5334,
6802,
10164,
-2861,
2190,
-1184,
10466,
765,
-5663,
-5031,
-4457,
3304,
6553,
-5218,
-7451,
-2460,
-1074,
6573,
-6012,
-1803,
-5377,
3587,
8658,
7155,
634,
-3744,
-3594,
5211,
7298,
6854,
9628,
8570,
7798,
9423,
-207,
-3271,
-5541,
-515,
743,
-7234,
-7954,
-3345,
-6384,
7492,
1178,
-6820,
-5515,
5517,
1548,
-1367,
7247,
-5975,
-4329,
4508,
3790,
6228,
-5823,
-1888,
925,
4849,
3589,
-4388,
-9338,
-148,
2737,
-253,
6389,
-6573,
7009,
-3634,
7736,
5875,
-4384,
7038,
437,
-354,
-7541,
-6978,
-3043,
-630,
-7959,
3978,
4643,
433,
6805,
2328,
-4308,
1914,
3204,
4903,
3219,
4565,
-3318,
4591,
-1244,
893,
5493,
929,
-4196,
-1471,
-6661,
-8572,
-3169,
1669,
1847,
3116,
568,
3426,
8547,
8765,
-122,
4468,
-3173,
-3117,
5063,
-2353,
4694,
4681,
-3305,
-3870,
6988,
-3896,
1171,
-6077,
2154,
-2938,
-4936,
1142,
2314,
-5268,
-2743,
3764,
-1318,
-3194,
-988,
1450,
7546,
4164,
4807,
9257,
8575,
2851,
6971,
-253,
7170,
5193,
5328,
-5757,
551,
5729,
3201,
-7428,
-3806,
5247,
5032,
5198,
4538,
-8325,
1124,
7431,
714,
-1457,
-4831,
-211,
4402,
403,
4387,
5520,
-2576,
2905,
5457,
3936,
2618,
-1922,
3929,
6319,
277,
-3943,
508,
527,
2729,
-229,
-6092,
-6812,
-316,
4571,
7562,
7008,
5679,
-1016,
5707,
8122,
-2411,
-1158,
1833,
-3506,
-3497,
7049,
6398,
-3990,
-6941,
-3730,
1365,
-51,
-2199,
7831,
-1896,
3502,
-1212,
6938,
10041,
451,
4031,
5575,
6202,
7459,
-6820,
-2448,
1859,
2245,
7513,
3175,
-5576,
6211,
5039,
-951,
4832,
-1450,
1505,
6673,
1193,
551,
-2429,
8857,
-1536,
6220,
-5538,
-7364,
8473,
-523,
2835,
-7457,
-4747,
3043,
-956,
-5685,
-4110,
-5219,
324,
5327,
6624,
-5652,
-8517,
5809,
-4858,
3019,
-1508,
1237,
2683,
3983,
4566,
-6790,
-3347,
-3700,
-4401,
-144,
3774,
9152,
2691,
7790,
2333,
4780,
7509,
3646,
6790,
7699,
9146,
7637,
-2428,
492,
4440,
-2378,
834,
-4301,
-5446,
-5195,
-7158,
-4860,
-2320,
-8827,
-867,
4614,
5607,
-2242,
-4553,
-1785,
3780,
5652,
-1729,
4753,
1697,
4986,
-3970,
7830,
2582,
9371,
6546,
-5464,
3723,
2401,
1906,
-1596,
7364,
6549,
8022,
6917,
-7414,
-4623,
-2469,
4644,
-4393,
-8879,
-8070,
5085,
1617,
-1870,
-2941,
-6699,
6844,
2839,
2850,
1590,
-11810,
5161,
469,
-378,
-10477,
-9619,
2102,
3847,
-1745,
-1593,
-6830,
-3188,
6191,
-3304,
-5326,
469,
-3173,
3606,
3664,
816,
2052,
1473,
6774,
-5210,
6669,
1079,
-3390,
-6995,
-3288,
-3828,
6158,
-4563,
-4320,
-3971,
-2051,
9326,
91,
-3380,
3129,
8613,
6643,
2808,
7543,
4767,
3710,
-4636,
-5044,
4883,
-1024,
7152,
-6965,
3489,
6010,
6610,
-1554,
-5708,
3431,
-1594,
-4450,
-3134,
6110,
6474,
-2776,
4655,
-2487,
365,
895,
-815,
8447,
2536,
-8,
-620,
1454,
-349,
-6219,
-1530,
5847,
6900,
7535,
-6802,
-6377,
7775,
8811,
-730,
516,
-6555,
3303,
6653,
-3058,
-6808,
-4370,
-6988,
715,
-3999,
7917,
425,
5720,
-1445,
1743,
4176,
-3846,
7732,
-5992,
-2119,
-1950,
-1172,
-1314,
-294,
-6816,
-2899,
-5273,
-2623,
7147,
8828,
-1792,
6022,
-557,
-6316,
-2001,
-766,
1782,
-31,
-3044,
-5476,
5317,
5301,
-426,
2434,
-3407,
3142,
3738,
-3750,
-4460,
7662,
8585,
8225,
7505,
-2841,
4630,
7935,
3927,
6741,
-2027,
-6986,
-1620,
-2504,
-1687,
4281,
3814,
2887,
5660,
4872,
6926,
7907,
4892,
-539,
-4138,
-4400,
-1634,
-2312,
-1705,
-3303,
-5653,
4400,
-3845,
-402,
};

data_t conv1_bias[CONV1_COUT] = {
-453,
-3260,
-1721,
77,
3,
-446,
4116,
-2828,
-1546,
5346,
-1149,
4495,
-141,
-1511,
907,
-1273,
-2977,
21,
1537,
15,
-3422,
5322,
-2932,
-6,
2668,
5604,
-3136,
-3330,
4931,
-2419,
2519,
313,
};

data_t conv2_weight[CONV2_COUT][CONV2_CIN][CONV2_SIZE][CONV2_SIZE] = {
-1638,
-2738,
-2723,
-395,
-1993,
-693,
-1696,
-631,
-2368,
-1899,
666,
477,
1177,
107,
-767,
762,
1790,
1699,
1263,
1571,
-2088,
-228,
347,
2509,
12,
369,
288,
-772,
-1203,
-1350,
-1883,
-618,
-403,
-1788,
-1666,
-335,
-572,
-1898,
-1189,
-1252,
1240,
829,
265,
244,
154,
523,
2396,
1812,
1477,
334,
386,
-391,
2127,
2180,
-364,
-1683,
209,
179,
-866,
-1411,
-1158,
-1435,
-2322,
-488,
-2308,
279,
-886,
101,
-963,
-820,
-1510,
626,
2072,
683,
453,
-311,
-323,
2009,
-331,
229,
-378,
275,
372,
-712,
157,
-1533,
-1788,
-1472,
-1380,
-88,
-693,
-223,
-869,
-1616,
-1194,
2377,
1651,
1652,
2580,
560,
-1609,
-248,
606,
734,
-2463,
-906,
-1320,
-376,
-283,
-1806,
206,
770,
870,
287,
-1687,
2674,
1830,
1443,
-249,
1484,
783,
1691,
1483,
400,
61,
-1448,
-787,
-67,
-2818,
-1822,
-1019,
160,
-494,
-1400,
-1526,
817,
565,
241,
1018,
-136,
1188,
1201,
969,
922,
376,
-417,
1757,
177,
1700,
235,
74,
2056,
1329,
1861,
2648,
98,
978,
883,
2359,
1735,
-309,
717,
975,
-1350,
562,
-2492,
-4580,
-2130,
-1779,
-677,
-2850,
-607,
149,
-262,
-1014,
184,
223,
652,
268,
364,
-1100,
192,
-1444,
-647,
526,
-1940,
-1417,
-1811,
-2727,
-1604,
-1169,
-1252,
-2308,
-3592,
-1908,
691,
1920,
-141,
-1403,
456,
-836,
345,
2749,
1359,
464,
-2495,
-736,
-410,
-838,
-87,
-409,
-721,
-1895,
82,
-1704,
1298,
-585,
775,
-862,
-384,
1451,
2740,
2100,
1439,
543,
-719,
-580,
-523,
-1467,
-90,
-1924,
156,
-1302,
1218,
-538,
392,
103,
-480,
2332,
1390,
759,
1661,
1919,
1051,
1948,
477,
1488,
1820,
676,
98,
392,
-926,
1203,
-452,
546,
-1367,
-2243,
-236,
-708,
-945,
-347,
-1619,
-18,
776,
-928,
853,
1426,
678,
-282,
49,
2522,
3652,
3266,
2639,
919,
644,
-618,
-377,
195,
699,
-1857,
-675,
387,
-106,
1719,
-1240,
-1667,
-493,
-461,
146,
-431,
-573,
-833,
-2062,
-437,
2399,
1888,
2068,
1698,
1803,
-732,
1136,
889,
-1719,
-680,
-1049,
48,
-656,
-1695,
-635,
-3024,
-3381,
-777,
990,
185,
565,
-605,
-555,
-1575,
-1648,
2662,
959,
867,
-1943,
-184,
-1295,
623,
1115,
-476,
772,
-392,
-1698,
-990,
-748,
298,
60,
8,
152,
-1485,
-1336,
-200,
-610,
-1125,
-570,
426,
-646,
2235,
1545,
1356,
938,
-1993,
399,
-360,
1514,
-905,
269,
717,
-770,
-1329,
-1188,
1830,
2015,
1626,
-240,
-1149,
1818,
2259,
1693,
416,
490,
-1742,
-783,
582,
802,
1147,
-1485,
-1845,
-1048,
-1852,
-370,
740,
-824,
-1234,
-1976,
-1361,
2481,
1588,
916,
-297,
68,
2175,
1400,
1216,
684,
396,
-985,
1790,
248,
2200,
900,
-3583,
-1473,
-1127,
-2021,
-3629,
-3511,
-3175,
-3376,
-3086,
-513,
2248,
1861,
718,
-29,
1147,
3628,
2872,
3461,
2729,
695,
234,
2959,
3539,
2933,
2306,
-1843,
-1766,
-2344,
-1332,
-709,
625,
-1756,
-1675,
-1463,
-245,
729,
1711,
1495,
-671,
1157,
1273,
1043,
1578,
2063,
867,
-569,
1562,
1654,
191,
1477,
-1128,
295,
-438,
419,
-672,
764,
-993,
-2131,
-122,
-1891,
504,
952,
84,
621,
-1471,
1753,
873,
757,
1815,
262,
-89,
815,
1226,
32,
319,
-1603,
-1860,
-314,
-477,
-2415,
-1941,
-8,
-2158,
-1416,
-348,
-65,
-665,
-771,
648,
-569,
1469,
1477,
1867,
1094,
1024,
586,
2258,
1757,
1281,
958,
-1270,
-497,
-756,
-1091,
-1119,
-92,
-1500,
-1403,
-2498,
-1024,
121,
446,
478,
361,
299,
592,
790,
2012,
-377,
1611,
0,
606,
1734,
2163,
-518,
613,
-262,
1372,
1560,
605,
281,
382,
56,
-337,
-510,
731,
-913,
-1428,
-1479,
-271,
184,
-339,
-1087,
1004,
431,
-411,
-134,
-211,
1889,
1254,
-2097,
-660,
-778,
-1515,
-1365,
-305,
-975,
-148,
-298,
-357,
1461,
1316,
-369,
793,
-191,
1827,
2422,
2653,
1843,
-35,
342,
1704,
193,
814,
255,
-1320,
-960,
-1002,
-679,
560,
-1262,
-197,
-750,
-1318,
-1291,
-3519,
-3948,
-1237,
876,
-2470,
202,
-796,
291,
-1566,
-952,
1534,
1513,
-421,
-1134,
-1411,
746,
306,
877,
328,
-561,
650,
-1591,
-268,
-1634,
-731,
-750,
-1395,
-1925,
-2106,
-94,
3,
-565,
102,
1150,
415,
1867,
1605,
1220,
1437,
389,
1167,
297,
743,
2630,
1758,
-786,
746,
1192,
1687,
-261,
205,
-34,
-380,
-34,
-1094,
-677,
-1363,
539,
-346,
-462,
-1066,
-896,
79,
1884,
-770,
-111,
374,
-1585,
-2301,
-1168,
-830,
-465,
-104,
-773,
-1271,
-2100,
-2886,
-1234,
-1215,
-1822,
-918,
-1939,
197,
882,
-943,
1234,
-469,
-61,
-1231,
-1668,
-329,
1555,
-482,
-678,
-729,
-794,
222,
-699,
-512,
-970,
217,
201,
-42,
-864,
-1480,
848,
-314,
-19,
833,
223,
-936,
1043,
1255,
1448,
178,
-4,
14,
532,
636,
0,
853,
1034,
234,
-493,
-764,
704,
1153,
-87,
208,
1126,
114,
801,
657,
496,
1231,
225,
1340,
1318,
2231,
1407,
-1601,
-2024,
-560,
-2434,
-621,
1646,
217,
-571,
174,
728,
647,
1575,
1659,
-1921,
-608,
-1020,
-56,
521,
1365,
2181,
-2402,
-2752,
-324,
-775,
696,
584,
-1272,
-323,
-1280,
278,
766,
-1648,
-929,
-157,
-667,
866,
1429,
412,
1454,
1318,
707,
267,
1326,
2025,
-155,
-846,
330,
1186,
220,
-92,
-428,
520,
1103,
-947,
-574,
-2855,
-2114,
-1761,
-1887,
-1092,
-1078,
-1656,
-1477,
-2482,
-2048,
1928,
411,
-7,
27,
-924,
1114,
1781,
3144,
1595,
2614,
2858,
2409,
772,
-1618,
-1176,
-722,
3972,
3380,
1825,
-1900,
256,
189,
1529,
3426,
2861,
1786,
2180,
-143,
1365,
-356,
440,
735,
-1081,
-2646,
-1552,
863,
238,
-1856,
-49,
-643,
2177,
-205,
-30,
-1376,
-1410,
1172,
2493,
2152,
1528,
-878,
-858,
-803,
679,
-143,
903,
-1457,
-1074,
174,
838,
-1136,
253,
-265,
-2308,
-147,
-151,
175,
-537,
-795,
-1451,
-1585,
798,
2060,
2473,
75,
-2834,
-2771,
-917,
2675,
3600,
1323,
-1670,
-2360,
-911,
2010,
1194,
-274,
-2624,
-1226,
-389,
753,
1454,
876,
-3261,
-1659,
-36,
1352,
1925,
472,
-1577,
-1529,
1463,
2071,
2915,
2048,
-80,
-77,
-1179,
1114,
93,
837,
883,
1130,
-420,
-1196,
-1019,
1850,
2667,
3113,
-114,
-2442,
-448,
1425,
4063,
1028,
1657,
-741,
-3447,
1101,
1789,
2745,
-1098,
-732,
-1544,
-1082,
1553,
51,
-1361,
-964,
-1266,
-705,
1763,
484,
377,
38,
469,
719,
1056,
-3,
-915,
1123,
-1479,
-291,
390,
513,
-1621,
-1675,
-1131,
-67,
-1282,
-1697,
-2244,
-808,
1121,
1435,
2460,
-3586,
-4032,
-5529,
-1093,
1205,
-3816,
-4995,
-4642,
-3716,
-887,
-697,
-4022,
-2398,
-2085,
-60,
-136,
-396,
772,
-634,
572,
-2390,
-2526,
1007,
1349,
277,
-1909,
-5947,
-4054,
-3454,
-1028,
1567,
7,
-1212,
-2959,
-1568,
-11,
2205,
1157,
1474,
728,
-192,
-1231,
1631,
1812,
2591,
504,
-1652,
-3264,
1050,
251,
1853,
1891,
-327,
-3936,
-2100,
973,
1630,
3861,
1299,
-239,
786,
746,
2279,
1902,
1087,
83,
-1390,
-1845,
-1771,
-804,
786,
-351,
-820,
-850,
1893,
-59,
2416,
367,
-1384,
-572,
-1591,
108,
2977,
1703,
-475,
1667,
-856,
-1048,
1566,
-1209,
4433,
2865,
1613,
-547,
468,
-13,
-988,
-1164,
-2398,
-1023,
1333,
2927,
532,
-2365,
-1417,
506,
2378,
2264,
2008,
-392,
-2623,
-566,
1692,
2763,
1840,
-2194,
-2889,
-2324,
-417,
-44,
-1667,
-2610,
-37,
1296,
-788,
2548,
-617,
-4589,
-1223,
-779,
4467,
4543,
851,
-784,
-1912,
-422,
1754,
4123,
3102,
1043,
-265,
-1346,
291,
1807,
460,
-30,
-2154,
-3514,
125,
279,
779,
-126,
-2620,
-3120,
-1932,
2588,
1300,
-529,
-2321,
-2291,
654,
2045,
1613,
701,
-197,
-1034,
-2299,
1628,
2402,
311,
-1370,
-903,
1326,
429,
-7,
-870,
-2116,
-778,
-1552,
785,
636,
2063,
6,
-1279,
-104,
-1535,
478,
1587,
1178,
1020,
-1066,
-250,
-1080,
955,
1565,
1443,
1007,
491,
-1169,
-1206,
1681,
2025,
2611,
2078,
-1808,
-2005,
-819,
3185,
2799,
1011,
-656,
-2334,
-863,
2039,
298,
-1089,
-2493,
-1438,
-1005,
1117,
3229,
860,
-233,
-1493,
-2691,
433,
2093,
1558,
1973,
-913,
-2012,
1421,
1267,
2135,
-929,
-1411,
-3511,
-565,
721,
872,
-1440,
-1137,
-2434,
-1577,
443,
1445,
2334,
-1000,
-2292,
-1839,
3672,
4422,
2647,
787,
-2194,
1156,
2237,
5557,
4493,
2458,
-2440,
-2521,
2346,
1776,
3302,
-797,
-2285,
-2762,
-1874,
-1591,
1659,
-909,
292,
-2369,
-663,
1634,
41,
1280,
737,
-554,
774,
1231,
-339,
847,
1321,
-2162,
-1634,
-893,
9,
1531,
502,
-377,
-258,
-1002,
-1245,
1540,
916,
-985,
-335,
-845,
2119,
2675,
1752,
-961,
-754,
134,
790,
1881,
2253,
-498,
16,
-1245,
1352,
2187,
404,
296,
-1476,
-1947,
-1101,
1227,
1853,
-1570,
-2347,
-1683,
-1134,
1619,
2156,
-293,
-765,
-225,
1239,
1229,
1861,
-447,
-746,
-994,
-1785,
1392,
1957,
-138,
-2191,
-1285,
-2447,
575,
-515,
1867,
1983,
32,
-2183,
-2194,
481,
689,
1089,
1513,
-1288,
-259,
184,
2598,
293,
-216,
-1415,
-2122,
-1248,
7,
1118,
73,
25,
-2610,
-375,
934,
-1410,
481,
-280,
-1377,
125,
-2342,
-1928,
-2060,
-104,
380,
-1168,
-1416,
-1225,
-790,
129,
197,
-1678,
209,
468,
322,
581,
445,
-744,
-483,
-617,
1083,
1276,
-769,
-262,
-69,
2365,
3037,
833,
66,
-298,
-100,
519,
1801,
1339,
-134,
-1949,
-1675,
-54,
2130,
186,
362,
-1808,
-2055,
-1568,
1230,
-990,
-2346,
-2278,
-110,
1014,
912,
-1648,
-2661,
-2615,
-989,
2088,
1533,
-1935,
-4027,
-2290,
602,
938,
2793,
1909,
-1522,
336,
-1338,
1411,
990,
2631,
-1654,
-804,
-1208,
-1244,
-1200,
166,
-1321,
-653,
-1474,
-19,
1219,
639,
1041,
1208,
-879,
565,
847,
1282,
1545,
1143,
-1074,
-1655,
-1947,
291,
799,
-17,
-1039,
693,
-407,
794,
-2239,
-1109,
-1989,
-966,
-987,
-2365,
-2854,
-1860,
1346,
447,
-477,
-489,
-2131,
953,
646,
-7,
-438,
-2416,
422,
-154,
-1407,
-2270,
-2829,
-648,
215,
-780,
-936,
-2371,
-2353,
787,
429,
243,
-2097,
-3315,
-1645,
-2028,
766,
937,
776,
-2409,
113,
-63,
418,
2637,
1993,
655,
166,
189,
-674,
-561,
1286,
1124,
-717,
-1078,
-1536,
692,
1779,
1030,
-779,
-1213,
-66,
-581,
483,
1001,
-1840,
-1924,
-1412,
-1457,
1280,
807,
-131,
551,
217,
-1350,
-443,
-1009,
751,
606,
1789,
473,
-1136,
-890,
816,
1025,
1834,
-842,
382,
-1154,
351,
628,
-1358,
-1063,
-590,
-1222,
-986,
3821,
5617,
3963,
717,
-3001,
-2060,
1397,
8011,
3260,
605,
-2277,
-3327,
-383,
4281,
4690,
-1109,
1359,
-2028,
-992,
292,
-1526,
1919,
832,
-746,
-314,
-837,
71,
-1695,
-353,
277,
1078,
1803,
-261,
1076,
-518,
-631,
92,
-468,
1370,
598,
-2130,
-1335,
202,
-790,
-1022,
-58,
-1816,
428,
-552,
-1277,
952,
-85,
-1772,
-283,
-274,
2050,
350,
669,
-2319,
-2052,
1005,
3213,
4291,
2272,
-1852,
-1942,
142,
-142,
1994,
2533,
-346,
-797,
-216,
-489,
719,
1973,
-196,
-34,
252,
-27,
2116,
620,
813,
2199,
-351,
3309,
260,
649,
-58,
1601,
2322,
1007,
604,
-883,
324,
1376,
2566,
658,
263,
-1387,
1575,
1432,
-926,
-350,
-1811,
-274,
-778,
739,
-698,
-1710,
-1506,
488,
1141,
193,
-870,
-587,
-1628,
-951,
897,
864,
612,
354,
-405,
1194,
439,
-732,
-1664,
0,
-1530,
-607,
-936,
-958,
-350,
-218,
-1277,
-246,
-759,
648,
2506,
1043,
-949,
-1999,
-78,
-596,
165,
49,
-66,
-492,
828,
347,
2040,
-513,
299,
-1292,
-1471,
1105,
122,
1488,
618,
-856,
132,
12,
-564,
-622,
-815,
-1451,
-241,
1490,
592,
-326,
19,
604,
-290,
1526,
1469,
372,
953,
724,
864,
-634,
-1553,
453,
1079,
1040,
-257,
-1986,
-2017,
-624,
1661,
501,
611,
-2233,
-835,
-896,
1392,
825,
366,
-1358,
-860,
-817,
703,
-292,
-335,
-558,
93,
-364,
-261,
-16,
-801,
1051,
-806,
358,
950,
-564,
950,
-616,
-606,
-875,
856,
-555,
-248,
-1016,
-1108,
1283,
-692,
-1742,
-1949,
-3104,
-599,
-1008,
243,
-1964,
-3385,
-3467,
-2059,
-1763,
-2810,
-2688,
-2349,
-1946,
-1095,
-32,
259,
1017,
-55,
975,
623,
521,
2184,
1259,
2167,
502,
-858,
-1637,
-113,
4890,
2254,
2785,
-655,
-3316,
-116,
2363,
889,
-1095,
-2195,
1910,
950,
1757,
1740,
523,
2192,
942,
1251,
977,
-545,
2282,
1526,
-1231,
-1755,
-751,
403,
1976,
1317,
694,
-1587,
-1495,
-907,
1326,
470,
-129,
327,
405,
216,
-840,
989,
149,
594,
-1008,
56,
-128,
921,
627,
534,
-371,
495,
32,
-528,
1612,
-224,
36,
-1978,
-1589,
-1353,
-775,
-1889,
-1150,
-568,
1053,
-1433,
-45,
1486,
1193,
2145,
-2016,
-1166,
346,
2036,
1041,
893,
-2223,
-116,
1219,
582,
1957,
641,
308,
-149,
-371,
-251,
740,
-1261,
-598,
-1367,
706,
-341,
-28,
672,
-1853,
452,
252,
1189,
376,
-281,
-1066,
-35,
2314,
2933,
2444,
816,
-2333,
1425,
1505,
592,
907,
-184,
-549,
-874,
503,
578,
-542,
-230,
839,
529,
1835,
2070,
124,
209,
-1497,
-2325,
-3096,
690,
631,
1622,
1550,
-2305,
-766,
801,
1716,
2136,
-268,
-1913,
-1931,
474,
2203,
1380,
-1257,
-2851,
-1794,
714,
1482,
1969,
-60,
510,
188,
-20,
273,
484,
135,
628,
-1533,
-565,
237,
-739,
75,
527,
1522,
-123,
-1098,
-1769,
-861,
375,
-1046,
-615,
-1009,
642,
-971,
26,
609,
353,
743,
748,
-1114,
-47,
937,
239,
-1952,
-889,
433,
1172,
-240,
-1150,
-696,
-1503,
-456,
160,
351,
-52,
-149,
-1378,
713,
1037,
866,
1782,
1188,
304,
510,
1037,
574,
1341,
756,
1066,
-912,
694,
1321,
1616,
1526,
602,
183,
-1484,
869,
1092,
974,
-402,
-1001,
771,
2952,
2449,
2940,
2360,
779,
857,
1604,
2856,
1463,
740,
584,
626,
300,
2230,
1698,
2062,
710,
-484,
-664,
-1100,
2014,
1344,
-1264,
-556,
-788,
957,
1367,
1183,
909,
-833,
825,
368,
-124,
742,
19,
-1177,
-836,
-953,
-271,
-443,
941,
121,
-432,
-576,
-309,
-974,
-719,
611,
-1405,
112,
778,
714,
1045,
1133,
475,
-55,
-265,
1720,
512,
-660,
-1302,
-1484,
833,
-59,
116,
120,
-1495,
120,
-1012,
-255,
1021,
814,
-1125,
309,
842,
484,
44,
-31,
-81,
-340,
701,
864,
740,
223,
-222,
-828,
-643,
327,
505,
-396,
678,
-1247,
-204,
1257,
1572,
636,
-822,
-1608,
821,
809,
478,
-499,
516,
341,
-527,
142,
176,
557,
1446,
142,
-1107,
-317,
-6,
-726,
1049,
118,
-1387,
193,
-1,
1380,
956,
1823,
339,
-622,
-719,
489,
-2590,
-108,
-820,
-504,
550,
-2168,
448,
-1424,
433,
-736,
-467,
-1236,
438,
488,
15,
-1814,
548,
493,
611,
5,
-722,
-444,
201,
762,
-761,
570,
305,
567,
351,
-387,
-130,
1047,
895,
-601,
538,
-1223,
810,
679,
-419,
219,
240,
-1446,
26,
402,
523,
166,
-1618,
-1258,
21,
145,
-482,
-2154,
-1399,
-1674,
2651,
1303,
714,
943,
-2982,
346,
1222,
-341,
1039,
-483,
1006,
285,
1127,
288,
-524,
362,
656,
848,
1345,
-1212,
1649,
-11,
-510,
-564,
-1661,
-26,
566,
121,
584,
-445,
670,
250,
-1140,
-253,
207,
77,
-1467,
271,
-752,
-361,
-888,
-1170,
749,
-990,
-637,
-2328,
-3713,
-2158,
-331,
-110,
-856,
-2422,
-2485,
935,
1202,
-259,
-1592,
-413,
358,
973,
454,
-1744,
-448,
687,
781,
-93,
-40,
1013,
602,
181,
-1497,
-1078,
-1273,
-1913,
-1473,
1479,
409,
438,
1130,
-2448,
-899,
-1013,
586,
1926,
661,
-1060,
899,
1811,
1754,
1800,
-46,
-929,
-1273,
1287,
-280,
468,
-926,
-870,
-435,
-2302,
-70,
403,
-238,
333,
-712,
-639,
345,
1048,
-350,
-504,
-489,
-1361,
350,
1036,
876,
-834,
175,
-736,
-1058,
1123,
50,
102,
257,
1508,
845,
-714,
-1601,
-476,
428,
1400,
-93,
-1675,
-596,
-519,
1428,
-112,
383,
-264,
853,
947,
-1202,
-1379,
476,
-885,
-1415,
-944,
2093,
2978,
2280,
3010,
1841,
2257,
3256,
1887,
987,
2492,
1202,
445,
465,
2241,
2735,
1957,
1582,
1987,
-538,
1772,
3177,
3288,
2226,
1193,
160,
-92,
-828,
-1157,
-334,
-336,
56,
-650,
-565,
-463,
-444,
-1017,
692,
879,
755,
-781,
-143,
727,
393,
1248,
-541,
-1467,
-1453,
-1003,
-136,
2328,
1411,
2175,
1544,
-104,
1154,
1672,
891,
1495,
-951,
866,
1432,
1465,
135,
1394,
-481,
-438,
397,
-434,
-33,
1244,
569,
-721,
-791,
1706,
1404,
1890,
527,
286,
1260,
-563,
863,
-1958,
-1433,
-2070,
2014,
1071,
-1052,
-3405,
-4580,
908,
838,
-2445,
-2166,
-3006,
1661,
980,
-410,
-1613,
-1697,
-164,
1096,
438,
1372,
564,
302,
900,
944,
2462,
-234,
-1803,
-1608,
-132,
-622,
826,
165,
115,
274,
-1339,
-1266,
1362,
324,
-1999,
-509,
775,
-1267,
-45,
-1534,
-790,
-2461,
-59,
1698,
2222,
1878,
394,
-1625,
-1324,
1423,
315,
-810,
-1180,
-1169,
-1387,
-664,
-1278,
-1867,
248,
-614,
-848,
-38,
62,
-410,
-899,
-143,
326,
1435,
1703,
2571,
710,
1459,
-813,
1152,
1676,
124,
740,
-233,
-1024,
-1519,
-1028,
-2134,
931,
-485,
-965,
-1345,
-1695,
608,
474,
1013,
1365,
855,
572,
309,
-219,
1374,
719,
548,
-2268,
-886,
-2084,
-2329,
-858,
-1735,
-1961,
-2395,
-770,
-235,
-304,
906,
-2012,
-605,
-676,
-188,
683,
1857,
0,
666,
-926,
-969,
-183,
-973,
-1797,
-1608,
-1469,
-1383,
-887,
-71,
-186,
617,
-2313,
-877,
1095,
-244,
-1649,
-1207,
-1255,
658,
-1363,
-2434,
-1784,
-359,
-663,
-1690,
995,
2237,
1301,
395,
168,
3358,
4617,
4224,
217,
287,
2226,
4691,
2361,
1429,
1644,
5562,
2799,
981,
-1147,
-2318,
-532,
-622,
-1027,
-27,
3937,
4022,
3735,
4343,
1174,
1983,
4621,
3376,
2830,
12,
-953,
-472,
827,
-1372,
1948,
1024,
1062,
142,
-1846,
2138,
1314,
1099,
0,
-6,
-412,
3458,
3018,
1584,
983,
-1465,
-989,
1060,
934,
477,
-611,
-2576,
-1824,
-176,
-394,
524,
-1213,
1445,
-1576,
-1341,
-134,
853,
454,
2107,
175,
-848,
-1377,
-1126,
-378,
-153,
2883,
2334,
1426,
1682,
583,
2756,
2301,
1810,
3537,
469,
2044,
1608,
2532,
40,
-25,
1176,
2341,
1966,
1024,
67,
2304,
1922,
1370,
2221,
1048,
-1174,
-1238,
-1739,
-1262,
-1506,
1098,
-1417,
63,
334,
-2501,
-9,
-1013,
-1361,
-1418,
-1097,
1541,
1762,
85,
-468,
-1363,
2745,
3316,
3575,
1859,
2155,
565,
397,
1110,
76,
900,
-2373,
-1380,
-267,
-1670,
-1899,
-77,
71,
-443,
1232,
-256,
-120,
-74,
-322,
-3291,
-4339,
74,
2966,
2685,
-349,
1745,
-243,
2180,
-333,
-958,
356,
96,
-2238,
-1647,
-2050,
-1807,
497,
-227,
-702,
-985,
-13,
-180,
247,
280,
395,
-821,
210,
1231,
2880,
2772,
2080,
-1483,
-830,
398,
127,
496,
-1922,
-1865,
-2147,
-624,
-2941,
-879,
-1041,
1000,
-1158,
-855,
1133,
133,
-86,
-852,
1150,
-1385,
-1469,
-645,
852,
86,
388,
-731,
-1230,
-716,
-1249,
1146,
-627,
-1769,
-2241,
-270,
994,
369,
-600,
-2247,
-748,
1521,
1139,
2191,
1678,
573,
-1118,
-959,
315,
300,
-1048,
-5,
-1128,
-2441,
-1517,
-1245,
-74,
686,
-185,
-2306,
-1233,
65,
927,
-1911,
-2079,
-964,
3735,
4420,
4793,
3950,
1748,
2032,
2800,
4434,
2656,
477,
2210,
941,
-572,
107,
-3850,
2677,
3122,
2285,
-614,
-2230,
2315,
1358,
-1089,
-3627,
-577,
1052,
2105,
2633,
1754,
186,
-1579,
-683,
837,
449,
-447,
-760,
-1741,
-1063,
-783,
-195,
1083,
1168,
-1695,
-1378,
-1322,
141,
-867,
-1635,
-34,
-255,
1459,
1258,
2065,
1682,
-704,
-577,
-1075,
1437,
1492,
504,
-1258,
-1763,
-747,
-1622,
-1324,
738,
-1391,
-1935,
-2216,
-236,
1602,
-16,
-738,
-2379,
-217,
1778,
2120,
1022,
2216,
1237,
-988,
1678,
5,
1520,
541,
-637,
-746,
-53,
-2193,
-1352,
-627,
-1100,
-2060,
-2723,
-1646,
706,
-848,
-2859,
-1239,
457,
366,
591,
1800,
353,
-13,
-1185,
-1426,
1290,
-182,
123,
-766,
-2222,
-1387,
-535,
-2318,
375,
1327,
-845,
-2524,
-1814,
389,
1028,
308,
-983,
-1287,
-941,
-1880,
-563,
658,
-549,
-258,
-1176,
419,
571,
1777,
-802,
465,
703,
961,
-271,
150,
-913,
284,
-553,
-836,
201,
1826,
2160,
439,
-956,
322,
1125,
2455,
863,
-776,
-2130,
-559,
-935,
299,
-876,
-1311,
-234,
-1780,
-1864,
-2087,
1019,
-938,
-2593,
-2392,
-2925,
-990,
417,
257,
-2091,
-772,
-1209,
1333,
-338,
-743,
-1683,
590,
3514,
3589,
2585,
2144,
1127,
1557,
3846,
2089,
1544,
-997,
-1135,
-212,
-1120,
-2292,
-271,
635,
1130,
102,
-2190,
575,
1180,
-558,
987,
1279,
324,
810,
354,
1833,
389,
-574,
-874,
423,
-639,
-1202,
-1357,
31,
-888,
-479,
-728,
-146,
-496,
1099,
-1950,
137,
-2030,
-2317,
-967,
455,
133,
-2078,
-2950,
-1444,
1531,
1626,
970,
738,
757,
811,
1389,
-819,
1597,
327,
-167,
1290,
-405,
1901,
3414,
1277,
-996,
-164,
574,
-606,
-1191,
-1795,
-2293,
-732,
566,
1780,
1753,
-1181,
-323,
642,
212,
1483,
33,
-2686,
-2498,
579,
-1379,
643,
-788,
291,
947,
-1455,
33,
599,
-872,
-1196,
-946,
290,
-1312,
779,
-384,
722,
-153,
-1848,
-1290,
1526,
-468,
-1255,
-1667,
-923,
-1106,
-856,
594,
1291,
-1158,
-2369,
-1696,
301,
-1064,
-476,
1220,
294,
463,
-523,
-479,
141,
-502,
-840,
-459,
-500,
-271,
-1117,
739,
-686,
1049,
-1723,
-1504,
739,
1295,
1171,
-1401,
-237,
-2105,
3143,
3552,
-213,
-1487,
-116,
-11,
1846,
-1722,
-832,
1202,
2925,
2169,
-272,
-2303,
-1230,
-1029,
1136,
-3235,
-839,
627,
363,
1061,
-979,
-1155,
197,
1413,
422,
1335,
808,
94,
-1205,
168,
516,
-271,
-398,
-1713,
413,
148,
-416,
596,
-854,
-745,
897,
964,
1234,
-1564,
-1745,
-688,
427,
160,
529,
1748,
1774,
843,
1415,
3450,
3161,
1769,
777,
-33,
395,
750,
-921,
149,
600,
-940,
-1429,
-1682,
-35,
1234,
1345,
-303,
-1345,
-283,
2798,
1001,
505,
-1181,
-1012,
2039,
1250,
2321,
1032,
-1752,
983,
2471,
570,
-29,
2237,
4510,
2796,
106,
1097,
329,
1981,
2253,
1325,
-226,
-1350,
-731,
-1380,
-1113,
-812,
-112,
276,
-1669,
-1809,
-1569,
-449,
-8,
569,
-1101,
1241,
-107,
141,
-316,
932,
597,
-316,
221,
1441,
1739,
-680,
-1074,
-721,
-1598,
-498,
1696,
651,
-394,
-2118,
-246,
-45,
1066,
844,
713,
388,
-281,
-1472,
127,
-1327,
766,
170,
-751,
-472,
-872,
-590,
-61,
1309,
-1463,
287,
1023,
118,
650,
1193,
-416,
-268,
-2169,
-2221,
1580,
-663,
-1926,
-668,
-457,
865,
605,
176,
180,
325,
-492,
225,
1840,
2123,
828,
-1205,
-2142,
-733,
1175,
935,
-164,
994,
120,
-61,
421,
839,
1548,
1607,
-480,
330,
507,
1917,
1669,
-144,
-718,
2058,
1639,
-1402,
-567,
93,
-844,
-180,
951,
-714,
-1746,
-976,
419,
175,
743,
-2187,
-598,
1174,
-397,
788,
1191,
1679,
1002,
810,
285,
763,
614,
384,
1978,
509,
-2759,
-371,
0,
783,
487,
912,
-42,
-153,
-1566,
-1849,
-43,
-467,
-524,
-1543,
-430,
-743,
-609,
-1441,
-167,
-293,
242,
-442,
-357,
628,
1879,
643,
-3003,
-1706,
1536,
1608,
1103,
563,
825,
1795,
3193,
-730,
187,
1353,
1063,
-649,
-3302,
-820,
1,
74,
-13,
1747,
-1560,
-150,
-245,
845,
-653,
-644,
-1368,
1689,
2673,
2537,
-154,
895,
827,
-42,
79,
-508,
626,
1219,
-2325,
-1080,
731,
-915,
-1062,
44,
1882,
689,
697,
1082,
436,
790,
965,
-314,
-1848,
-2595,
322,
3279,
1726,
81,
1241,
322,
1980,
1169,
3070,
1825,
2451,
2892,
2745,
1464,
-574,
-1178,
682,
-373,
-2630,
-279,
778,
-324,
-1324,
138,
457,
-261,
1589,
-1223,
-502,
-1264,
-1674,
1495,
1359,
2175,
1706,
-771,
-263,
1167,
907,
-356,
-118,
2212,
-56,
1124,
-859,
-466,
-225,
2165,
1811,
2831,
1805,
2091,
2237,
1051,
892,
-35,
2295,
2427,
333,
-1104,
-1457,
275,
-1053,
-461,
-286,
1469,
-1128,
1166,
1412,
324,
1446,
-3439,
-1666,
7,
636,
1084,
-2992,
-1140,
-393,
1693,
807,
-79,
-479,
151,
1036,
-2518,
1079,
-339,
-326,
-1692,
-1674,
-1342,
-2560,
-1858,
-1157,
-1451,
-133,
-1672,
148,
-680,
28,
-1004,
-1014,
177,
-521,
-1575,
1453,
1016,
-138,
-1302,
-1512,
2,
-1439,
-953,
-1014,
-251,
-522,
1088,
2039,
97,
-112,
-1262,
-1436,
656,
-425,
802,
506,
-98,
395,
-210,
-114,
-53,
-411,
333,
-50,
-408,
873,
972,
-442,
-542,
-420,
-580,
36,
1308,
363,
-745,
1297,
-1786,
-1664,
-637,
-1385,
1945,
-40,
866,
165,
-756,
1377,
320,
699,
207,
-206,
761,
1321,
1328,
1179,
-156,
1202,
2068,
175,
-1906,
-1552,
1446,
-724,
-163,
661,
1294,
1821,
2183,
3701,
890,
982,
964,
2709,
3878,
4493,
2468,
670,
-700,
-1050,
-498,
160,
1774,
853,
1343,
-1844,
-1448,
-1030,
-501,
-1475,
-974,
-528,
-521,
167,
-389,
-730,
686,
-963,
169,
-655,
1957,
1770,
-393,
391,
2330,
203,
625,
1501,
1957,
1199,
-824,
-1741,
502,
-607,
-397,
-909,
-387,
1014,
-830,
-1056,
-967,
-789,
-560,
857,
-190,
215,
-468,
1946,
815,
867,
-910,
-103,
1316,
186,
1133,
526,
136,
-597,
-1518,
-970,
-205,
-1565,
-223,
-52,
-1260,
-579,
627,
-470,
1280,
1573,
1699,
-274,
-95,
-769,
1258,
1202,
693,
1223,
1880,
-616,
-781,
-1883,
-1171,
-266,
-213,
-1651,
-774,
-372,
-1375,
-909,
-153,
-215,
269,
-335,
-529,
1645,
366,
1511,
131,
1777,
1796,
-73,
1853,
1015,
1286,
-701,
-1150,
-2147,
-814,
393,
-158,
141,
23,
-427,
-1574,
-2402,
54,
288,
-1372,
-993,
-915,
-335,
988,
-2092,
-743,
640,
927,
451,
1208,
568,
-136,
-715,
175,
-2251,
-820,
-1532,
-1103,
1061,
-224,
588,
-444,
1333,
-176,
-418,
1407,
-1032,
-457,
39,
306,
1030,
-1813,
922,
1492,
-1016,
-839,
-630,
-542,
-1043,
-1045,
0,
704,
-955,
-909,
800,
2524,
3536,
2459,
-193,
1142,
3087,
1844,
-2490,
1666,
1429,
-56,
522,
-1518,
-1046,
-2167,
363,
243,
194,
-1787,
-641,
-800,
-975,
-391,
-236,
-1083,
-1766,
-2750,
-1263,
828,
436,
-1118,
557,
-176,
-475,
-765,
-15,
1359,
1337,
1471,
1256,
1062,
1701,
-470,
-984,
-772,
-742,
-664,
1463,
-2137,
-525,
-507,
-532,
260,
120,
-598,
242,
78,
-520,
-1237,
-905,
-1263,
1725,
-810,
-1498,
-1139,
29,
388,
1060,
-998,
-2644,
-1912,
-1652,
46,
-499,
-2578,
991,
2702,
1723,
-218,
872,
2550,
2236,
-3400,
1860,
2866,
1063,
-1623,
-721,
926,
-1603,
-3170,
-1421,
-1678,
-1344,
-2019,
546,
439,
-556,
617,
-211,
119,
-2604,
-1735,
261,
607,
-1702,
-2249,
465,
308,
858,
-685,
1121,
188,
1332,
150,
1662,
643,
-484,
-381,
-408,
-223,
-1563,
-1447,
-653,
158,
-44,
-20,
-673,
914,
-888,
-574,
545,
211,
-125,
958,
100,
1541,
380,
707,
785,
1701,
1289,
117,
3405,
4451,
4547,
3111,
1584,
2888,
4613,
3703,
2572,
984,
1028,
840,
13,
317,
1703,
3745,
3685,
1066,
-104,
-127,
2771,
1786,
3336,
1322,
97,
353,
-960,
213,
-1128,
-444,
-398,
-1261,
-388,
316,
-41,
-729,
-811,
1250,
2023,
542,
-12,
2,
1640,
1702,
-581,
253,
856,
928,
-1905,
-3422,
329,
107,
252,
1702,
1869,
367,
1568,
881,
401,
-649,
1295,
1378,
2299,
975,
-235,
514,
-1038,
381,
932,
1074,
1846,
731,
2834,
-91,
157,
120,
-175,
-1038,
-1783,
1701,
338,
-206,
-1726,
-1571,
1693,
978,
-1102,
-818,
652,
748,
-487,
-2287,
2123,
1690,
-525,
105,
153,
-710,
80,
1101,
-284,
-600,
-831,
853,
1078,
73,
176,
-572,
1576,
119,
-1205,
-1227,
318,
2311,
365,
-743,
271,
653,
-358,
-2221,
-1350,
985,
531,
362,
-1232,
-2233,
-2291,
-2479,
2056,
3408,
-6,
-55,
-1474,
375,
1765,
1517,
134,
-880,
-654,
1733,
-25,
-1946,
-640,
1442,
2987,
-1319,
-1029,
135,
872,
909,
-805,
-467,
1783,
-36,
283,
-127,
-1458,
-1779,
-1291,
1579,
67,
-2075,
-3229,
993,
393,
-687,
-1837,
1157,
1458,
275,
-1016,
1124,
1944,
-514,
-1533,
-545,
-2739,
-266,
274,
2262,
-155,
354,
-1522,
-17,
1536,
-91,
732,
-1273,
240,
2274,
1296,
-111,
-88,
-304,
300,
-1460,
-921,
432,
835,
-311,
-1060,
-124,
594,
829,
-273,
-651,
-1901,
214,
605,
1241,
-1203,
-1498,
1292,
1827,
-1222,
-645,
262,
690,
574,
-1059,
93,
-601,
1965,
-42,
-180,
-944,
-2182,
-1495,
-2972,
-1372,
-2158,
-1362,
1857,
854,
-996,
-8,
1252,
2436,
919,
3851,
339,
4776,
-266,
1826,
-925,
3150,
-395,
-752,
207,
-110,
-1966,
1152,
1550,
-133,
-2274,
112,
2200,
1751,
-1818,
-2479,
2791,
611,
-2152,
-3138,
-608,
1984,
-561,
-1956,
-2883,
-1883,
1041,
368,
-3228,
-2170,
-1011,
-787,
234,
1194,
-807,
-1151,
1959,
980,
-1069,
-2262,
-945,
28,
689,
-3508,
-2306,
734,
181,
-1465,
-690,
1398,
367,
1197,
656,
1821,
670,
-1836,
-1179,
-1905,
777,
2091,
-915,
-921,
68,
1257,
1052,
-1682,
-1423,
3513,
1242,
-3597,
-1944,
687,
1027,
-2937,
-4803,
-1800,
1016,
-2541,
-5944,
-2678,
-683,
-1647,
-1159,
-626,
-182,
2213,
-120,
-158,
-57,
-823,
-394,
-804,
1055,
-1656,
-981,
325,
361,
1758,
-808,
592,
1704,
102,
-2249,
-648,
426,
-939,
-537,
1648,
1804,
-1601,
-1815,
764,
760,
-1397,
-3150,
740,
-1337,
-3881,
-3536,
-258,
149,
-278,
-2135,
-677,
425,
-1528,
-1183,
-1144,
765,
-1085,
709,
-2180,
443,
2108,
2710,
1461,
-1053,
-1053,
2312,
638,
-3511,
-42,
-150,
-857,
-2450,
-2916,
157,
-645,
326,
-416,
-475,
-30,
127,
716,
-325,
-1747,
-1629,
-1161,
-1031,
-665,
2227,
1027,
1964,
463,
-626,
642,
-424,
670,
-2135,
-212,
2005,
252,
232,
321,
719,
2036,
524,
-1829,
1198,
307,
564,
-447,
-981,
-1334,
1082,
2492,
-68,
-63,
-2779,
-766,
2730,
1345,
-1526,
-1231,
1122,
2204,
-1992,
-1801,
1205,
1319,
1224,
-1353,
-528,
1722,
1331,
1604,
1229,
735,
-1494,
76,
1202,
-1111,
-1191,
-1311,
-439,
1110,
-1670,
-1141,
77,
-674,
1042,
-272,
-823,
-1667,
539,
1310,
-792,
-1136,
-1308,
801,
1033,
-298,
495,
-932,
-1539,
491,
1769,
-1492,
-1816,
-1801,
-2097,
1120,
-390,
-844,
-3976,
-43,
939,
-1118,
-2644,
-2088,
-2237,
-207,
-2108,
-4168,
-2303,
1088,
1540,
280,
-155,
1064,
1512,
1113,
-1570,
-295,
451,
451,
-713,
-354,
1406,
1074,
-460,
-126,
-476,
1287,
-929,
654,
929,
1475,
-839,
-332,
-1487,
-274,
-2125,
-294,
91,
1372,
-128,
58,
-1400,
-871,
1160,
-236,
424,
-2582,
1315,
753,
-1165,
-305,
330,
2052,
362,
28,
-395,
1708,
1789,
-883,
-961,
-2013,
1142,
2028,
967,
66,
-1384,
-1586,
857,
-386,
-1128,
-2034,
1113,
587,
-547,
-1504,
-1423,
867,
751,
501,
-918,
495,
997,
-84,
875,
1302,
-1228,
-159,
1523,
2822,
-217,
-1057,
-2515,
476,
1477,
858,
-524,
578,
1331,
-930,
784,
562,
1694,
-765,
451,
1500,
1303,
-652,
-677,
-729,
-1315,
-812,
-1084,
-313,
2175,
-128,
-168,
-2396,
-90,
1231,
1220,
-291,
7,
1567,
1575,
182,
-304,
1272,
1905,
-60,
165,
-418,
1141,
966,
-84,
-2377,
-1641,
-476,
-9,
876,
-259,
-104,
797,
267,
-469,
1871,
1654,
-1950,
-1598,
2789,
1210,
-17,
-1579,
1931,
2359,
1361,
-1096,
652,
838,
-1286,
-3586,
90,
2369,
2080,
-1482,
-482,
-309,
2844,
958,
-557,
1095,
854,
-503,
-1445,
-225,
-44,
-501,
-1178,
-837,
144,
1694,
-785,
-2046,
-61,
-1319,
-164,
148,
-968,
1051,
1706,
82,
1143,
-1843,
834,
1798,
100,
-1606,
-777,
1743,
1476,
571,
-566,
2031,
1788,
-773,
-333,
157,
1929,
-764,
-1302,
196,
1128,
-307,
-1530,
562,
497,
1118,
-2144,
-884,
2493,
1631,
854,
-2102,
-357,
960,
37,
-642,
-193,
1405,
1169,
367,
182,
1325,
265,
1023,
-1888,
-528,
1118,
3426,
1078,
-3764,
68,
3560,
2269,
-343,
-171,
3111,
2436,
-727,
-156,
1701,
1062,
692,
-292,
-224,
1556,
-48,
-1032,
-1336,
-2989,
-1167,
-1135,
-56,
-616,
1932,
-385,
613,
-1269,
1528,
2720,
1374,
-1221,
-3280,
3037,
3010,
-26,
-2205,
732,
2231,
598,
-583,
552,
2231,
-655,
-848,
334,
170,
-1767,
-1618,
1421,
-52,
-515,
-2548,
2162,
645,
139,
-628,
-675,
1837,
1193,
363,
-1370,
2052,
1562,
199,
-716,
-406,
150,
-1221,
691,
-790,
-2300,
-3588,
-2518,
-265,
51,
558,
-3178,
-2622,
-1079,
-537,
-3611,
-1489,
-666,
823,
-4502,
-3009,
148,
2068,
1309,
-2387,
864,
-944,
-1960,
576,
646,
-1976,
-761,
1489,
1278,
-2027,
-1750,
1945,
2165,
-12,
-2421,
-262,
1174,
89,
-1212,
647,
1966,
1610,
-899,
113,
1332,
2038,
-332,
-611,
-1908,
-231,
-184,
-1696,
921,
-226,
604,
-910,
-1131,
1460,
675,
-356,
-2227,
-294,
-511,
179,
74,
1041,
286,
-717,
-343,
-1362,
-1259,
-1509,
1331,
80,
806,
1510,
1246,
893,
-208,
-1081,
460,
1269,
1156,
1763,
2279,
1192,
508,
131,
1160,
1852,
2720,
2275,
1223,
486,
1770,
1221,
-518,
149,
-1175,
538,
410,
961,
219,
62,
388,
667,
-1188,
-356,
-241,
-107,
-611,
107,
950,
355,
191,
1158,
1089,
977,
552,
-368,
-640,
-815,
-28,
338,
-960,
1785,
309,
1286,
11,
938,
-821,
-83,
673,
-683,
762,
-507,
-1563,
190,
-748,
162,
-1640,
-2483,
-1017,
-795,
267,
-689,
155,
-235,
-457,
-165,
-436,
-722,
-1005,
775,
364,
1514,
-125,
-1558,
-1984,
864,
190,
1299,
-1203,
-1153,
-1010,
1122,
-230,
1699,
1562,
566,
639,
-328,
360,
-174,
-736,
854,
210,
841,
826,
609,
953,
912,
2093,
258,
690,
724,
85,
2105,
581,
-10,
256,
22,
436,
255,
-2063,
-890,
206,
-478,
-360,
-250,
1752,
-53,
-951,
795,
-71,
1002,
-49,
-133,
1249,
1303,
-5,
777,
64,
862,
-927,
-190,
1522,
1381,
-857,
-1626,
247,
-33,
52,
-1854,
-2346,
-1309,
-1103,
-868,
142,
1102,
-1006,
-2101,
-3276,
-1419,
-861,
-4075,
-4330,
-3239,
-529,
-5217,
-6670,
-3948,
-3221,
1157,
-4709,
-5991,
-2457,
-1145,
67,
-1494,
-1656,
-2205,
-1737,
-348,
-669,
-1501,
-780,
-1275,
-1251,
-1699,
-2287,
-2277,
-908,
-1577,
-2965,
-1380,
-579,
410,
-289,
-1946,
876,
2790,
2618,
838,
-522,
-2152,
-1060,
75,
775,
452,
-2192,
-1680,
-632,
-2330,
-768,
-816,
-849,
-942,
-1129,
-175,
-108,
297,
-607,
335,
-2015,
1034,
1360,
1336,
771,
1509,
865,
-1402,
-1066,
-749,
1086,
307,
-216,
-83,
-2015,
-509,
-2026,
-1170,
1094,
-2360,
-195,
-2307,
-577,
-1830,
-1146,
-2859,
-1905,
122,
-1219,
-1309,
-1346,
208,
1133,
-1149,
679,
-787,
788,
-322,
1089,
-593,
-1092,
1313,
-910,
1550,
1566,
2167,
2757,
2215,
1003,
-775,
401,
1009,
1128,
-181,
-315,
-687,
-1737,
-1610,
577,
612,
-2858,
-86,
-931,
-2036,
-71,
940,
-1326,
-1064,
-1416,
-1009,
1872,
1689,
34,
1927,
773,
1317,
2679,
2795,
980,
1504,
-646,
986,
-145,
-1056,
1310,
-476,
-479,
-1652,
-1253,
2264,
143,
141,
-489,
-432,
516,
993,
-643,
-935,
-797,
-2710,
335,
1340,
-208,
-179,
-3214,
-169,
1335,
1614,
444,
251,
-314,
1390,
-433,
30,
582,
-783,
501,
-268,
233,
-407,
-700,
-1224,
-1909,
-264,
219,
172,
1024,
2904,
1998,
1488,
503,
215,
1787,
2343,
-910,
-983,
1584,
1630,
1484,
1305,
2713,
1114,
-105,
1620,
1355,
1391,
1819,
835,
-362,
887,
-1030,
-2617,
-2149,
-1175,
783,
-946,
-183,
471,
519,
-925,
639,
955,
588,
867,
807,
-403,
1434,
1605,
-383,
307,
356,
1608,
1106,
1157,
1528,
-65,
-263,
-1594,
-2401,
-676,
664,
-708,
-368,
842,
1015,
343,
-174,
591,
719,
1246,
-1587,
-1444,
-407,
1779,
265,
-718,
1466,
1363,
928,
802,
1931,
990,
3176,
2628,
1943,
663,
567,
677,
-1036,
-558,
184,
1117,
389,
369,
910,
-1690,
522,
-55,
594,
-419,
-781,
277,
-413,
491,
486,
-901,
-354,
-1239,
-1531,
-2571,
1090,
1068,
1329,
353,
-220,
129,
-356,
9,
785,
-925,
1182,
610,
-561,
118,
1360,
-316,
-373,
-426,
-527,
1101,
-1877,
-537,
493,
-154,
-906,
237,
1255,
-471,
-386,
-1294,
-75,
1268,
1881,
-68,
-1627,
-754,
204,
736,
1147,
-656,
1836,
471,
828,
1070,
-588,
446,
-544,
129,
330,
-1057,
790,
1534,
-271,
128,
-718,
1738,
241,
-613,
984,
-555,
-1044,
1151,
474,
-5,
1187,
-1283,
785,
1318,
967,
924,
-679,
-965,
93,
-886,
-1854,
343,
391,
1203,
-146,
220,
236,
1330,
-850,
78,
-719,
-489,
470,
-198,
-1307,
37,
-1850,
-1778,
-681,
-831,
1040,
-261,
-124,
-297,
-799,
366,
453,
-113,
696,
-289,
-82,
251,
354,
1198,
286,
323,
830,
1776,
1802,
1599,
-924,
107,
1436,
1700,
414,
1011,
-1261,
-807,
-2037,
-898,
-1966,
95,
-729,
-564,
218,
936,
1246,
392,
1216,
-312,
-497,
-405,
448,
-1075,
-931,
-1081,
-138,
-926,
-424,
-1548,
-1746,
-541,
662,
414,
1936,
-222,
-849,
1164,
1280,
633,
-634,
-412,
648,
-395,
-553,
-1423,
-140,
-518,
-1402,
7,
-522,
-1580,
580,
-847,
-325,
720,
165,
-1255,
-783,
1012,
679,
-1219,
-904,
-787,
159,
-523,
-428,
-1330,
-1059,
-795,
-629,
113,
-1675,
-2688,
-1965,
1300,
-3384,
-1341,
-1719,
-212,
1060,
-2132,
-1644,
-697,
471,
-1081,
542,
2646,
-181,
-1475,
568,
1630,
694,
502,
417,
2101,
-742,
585,
1521,
423,
271,
-949,
-194,
-119,
-718,
-2948,
-810,
-1488,
-2110,
-166,
-1930,
-702,
1275,
-541,
810,
385,
-507,
1951,
1501,
819,
-806,
1446,
-56,
1343,
1087,
-181,
721,
-391,
175,
-610,
528,
-1839,
-1499,
-1018,
-375,
-873,
862,
1456,
703,
1564,
-744,
-200,
1454,
675,
497,
1052,
1003,
-54,
105,
-419,
980,
-1496,
-250,
1038,
-254,
587,
-181,
-250,
-185,
352,
-1343,
-1487,
-466,
2072,
4399,
1385,
769,
2279,
485,
3614,
1495,
2468,
3347,
4631,
2584,
1006,
894,
2705,
3497,
3318,
1564,
-2516,
-438,
1074,
2249,
652,
-547,
-109,
246,
-830,
-1013,
1156,
278,
124,
310,
-818,
1382,
425,
-355,
1220,
-191,
-1201,
-1086,
-861,
-613,
571,
-800,
-990,
-1912,
-2454,
-3686,
837,
-661,
1111,
41,
589,
-695,
549,
-1258,
95,
-214,
-463,
-221,
-477,
-56,
184,
495,
596,
574,
249,
552,
1062,
1593,
2705,
1847,
652,
1008,
1707,
2354,
1691,
644,
124,
2946,
1333,
1559,
-7,
2185,
990,
1614,
-304,
1567,
1545,
2379,
3379,
2465,
79,
1540,
1677,
-451,
668,
613,
-216,
661,
-483,
-12,
-232,
205,
-625,
-32,
-410,
1009,
-326,
-678,
-287,
145,
-337,
39,
-1074,
-1105,
-471,
715,
-1699,
-415,
-1995,
-169,
-60,
281,
808,
-626,
-958,
1062,
-544,
-92,
-769,
1549,
1060,
-1589,
-85,
699,
254,
-164,
720,
70,
850,
8,
-513,
1022,
-589,
2556,
1855,
429,
-1470,
-1262,
-8,
-596,
-1210,
-970,
-143,
-560,
789,
-1145,
863,
-771,
148,
13,
69,
572,
201,
-1053,
376,
246,
-829,
972,
891,
181,
-854,
1133,
796,
701,
675,
312,
995,
1895,
1739,
-100,
-110,
-274,
2305,
1899,
351,
1414,
-1134,
-465,
1018,
697,
1589,
-1444,
-2820,
597,
1287,
678,
1437,
1236,
1814,
208,
1542,
-575,
175,
805,
211,
615,
507,
269,
-721,
931,
562,
212,
627,
-177,
-803,
1104,
-1828,
130,
-1555,
-107,
-631,
-109,
712,
-487,
-1412,
-2517,
-570,
-2833,
-1816,
-1132,
-121,
-3530,
-3838,
-4664,
-23,
-246,
-2734,
-5543,
-4409,
-2077,
-930,
-2022,
-4338,
-2578,
-698,
-912,
805,
252,
-405,
136,
-92,
261,
-2802,
-110,
-12,
121,
-2784,
-538,
-1885,
-1621,
601,
-838,
-67,
-121,
-549,
-437,
-107,
878,
706,
-455,
19,
-83,
8,
-1727,
447,
-260,
295,
-1912,
-20,
-1811,
-1904,
1274,
676,
121,
-1089,
148,
-417,
856,
1270,
1334,
1029,
-1591,
-728,
714,
416,
1042,
64,
-571,
305,
2283,
263,
-1047,
-627,
-204,
2752,
-585,
-1559,
-2263,
-2146,
-317,
246,
-1978,
-905,
715,
-91,
-605,
48,
-2526,
-1264,
-983,
-797,
746,
628,
152,
-513,
493,
561,
930,
195,
533,
-763,
1219,
1606,
199,
107,
260,
-600,
1858,
525,
1345,
-926,
-521,
-1265,
679,
1341,
604,
-422,
-1189,
560,
-127,
538,
-1092,
-1375,
630,
912,
263,
1736,
1207,
-847,
100,
1629,
2215,
849,
1568,
1154,
908,
-790,
577,
1110,
1751,
606,
-892,
-1928,
-2544,
978,
1146,
137,
-1069,
-1522,
-608,
-1326,
1495,
-320,
301,
-579,
296,
53,
1996,
-558,
92,
-1717,
-1298,
1188,
1162,
1728,
-471,
416,
-686,
1914,
2028,
-340,
750,
962,
2121,
1091,
-390,
612,
-1693,
-1552,
-55,
179,
483,
-228,
-714,
-2022,
-1536,
85,
-88,
738,
-1107,
-148,
801,
827,
1287,
590,
-53,
-185,
1024,
865,
-623,
-35,
1342,
1514,
-338,
446,
1258,
-11,
655,
-28,
-211,
80,
-228,
-951,
-753,
-77,
639,
1625,
-268,
74,
1018,
-472,
1637,
1248,
-139,
1064,
-801,
310,
875,
1000,
-597,
-771,
-142,
-1209,
1652,
127,
-497,
380,
-3156,
-2118,
-717,
-132,
254,
-7,
368,
368,
2005,
-724,
-152,
469,
2051,
775,
-1276,
-1104,
515,
-498,
-366,
-94,
528,
1291,
1062,
1229,
-1929,
-2053,
1345,
1122,
2427,
1289,
1361,
1537,
1100,
562,
-693,
-907,
-1113,
1101,
904,
-144,
263,
619,
762,
-846,
-2580,
-61,
495,
296,
-689,
-1205,
-2199,
-1027,
-732,
-1187,
-408,
-509,
792,
1497,
-66,
867,
582,
952,
1058,
875,
-443,
-59,
-395,
-272,
-343,
-371,
1234,
445,
649,
879,
-1201,
-2396,
-1148,
-473,
-778,
815,
1542,
-427,
625,
397,
425,
-296,
266,
-412,
827,
1236,
558,
1173,
-920,
869,
214,
-27,
561,
-225,
270,
-1878,
-353,
-723,
1144,
471,
224,
1019,
1647,
321,
-298,
13,
1680,
1371,
-128,
-562,
-769,
91,
432,
200,
754,
-627,
-205,
406,
183,
-1021,
-326,
-2198,
-986,
705,
939,
-634,
-1045,
752,
581,
-312,
-8,
-805,
1177,
-868,
54,
-718,
-697,
-451,
-416,
812,
-990,
-2117,
-1642,
698,
-798,
-985,
-2569,
-1216,
-964,
732,
426,
978,
-362,
1403,
-348,
-37,
1221,
838,
1274,
-925,
-644,
683,
-704,
-1006,
-8,
-1205,
369,
662,
56,
37,
-34,
-1742,
-585,
370,
546,
1173,
171,
-1163,
357,
679,
21,
-420,
547,
38,
-546,
152,
1541,
-1286,
-934,
-457,
392,
1213,
-506,
-827,
438,
17,
578,
27,
1251,
-95,
-893,
915,
-296,
-231,
-402,
121,
1099,
-318,
-611,
-461,
854,
543,
1065,
209,
70,
832,
-896,
182,
-811,
799,
-418,
-2387,
69,
78,
421,
152,
-1190,
-2494,
-1192,
193,
-358,
-2089,
-1013,
-2054,
24,
-1657,
33,
309,
-1131,
-25,
-201,
-2037,
-1200,
337,
-561,
-880,
-2461,
-891,
-749,
92,
455,
-251,
-1448,
1419,
64,
555,
742,
-1099,
2107,
-1020,
-493,
-216,
-2037,
1141,
-457,
-30,
-353,
-1595,
-1343,
-1581,
-1329,
-51,
-668,
-115,
-1120,
1838,
-324,
2195,
600,
725,
2274,
1075,
709,
1488,
1119,
691,
1173,
868,
670,
-630,
732,
-1349,
698,
-988,
-1306,
-1826,
-366,
-1646,
-1407,
-977,
937,
790,
-162,
-723,
-439,
-1218,
1294,
-456,
-890,
8,
-494,
533,
358,
1059,
-209,
-97,
-866,
348,
987,
210,
-1044,
-2054,
-2226,
30,
-1280,
-203,
994,
3242,
4309,
2890,
287,
3014,
3715,
1453,
1798,
-1112,
1616,
2840,
4388,
1024,
-2350,
-182,
2913,
4759,
952,
1145,
-32,
1023,
784,
2106,
1380,
797,
1153,
325,
758,
1299,
-421,
-24,
147,
-451,
191,
549,
526,
-155,
497,
-1328,
-1639,
-161,
-236,
513,
-715,
-1486,
-474,
-1307,
-1563,
-150,
137,
-178,
335,
1181,
-909,
245,
563,
401,
742,
-1742,
-986,
-136,
78,
-184,
-1563,
-241,
142,
131,
-172,
-740,
-2058,
1090,
1076,
374,
-863,
-1236,
661,
71,
1439,
-1560,
562,
-1764,
-87,
-158,
536,
231,
911,
-1638,
-1490,
2062,
1266,
1114,
-129,
36,
1151,
3178,
1359,
1321,
1098,
2100,
793,
-367,
-8,
919,
996,
-1255,
-138,
1732,
2212,
-439,
-631,
-950,
-2148,
-228,
-18,
-1930,
-930,
-852,
-1569,
1022,
-79,
-446,
-782,
-1856,
1862,
-18,
764,
-1115,
318,
1758,
429,
576,
1432,
89,
1741,
-330,
380,
-478,
2145,
1327,
-548,
-3058,
-2229,
-2304,
-191,
145,
-344,
-350,
-1308,
349,
1590,
21,
-77,
602,
-507,
-111,
1344,
1697,
925,
597,
-173,
-919,
-651,
474,
-1046,
-763,
-1416,
-1693,
-1487,
341,
-688,
528,
-1520,
-2709,
2195,
876,
273,
1741,
-541,
2300,
290,
316,
50,
-282,
2205,
261,
-935,
-903,
-1201,
606,
994,
-2697,
-999,
-1625,
1953,
1580,
1966,
-198,
-28,
492,
-520,
-433,
315,
1804,
759,
-360,
-962,
-1022,
-846,
-649,
-765,
-2806,
-1413,
-2763,
646,
-1118,
945,
-14,
-1256,
425,
1856,
1691,
-106,
340,
160,
1057,
1747,
1613,
1024,
-1330,
466,
-1190,
901,
2123,
-1445,
-1219,
-446,
1087,
1995,
-36,
-1400,
-1325,
-1596,
-795,
998,
-1358,
-1324,
-1262,
422,
-2202,
-303,
-120,
597,
1205,
-3785,
-1621,
-585,
1527,
2155,
-3833,
-388,
1343,
1445,
2934,
-4154,
-553,
-2103,
-1720,
-187,
-1209,
941,
112,
-798,
-1120,
-1613,
381,
251,
1306,
1600,
-1830,
1179,
926,
2917,
1702,
684,
-1860,
-1214,
1025,
664,
693,
-912,
-1747,
-2309,
-1630,
1139,
1003,
1022,
-111,
-1214,
-366,
-813,
2036,
512,
-1254,
-2591,
-1216,
43,
-130,
-34,
-715,
1742,
314,
892,
-2878,
3018,
1974,
2437,
1833,
-516,
2159,
1416,
1318,
419,
1816,
291,
967,
2165,
1061,
1250,
989,
728,
2146,
1148,
-50,
-1094,
-811,
-614,
-2155,
158,
-455,
-164,
-1285,
-1369,
-2974,
256,
2063,
1113,
-349,
-906,
-503,
-793,
1189,
-1042,
1116,
-678,
304,
2163,
2732,
2256,
-1704,
149,
1938,
1299,
2722,
162,
254,
576,
-1496,
108,
679,
-308,
-1637,
-1419,
-1088,
-1022,
-2561,
-547,
1318,
141,
-1616,
-2614,
2006,
836,
-681,
-2433,
-1803,
2078,
1462,
-1183,
-557,
-1645,
-665,
-844,
-1226,
979,
-376,
-1614,
-1984,
-2034,
-676,
1070,
34,
-518,
1086,
-232,
2941,
1442,
1429,
682,
774,
-134,
998,
-1164,
856,
-681,
1061,
-2227,
-1716,
-1428,
-573,
-654,
-162,
539,
-29,
1941,
1267,
371,
-493,
-327,
1014,
-345,
-296,
95,
-746,
1044,
-781,
-1254,
261,
-734,
2149,
87,
-1249,
594,
-1276,
1483,
587,
185,
171,
1329,
-580,
1317,
177,
2112,
-7,
1239,
-619,
-567,
-1489,
-1749,
-512,
-877,
-285,
-1347,
-1466,
893,
2508,
1512,
-148,
-2338,
944,
3016,
2709,
678,
1731,
947,
571,
716,
810,
-391,
-1452,
-1591,
1823,
2167,
-39,
-3329,
-1439,
731,
-547,
-478,
827,
810,
673,
984,
2284,
2630,
1639,
2665,
1212,
2648,
1100,
925,
-652,
1058,
1876,
1087,
-1175,
-1964,
-1299,
910,
-685,
-1752,
-2159,
-2630,
-2385,
-207,
669,
92,
456,
-581,
282,
1182,
415,
843,
1237,
1324,
593,
897,
-11,
-49,
1072,
-1209,
-972,
-717,
1126,
-160,
548,
-1531,
-1073,
-456,
1503,
1034,
-1,
-1515,
-1851,
1643,
1852,
2021,
308,
-663,
417,
-591,
1115,
-745,
-184,
-233,
-757,
360,
593,
312,
-853,
-1104,
-2651,
226,
-2510,
1036,
-1827,
182,
-494,
-1776,
2209,
2187,
-285,
626,
-377,
338,
4,
-742,
1991,
1005,
1429,
-546,
-88,
-389,
-1606,
-706,
-996,
-3103,
-1903,
-1921,
1188,
962,
-339,
274,
-2424,
-41,
2024,
1841,
1171,
313,
1892,
1121,
635,
403,
1558,
1694,
2113,
-240,
723,
863,
1367,
815,
-613,
-809,
1364,
1,
1122,
-1005,
-1658,
-1002,
-895,
-877,
-857,
165,
-961,
805,
67,
1309,
-220,
1165,
-693,
-901,
-1510,
-338,
-1171,
-595,
-610,
-744,
0,
-1977,
2751,
-90,
1058,
-1474,
-2013,
831,
1405,
272,
73,
1285,
-1178,
-1884,
-1797,
999,
632,
-2763,
-1541,
455,
876,
1716,
-1917,
-114,
2269,
1312,
26,
291,
-1496,
-469,
-1191,
-982,
801,
1071,
1416,
164,
-1641,
2290,
987,
317,
-611,
1738,
312,
1251,
219,
969,
-207,
1527,
619,
-2095,
-1527,
-479,
99,
-778,
-709,
-2007,
-1730,
610,
69,
1379,
-383,
-1262,
1544,
766,
-501,
868,
-765,
-26,
436,
-1511,
891,
-396,
3235,
631,
69,
-1236,
1951,
280,
-453,
-172,
-625,
2095,
-1033,
-1334,
-330,
1742,
1586,
108,
-2134,
62,
-951,
-226,
-1946,
-4102,
-261,
-285,
-2021,
-2027,
-3772,
-653,
-1607,
-1701,
-1822,
-1516,
-1315,
-2429,
-1716,
1059,
-1144,
919,
-241,
-1622,
1928,
1891,
-1072,
577,
930,
1688,
1572,
657,
657,
-1170,
542,
-1038,
-1892,
-350,
-457,
1530,
509,
-721,
-1869,
-2138,
66,
-198,
38,
-646,
-1065,
1616,
1051,
142,
1023,
-50,
2484,
1087,
-1653,
-1291,
1346,
587,
-866,
-949,
474,
634,
-50,
-832,
-816,
1268,
923,
-574,
1355,
1312,
459,
579,
-504,
-2338,
-1439,
1361,
1141,
181,
-211,
108,
-8,
-821,
31,
-38,
-1113,
-7,
1521,
424,
884,
223,
-1497,
448,
-1766,
385,
2261,
1337,
-571,
609,
-855,
1052,
1318,
1755,
396,
-658,
-1123,
987,
-754,
-729,
-2891,
-550,
-2244,
-2474,
370,
-508,
-90,
-318,
-2261,
1079,
509,
958,
-608,
56,
996,
-1016,
-174,
1814,
2261,
-891,
-782,
1958,
1620,
535,
-1908,
-1067,
91,
187,
-178,
445,
-407,
12,
-420,
-2572,
549,
1908,
1955,
-1429,
-1086,
-114,
1744,
1995,
1051,
1902,
1957,
2800,
1566,
663,
-175,
2463,
1598,
358,
3255,
1777,
-999,
1475,
119,
1459,
-139,
1586,
1019,
-949,
-443,
-2219,
-65,
930,
-521,
-1310,
-1557,
-128,
-195,
-971,
122,
999,
-1595,
-232,
-785,
1270,
1290,
166,
-970,
-29,
448,
153,
179,
-1181,
-193,
-140,
-499,
191,
-585,
-2444,
-1829,
354,
-295,
-918,
883,
-1119,
-793,
113,
-1746,
-488,
-825,
-1067,
-353,
-1339,
-1129,
1463,
755,
-1111,
15,
1206,
327,
-82,
-756,
-535,
-21,
-886,
-166,
1770,
1631,
1190,
-1181,
-1374,
-287,
209,
140,
859,
-188,
-696,
254,
1858,
1978,
998,
-891,
215,
142,
491,
57,
353,
1624,
1662,
802,
313,
-279,
1291,
2123,
1368,
185,
331,
-1299,
303,
1203,
123,
-368,
-405,
742,
-240,
279,
-798,
-588,
-10,
-867,
-1115,
813,
444,
-283,
-51,
-67,
339,
-391,
802,
486,
655,
-1014,
1127,
858,
138,
950,
189,
-40,
701,
-629,
-474,
-806,
37,
75,
635,
48,
-1598,
-1143,
-3274,
-3067,
-1436,
-363,
-2243,
-5295,
-3614,
-3616,
8,
-2431,
-5003,
-2133,
-788,
-281,
-902,
-330,
1145,
35,
-1212,
1294,
1252,
1372,
1244,
-702,
-1376,
-1185,
-138,
1349,
1411,
-332,
12,
808,
-2647,
-324,
1228,
-572,
1810,
2361,
-2197,
645,
1284,
2696,
395,
2118,
2413,
1617,
524,
-854,
-169,
-1020,
-1803,
-990,
-101,
1370,
1513,
1405,
-2155,
-2422,
-1656,
-1408,
1036,
925,
790,
-938,
-436,
532,
641,
1501,
550,
-58,
-216,
351,
-738,
-415,
-45,
-1108,
-746,
-151,
-2441,
236,
-583,
690,
1393,
-676,
486,
-848,
6,
-2223,
-27,
-182,
-3,
-1531,
-1070,
396,
1504,
805,
-1324,
-1622,
1027,
-359,
928,
-1419,
-1841,
-1015,
487,
2172,
1149,
1408,
-974,
-436,
2029,
-333,
-447,
20,
-629,
145,
-768,
-820,
-2229,
-1310,
-1344,
-410,
-870,
974,
-1118,
-547,
-356,
-1748,
1404,
2960,
-14,
-43,
-1081,
1262,
2103,
1267,
1583,
1901,
-786,
690,
2086,
920,
504,
1614,
1061,
-648,
1316,
62,
171,
-1272,
-1797,
-128,
411,
237,
1341,
-368,
-1256,
-2667,
1043,
548,
1052,
144,
-578,
-2016,
1393,
1589,
962,
181,
-1320,
-143,
-60,
-770,
82,
-440,
-230,
496,
993,
-1097,
746,
1652,
-239,
847,
-1345,
996,
921,
610,
1776,
2047,
-2180,
-1555,
930,
1104,
-1218,
-597,
-354,
-764,
279,
22,
494,
722,
1394,
-359,
1210,
-1759,
452,
1682,
-552,
-625,
-207,
-1341,
58,
1167,
1320,
-888,
566,
738,
575,
-977,
511,
-1159,
-1721,
-433,
-689,
1210,
1278,
190,
579,
-401,
-1113,
398,
1934,
2044,
2436,
719,
391,
344,
2255,
754,
1071,
446,
-1721,
-330,
664,
-1376,
-352,
-209,
-507,
-1785,
1846,
1177,
3324,
2132,
1460,
-1412,
810,
2074,
770,
2891,
-1414,
600,
1656,
3400,
3414,
-271,
872,
-1231,
-2091,
412,
703,
-1627,
-1621,
-1320,
-1293,
382,
-1001,
-478,
-727,
-1415,
528,
553,
-279,
1109,
1373,
-169,
216,
-629,
891,
-760,
-1284,
-157,
-243,
52,
-741,
-1532,
-1604,
200,
45,
-924,
638,
1341,
822,
1067,
1016,
889,
84,
500,
1297,
465,
868,
415,
801,
-669,
-225,
387,
-662,
-362,
-196,
1509,
-681,
-243,
-351,
-1072,
202,
1024,
586,
-776,
-306,
-1554,
-662,
128,
358,
1336,
2049,
-7,
902,
1311,
-214,
-1155,
136,
-330,
549,
-561,
-346,
-477,
-142,
-368,
756,
825,
1345,
1282,
1429,
-500,
-1188,
302,
-1122,
1447,
367,
1817,
-1644,
454,
691,
1575,
-88,
-174,
356,
315,
-1350,
779,
-887,
-2292,
-1570,
-826,
-1149,
-1604,
-1858,
-144,
290,
-1378,
-58,
-2079,
-2113,
-1374,
-152,
-725,
-2577,
-944,
130,
205,
-1871,
-236,
-275,
-822,
-598,
-992,
-1330,
57,
-972,
307,
1327,
-518,
-305,
1061,
591,
-1191,
631,
253,
464,
-192,
1016,
-448,
1241,
-407,
105,
-1113,
-1955,
41,
1871,
-320,
-436,
-497,
570,
-391,
-2256,
-158,
-1460,
-1383,
1200,
1144,
1122,
2128,
514,
271,
-1286,
-492,
1027,
407,
591,
1758,
-2596,
268,
2736,
385,
-187,
-558,
2033,
2525,
1198,
-1651,
1268,
-56,
1176,
-634,
102,
521,
97,
-572,
1062,
-202,
-862,
-838,
958,
-621,
-432,
-858,
-1318,
-586,
1333,
-1398,
867,
23,
-1360,
-1197,
-611,
-1051,
-3781,
-1369,
-2348,
-436,
-468,
-2564,
-2252,
-2935,
-506,
-276,
-1982,
-1698,
-1721,
-80,
-1561,
257,
30,
661,
-84,
987,
1150,
364,
994,
-5,
731,
15,
-2458,
1185,
562,
878,
1031,
92,
1836,
-231,
244,
738,
530,
-705,
1915,
-1061,
-972,
1553,
1989,
813,
-707,
-10,
482,
1784,
597,
830,
-1255,
1051,
-908,
28,
229,
759,
1190,
-2,
-603,
-137,
152,
-751,
307,
-323,
-791,
-645,
-529,
1585,
920,
480,
250,
-1196,
-813,
-465,
311,
1058,
-127,
-294,
73,
1367,
-1352,
-647,
274,
531,
-820,
-1406,
540,
1067,
34,
-1072,
-730,
-248,
-1142,
304,
-198,
-1662,
-142,
-389,
-509,
718,
2427,
4565,
4540,
4412,
888,
1955,
2981,
4010,
1588,
540,
1827,
162,
3553,
4331,
621,
1860,
2856,
1336,
1103,
2403,
3713,
1261,
1235,
-189,
-1359,
-1049,
-1413,
-1050,
-103,
-1035,
1086,
-799,
862,
685,
-1327,
1170,
1092,
95,
-998,
-20,
600,
26,
702,
-121,
-1468,
64,
-1236,
-209,
387,
2174,
1841,
1547,
1738,
1266,
336,
320,
1785,
-206,
539,
-995,
211,
722,
1560,
912,
229,
857,
-472,
707,
251,
-566,
-1178,
111,
-13,
-152,
357,
-169,
200,
657,
223,
-2198,
-1653,
211,
952,
-1192,
1101,
32,
1043,
-175,
-244,
1845,
2545,
1597,
-1016,
76,
585,
1753,
713,
93,
-633,
824,
799,
82,
1505,
584,
676,
735,
1290,
-850,
-263,
-834,
-1795,
-1105,
-1820,
318,
-565,
-590,
-1764,
1713,
1574,
858,
243,
1374,
2088,
510,
1429,
-1149,
-1359,
-886,
-948,
-581,
-391,
719,
-1479,
-101,
-1531,
-1300,
-431,
-647,
-634,
-234,
-1111,
-1588,
-1704,
494,
437,
-864,
-1146,
-1189,
830,
426,
642,
1229,
1342,
1437,
1318,
1974,
2542,
2597,
-84,
265,
-860,
1704,
-584,
-1978,
-1431,
-1383,
-2210,
-1738,
532,
987,
800,
-408,
696,
1178,
782,
770,
-550,
-1180,
118,
-982,
-1202,
-923,
-167,
873,
-845,
-1211,
-2553,
-1314,
-2455,
518,
-1131,
-1502,
-414,
266,
772,
859,
749,
33,
486,
757,
384,
802,
1531,
1683,
-771,
253,
764,
-1526,
0,
208,
-763,
-2395,
-794,
-2007,
361,
-409,
-115,
370,
1305,
2416,
1295,
1371,
-278,
321,
1222,
2126,
1214,
-701,
-1607,
1819,
454,
426,
-962,
-1147,
-2048,
-645,
1838,
1912,
1240,
919,
746,
3183,
3672,
1732,
3439,
2952,
-818,
213,
2332,
1700,
-663,
-2191,
1060,
2790,
532,
117,
2167,
3351,
2729,
-381,
1857,
5289,
5509,
108,
-500,
298,
-30,
-1143,
-2943,
2929,
184,
281,
1420,
1279,
1890,
519,
399,
824,
640,
895,
2483,
1955,
3480,
261,
-1048,
376,
1437,
805,
-1520,
13,
-1682,
-3265,
-1006,
-1288,
940,
515,
1532,
942,
1377,
-865,
89,
1957,
732,
-1175,
-918,
-272,
-1119,
-1006,
-437,
-819,
539,
2387,
1774,
286,
2671,
3355,
3164,
1009,
1374,
3462,
2013,
-448,
-2074,
49,
-446,
580,
315,
327,
-996,
60,
-532,
739,
418,
785,
-1705,
-2722,
-2575,
-1525,
-1178,
-795,
-797,
-93,
-530,
15,
1939,
728,
727,
-633,
-1063,
855,
-147,
-1066,
668,
1646,
1662,
1864,
1503,
1432,
1989,
-369,
1457,
2478,
-1175,
-1663,
-2395,
-3809,
-2395,
-2037,
-630,
-473,
743,
1033,
1515,
2592,
1115,
-721,
-1432,
-1716,
-974,
-131,
356,
-301,
1037,
1753,
-1568,
485,
466,
163,
-492,
-1087,
-1721,
-1821,
-1285,
-5048,
-99,
-1205,
-765,
-1386,
-1819,
507,
-717,
-928,
519,
1651,
-414,
1279,
2120,
2450,
390,
-681,
-147,
130,
-1755,
-1519,
-1563,
-1852,
-2791,
-3231,
-1833,
466,
81,
2001,
198,
-299,
-418,
28,
368,
-431,
-75,
-228,
-781,
-1284,
-950,
-136,
-594,
-113,
-302,
-1542,
-1390,
-504,
-617,
-931,
-2886,
-1199,
-41,
-337,
-340,
1405,
483,
606,
1269,
-89,
307,
864,
-1429,
-456,
84,
1072,
-1555,
-709,
-1214,
-1784,
-313,
512,
665,
824,
343,
-565,
-472,
86,
2321,
1643,
376,
-2839,
1705,
2613,
600,
2194,
2605,
-174,
898,
1567,
3145,
1259,
1881,
107,
-940,
-1857,
-2021,
4300,
3338,
2669,
391,
1602,
134,
2014,
2771,
-442,
-1893,
74,
1432,
1334,
1099,
1410,
-307,
554,
-847,
-1077,
-1706,
-1260,
-1985,
-1065,
-991,
1371,
852,
935,
1307,
720,
1611,
1926,
685,
2140,
1116,
-946,
228,
1726,
1136,
673,
-431,
-1420,
-728,
807,
626,
1308,
-1193,
70,
-1248,
-485,
-1048,
992,
-64,
-551,
-516,
-975,
1357,
-315,
-336,
1163,
-405,
57,
1628,
400,
1046,
1011,
-381,
6,
585,
357,
288,
-168,
-3097,
-943,
-100,
99,
1654,
760,
-484,
683,
-246,
1754,
1241,
1207,
263,
848,
138,
-325,
1263,
1153,
405,
-776,
-1161,
683,
-1411,
-1711,
-2005,
-2444,
-2109,
-572,
-1053,
1247,
1408,
560,
69,
1072,
1134,
1038,
1463,
1792,
935,
-315,
9,
-1090,
-486,
-399,
-1622,
278,
1029,
557,
-993,
-160,
58,
-534,
-525,
-1892,
-571,
-405,
-2733,
-1195,
1664,
1141,
-881,
548,
44,
1139,
-817,
25,
-197,
240,
-234,
-1819,
-1558,
-925,
-361,
-865,
-1194,
-2206,
-1130,
1238,
94,
-359,
1233,
-177,
36,
-1822,
1876,
898,
-942,
-1762,
-1059,
407,
-538,
-451,
254,
-1359,
34,
1037,
822,
2665,
1777,
-1125,
691,
3461,
3356,
1002,
873,
368,
-1090,
-2218,
-4026,
580,
56,
-2466,
232,
-260,
-629,
369,
248,
754,
940,
787,
899,
938,
969,
-247,
-1190,
-1690,
-2029,
-963,
-1646,
-727,
-490,
-1340,
-537,
1381,
532,
1422,
487,
1663,
552,
-167,
-1738,
-985,
-1618,
-533,
-557,
-1756,
-391,
477,
188,
-490,
-1147,
-199,
765,
336,
451,
-772,
-2504,
-23,
483,
-1346,
-511,
785,
1143,
54,
557,
-750,
-594,
-1994,
-1895,
-2648,
-2991,
-2945,
841,
1230,
-2731,
-2599,
372,
3171,
231,
1105,
1321,
1155,
1013,
-1659,
592,
59,
-82,
-1214,
-1408,
799,
-1496,
-1329,
-83,
-947,
-1380,
-200,
388,
21,
-1634,
37,
-1403,
221,
-431,
-507,
-1673,
-2187,
-1790,
-633,
-782,
-237,
155,
806,
606,
1523,
-407,
-153,
-634,
1159,
1295,
-654,
-1135,
-623,
-887,
-1010,
-69,
-185,
-1985,
-1589,
110,
-844,
-658,
281,
641,
462,
-238,
102,
2171,
759,
-499,
329,
-856,
1865,
1591,
7,
84,
-1703,
-492,
1477,
1124,
705,
2731,
3033,
621,
886,
-953,
861,
2,
-1713,
-25,
-1063,
228,
766,
3358,
1151,
-462,
219,
-20,
938,
-95,
-1324,
-833,
-1708,
-603,
-1636,
-1169,
-2006,
24,
624,
1001,
584,
-254,
1630,
941,
1152,
1085,
946,
648,
943,
-292,
449,
456,
812,
2135,
1036,
360,
2905,
2082,
2099,
2112,
-243,
569,
835,
-56,
-217,
709,
-1373,
-959,
510,
155,
1241,
2658,
1585,
532,
2196,
2294,
2876,
2496,
532,
1159,
-174,
-925,
594,
1506,
-967,
998,
-493,
-187,
-1157,
-1487,
785,
-287,
-405,
-2465,
-2990,
-334,
-1640,
847,
-1580,
-774,
-390,
-1369,
-1153,
-1502,
-203,
211,
1159,
27,
502,
1089,
397,
-843,
11,
-606,
-986,
-2890,
-2704,
-1645,
-413,
-273,
-1787,
-589,
171,
25,
-961,
1085,
-1103,
-1966,
-2075,
-1011,
806,
1183,
-298,
-1759,
-1873,
-868,
-701,
1277,
1725,
1538,
-1584,
-2357,
-2127,
282,
60,
-1797,
-2286,
-1528,
-641,
-631,
1443,
418,
-1215,
-1414,
600,
1718,
-312,
998,
320,
1328,
1149,
1280,
2067,
2173,
2091,
134,
-978,
-1012,
-88,
-495,
-530,
-2646,
-1062,
940,
70,
1379,
2447,
1855,
-174,
-606,
-1192,
281,
1524,
235,
528,
-1010,
-412,
-624,
564,
-361,
-2429,
-1697,
-932,
461,
-401,
-1421,
-2255,
-112,
-550,
-671,
-448,
196,
-477,
-163,
1239,
7,
921,
-66,
-184,
1175,
179,
92,
-1600,
-1004,
-1006,
-1171,
-2361,
-2272,
-1209,
-75,
-297,
417,
-747,
211,
-1319,
-487,
-3441,
-1960,
-1144,
-1473,
-3300,
-1996,
-2912,
-4081,
1564,
-1083,
-1954,
-1150,
1849,
3892,
1468,
-39,
1648,
3712,
3381,
3002,
3723,
3228,
4815,
4426,
-1259,
-2736,
-2588,
-3605,
-864,
572,
-2649,
-1377,
819,
2760,
111,
1318,
3373,
4701,
3812,
-462,
712,
2507,
2727,
1010,
1668,
-1409,
33,
-168,
-1365,
0,
952,
-104,
-2374,
-1857,
719,
640,
1831,
1912,
683,
-451,
-368,
2290,
3198,
1868,
-2014,
-3529,
-673,
-1494,
-391,
-2892,
-2883,
-2192,
285,
1463,
392,
-846,
-108,
488,
670,
-1295,
665,
775,
582,
-60,
-1768,
-898,
-910,
-312,
1284,
1064,
2631,
3378,
3128,
2159,
977,
4201,
1786,
2003,
33,
2268,
-37,
1210,
-564,
153,
670,
2930,
2557,
-176,
439,
-1176,
-668,
743,
-800,
-99,
-1745,
-2389,
-755,
-1881,
-1056,
-243,
-758,
747,
-1042,
-1290,
-405,
-1809,
-1300,
-990,
2308,
3349,
1279,
1346,
1894,
2103,
338,
3705,
3886,
2980,
474,
-1165,
-972,
-1162,
-434,
-2019,
-900,
-3053,
-447,
700,
-1523,
661,
-1290,
-2625,
-2091,
-2123,
1797,
1051,
361,
-268,
236,
-448,
463,
1242,
2610,
1515,
-1654,
578,
298,
-1560,
-997,
-1179,
-1958,
-2421,
-1053,
-1646,
122,
-1618,
1343,
-1519,
497,
954,
24,
189,
667,
617,
277,
2072,
1729,
2062,
1099,
-832,
-2930,
-1043,
-2288,
-117,
-1208,
-3165,
1630,
2002,
473,
1007,
2758,
2226,
-1309,
180,
-1642,
1031,
473,
824,
-978,
-1965,
-1044,
-214,
-123,
247,
-2170,
-1655,
-897,
-2186,
-1475,
-1088,
-1085,
-1210,
-445,
-1825,
1542,
47,
1711,
1177,
1886,
-941,
1825,
1937,
89,
1232,
-517,
-1702,
-1533,
-1465,
-1204,
-1713,
-1904,
-1678,
91,
-860,
351,
278,
992,
-1569,
-1369,
1790,
-212,
786,
1283,
497,
1553,
4110,
5205,
2611,
2489,
-1188,
1606,
1937,
3022,
1635,
138,
-560,
-1009,
-1421,
-1150,
-2335,
-92,
1460,
-1243,
-1003,
-588,
-78,
420,
1173,
283,
307,
951,
1255,
2514,
1503,
-1756,
-2252,
148,
-507,
8,
-2883,
-1435,
245,
1063,
-854,
205,
1492,
1669,
-197,
-228,
415,
1908,
660,
-824,
412,
1396,
1405,
199,
-235,
1247,
175,
-666,
-1167,
-74,
616,
-1309,
-469,
-1767,
-510,
-1452,
-1583,
-775,
-589,
-97,
-382,
1275,
365,
-584,
-584,
308,
1021,
2305,
1181,
1402,
-879,
-1727,
-26,
-1045,
-492,
-1385,
-3554,
-2738,
-126,
-1374,
-2233,
-1644,
-1232,
-1146,
-141,
-1407,
598,
417,
-1893,
-549,
1062,
395,
906,
1309,
328,
-263,
-859,
-530,
-883,
-2274,
-1446,
-3163,
-2926,
-452,
-1032,
-292,
-790,
1260,
476,
282,
-1614,
136,
-937,
-1135,
-1565,
-1108,
16,
-1141,
-375,
-1072,
628,
-238,
-1498,
85,
743,
2328,
-706,
-831,
-1282,
830,
1258,
61,
-205,
692,
1022,
1792,
1297,
1891,
2852,
2265,
578,
52,
194,
736,
-1115,
-1357,
-959,
-2278,
-490,
-330,
-9,
-1569,
874,
51,
-77,
-306,
-39,
177,
-2038,
-1943,
-2318,
587,
-1291,
-2103,
-1472,
-2767,
1788,
-1290,
-1799,
-811,
914,
631,
2269,
3813,
3243,
2449,
419,
188,
2506,
2637,
113,
1094,
-2265,
-1386,
-810,
-2996,
-1103,
233,
-795,
-536,
603,
-692,
746,
899,
831,
1996,
-339,
-191,
400,
1940,
790,
-2165,
-3150,
-1038,
-932,
-875,
111,
-1524,
1534,
1272,
110,
-371,
172,
-1087,
-3413,
-432,
-1404,
-1327,
-1856,
-383,
1166,
-656,
-3212,
-1466,
618,
1632,
-662,
-607,
-603,
-107,
754,
370,
-1292,
538,
2136,
2782,
953,
-2797,
-1656,
-992,
33,
-1703,
-2733,
145,
-2749,
-1613,
-2148,
-1537,
-573,
1971,
499,
-904,
-652,
2335,
952,
501,
1264,
474,
-99,
-643,
-1901,
151,
527,
-778,
-1981,
-1423,
1029,
348,
-1395,
-270,
119,
-935,
-200,
-517,
435,
-362,
-1800,
-482,
-1527,
-883,
-699,
-2067,
-2161,
536,
307,
144,
-931,
848,
-461,
-404,
1305,
-554,
-322,
315,
1500,
1958,
-609,
-1876,
-283,
-373,
-87,
-614,
-1541,
-1107,
711,
-177,
-1014,
-1204,
534,
-714,
-761,
2191,
6180,
4868,
2892,
-242,
-772,
781,
628,
1680,
-442,
565,
317,
1171,
547,
-1512,
-889,
2010,
1302,
-719,
-2969,
196,
-1813,
799,
2623,
978,
1513,
-974,
165,
2031,
1888,
-1303,
-856,
391,
490,
144,
-1947,
-1194,
-1121,
-1240,
-1888,
-1030,
-197,
560,
43,
-1204,
889,
1454,
420,
-91,
-767,
712,
512,
-2802,
-776,
889,
2150,
1819,
3288,
3908,
267,
-1176,
729,
2847,
2030,
1158,
-1081,
-3242,
-1667,
-1263,
-1669,
-2017,
-778,
511,
385,
1539,
-1522,
-1684,
-39,
-1083,
-910,
1404,
1440,
-64,
-1011,
-198,
2693,
1790,
2672,
470,
1514,
-103,
1522,
855,
487,
-513,
408,
-1383,
-1687,
-944,
-833,
-294,
1600,
1551,
893,
419,
-1102,
-1486,
-1676,
-1185,
-544,
1165,
342,
447,
-665,
90,
808,
2332,
1387,
2380,
83,
-211,
318,
941,
-246,
1090,
539,
-431,
152,
253,
953,
-3145,
-1052,
537,
173,
43,
-585,
-2068,
-3307,
-1935,
-2092,
145,
415,
-1029,
-147,
592,
1317,
213,
1370,
1735,
1021,
117,
959,
1146,
59,
-775,
-655,
-591,
1226,
200,
1000,
-1084,
-1799,
-583,
-526,
-403,
1796,
1324,
1371,
1063,
1274,
1905,
1075,
2262,
269,
1007,
-1652,
229,
-561,
547,
813,
-839,
-465,
-585,
-2085,
-1508,
1315,
1988,
347,
-1881,
-1815,
733,
310,
746,
-64,
342,
-1185,
-1532,
-131,
1254,
472,
-1533,
468,
-516,
-747,
-1355,
-772,
-919,
-1704,
-995,
-1028,
1525,
1750,
1293,
876,
-173,
1042,
1318,
588,
1282,
451,
-1842,
-434,
-594,
-819,
390,
1748,
897,
246,
1151,
1043,
-1002,
-636,
31,
-727,
226,
174,
520,
253,
-2247,
-1441,
-294,
-705,
-752,
-1745,
923,
-1519,
-776,
-487,
1291,
-285,
699,
1963,
1280,
948,
1676,
-536,
1165,
4404,
3120,
1817,
-152,
2514,
1294,
-585,
1220,
1813,
517,
3097,
3315,
2334,
1494,
1251,
2823,
3633,
2767,
692,
1344,
449,
1060,
1129,
-494,
-934,
-37,
1283,
812,
-345,
-131,
-2235,
-2300,
622,
2125,
1528,
3177,
1444,
2553,
215,
1688,
2746,
2383,
-94,
-993,
548,
-1714,
-1880,
-1576,
-958,
-234,
1,
12,
228,
983,
1863,
1744,
-64,
-373,
-571,
742,
899,
133,
2023,
-538,
-1742,
446,
495,
-118,
2028,
858,
239,
-225,
371,
-1409,
-2097,
-1102,
-1344,
-1159,
1200,
658,
-464,
-960,
-2025,
2335,
1411,
1406,
644,
1075,
-808,
-1023,
154,
-16,
1154,
1959,
2262,
2278,
2339,
1797,
-347,
950,
2649,
1621,
1984,
-1021,
-1405,
-2244,
-24,
-61,
1426,
1263,
2808,
910,
63,
1274,
1750,
900,
-12,
1823,
-1582,
-1136,
-1477,
-877,
-272,
-1332,
-171,
465,
-648,
-310,
-149,
-2591,
-3699,
-3299,
-2724,
-472,
-233,
-307,
-1107,
-1176,
910,
2846,
1962,
1632,
-557,
632,
889,
594,
417,
-560,
141,
1930,
1760,
-1073,
-848,
309,
-2506,
-331,
-1738,
206,
1772,
2083,
445,
460,
-598,
-236,
615,
1883,
441,
1602,
-1596,
-162,
-707,
479,
-1174,
731,
539,
473,
-947,
-479,
522,
-1291,
36,
-155,
-999,
1142,
1175,
-154,
618,
-609,
350,
265,
-417,
-671,
1225,
-1498,
-655,
140,
373,
245,
1603,
-1156,
-664,
-1728,
-47,
1834,
2569,
1526,
913,
1097,
328,
1964,
400,
690,
627,
-2440,
-2483,
-1037,
322,
463,
1848,
2459,
3364,
2071,
1575,
-127,
-1093,
-1906,
-2648,
78,
3712,
3712,
3414,
1474,
2018,
3085,
2729,
3870,
1906,
2616,
-1201,
1650,
1149,
1648,
-169,
-31,
376,
-613,
-1544,
-1199,
-149,
-74,
-1503,
-566,
-704,
1059,
385,
1360,
2249,
-319,
318,
2053,
935,
882,
-248,
-2325,
-2228,
-263,
-1019,
456,
-950,
-1116,
-1501,
-161,
-106,
35,
226,
-1368,
570,
-158,
173,
1695,
-175,
611,
-618,
-335,
612,
1152,
-139,
786,
-959,
-42,
-587,
79,
226,
-354,
1364,
-1211,
1000,
-432,
-1224,
-1439,
-655,
-673,
725,
1799,
327,
1725,
799,
30,
919,
2084,
1905,
553,
-140,
-2220,
-1500,
297,
586,
1003,
-1527,
505,
745,
-955,
91,
-965,
-2243,
-2329,
-2163,
-390,
1369,
1690,
1739,
1319,
-516,
-103,
836,
956,
796,
399,
-940,
-2590,
-1672,
198,
234,
-1575,
-529,
-48,
-188,
96,
-769,
51,
456,
-2100,
-735,
-358,
-1317,
-340,
181,
-782,
402,
-71,
-1121,
-890,
1250,
-87,
-795,
509,
97,
-758,
-1596,
-1055,
-432,
-1734,
608,
1233,
1460,
1081,
886,
-147,
601,
1229,
703,
-452,
-317,
-1449,
86,
198,
473,
149,
-2338,
143,
254,
763,
541,
-616,
255,
-686,
502,
454,
41,
-248,
764,
2607,
1737,
46,
-442,
-909,
-1433,
-1035,
2053,
-165,
1261,
1041,
-641,
1838,
2121,
2678,
3325,
2579,
745,
-559,
185,
1196,
488,
78,
-1305,
-1483,
-1061,
-1571,
44,
-1363,
-1024,
-606,
734,
1189,
1240,
1647,
2159,
-101,
-259,
-772,
62,
-108,
203,
-2501,
-2520,
-280,
-586,
973,
-2023,
-603,
-1288,
-1504,
63,
-2091,
-2149,
-1553,
-1955,
763,
-2945,
-2835,
-994,
-441,
1283,
-491,
-2023,
-2234,
-376,
-437,
-1096,
-1684,
-1806,
-2163,
-758,
-795,
823,
1140,
1042,
1417,
-261,
-708,
-1993,
-2506,
-1445,
-415,
-2272,
-2306,
-905,
-1845,
-2682,
495,
219,
2237,
1733,
-1672,
-932,
-214,
-275,
-749,
832,
435,
598,
-796,
-1200,
-380,
-2037,
-2442,
-1776,
276,
302,
-611,
-644,
-1075,
-1007,
-1229,
415,
1592,
684,
-306,
-1541,
544,
469,
-558,
-414,
747,
380,
-1196,
-1640,
312,
1203,
551,
521,
336,
-21,
1192,
-440,
-489,
-123,
300,
-8,
184,
-1777,
-1349,
-631,
-687,
-2735,
-1342,
1616,
798,
3936,
4719,
4970,
3570,
861,
2296,
2753,
1426,
1009,
1078,
173,
2284,
2995,
2709,
-500,
1626,
1639,
-1150,
357,
840,
-1454,
-1160,
-1699,
-361,
-1194,
-465,
-1689,
-1377,
-1173,
746,
671,
2019,
271,
1653,
1029,
226,
573,
15,
165,
-892,
-2198,
-1616,
-1500,
-985,
190,
571,
1724,
2975,
3022,
58,
453,
264,
-381,
-891,
-1264,
1049,
604,
1289,
-529,
176,
1696,
3463,
2554,
2940,
1831,
2834,
1462,
2084,
2241,
1432,
-2038,
-1546,
-412,
-1031,
1135,
981,
-845,
-740,
-797,
661,
150,
775,
-242,
-3034,
1349,
246,
477,
-1301,
-1754,
-119,
267,
1355,
-1759,
1169,
-1053,
414,
1431,
1516,
1113,
299,
-1206,
-1818,
-1997,
103,
-1286,
-81,
-524,
-161,
-1085,
-615,
31,
-911,
-2513,
-447,
1028,
-132,
-1397,
-462,
1229,
507,
-148,
-544,
-92,
-633,
1195,
-1733,
-380,
-628,
-755,
748,
1309,
962,
-1888,
-1875,
1980,
1681,
2426,
-474,
0,
908,
3089,
995,
-405,
-462,
1616,
-1225,
-727,
548,
204,
982,
-634,
-55,
1403,
15,
-223,
-2229,
-2847,
-1060,
-895,
-1763,
335,
1296,
205,
-2027,
434,
1409,
-68,
-1589,
-653,
1715,
-1019,
-833,
87,
913,
2233,
-299,
-2034,
-1642,
-624,
927,
2578,
182,
-691,
-559,
909,
1726,
1392,
1647,
-1178,
746,
1427,
749,
-1103,
358,
341,
-571,
-736,
-189,
454,
247,
-1306,
-992,
-668,
-434,
-1004,
768,
-271,
698,
-666,
-869,
-837,
-1277,
-843,
371,
2190,
-44,
-840,
19,
-20,
684,
227,
1007,
-946,
-767,
-546,
-982,
-1322,
-1006,
-197,
-571,
-1134,
-2078,
-1142,
78,
-6,
-887,
460,
1876,
1732,
251,
2009,
2837,
1774,
582,
1988,
184,
525,
-603,
1752,
2638,
-240,
-522,
1431,
1584,
3392,
-3628,
-2276,
-2159,
-1618,
-1137,
-2745,
-1825,
147,
-2529,
-3672,
1602,
784,
-1558,
-2584,
-1919,
1371,
589,
537,
1001,
396,
-620,
-1138,
456,
1040,
600,
-429,
-2808,
-2787,
-1353,
-2183,
1141,
382,
675,
-2346,
-1904,
2364,
937,
-1562,
-2864,
-591,
-944,
487,
1796,
-690,
595,
690,
1274,
-821,
179,
-89,
-624,
-780,
-584,
1035,
937,
-100,
-367,
809,
2058,
-919,
-1021,
773,
1484,
-979,
-3365,
529,
1537,
1695,
1467,
1604,
-3205,
-3208,
-1464,
-1467,
-133,
-567,
-885,
-615,
-1065,
727,
1791,
1364,
234,
41,
163,
75,
830,
626,
-1040,
946,
2320,
1064,
2279,
445,
2765,
197,
1054,
2166,
701,
1378,
-2087,
-2296,
-1564,
-101,
-2919,
-465,
48,
-890,
-1696,
-989,
308,
256,
-1836,
-451,
253,
917,
-42,
790,
1181,
-703,
10,
-269,
852,
2023,
1197,
2137,
-2392,
1434,
2484,
221,
1560,
-330,
1495,
1656,
-14,
59,
-315,
1748,
2919,
-1399,
35,
1403,
250,
1378,
1886,
-1201,
640,
387,
457,
520,
-873,
-636,
-790,
-1132,
-2444,
-975,
2423,
-134,
-3006,
-507,
1403,
2204,
-1060,
-1608,
2139,
-1048,
-1834,
278,
1401,
2261,
724,
52,
-978,
-720,
472,
688,
1474,
-1243,
-478,
-134,
1366,
1377,
40,
-346,
1100,
2803,
2450,
-607,
-709,
2460,
-2074,
-1545,
-767,
-569,
287,
327,
-1890,
-1255,
422,
-470,
1221,
877,
-1729,
-742,
-553,
261,
1036,
-658,
-2449,
1247,
249,
1481,
112,
-258,
1194,
550,
2078,
519,
2741,
1534,
-425,
-2359,
-3670,
-3230,
235,
2961,
2450,
-154,
8,
274,
1020,
-81,
-1413,
-1215,
-2064,
-1810,
-1520,
-2989,
-3168,
-1575,
-1204,
-406,
-345,
-374,
-562,
-1302,
-1972,
-2259,
-2003,
-583,
2092,
-706,
-2272,
-104,
1462,
833,
175,
-345,
1123,
567,
1146,
532,
-823,
1940,
-415,
-1240,
551,
-1253,
203,
426,
290,
-694,
-554,
722,
-187,
506,
-141,
-1683,
-1046,
1543,
2539,
562,
-1333,
-1483,
1359,
758,
699,
-444,
-917,
1199,
515,
553,
-462,
1444,
-1472,
-1664,
-1994,
-1278,
1513,
50,
793,
-1466,
-847,
62,
1110,
68,
310,
-2410,
498,
1612,
1651,
-1801,
-1103,
91,
1439,
-336,
-541,
-1010,
615,
-76,
317,
-567,
-2133,
-885,
271,
2216,
1624,
-1866,
-905,
1031,
1214,
-510,
-2443,
-280,
169,
1075,
-693,
-675,
655,
1171,
-2031,
-1650,
-1288,
1179,
1294,
61,
-643,
-216,
-315,
-394,
29,
-325,
-298,
-2147,
146,
1568,
3294,
889,
-1622,
1345,
2405,
3386,
-2384,
-901,
2369,
-3205,
-777,
-1726,
389,
428,
-1006,
-844,
-516,
59,
54,
-231,
-1499,
-1137,
-324,
-1154,
-389,
-756,
1124,
-1939,
-38,
-113,
185,
-206,
-1330,
1202,
837,
-2141,
789,
1908,
1364,
613,
-873,
1684,
1771,
2287,
-3067,
-3381,
-1876,
1413,
1466,
-1766,
-667,
-872,
47,
-1401,
312,
591,
316,
-2173,
-2093,
148,
977,
292,
-158,
-362,
-1816,
-854,
-750,
-35,
-786,
-16,
606,
-1277,
-1799,
1517,
1795,
2416,
-1188,
-1653,
2333,
2712,
1489,
-1806,
1273,
1624,
-549,
-320,
-516,
391,
1774,
1557,
-888,
-1128,
-1042,
1731,
1901,
1313,
392,
1683,
2940,
2122,
2052,
809,
-542,
2247,
2697,
3269,
1194,
891,
1867,
-1807,
-3355,
-2043,
-937,
-26,
-575,
-3198,
457,
1393,
1381,
190,
-2371,
-412,
1063,
1008,
-524,
-1215,
1831,
2693,
-1073,
1074,
-126,
1931,
206,
-549,
-251,
-10,
-1838,
-594,
436,
-534,
430,
-123,
496,
262,
-706,
603,
-858,
-1243,
542,
1798,
1358,
-2338,
-1965,
1050,
2704,
2110,
-2037,
614,
2444,
-754,
-878,
-1393,
-323,
1892,
1099,
305,
474,
-537,
-154,
710,
2261,
303,
-1991,
973,
2004,
2899,
-946,
-1428,
1589,
1180,
493,
-1584,
592,
850,
-1708,
-1818,
-3301,
9,
850,
1201,
-838,
-2167,
-2690,
-354,
-2095,
-3650,
-2795,
-4005,
-2369,
-1841,
-2996,
-2769,
-1552,
-3316,
-1451,
33,
-2800,
1215,
-614,
-1247,
438,
-1231,
-557,
-502,
-613,
-1641,
-1126,
-493,
-1332,
739,
-1867,
-579,
2213,
1123,
696,
-2584,
1060,
1263,
-97,
787,
140,
1243,
2632,
-731,
1233,
1551,
1271,
2890,
2457,
-2148,
-2099,
-1200,
-917,
639,
-444,
-2689,
-2362,
-1641,
202,
797,
-54,
-1615,
-1131,
542,
1599,
-272,
-1561,
-335,
-2115,
-1840,
665,
1612,
2052,
1793,
-760,
-1279,
971,
475,
1142,
-539,
-416,
59,
1462,
-178,
-275,
-188,
223,
2503,
922,
-827,
-1493,
1094,
1801,
-678,
332,
929,
474,
615,
-98,
-901,
1183,
1120,
-145,
1097,
-568,
1494,
-1272,
-161,
548,
-850,
295,
-649,
-318,
-1524,
341,
636,
324,
-503,
-1710,
-2228,
793,
-34,
455,
487,
-1388,
199,
2717,
2056,
-95,
-337,
2022,
593,
1273,
-859,
737,
-1704,
341,
962,
381,
-974,
626,
1650,
1889,
235,
271,
327,
-528,
1668,
-552,
-179,
-2221,
-1842,
268,
434,
-351,
2,
-1385,
56,
809,
150,
-467,
1175,
983,
794,
712,
504,
82,
446,
-691,
-862,
1624,
883,
1598,
697,
-255,
1568,
2588,
1605,
1541,
835,
-77,
1985,
773,
208,
-469,
-457,
834,
-99,
640,
-1382,
-637,
369,
-370,
56,
-408,
1247,
791,
1072,
668,
1448,
1432,
764,
425,
512,
708,
1133,
1171,
-561,
697,
203,
734,
447,
-601,
-889,
-192,
-704,
-1345,
-2321,
-1009,
1572,
2615,
-878,
-263,
-828,
-685,
366,
-453,
373,
-1639,
-2323,
-3029,
-4091,
-1798,
-1672,
-2222,
-3088,
-5159,
-3675,
-158,
-1124,
-3228,
-2526,
-2722,
948,
2178,
1350,
-2431,
818,
1566,
-2404,
-4213,
-2823,
-1860,
-1986,
-3543,
-3029,
-4839,
-3254,
-1203,
-781,
-2228,
-2671,
-2385,
223,
1859,
-1652,
-2194,
1629,
1769,
280,
-201,
-612,
-898,
828,
-1681,
-1908,
-1893,
-2049,
-1677,
-1445,
-2117,
-445,
-787,
865,
-233,
-961,
708,
653,
782,
832,
1291,
-86,
994,
1064,
-569,
2293,
827,
1502,
542,
-64,
57,
-349,
1477,
223,
-1065,
-2589,
-3159,
-561,
-61,
-2951,
-1590,
-2546,
216,
-1835,
-352,
-959,
-1023,
-1703,
-1997,
-2043,
-223,
814,
-266,
-466,
-960,
-369,
-245,
1611,
-489,
1061,
134,
1233,
1016,
-689,
1319,
-2294,
1301,
1418,
-633,
-351,
-1804,
-618,
87,
-960,
-187,
-625,
-1565,
-435,
30,
266,
-3055,
-4027,
-1438,
488,
-46,
-1892,
-959,
-895,
1357,
739,
1657,
1265,
156,
606,
1659,
1785,
1494,
416,
1098,
85,
1072,
-1234,
999,
79,
531,
1790,
1296,
175,
-727,
-885,
2550,
-53,
-173,
-1439,
-42,
1330,
-447,
-3,
-2119,
-986,
2786,
1520,
-195,
-612,
635,
659,
-1250,
2162,
310,
-1236,
-4088,
557,
2518,
718,
-1472,
-722,
-34,
1125,
550,
-726,
-914,
-241,
-297,
1024,
346,
-730,
527,
1014,
1707,
465,
-420,
819,
1815,
528,
578,
1013,
300,
430,
464,
-646,
1326,
2159,
1634,
1847,
-101,
-329,
642,
325,
-692,
212,
769,
95,
-290,
587,
-2552,
-423,
1228,
1610,
-183,
-84,
839,
112,
1652,
1517,
-23,
-703,
695,
111,
938,
17,
-569,
264,
1710,
1890,
-948,
-493,
846,
-236,
-713,
-827,
725,
-433,
2169,
1048,
-159,
-2371,
-504,
-1384,
718,
-17,
-3789,
-1470,
-1961,
-1414,
-238,
-1512,
-358,
-2094,
158,
-1379,
189,
-616,
461,
1071,
-2080,
1146,
1318,
78,
423,
-682,
-440,
391,
936,
-56,
-1362,
687,
-507,
-649,
-76,
-552,
-1082,
-1112,
66,
-961,
-590,
-2159,
-1039,
-193,
-1148,
-1307,
483,
1517,
1160,
-569,
-530,
-688,
1822,
-657,
-941,
76,
-601,
828,
372,
275,
-408,
1205,
533,
1192,
-312,
-1554,
-202,
1384,
-712,
-749,
-85,
-774,
985,
846,
1324,
-1470,
570,
-447,
688,
-496,
-641,
-376,
-599,
-943,
877,
-1018,
1560,
2312,
1474,
95,
-420,
-847,
988,
-373,
-2788,
-1906,
-496,
1120,
1280,
313,
135,
902,
1923,
944,
899,
-911,
90,
799,
1225,
237,
-1435,
-345,
-2,
185,
411,
-835,
-2627,
-599,
1004,
-1299,
33,
-1035,
1303,
-145,
-576,
-1148,
-1171,
-54,
1150,
343,
-1977,
-1541,
823,
1906,
1289,
152,
-2393,
-317,
-707,
1084,
-522,
28,
544,
-744,
-100,
183,
964,
34,
1334,
34,
-699,
-1059,
303,
-516,
843,
649,
-1914,
458,
1462,
801,
-1561,
-705,
1494,
-37,
-599,
-1891,
-674,
-37,
-660,
-864,
2786,
2500,
-714,
1971,
2557,
-1106,
-933,
168,
-781,
-1266,
-2429,
392,
-385,
-2717,
-550,
-1667,
42,
-1081,
-1378,
-1247,
378,
1258,
-214,
1174,
903,
-835,
-489,
1496,
-240,
-23,
-1972,
-2163,
1780,
1464,
1189,
-667,
-1077,
-586,
-429,
186,
163,
268,
-835,
854,
-522,
-489,
-1764,
463,
603,
642,
-215,
-1690,
-1702,
-1761,
808,
1145,
-469,
228,
-932,
-1185,
227,
-1627,
-157,
303,
-861,
-1368,
-1648,
-481,
-350,
-874,
-1097,
-1201,
-1441,
446,
939,
2959,
2758,
1136,
1128,
943,
282,
1715,
-257,
746,
1475,
-1200,
1475,
-966,
-1741,
38,
-108,
720,
-479,
-1758,
-2153,
204,
-391,
-222,
-1026,
-695,
528,
319,
1831,
892,
-24,
-1144,
142,
1030,
0,
911,
-121,
-1266,
1042,
987,
571,
-419,
-412,
428,
160,
-1142,
810,
251,
-164,
672,
-1886,
-1521,
-2043,
1988,
259,
611,
-280,
-156,
2317,
951,
972,
-1290,
-288,
1200,
-587,
-555,
-1165,
-338,
-413,
697,
690,
-73,
103,
384,
-305,
-612,
753,
178,
-1095,
1937,
3025,
1717,
-1947,
261,
504,
2355,
1110,
-996,
-1139,
3114,
1962,
-552,
-2030,
-266,
1164,
2087,
153,
-381,
376,
2780,
1727,
-1255,
782,
-666,
-755,
-44,
-666,
2117,
-103,
413,
-437,
145,
1287,
233,
197,
-609,
-781,
304,
-1533,
-1676,
-827,
-602,
-444,
-1930,
-2547,
-1691,
-453,
838,
-158,
1010,
1385,
-2688,
-438,
-117,
645,
2120,
-596,
-1290,
310,
845,
-1007,
694,
316,
269,
1247,
1203,
-109,
-1192,
199,
2689,
2023,
1381,
-1994,
15,
1718,
210,
87,
1984,
2981,
1166,
-221,
-184,
2304,
-1737,
-260,
-152,
-1918,
-275,
2511,
-232,
-2594,
-2704,
-961,
1069,
-226,
-489,
1134,
774,
511,
302,
574,
202,
-600,
378,
820,
981,
1091,
594,
535,
672,
1590,
-1615,
-1240,
-1003,
-960,
-11,
-2683,
-2423,
-1877,
-802,
44,
22,
1210,
-22,
-848,
475,
-178,
408,
-2945,
1153,
1283,
-233,
1968,
-1118,
-1161,
-341,
354,
2625,
574,
-1065,
137,
-33,
-52,
-861,
-1283,
-234,
-2801,
-115,
1167,
1073,
1004,
-30,
619,
-217,
1310,
856,
-358,
1325,
1491,
2126,
1449,
-13,
-549,
998,
2391,
-196,
-258,
-2019,
-725,
-1770,
-1372,
691,
262,
475,
-13,
-832,
149,
1997,
916,
-311,
-716,
-1197,
2967,
19,
899,
-902,
-1261,
1511,
-9,
-1320,
-2404,
150,
999,
-768,
410,
-465,
-413,
501,
12,
176,
507,
1815,
20,
20,
436,
641,
342,
-1054,
-1070,
291,
-802,
385,
-1631,
-471,
-833,
-1526,
-326,
-2216,
532,
164,
-953,
-1062,
1552,
-579,
-764,
-1460,
1240,
309,
-493,
-1383,
484,
-1714,
-3210,
-2507,
-305,
360,
-3991,
-4090,
-2125,
1398,
3773,
-3575,
-558,
1560,
4416,
3140,
-2453,
-2118,
-1366,
-1127,
988,
-2832,
-2273,
1620,
941,
895,
-2654,
-2328,
-452,
196,
1796,
-2633,
224,
3424,
5863,
2993,
-2243,
798,
3306,
2169,
-103,
-1112,
-1764,
-724,
194,
2041,
-1141,
-941,
-1333,
-1145,
13,
145,
649,
894,
1441,
298,
188,
-344,
1214,
572,
1713,
-2590,
-1610,
-255,
-836,
-1394,
1236,
1352,
-348,
-456,
1823,
-363,
499,
1194,
2074,
1935,
-1993,
-762,
-1371,
-111,
-2009,
-1712,
-2115,
493,
1043,
1011,
905,
1994,
3351,
1169,
1773,
-250,
1969,
1691,
394,
717,
933,
-787,
288,
770,
958,
293,
2816,
1222,
842,
365,
-262,
2271,
-89,
-382,
-1930,
-2846,
594,
-106,
-163,
-2350,
-3046,
-1943,
-338,
2035,
1817,
-290,
-506,
-566,
-1476,
-418,
561,
1098,
447,
-56,
1442,
943,
1976,
1646,
1483,
1242,
-351,
518,
-872,
-3888,
-2213,
605,
-1031,
-1896,
-908,
-691,
735,
-1397,
-168,
-2681,
-2091,
1583,
-222,
-386,
-1215,
-711,
2972,
2645,
1248,
981,
253,
1754,
1981,
443,
-1584,
-3793,
-751,
1330,
2527,
1698,
102,
-2467,
716,
2394,
467,
885,
-338,
107,
1756,
-171,
126,
-1741,
763,
3218,
2768,
545,
-527,
1511,
633,
-3385,
-2792,
1009,
1224,
-1106,
-1598,
331,
2496,
213,
937,
-15,
852,
1888,
2793,
-1110,
-971,
-1190,
41,
997,
-1533,
-1035,
-827,
-1689,
-654,
-83,
-1106,
614,
-126,
47,
641,
-884,
-470,
1009,
1194,
1013,
585,
733,
-708,
1303,
1767,
2563,
-33,
-2781,
440,
-920,
-2074,
-707,
-442,
541,
-398,
-6,
1294,
-92,
-440,
744,
2155,
3278,
-1456,
-563,
-449,
-67,
1556,
-938,
1334,
2703,
4260,
4426,
-1862,
2134,
2712,
703,
-2387,
-1165,
1068,
92,
440,
-2302,
367,
387,
1449,
213,
967,
851,
308,
-47,
103,
1974,
-1665,
-222,
1247,
1688,
-77,
-2754,
-92,
-685,
-1042,
-1163,
-2124,
-1986,
-498,
257,
2399,
1131,
57,
-1192,
-879,
56,
7,
205,
957,
427,
294,
620,
2236,
-267,
-47,
-797,
-298,
577,
-1305,
-170,
499,
41,
773,
-30,
-1181,
356,
-1023,
38,
1263,
-576,
596,
658,
135,
602,
44,
-237,
1112,
1364,
1334,
-1,
-549,
-1021,
1487,
-562,
-439,
-2238,
609,
-120,
521,
25,
59,
1502,
-286,
1294,
-310,
-5,
-1039,
993,
-382,
-699,
-460,
-43,
-490,
-537,
1367,
1721,
-1700,
186,
503,
-2152,
-1041,
-1651,
-713,
-1613,
898,
1211,
-1626,
440,
-161,
529,
186,
870,
-203,
196,
-1200,
-1018,
-1789,
1027,
560,
-349,
1290,
-254,
-1345,
1220,
732,
1428,
-410,
-27,
830,
-1798,
789,
-407,
1361,
157,
-1353,
-419,
972,
60,
435,
3048,
46,
-1292,
1209,
1304,
-721,
-1831,
-1641,
917,
-1101,
687,
-70,
-984,
-1207,
1543,
1131,
237,
1650,
-1182,
-1343,
-1190,
286,
-129,
-2979,
1327,
1996,
2055,
-238,
234,
-823,
1471,
1823,
-1319,
410,
4622,
4717,
3045,
119,
1906,
2180,
1464,
-2433,
-1561,
318,
1023,
545,
-958,
-1064,
866,
-1374,
355,
89,
689,
-206,
760,
247,
733,
-1009,
281,
1104,
1005,
-484,
-1882,
-978,
-2554,
-1960,
-478,
-99,
41,
-1788,
-739,
-630,
-1560,
-87,
-2698,
-2676,
-183,
-1704,
-1328,
-2883,
-1630,
334,
-1524,
-1632,
471,
1254,
509,
-85,
1227,
257,
565,
15,
-168,
-457,
-1475,
-40,
-186,
1270,
-1861,
-1268,
1300,
1033,
-681,
-2418,
-2294,
-2973,
-228,
-1600,
-1552,
607,
1349,
916,
-16,
-232,
2436,
1371,
-1270,
-887,
1586,
1028,
1437,
55,
358,
1379,
271,
535,
615,
27,
-217,
-385,
-1277,
-253,
-124,
20,
-1275,
-90,
301,
-237,
-1055,
-1582,
-1556,
-618,
47,
128,
428,
-1040,
1012,
-527,
500,
283,
-14,
414,
-402,
619,
-1195,
-414,
907,
-768,
-254,
-1068,
176,
734,
-1285,
-407,
-912,
-1344,
-933,
-1039,
84,
-1003,
3845,
4926,
-752,
2936,
4346,
3265,
561,
-1147,
739,
609,
-978,
168,
-2125,
-717,
2103,
2783,
1068,
-1734,
-1971,
717,
437,
-141,
1688,
-176,
1447,
14,
-420,
1364,
-1164,
53,
-130,
580,
543,
-1068,
639,
-298,
261,
-1390,
-1367,
-507,
-530,
-1500,
-2277,
-337,
-392,
962,
166,
883,
243,
2990,
1113,
1730,
-963,
236,
1280,
332,
1545,
-773,
1637,
3446,
4061,
3144,
-609,
2185,
2491,
-190,
-204,
-2283,
146,
-598,
-1983,
-2357,
-2168,
-98,
287,
506,
253,
-1022,
65,
-282,
-2367,
-858,
-1013,
275,
283,
-509,
-115,
-2395,
-67,
1053,
-1244,
-2340,
-2028,
-622,
-782,
-378,
-2479,
721,
571,
1419,
842,
-1511,
1515,
1211,
86,
-91,
816,
-330,
-772,
-1465,
-248,
487,
355,
708,
-1228,
-529,
756,
1435,
641,
-359,
-1393,
-639,
694,
2456,
728,
-1235,
-14,
1180,
1908,
1140,
-879,
-69,
2880,
2977,
1973,
-3096,
-169,
1531,
2094,
475,
-1444,
784,
1093,
1131,
619,
-414,
-1231,
-1245,
-34,
260,
622,
-224,
-1810,
1489,
737,
841,
-1597,
-12,
1058,
-736,
-1668,
-829,
-283,
672,
-1119,
-911,
609,
-155,
761,
-895,
-286,
935,
-860,
2606,
913,
1041,
1636,
879,
1545,
1536,
-1476,
2057,
1758,
1320,
-102,
-1416,
-99,
-159,
557,
1101,
-149,
-283,
667,
652,
-221,
-1653,
-176,
-9,
537,
1500,
-743,
-419,
1843,
910,
-1367,
44,
72,
-223,
1221,
-1334,
-85,
812,
236,
-1030,
-856,
406,
214,
968,
737,
-649,
-602,
808,
1085,
1750,
-1017,
632,
1474,
1244,
-1724,
1532,
1604,
-652,
-512,
-1632,
-1631,
-1788,
-1942,
-1033,
-912,
-2315,
-1394,
-977,
-1464,
-1622,
-3336,
-272,
-747,
-3090,
-3277,
515,
351,
1001,
-5005,
-3715,
-288,
-26,
-163,
-3515,
-5848,
-3361,
-1473,
-1207,
-3303,
-2763,
-1473,
-219,
841,
-1829,
-1172,
-202,
-675,
-32,
-4207,
-1142,
-687,
976,
-833,
-1700,
-860,
-15,
-553,
-372,
-1817,
-202,
-773,
-2085,
-616,
-1606,
-25,
187,
343,
731,
-1063,
-679,
209,
198,
1111,
3110,
-1792,
-2481,
-568,
761,
-138,
-3064,
-1430,
-969,
-185,
-2085,
-1953,
-327,
-1658,
-409,
-2874,
-1695,
-2338,
-2361,
-681,
-2300,
-1103,
-1799,
-769,
-2039,
179,
109,
1393,
-665,
-744,
-503,
321,
1238,
486,
-102,
-430,
341,
2258,
-877,
1014,
158,
440,
261,
-1988,
-388,
436,
-380,
906,
-939,
83,
-1916,
-1209,
420,
1124,
198,
-2108,
-1344,
1319,
-868,
-1457,
-1381,
-1592,
132,
696,
-326,
481,
-1485,
-442,
1576,
1637,
-361,
739,
526,
1027,
776,
2746,
-555,
-2247,
1342,
39,
3302,
-722,
-1989,
2826,
1007,
2840,
600,
-3166,
1380,
2345,
2771,
1343,
-784,
1186,
3030,
884,
708,
-565,
1148,
2041,
-1393,
-402,
2708,
1587,
195,
-2284,
827,
1345,
-856,
-2738,
-3255,
1317,
2258,
-277,
263,
-797,
1918,
1604,
-617,
-1079,
-465,
1949,
874,
-995,
819,
-440,
475,
912,
-242,
935,
698,
2133,
627,
-1468,
1633,
-669,
1522,
1014,
-213,
806,
280,
2074,
-727,
-525,
769,
1437,
658,
668,
300,
-1530,
693,
905,
1366,
-1407,
-1435,
-948,
321,
210,
-1038,
610,
-1849,
476,
1739,
-1302,
-122,
-2138,
2027,
222,
-800,
-1196,
-643,
545,
1203,
-936,
-1643,
-1451,
-687,
1186,
-734,
200,
-3901,
-2727,
-2144,
-2818,
-1987,
-5215,
-1770,
-1365,
-758,
-1550,
-3282,
635,
775,
153,
-1135,
-2793,
-394,
-719,
-815,
202,
148,
2166,
-914,
-1372,
302,
713,
800,
-2581,
-47,
237,
734,
-60,
519,
-1184,
12,
-617,
-362,
172,
-116,
643,
-53,
-295,
-1149,
-1268,
243,
-881,
214,
678,
801,
510,
117,
2267,
1902,
257,
-575,
-679,
1858,
-533,
-1176,
506,
-674,
638,
-1048,
-1808,
-349,
-855,
1159,
-567,
-1337,
3,
911,
1620,
-569,
-1613,
389,
103,
-126,
-2179,
-333,
263,
1807,
-27,
-1647,
-1637,
1308,
723,
1504,
-179,
-629,
1588,
416,
325,
-1031,
-1124,
1046,
1479,
2449,
2377,
-567,
-666,
-801,
398,
-894,
-1854,
1229,
-150,
-465,
-755,
-865,
-842,
-681,
1529,
1314,
95,
-294,
424,
671,
915,
-1005,
-1147,
-1367,
2087,
2844,
773,
249,
-679,
2046,
1615,
-1076,
-848,
172,
1821,
1947,
-254,
-1054,
-106,
1248,
-116,
-870,
-1271,
-174,
-202,
1174,
630,
-664,
1005,
-608,
-399,
-732,
453,
-448,
1495,
393,
529,
-1011,
-1720,
1549,
1816,
-1592,
739,
-92,
1192,
640,
-950,
861,
999,
-460,
-1009,
-2196,
-1109,
743,
-508,
-742,
1882,
1156,
-179,
-1398,
-204,
1139,
233,
1128,
-2343,
-2172,
-528,
1404,
520,
-704,
-10,
330,
203,
498,
-1530,
177,
-297,
590,
-236,
2075,
1539,
-49,
-892,
-1326,
1242,
585,
-1563,
-964,
-546,
2038,
200,
-599,
-781,
-46,
1858,
84,
-1918,
-1282,
1014,
1542,
1091,
610,
-1430,
470,
520,
1488,
-802,
1519,
383,
2398,
2039,
-1552,
-75,
521,
1223,
-694,
-1385,
-830,
-449,
1278,
1255,
805,
570,
-446,
128,
166,
1045,
-1477,
1332,
-118,
-3240,
1212,
1277,
2359,
-1536,
-361,
1092,
1713,
1939,
-300,
-1559,
1953,
1400,
787,
-1733,
-2673,
1060,
1418,
-473,
-1440,
-2164,
693,
1116,
-707,
1837,
905,
134,
-1479,
-424,
1090,
2431,
-966,
1111,
1468,
746,
976,
-2920,
1272,
-135,
2084,
124,
-297,
-1005,
889,
1315,
757,
-1568,
-1037,
-1294,
2675,
1436,
-1258,
-742,
138,
1794,
-230,
-2297,
-1253,
367,
1926,
1255,
-2035,
-210,
1130,
1651,
-921,
96,
277,
-315,
1065,
1176,
-675,
-685,
-4340,
-578,
-909,
-493,
1329,
-826,
1552,
-554,
-2416,
-1589,
606,
-1014,
554,
-582,
234,
-1099,
-1438,
628,
-528,
-1836,
-829,
-764,
-734,
-751,
-1243,
1427,
1756,
-1680,
938,
973,
952,
-993,
-394,
-202,
627,
2060,
-403,
-818,
26,
1338,
2294,
684,
-782,
-558,
-70,
-489,
-26,
-532,
-1081,
659,
-1645,
1386,
1133,
-751,
145,
1836,
769,
-2598,
-1909,
-491,
-568,
-1626,
-872,
733,
253,
-1736,
821,
557,
230,
-419,
-1663,
1216,
383,
393,
-206,
-624,
444,
583,
313,
-118,
-868,
-591,
-287,
-569,
-1997,
68,
692,
-602,
-1752,
929,
-878,
301,
-70,
1419,
1431,
-913,
1984,
-788,
1627,
621,
40,
814,
1359,
-273,
-1324,
910,
650,
-2524,
-2905,
-1726,
-1470,
-2043,
-2338,
-142,
592,
-275,
-209,
1048,
2818,
2555,
264,
864,
2302,
2090,
-354,
-185,
1262,
-383,
1100,
603,
6,
2334,
-22,
-400,
199,
634,
1484,
-2249,
-3241,
-616,
-727,
-885,
-3686,
-2417,
914,
-1641,
-2026,
-1405,
789,
1297,
-1009,
763,
886,
829,
417,
1098,
643,
954,
-1068,
-2549,
-910,
-41,
-3216,
-1741,
2,
-2051,
-1501,
-1496,
-649,
2391,
-1414,
1234,
1266,
1435,
2378,
-109,
-207,
-1278,
-430,
-377,
-832,
-456,
-1011,
-1105,
-518,
912,
-2015,
-970,
-1939,
-1298,
-47,
936,
-947,
677,
1371,
167,
564,
-666,
2398,
1838,
-949,
876,
-529,
-2064,
-1560,
494,
-1214,
-1358,
-2053,
-988,
-350,
-1100,
-670,
208,
1454,
235,
1552,
2432,
322,
2097,
413,
2729,
869,
614,
553,
-113,
1107,
1099,
733,
207,
1498,
1301,
905,
1588,
1871,
1946,
2397,
2395,
2425,
-944,
2124,
-148,
1399,
41,
14,
957,
-1114,
1829,
154,
2188,
-1724,
-2064,
-79,
39,
-754,
1149,
1394,
848,
890,
1365,
2413,
2441,
462,
-1326,
-2176,
-77,
62,
-368,
-81,
-61,
-833,
-61,
509,
-1964,
-897,
-1051,
650,
1066,
1856,
1800,
-313,
184,
2106,
205,
-2290,
-1350,
-1063,
-2808,
-3701,
-3702,
-1635,
-2285,
-1642,
-263,
883,
1517,
1393,
82,
1302,
469,
338,
923,
-555,
-1960,
-838,
-1418,
-985,
1158,
1013,
3307,
149,
667,
2177,
3204,
557,
1711,
1479,
1956,
384,
-2028,
866,
1828,
-286,
-2019,
-1845,
-231,
-1603,
355,
-1096,
674,
-441,
-954,
-277,
-1184,
-1195,
-2174,
-437,
-228,
-30,
-23,
595,
600,
844,
618,
-1000,
556,
-228,
172,
1618,
-211,
-1622,
-464,
205,
2138,
1807,
-254,
792,
718,
1231,
-51,
67,
-1284,
-1466,
-4737,
-98,
-2104,
-2275,
-3277,
-2409,
507,
-1286,
-1485,
345,
729,
-663,
238,
-1283,
233,
-1246,
2099,
-2284,
-236,
-616,
885,
1538,
-1658,
-944,
-27,
-99,
-3935,
-2497,
-831,
-344,
-2711,
-2648,
-754,
-823,
952,
-743,
-4074,
-2063,
-1436,
674,
250,
-1750,
138,
-762,
717,
-167,
-1632,
1545,
-511,
-1869,
-4848,
-1052,
-593,
-1594,
-1891,
-978,
1801,
498,
786,
1611,
-358,
2246,
794,
924,
1278,
-876,
680,
709,
931,
285,
-2707,
-630,
-658,
1185,
-2462,
-2729,
249,
-76,
-1998,
-2177,
-953,
542,
-19,
134,
-409,
1803,
2089,
-208,
395,
-1801,
-1788,
-1205,
180,
-2269,
-2288,
-1007,
-1637,
-1287,
-1397,
-1182,
1642,
442,
-213,
1327,
1638,
329,
623,
832,
1043,
991,
317,
1226,
-878,
-1591,
-3097,
-3449,
-2652,
-417,
-2275,
-3785,
-2098,
-1448,
-1004,
-1521,
-1280,
-2464,
-1075,
611,
85,
28,
445,
38,
1581,
949,
973,
-1656,
-1230,
545,
-791,
-668,
-2705,
-1132,
517,
-1567,
-2115,
-489,
464,
-1721,
-809,
298,
1818,
2181,
-136,
2097,
2571,
2244,
1379,
2326,
2325,
526,
329,
-224,
-715,
292,
-694,
-26,
-362,
275,
-1094,
-1237,
-580,
523,
-297,
-608,
921,
-892,
-390,
625,
-19,
138,
-1019,
881,
-467,
246,
1744,
1001,
361,
-1251,
-265,
-71,
162,
437,
-753,
-457,
-853,
-1956,
305,
-1389,
-2390,
-145,
83,
104,
-1031,
-416,
1719,
-398,
1346,
726,
1253,
358,
442,
-633,
639,
-92,
-356,
-2383,
-1124,
-152,
266,
-1805,
-2661,
-720,
-1338,
-2612,
-1450,
1811,
1239,
309,
746,
1981,
2216,
414,
1713,
1218,
1280,
1338,
1086,
1226,
480,
392,
-53,
-287,
140,
736,
1216,
-563,
-1562,
1627,
1322,
-3128,
-2857,
1753,
-669,
-1984,
-1620,
-360,
1660,
59,
714,
565,
838,
1440,
-74,
-1694,
553,
91,
-423,
-1481,
-1717,
-451,
-230,
1529,
504,
350,
2473,
1112,
304,
951,
1967,
1411,
-875,
-464,
287,
34,
927,
1703,
-256,
-2760,
-2093,
-1311,
-1576,
0,
-1938,
275,
-671,
2138,
1844,
-892,
-45,
1093,
1868,
-3580,
79,
663,
-1156,
-1341,
-2010,
748,
59,
1314,
-1706,
-1129,
-721,
-97,
1263,
-634,
-1709,
1718,
518,
-1023,
-2267,
-2080,
994,
-2282,
-2956,
-2140,
1771,
-218,
-310,
-165,
951,
1685,
513,
356,
247,
2234,
1885,
2550,
1552,
1562,
2312,
-182,
-3,
2190,
518,
886,
-691,
1802,
1449,
202,
-2640,
-224,
-168,
-138,
-2913,
-1174,
2011,
-2563,
-1275,
-485,
581,
995,
295,
-1487,
-2470,
-1004,
903,
-3601,
-3016,
0,
2014,
1887,
-2404,
475,
1481,
2592,
-2111,
-283,
1803,
1119,
-1402,
-2566,
221,
1312,
1093,
-2524,
-2729,
38,
428,
308,
957,
-181,
-41,
-134,
818,
-2113,
-2306,
162,
1025,
-2518,
-2955,
719,
-187,
-1149,
-24,
606,
2594,
-1102,
-243,
-194,
2610,
996,
1016,
1066,
754,
-640,
-1497,
1655,
171,
-527,
-1633,
-1560,
-561,
-1178,
-2940,
-1143,
1778,
-936,
404,
-315,
381,
1919,
-633,
961,
850,
799,
2557,
-2778,
-3762,
-2262,
-391,
-118,
-2695,
-406,
-2268,
-2015,
1763,
1483,
-700,
465,
-2329,
45,
331,
-2534,
-4128,
1322,
1545,
-2547,
368,
584,
-403,
-516,
-921,
1477,
-2316,
-1902,
-1140,
-1088,
-3150,
-1459,
-32,
1074,
-1992,
-563,
348,
1898,
2104,
856,
94,
520,
554,
-1251,
331,
2223,
1843,
1294,
-1820,
102,
233,
-2026,
-347,
-54,
-538,
-1738,
801,
-1730,
-1976,
-1955,
-2607,
-1645,
-1873,
9,
-644,
186,
-510,
2088,
1176,
1041,
52,
657,
538,
-679,
-3059,
-1132,
-1570,
-2556,
-154,
-1555,
-1220,
-1438,
-947,
-275,
807,
251,
-69,
-1306,
1081,
497,
-314,
-1158,
-1947,
59,
98,
-711,
-1051,
-609,
-138,
-452,
-953,
-324,
44,
-1105,
-1277,
-1267,
-1880,
184,
450,
168,
-259,
-300,
335,
1371,
1133,
947,
1861,
809,
1719,
1050,
-181,
707,
90,
-489,
-1382,
216,
1101,
1284,
1675,
-1331,
328,
790,
535,
-492,
-2895,
89,
269,
-427,
1005,
-1050,
403,
1058,
-269,
355,
549,
-259,
880,
539,
64,
-519,
-742,
-255,
-806,
-2235,
-1477,
-614,
311,
-1153,
-945,
-2150,
314,
-103,
-242,
-300,
212,
1278,
1584,
1457,
1930,
1773,
863,
2052,
1078,
573,
-616,
213,
-934,
-312,
533,
-503,
431,
-583,
-123,
1206,
729,
493,
-235,
1046,
2339,
159,
-673,
143,
608,
1631,
-291,
221,
292,
-653,
427,
-70,
-175,
-747,
110,
-1507,
112,
349,
-1333,
-668,
691,
270,
1271,
-467,
1019,
1546,
-64,
638,
385,
1211,
-478,
392,
-450,
692,
-1139,
-618,
-256,
-684,
762,
2197,
2366,
-1118,
334,
858,
-450,
-1099,
-489,
-1107,
-1115,
-2489,
-2189,
-985,
-1756,
-1107,
-1439,
-851,
-1659,
-489,
732,
876,
1614,
-53,
-2719,
-2336,
-3340,
-3109,
-845,
-1264,
-2312,
-4791,
-2840,
-3296,
-5265,
-4394,
-7308,
-4844,
-1226,
-1344,
-261,
-1728,
-1945,
2400,
2909,
125,
923,
-393,
738,
966,
-71,
217,
-1786,
-1317,
-625,
-320,
-2204,
-2226,
-1362,
-476,
-1924,
-2589,
-1521,
1216,
-647,
1020,
-188,
570,
-24,
748,
1158,
1305,
1328,
-1292,
-1523,
-416,
-451,
499,
-2063,
278,
595,
-86,
253,
587,
-137,
-128,
-245,
-1394,
-1805,
-609,
-178,
-1919,
-1145,
-890,
-998,
-1022,
-1689,
436,
-1669,
534,
-91,
-1119,
-258,
-1749,
-1692,
-259,
-210,
1204,
614,
1499,
-36,
-935,
1499,
2277,
591,
228,
853,
1018,
-132,
1190,
1112,
-432,
501,
-313,
-1196,
-253,
-582,
-2300,
-1434,
-1534,
-233,
-2070,
-3212,
-926,
-1865,
-3392,
-2854,
-1191,
-638,
-9,
-8,
-1065,
965,
944,
-738,
-258,
-843,
-28,
1528,
703,
1303,
1497,
-2391,
1361,
-1063,
1441,
1193,
-1199,
-534,
-764,
748,
1549,
-1820,
82,
-1002,
1599,
1762,
-2086,
1443,
576,
-47,
-579,
-3456,
-713,
-2152,
445,
-2282,
148,
-2558,
-953,
-146,
-1906,
-221,
-513,
-668,
-1801,
-1906,
-78,
612,
1902,
234,
506,
345,
1410,
2188,
784,
-646,
2103,
-1888,
-374,
71,
84,
352,
-1043,
715,
-260,
281,
-55,
-453,
-557,
-852,
200,
-482,
400,
-1006,
-560,
-110,
1355,
-195,
-19,
-390,
573,
9,
-1150,
-287,
-1370,
-30,
-1202,
-1105,
-67,
828,
-108,
832,
-47,
1091,
-317,
1719,
1592,
1099,
1486,
624,
-881,
478,
-955,
-1735,
-612,
-530,
-321,
-1517,
-490,
-1480,
-1448,
-398,
-1858,
-2764,
-2534,
-1295,
-1342,
2542,
1810,
782,
-16,
401,
973,
1582,
102,
709,
-214,
-614,
-348,
-818,
-764,
-2388,
371,
-1357,
-1264,
-469,
454,
-1122,
420,
-185,
557,
-202,
1944,
1869,
197,
1356,
1870,
619,
263,
-817,
1591,
-370,
369,
-1466,
-897,
-268,
-1979,
-764,
-645,
-509,
-446,
-670,
-621,
235,
-1100,
-448,
865,
219,
-359,
502,
1520,
747,
716,
1112,
76,
1549,
-282,
-218,
1177,
-782,
697,
1196,
-1403,
-223,
-377,
820,
-399,
-1498,
707,
-22,
-700,
436,
-817,
998,
484,
775,
1657,
708,
1743,
1214,
490,
1698,
-318,
-896,
-445,
780,
-42,
-1893,
330,
-675,
-247,
323,
-645,
-195,
-1818,
832,
397,
407,
-570,
1237,
-492,
1035,
1169,
1223,
1309,
19,
873,
-404,
705,
-84,
1191,
-407,
-655,
827,
133,
564,
732,
-1635,
514,
472,
-2256,
756,
-1171,
-355,
-127,
-39,
-277,
-215,
1319,
247,
1055,
287,
1392,
1807,
1291,
532,
1055,
-645,
-182,
-1142,
-588,
883,
-1472,
269,
-132,
803,
1819,
628,
355,
182,
1123,
-137,
239,
503,
-170,
-1257,
1093,
-1007,
-1568,
-2452,
-26,
-1098,
-386,
-8,
-831,
-563,
-3263,
310,
-467,
168,
-8,
-3727,
-830,
-2421,
-742,
-2551,
-2681,
-1835,
-1543,
-235,
552,
-742,
876,
93,
-56,
1135,
-771,
-2464,
1190,
686,
-1276,
-46,
-2536,
-1259,
-436,
162,
1179,
-284,
-922,
-1432,
975,
1502,
2221,
13,
-237,
994,
1492,
-139,
901,
-782,
440,
1554,
-448,
1657,
1160,
-251,
963,
-91,
593,
1554,
-141,
-579,
45,
680,
466,
-1634,
190,
-1746,
-1028,
-303,
19,
941,
-790,
809,
-215,
-76,
1553,
1528,
-1380,
1915,
-1107,
-1007,
-412,
565,
284,
376,
-2430,
501,
-207,
654,
1203,
-2523,
-1838,
-1699,
678,
541,
-2522,
413,
553,
-618,
-2456,
-4440,
-803,
1210,
1051,
1062,
947,
-929,
-605,
-418,
-1409,
242,
-528,
970,
-65,
-552,
-496,
960,
-890,
613,
-193,
163,
-214,
1695,
-592,
654,
1457,
-1472,
721,
-891,
-797,
-366,
-83,
1195,
-1787,
-804,
1476,
450,
-249,
-1077,
412,
-92,
1380,
-245,
1213,
866,
1552,
1491,
1381,
87,
855,
655,
-2186,
-469,
-3411,
-2538,
-1783,
-609,
-347,
-1566,
-2232,
-50,
2912,
-1456,
-42,
-2327,
-465,
380,
-3550,
-1571,
-949,
-1955,
-929,
-1496,
-3772,
-3098,
-2325,
735,
0,
-307,
454,
-1217,
1222,
-1306,
225,
736,
371,
885,
1446,
-225,
1843,
599,
756,
239,
731,
1247,
-651,
766,
-1578,
-828,
503,
-3274,
-982,
446,
-905,
-1845,
-553,
-1869,
-2597,
-2936,
-2790,
-2331,
-1146,
-2094,
-1867,
1069,
-86,
2492,
1392,
1170,
864,
1643,
1688,
-200,
1036,
-224,
-883,
-560,
1995,
1719,
1161,
1576,
-1781,
-883,
1184,
511,
-1153,
761,
3246,
1667,
-1227,
37,
3054,
2398,
2390,
2196,
255,
86,
945,
2687,
355,
-2684,
872,
-437,
-859,
1109,
-1795,
244,
-1121,
-810,
-331,
-678,
-1640,
-847,
-1177,
364,
903,
343,
1167,
1401,
2111,
1083,
274,
1312,
-393,
805,
-817,
-50,
623,
-213,
1432,
-10,
67,
1516,
-1167,
-543,
1831,
572,
672,
-2746,
-324,
36,
-1387,
167,
-871,
-3285,
-57,
-40,
155,
-281,
-152,
1124,
-2183,
-148,
752,
681,
-410,
-1075,
-510,
808,
1004,
-1422,
-639,
-363,
-937,
-2297,
875,
488,
-624,
-1338,
1070,
3140,
-315,
774,
1002,
1271,
801,
-1084,
900,
-136,
-321,
298,
902,
488,
320,
394,
1535,
1307,
1314,
67,
-598,
-1233,
69,
937,
938,
-1323,
-740,
-142,
-330,
-509,
-1250,
-832,
-559,
-244,
131,
284,
-1761,
705,
-1248,
-892,
-512,
-1513,
91,
-656,
-255,
388,
2411,
-6,
761,
1357,
2310,
304,
-879,
-885,
-1072,
-1618,
-3186,
-1416,
-101,
-583,
-1818,
-701,
2220,
1635,
-1860,
-1792,
-785,
1227,
-1295,
-904,
-41,
-872,
-2173,
-3190,
-3929,
-432,
3262,
-4479,
-2721,
-2127,
1297,
3648,
-1202,
-1620,
50,
-73,
-305,
-1486,
-1423,
-809,
542,
1336,
-2442,
-2051,
1056,
40,
-1626,
-2185,
-1977,
-2092,
-78,
1901,
-834,
2003,
5275,
4312,
2718,
-1444,
-1384,
-901,
2496,
2074,
-746,
-838,
-1308,
830,
443,
-1160,
-865,
-673,
-3165,
-1526,
-1206,
126,
96,
198,
2638,
432,
177,
1445,
3003,
1290,
780,
2539,
-867,
-1865,
-865,
120,
533,
-1307,
-738,
933,
-384,
-422,
1927,
1403,
1506,
568,
-970,
-1485,
4,
-193,
-1641,
-2057,
-3292,
-2611,
-1075,
291,
-861,
-139,
252,
390,
364,
819,
571,
-1676,
79,
-1499,
516,
1738,
322,
565,
-902,
2229,
2845,
-1670,
-940,
498,
343,
47,
-1950,
-1471,
-1423,
569,
988,
2644,
1234,
-120,
-599,
2173,
1260,
-1368,
-252,
-2175,
-2185,
-1780,
47,
664,
-991,
810,
2075,
3082,
1013,
3260,
3254,
986,
1857,
-129,
-912,
-1333,
78,
-930,
739,
-1264,
-1582,
2284,
1278,
2347,
-682,
-1600,
-2246,
-1476,
1869,
944,
-3519,
-4589,
-1894,
-66,
877,
-475,
-1434,
-749,
-915,
668,
85,
-343,
1138,
-1850,
-791,
2876,
-821,
-875,
-1688,
427,
1401,
-1565,
564,
-2251,
-3135,
-1100,
276,
971,
618,
1813,
2749,
1647,
666,
-1077,
276,
402,
1390,
18,
-815,
1123,
1250,
-871,
1250,
2339,
2314,
-620,
-438,
-893,
427,
1704,
136,
-34,
-138,
-713,
-1592,
-1524,
1276,
-1983,
642,
220,
458,
-301,
863,
91,
-1425,
133,
-905,
629,
-813,
1196,
752,
908,
1569,
-691,
2446,
2890,
1854,
82,
-643,
-166,
-71,
-2161,
-2754,
882,
-695,
630,
127,
2963,
-1493,
-498,
-1931,
-660,
1737,
-3778,
-1139,
-843,
-197,
1376,
-775,
1159,
2471,
1022,
1654,
1443,
2883,
3739,
186,
-1095,
858,
-500,
-1504,
362,
-2150,
-648,
-838,
-1329,
-1796,
12,
-1208,
535,
611,
2137,
1807,
864,
-239,
2014,
881,
-61,
-208,
-1445,
-1359,
-1056,
-2613,
613,
-456,
772,
181,
464,
242,
-458,
-505,
1352,
478,
460,
643,
876,
401,
104,
1144,
770,
1675,
-645,
-640,
413,
337,
-214,
-870,
-1192,
395,
413,
-390,
1382,
-1726,
839,
327,
585,
566,
-201,
347,
150,
-867,
976,
1439,
268,
2754,
644,
775,
1020,
-999,
1041,
-1447,
-2015,
-1372,
1524,
1251,
202,
69,
-1307,
-700,
123,
-499,
-1872,
-510,
-646,
-812,
-948,
873,
2195,
-341,
-467,
668,
921,
-1070,
-1428,
-851,
-56,
-1490,
-2800,
-327,
19,
-368,
1633,
-950,
-457,
1251,
1452,
-605,
-1228,
139,
1612,
-575,
-655,
-685,
-694,
-814,
-1533,
-10,
1990,
-1020,
-901,
995,
254,
800,
793,
-66,
-687,
-1371,
179,
-900,
-78,
-247,
1794,
1650,
378,
1701,
3108,
1184,
-388,
-55,
2600,
22,
-1372,
-447,
-1718,
-1758,
-2042,
-857,
-38,
-142,
-618,
-659,
-1845,
235,
1813,
-1470,
156,
1940,
2577,
-97,
866,
1311,
-493,
-2887,
-254,
1088,
-2470,
-2193,
265,
-1222,
71,
3263,
2537,
1700,
-874,
1329,
-244,
526,
-911,
704,
1895,
1113,
-444,
-1355,
-1378,
1017,
-670,
-1801,
1439,
-1473,
-210,
-529,
605,
1612,
-30,
-88,
898,
386,
219,
539,
-1136,
-892,
1395,
2146,
1410,
2002,
1083,
-264,
809,
12,
293,
-1289,
-2532,
-466,
-557,
-2140,
-2771,
-276,
-3,
-171,
-2566,
-1762,
852,
783,
159,
610,
8,
-1108,
164,
643,
-1521,
-143,
2261,
1689,
737,
-8,
1159,
2918,
-1872,
-713,
515,
-1814,
-3333,
-243,
-128,
-1247,
-1488,
-1336,
417,
-1166,
116,
-82,
-150,
-505,
889,
1312,
1563,
-32,
-429,
2298,
1901,
-1124,
-1660,
-966,
324,
-1059,
-1503,
327,
1806,
47,
-678,
1201,
1192,
119,
-839,
1625,
1296,
229,
-1014,
-120,
483,
166,
-104,
-2097,
-1152,
1171,
-28,
-1538,
481,
606,
905,
-544,
1140,
1251,
-640,
-397,
-1728,
382,
-578,
-1720,
-1112,
1162,
1697,
2392,
-923,
277,
1244,
4308,
3416,
186,
3502,
4436,
1259,
-1863,
1501,
2703,
3656,
3330,
1986,
-1992,
-271,
3669,
2352,
-24,
461,
1097,
-1409,
191,
-2160,
-367,
-1079,
-1142,
282,
1178,
-610,
-896,
46,
2248,
645,
579,
1206,
587,
1008,
-1144,
-1455,
-2294,
-2426,
-1830,
-2312,
951,
-526,
-288,
922,
1521,
-194,
-135,
-267,
864,
-1442,
-964,
-694,
-1418,
-104,
-407,
-129,
1036,
3760,
2546,
837,
1868,
3195,
3801,
754,
223,
-315,
-671,
129,
1178,
224,
-248,
1729,
-306,
1189,
2192,
-79,
-2474,
1152,
2231,
-331,
-1593,
3079,
-843,
-2248,
1654,
2814,
256,
-627,
110,
-201,
849,
123,
550,
-675,
-755,
591,
