1242,
-5399,
-6046,
-345,
7187,
3858,
332,
4533,
-3438,
-1738,
-1498,
695,
6046,
-3843,
-8461,
6816,
783,
-1199,
-1585,
-1167,
548,
-1633,
3893,
3132,
4302,
-6510,
-4002,
3440,
-564,
2396,
4690,
1280,
6300,
8876,
3968,
5817,
2165,
3719,
8618,
1332,
-3237,
4576,
6799,
1245,
5675,
4324,
550,
-4878,
1328,
-4336,
8749,
8354,
-1097,
-7047,
-5711,
2893,
4915,
8452,
815,
-6410,
-2272,
-1892,
4656,
-3237,
3531,
-2006,
6297,
2624,
-4159,
-4847,
2871,
1072,
1344,
-541,
-6021,
4209,
5406,
8956,
8068,
3289,
-923,
1579,
-643,
-1874,
2043,
-1522,
8229,
2400,
3455,
2837,
6360,
1882,
-6357,
865,
1621,
-1450,
-8465,
-4298,
-7627,
-485,
1207,
681,
-2385,
-751,
-5122,
1724,
8155,
3732,
-1393,
-5662,
627,
-2326,
5446,
-7111,
3418,
-2736,
7490,
7118,
-6296,
2332,
-2624,
590,
5246,
-5627,
5720,
-4678,
-2752,
2531,
3845,
-6425,
-271,
-2253,
-703,
6138,
5206,
-159,
-2026,
8387,
-5278,
1487,
6770,
-2473,
6091,
519,
5835,
4613,
3881,
-4770,
-2994,
5327,
8168,
3646,
-1161,
893,
-5052,
4731,
-1717,
3903,
-10531,
-4803,
4254,
-4431,
-14216,
-9560,
6982,
-5138,
-10488,
-7348,
6425,
9034,
-4736,
-5944,
-4563,
61,
207,
7776,
1959,
3625,
8077,
5993,
1922,
1428,
6228,
-1222,
-4380,
1888,
-3012,
-4885,
-6498,
-272,
-7519,
-1103,
-6919,
1780,
4819,
-2635,
-1850,
385,
408,
-1340,
4802,
-434,
8159,
721,
-1621,
7139,
7195,
4831,
-1155,
6872,
2697,
2920,
-3048,
3150,
-2995,
-6691,
4509,
6378,
-1697,
8313,
-10482,
-9172,
-4432,
-4407,
-3075,
-3556,
-6473,
-10464,
-7797,
-9657,
-165,
2917,
682,
-9496,
-2770,
-1726,
-528,
3281,
3866,
-5287,
-4097,
2967,
-6001,
-435,
8993,
-945,
-4126,
-1104,
3333,
10817,
5122,
1786,
-2324,
-6836,
-7135,
4303,
4896,
-4571,
896,
6369,
2352,
9116,
3968,
-3465,
6528,
-5406,
3448,
-2101,
4103,
7284,
4106,
-5302,
114,
-3607,
-3073,
1029,
2644,
7855,
9005,
1379,
-4289,
4265,
-39,
5099,
7159,
3113,
1768,
-1429,
4458,
8382,
-1930,
-7014,
-8606,
-8446,
-2325,
-32,
-7194,
-5703,
-7032,
-2398,
-4021,
2426,
5334,
6802,
10164,
-2861,
2190,
-1184,
10466,
765,
-5663,
-5031,
-4457,
3304,
6553,
-5218,
-7451,
-2460,
-1074,
6573,
-6012,
-1803,
-5377,
3587,
8658,
7155,
634,
-3744,
-3594,
5211,
7298,
6854,
9628,
8570,
7798,
9423,
-207,
-3271,
-5541,
-515,
743,
-7234,
-7954,
-3345,
-6384,
7492,
1178,
-6820,
-5515,
5517,
1548,
-1367,
7247,
-5975,
-4329,
4508,
3790,
6228,
-5823,
-1888,
925,
4849,
3589,
-4388,
-9338,
-148,
2737,
-253,
6389,
-6573,
7009,
-3634,
7736,
5875,
-4384,
7038,
437,
-354,
-7541,
-6978,
-3043,
-630,
-7959,
3978,
4643,
433,
6805,
2328,
-4308,
1914,
3204,
4903,
3219,
4565,
-3318,
4591,
-1244,
893,
5493,
929,
-4196,
-1471,
-6661,
-8572,
-3169,
1669,
1847,
3116,
568,
3426,
8547,
8765,
-122,
4468,
-3173,
-3117,
5063,
-2353,
4694,
4681,
-3305,
-3870,
6988,
-3896,
1171,
-6077,
2154,
-2938,
-4936,
1142,
2314,
-5268,
-2743,
3764,
-1318,
-3194,
-988,
1450,
7546,
4164,
4807,
9257,
8575,
2851,
6971,
-253,
7170,
5193,
5328,
-5757,
551,
5729,
3201,
-7428,
-3806,
5247,
5032,
5198,
4538,
-8325,
1124,
7431,
714,
-1457,
-4831,
-211,
4402,
403,
4387,
5520,
-2576,
2905,
5457,
3936,
2618,
-1922,
3929,
6319,
277,
-3943,
508,
527,
2729,
-229,
-6092,
-6812,
-316,
4571,
7562,
7008,
5679,
-1016,
5707,
8122,
-2411,
-1158,
1833,
-3506,
-3497,
7049,
6398,
-3990,
-6941,
-3730,
1365,
-51,
-2199,
7831,
-1896,
3502,
-1212,
6938,
10041,
451,
4031,
5575,
6202,
7459,
-6820,
-2448,
1859,
2245,
7513,
3175,
-5576,
6211,
5039,
-951,
4832,
-1450,
1505,
6673,
1193,
551,
-2429,
8857,
-1536,
6220,
-5538,
-7364,
8473,
-523,
2835,
-7457,
-4747,
3043,
-956,
-5685,
-4110,
-5219,
324,
5327,
6624,
-5652,
-8517,
5809,
-4858,
3019,
-1508,
1237,
2683,
3983,
4566,
-6790,
-3347,
-3700,
-4401,
-144,
3774,
9152,
2691,
7790,
2333,
4780,
7509,
3646,
6790,
7699,
9146,
7637,
-2428,
492,
4440,
-2378,
834,
-4301,
-5446,
-5195,
-7158,
-4860,
-2320,
-8827,
-867,
4614,
5607,
-2242,
-4553,
-1785,
3780,
5652,
-1729,
4753,
1697,
4986,
-3970,
7830,
2582,
9371,
6546,
-5464,
3723,
2401,
1906,
-1596,
7364,
6549,
8022,
6917,
-7414,
-4623,
-2469,
4644,
-4393,
-8879,
-8070,
5085,
1617,
-1870,
-2941,
-6699,
6844,
2839,
2850,
1590,
-11810,
5161,
469,
-378,
-10477,
-9619,
2102,
3847,
-1745,
-1593,
-6830,
-3188,
6191,
-3304,
-5326,
469,
-3173,
3606,
3664,
816,
2052,
1473,
6774,
-5210,
6669,
1079,
-3390,
-6995,
-3288,
-3828,
6158,
-4563,
-4320,
-3971,
-2051,
9326,
91,
-3380,
3129,
8613,
6643,
2808,
7543,
4767,
3710,
-4636,
-5044,
4883,
-1024,
7152,
-6965,
3489,
6010,
6610,
-1554,
-5708,
3431,
-1594,
-4450,
-3134,
6110,
6474,
-2776,
4655,
-2487,
365,
895,
-815,
8447,
2536,
-8,
-620,
1454,
-349,
-6219,
-1530,
5847,
6900,
7535,
-6802,
-6377,
7775,
8811,
-730,
516,
-6555,
3303,
6653,
-3058,
-6808,
-4370,
-6988,
715,
-3999,
7917,
425,
5720,
-1445,
1743,
4176,
-3846,
7732,
-5992,
-2119,
-1950,
-1172,
-1314,
-294,
-6816,
-2899,
-5273,
-2623,
7147,
8828,
-1792,
6022,
-557,
-6316,
-2001,
-766,
1782,
-31,
-3044,
-5476,
5317,
5301,
-426,
2434,
-3407,
3142,
3738,
-3750,
-4460,
7662,
8585,
8225,
7505,
-2841,
4630,
7935,
3927,
6741,
-2027,
-6986,
-1620,
-2504,
-1687,
4281,
3814,
2887,
5660,
4872,
6926,
7907,
4892,
-539,
-4138,
-4400,
-1634,
-2312,
-1705,
-3303,
-5653,
4400,
-3845,
-402,
