-0.034459, 0.028873, 0.004813,-0.020726,-0.023929,
 0.009074, 0.019281,-0.017464, 0.016148,-0.002901,
-0.000739, 0.007576, 0.010939, 0.034138,-0.005461,
 0.019965,-0.025505, 0.031571, 0.032096,-0.019962,
 0.015626, 0.014997, 0.017572, 0.016699,-0.034085,

-0.008236,-0.012871, 0.010718,-0.032707, 0.023061,
-0.005803, 0.015294, 0.024395, 0.007750,-0.029271,
 0.027610, 0.007217, 0.025750,-0.010252,-0.033578,
-0.027997,-0.002027, 0.021113,-0.019349,-0.014717,
-0.029956,-0.018263, 0.024899, 0.020108,-0.007967,

 0.008795,-0.015433, 0.019186,-0.013274, 0.023100,
-0.013007,-0.032185, 0.033189,-0.010605, 0.034689,
-0.020860, 0.010270,-0.018675, 0.012136, 0.003021,
 0.034509, 0.009079,-0.031185, 0.008647, 0.004870,
-0.034637,-0.028460, 0.006733,-0.014778, 0.014719,

-0.021045,-0.012320, 0.033392,-0.034490,-0.000185,
-0.013104,-0.017546, 0.020690,-0.004931,-0.027073,
 0.004571,-0.000123, 0.025635,-0.001390, 0.033659,
 0.029099,-0.017766, 0.016407,-0.016272,-0.024694,
-0.030095,-0.001322,-0.022416,-0.034193, 0.025132,

-0.033094, 0.004929, 0.008114, 0.012991, 0.011509,
-0.005171, 0.026611,-0.028307, 0.004436,-0.020556,
 0.011581,-0.006903, 0.004487,-0.007802, 0.010022,
-0.023046, 0.032193, 0.026020, 0.000107,-0.022797,
 0.005345, 0.029947,-0.034058,-0.010021, 0.013500,

-0.035320,-0.015139,-0.005777,-0.035128,-0.023700,
-0.003036,-0.032121,-0.030203,-0.012836,-0.033774,
-0.010737, 0.001718, 0.027526, 0.019573,-0.010557,
 0.011579,-0.001663, 0.024319, 0.005497,-0.031432,
-0.024402,-0.017090, 0.002487, 0.019807,-0.010829,

 0.022428,-0.010283, 0.034335, 0.030011,-0.032180,
-0.025044, 0.020595, 0.008569,-0.030786,-0.034414,
-0.006401,-0.019026,-0.005129,-0.018036,-0.013853,
-0.030738,-0.035516,-0.022308, 0.017793, 0.000457,
 0.012097,-0.018286,-0.029622, 0.022862,-0.034024,

-0.020117, 0.012837,-0.001432,-0.017406, 0.005672,
-0.026352,-0.015230,-0.026335,-0.012528,-0.020322,
-0.003404, 0.028385, 0.032456, 0.014147, 0.033715,
-0.028051, 0.009474, 0.018557,-0.024139,-0.011296,
-0.008674,-0.027578,-0.034283,-0.005837, 0.008954,

-0.011529, 0.027377,-0.012431, 0.030408, 0.006260,
-0.000466,-0.010637,-0.001522,-0.012490,-0.024403,
-0.033717,-0.018891, 0.011970,-0.009673,-0.004345,
-0.010439,-0.005893,-0.011690,-0.002410, 0.013455,
 0.030646,-0.032805, 0.011534, 0.029427, 0.025262,

 0.003074, 0.023786,-0.000930, 0.002406,-0.027874,
-0.009679, 0.018928,-0.017496, 0.025583,-0.012342,
-0.022606,-0.003682, 0.012193, 0.016772,-0.023787,
 0.028198, 0.025920, 0.004544, 0.012839,-0.007565,
 0.002676,-0.034119,-0.023976, 0.022827, 0.002416,

-0.008487, 0.030146,-0.019548, 0.030679,-0.011116,
 0.012419,-0.020560,-0.020055,-0.022917, 0.021204,
 0.028602, 0.014848,-0.006250,-0.019479,-0.009634,
 0.017267, 0.009497,-0.012323, 0.018702, 0.018473,
 0.010232,-0.008053, 0.021642,-0.011626, 0.021084,

-0.012561, 0.001531, 0.000453,-0.005618,-0.027472,
 0.010007,-0.003262,-0.029609, 0.000239,-0.010874,
-0.007869, 0.012352, 0.030676,-0.008066, 0.018202,
-0.033895,-0.034479, 0.013468, 0.022736,-0.007302,
 0.000544, 0.025019,-0.011760,-0.002322, 0.001535,

-0.034275, 0.003461,-0.016381,-0.008779, 0.002644,
 0.012286, 0.026329, 0.021141, 0.014420, 0.009443,
-0.027741, 0.018460,-0.023177,-0.007166, 0.029953,
-0.007704, 0.020524, 0.026828,-0.010774,-0.020075,
 0.027759, 0.024247, 0.033514,-0.000774, 0.027042,

 0.032295,-0.032797, 0.033243, 0.002930, 0.000632,
-0.014431,-0.007501, 0.004699, 0.029144, 0.028641,
 0.027509, 0.002273, 0.032555, 0.002929, 0.027411,
-0.027674,-0.024226,-0.032953,-0.023133, 0.026950,
 0.017210, 0.017353,-0.020988,-0.023553,-0.028610,

-0.033315,-0.003029,-0.000983, 0.005042, 0.010601,
-0.021572, 0.033274,-0.006124,-0.015533,-0.011379,
-0.021736, 0.029721, 0.020759,-0.025780,-0.033949,
-0.020552,-0.010007, 0.012788, 0.023381,-0.028902,
-0.016615,-0.002035,-0.017071, 0.015242,-0.010080,

 0.033571,-0.015881,-0.015322, 0.034310, 0.001765,
-0.016987,-0.007561,-0.022169,-0.004123, 0.028612,
-0.020339, 0.002509, 0.003222, 0.021657, 0.017263,
-0.012462,-0.015858, 0.013230,-0.004488, 0.007359,
 0.007317,-0.009461, 0.014723, 0.029494,-0.019203,

-0.024823, 0.022850,-0.028428, 0.003304,-0.029478,
-0.011874,-0.030865, 0.025705, 0.025141,-0.006437,
-0.013912,-0.014340, 0.021956,-0.018956,-0.024873,
-0.006337, 0.005144, 0.015757, 0.005041, 0.002547,
-0.010029,-0.026814, 0.010831, 0.008297, 0.002156,

-0.026802, 0.013158,-0.034550, 0.014308,-0.022136,
 0.006037,-0.021455, 0.005498,-0.007552,-0.020709,
-0.014782,-0.004731, 0.008374, 0.014528, 0.019403,
 0.018438,-0.017969,-0.028442,-0.020482, 0.032253,
-0.014632,-0.031382,-0.012074, 0.008306, 0.014028,

 0.022397,-0.032062, 0.003014,-0.002778, 0.021818,
 0.004121, 0.034842, 0.028045,-0.007652,-0.019399,
 0.027820, 0.024268,-0.026432,-0.030871, 0.003341,
-0.016746, 0.028089, 0.012599, 0.013400, 0.015225,
-0.000024,-0.022305,-0.010518,-0.022884,-0.024291,

 0.017294, 0.019419, 0.001802,-0.027321, 0.014315,
-0.000759,-0.003791,-0.007130,-0.007834, 0.012849,
 0.018504,-0.019454, 0.003002, 0.024453, 0.034118,
-0.004509,-0.023030,-0.015955, 0.019341, 0.028142,
 0.008119, 0.027081, 0.002958,-0.024578, 0.013038,

 0.003778, 0.034959, 0.010385,-0.019990, 0.023382,
 0.023100, 0.011786,-0.032970, 0.007246,-0.007604,
-0.000767,-0.027166,-0.029249, 0.023533, 0.024241,
 0.016498,-0.018221,-0.020531,-0.034970,-0.012762,
 0.022872,-0.006239, 0.035125, 0.013235,-0.019498,

-0.021204,-0.031388,-0.005389, 0.027139,-0.013209,
 0.028459,-0.000937,-0.014594, 0.031446, 0.010952,
-0.020085,-0.014225,-0.004567, 0.027371,-0.027116,
 0.019397, 0.031839, 0.005956, 0.018013, 0.014441,
 0.023299, 0.000030, 0.013255,-0.025284,-0.016510,

 0.021152, 0.032529,-0.033900,-0.002726, 0.023764,
 0.004601,-0.025749, 0.006234, 0.006269,-0.032326,
-0.021936, 0.023505, 0.025454, 0.007982, 0.034444,
 0.031224,-0.018203,-0.015709, 0.030695, 0.021189,
-0.002012,-0.005463,-0.013552,-0.032211, 0.001101,

-0.020202,-0.012439, 0.029923,-0.026863, 0.009308,
 0.031214, 0.034554,-0.016848,-0.034979,-0.000268,
-0.001897, 0.003936, 0.010877, 0.020378, 0.020352,
-0.003909, 0.016318,-0.006037, 0.018946,-0.013294,
-0.003544,-0.017356, 0.031066, 0.010381,-0.029964,

 0.007896,-0.034082, 0.029126, 0.019604,-0.030660,
 0.019751, 0.017117,-0.022831,-0.022439,-0.033258,
 0.017931,-0.009988, 0.025255,-0.015027,-0.034943,
-0.017457, 0.024266,-0.010376,-0.019624,-0.002630,
-0.009797, 0.027564,-0.020271, 0.022287,-0.006762,

 0.014009,-0.021242, 0.018261, 0.014962, 0.003689,
-0.029834,-0.002770, 0.026178, 0.017247, 0.024817,
 0.004043, 0.030186,-0.012090,-0.009867, 0.005073,
 0.012654, 0.021924,-0.021029,-0.012553, 0.029268,
-0.001204, 0.011407,-0.032587,-0.026279, 0.004550,

 0.007979, 0.008468, 0.000783,-0.021066, 0.014307,
-0.016174, 0.002311, 0.004987, 0.019567,-0.035209,
-0.033187,-0.003760,-0.035302, 0.023461,-0.025901,
-0.006869,-0.000135, 0.000385, 0.011849,-0.002117,
 0.017120,-0.009635, 0.009492,-0.024377, 0.016048,

-0.007436, 0.006908, 0.008990,-0.009318, 0.027758,
 0.001983,-0.004509, 0.034873,-0.033558,-0.023356,
-0.026654, 0.011127,-0.017162,-0.022020, 0.032921,
-0.027906, 0.013073, 0.018193, 0.026853, 0.021997,
 0.016037,-0.034523,-0.021418, 0.010516, 0.031121,

 0.004638,-0.031238,-0.002965,-0.015130, 0.018620,
-0.024424, 0.032978,-0.024407,-0.031385,-0.016359,
 0.008353, 0.002350,-0.023999, 0.011325,-0.002074,
 0.015939,-0.003743,-0.005767,-0.006025,-0.026095,
-0.018020,-0.017619, 0.013266,-0.028533, 0.025968,

-0.011478,-0.010860, 0.026914,-0.012953,-0.021557,
 0.001548, 0.011148, 0.008449, 0.009624,-0.031084,
-0.029000,-0.033995,-0.035143,-0.011481, 0.015773,
 0.015632, 0.003928,-0.022654, 0.031420, 0.001272,
 0.023557, 0.015847,-0.013834,-0.016816,-0.023391,

-0.027871,-0.010071,-0.005855, 0.018112,-0.011407,
 0.004138,-0.015314, 0.024298, 0.029547,-0.008796,
 0.030071, 0.032229,-0.025674,-0.027064,-0.022005,
-0.012216,-0.006594,-0.005360,-0.003312, 0.033646,
-0.032529, 0.025507,-0.002602,-0.013493, 0.008627,

-0.004707, 0.000069, 0.018470, 0.023183,-0.030442,
 0.008722, 0.019552, 0.033710,-0.012970, 0.018944,
 0.007449,-0.029843,-0.011130,-0.018353, 0.033367,
 0.015163,-0.005095, 0.013182, 0.010236,-0.007648,
 0.033891, 0.022716,-0.011349,-0.002693,-0.031169,

 0.010088, 0.012243,-0.004113,-0.025784,-0.021889,
 0.034128,-0.002157, 0.010443, 0.020569,-0.007872,
-0.018883,-0.022548,-0.018818, 0.004158, 0.012217,
 0.020275, 0.003292,-0.010207, 0.005336,-0.016984,
 0.028157,-0.035624,-0.015874, 0.018682, 0.028319,

-0.007532, 0.014366, 0.007066,-0.008597, 0.018326,
-0.017955,-0.015677,-0.003233, 0.037461, 0.013041,
 0.008796, 0.024887,-0.015720,-0.030960,-0.022725,
-0.018161,-0.035596,-0.028522,-0.022689,-0.021784,
 0.004141,-0.008799, 0.008246, 0.029508,-0.002077,

 0.001040, 0.021087, 0.010710,-0.005883,-0.011801,
-0.033957,-0.032995,-0.022734, 0.003448,-0.008873,
 0.026156,-0.035539, 0.010490, 0.030935,-0.033063,
-0.019004, 0.024439, 0.003222,-0.026914, 0.010568,
 0.000221, 0.011980, 0.015285,-0.030413,-0.029118,

 0.015121,-0.029637, 0.025168,-0.024980, 0.000268,
 0.005353, 0.007173, 0.026185, 0.037078, 0.030418,
-0.013379, 0.034787, 0.003047,-0.006926,-0.028521,
-0.021823,-0.022926, 0.040232, 0.038046,-0.000986,
 0.018656,-0.033456, 0.012548, 0.035918, 0.016949,

-0.017484,-0.029295, 0.036190,-0.005536, 0.000763,
 0.007313, 0.003037, 0.043599,-0.002356,-0.030093,
-0.027652, 0.026046, 0.025414,-0.020085,-0.003809,
-0.030060,-0.007180, 0.002621,-0.019792, 0.014159,
-0.005274,-0.028576,-0.019714,-0.010612, 0.009122,

 0.007650, 0.035703,-0.024556, 0.003875,-0.004651,
 0.017818, 0.004616,-0.017566, 0.021029, 0.015452,
 0.026945,-0.004567, 0.014818, 0.013978,-0.003380,
 0.048690, 0.034782, 0.039798, 0.008246, 0.017383,
-0.015147, 0.036631,-0.029618, 0.015926,-0.013697,

 0.028564,-0.007099, 0.007093,-0.031992,-0.005894,
-0.030514, 0.009162,-0.016770,-0.018394, 0.028867,
 0.010229, 0.012261,-0.020043,-0.004480, 0.003904,
 0.044125, 0.054959, 0.055086, 0.045647, 0.026689,
 0.031304, 0.038309, 0.035248, 0.002451,-0.007594,

-0.019824, 0.022799, 0.031890,-0.005864,-0.024538,
 0.015474, 0.045620, 0.010732,-0.036376, 0.017593,
 0.043138, 0.012060,-0.011402, 0.026368,-0.016065,
 0.017139, 0.032377, 0.007226,-0.025205, 0.017902,
 0.011983, 0.017127, 0.035915,-0.015972, 0.019424,

-0.030040,-0.026206, 0.027586, 0.024744,-0.010143,
 0.030180, 0.043760, 0.022186, 0.015473,-0.009751,
 0.010835, 0.035041, 0.050256, 0.030462, 0.008268,
 0.024564,-0.004458, 0.037388, 0.024796, 0.015388,
 0.018195, 0.035241, 0.019517,-0.033213, 0.022275,

-0.032148,-0.007714, 0.011395, 0.017550,-0.021094,
-0.030259, 0.009745, 0.021083, 0.047335, 0.019468,
 0.015200,-0.000433, 0.019369, 0.055292, 0.007960,
 0.025674, 0.031623, 0.010462, 0.029450,-0.011617,
-0.023806, 0.005494, 0.012334,-0.004103, 0.032003,

 0.031718, 0.037112,-0.001947,-0.021398,-0.023781,
 0.007708, 0.035550,-0.002686,-0.003876, 0.001249,
 0.026788,-0.018630, 0.029717,-0.029751, 0.003120,
-0.016006, 0.043453, 0.001084, 0.023336, 0.014521,
 0.038356, 0.012267,-0.015439, 0.004478,-0.008226,

 0.009471, 0.001986, 0.032961, 0.026075, 0.020855,
-0.018439,-0.025243,-0.011028, 0.021633,-0.016709,
-0.025969, 0.020047, 0.007080, 0.013812,-0.019834,
 0.023673,-0.018321,-0.030585, 0.011894,-0.020341,
 0.030480,-0.032887,-0.027889, 0.034848,-0.009309,

 0.000084,-0.031349, 0.017519, 0.002960,-0.010959,
-0.001107, 0.028543, 0.030688,-0.015153,-0.032623,
-0.032496,-0.034284, 0.037158,-0.018576,-0.015148,
 0.015040,-0.028944, 0.000775, 0.047452,-0.017863,
 0.030414, 0.011019,-0.022177,-0.016333,-0.031075,

-0.003351, 0.017027,-0.020874, 0.026405, 0.005465,
 0.024526, 0.030743,-0.009103,-0.019970,-0.029208,
 0.030585, 0.044053, 0.014495, 0.039487,-0.002917,
 0.029826, 0.000036, 0.029499, 0.034574,-0.017226,
-0.024726,-0.007698,-0.018763, 0.024588, 0.016358,

 0.034864,-0.019129,-0.024738, 0.000422,-0.019191,
 0.025781, 0.028221, 0.027210,-0.020178,-0.001067,
 0.016508, 0.026418,-0.002912, 0.000906, 0.002547,
 0.013735, 0.020993, 0.015969, 0.020438, 0.017904,
-0.017227, 0.034131,-0.001694, 0.022434,-0.017287,

-0.004637,-0.000331,-0.003321, 0.019723,-0.005366,
 0.033809, 0.016846,-0.005212,-0.015992, 0.012172,
 0.004649, 0.024532, 0.008440, 0.001769,-0.006046,
 0.020954, 0.001127, 0.021365, 0.001327,-0.013779,
 0.036224, 0.032131, 0.010699,-0.029020, 0.022839,

 0.000154,-0.001380, 0.026487, 0.015080, 0.021489,
-0.009791,-0.002775,-0.007640, 0.023269,-0.005731,
 0.017934, 0.019303, 0.018172, 0.033092, 0.006759,
-0.027286,-0.015757,-0.009243,-0.016923,-0.018981,
-0.007946,-0.001089,-0.016900, 0.014620, 0.003139,

-0.016429,-0.004783, 0.024815,-0.040368, 0.018023,
 0.002853, 0.042377, 0.005126, 0.023987,-0.011240,
 0.011919, 0.035247, 0.028996,-0.020517, 0.011878,
 0.035076, 0.041959, 0.002035, 0.012761,-0.000167,
 0.013662,-0.031575, 0.023847, 0.026159,-0.025829,

 0.029904,-0.007726,-0.000056, 0.013690,-0.032469,
 0.027420,-0.019576,-0.006692, 0.006771, 0.026160,
-0.016289, 0.018465, 0.032386,-0.021180, 0.013833,
-0.024282,-0.001771, 0.021273,-0.026582, 0.015433,
-0.019277,-0.030803,-0.007525, 0.029596, 0.012594,

-0.012006, 0.018587,-0.008498, 0.013122,-0.021137,
-0.018135,-0.031353, 0.007702, 0.032017, 0.020364,
 0.021537,-0.017373, 0.015139, 0.028328, 0.005610,
 0.024922, 0.014448, 0.019751, 0.013509,-0.032663,
-0.003176, 0.011937, 0.015821,-0.016731,-0.009977,

 0.032248, 0.030468, 0.021468, 0.017057, 0.013127,
 0.017194,-0.030644, 0.035303, 0.029339,-0.003604,
-0.032980, 0.019853, 0.024114, 0.039127, 0.008593,
-0.033996,-0.006815,-0.007226, 0.013260,-0.020430,
-0.032842, 0.016924, 0.013303,-0.019697,-0.009709,

 0.006535,-0.011762, 0.018511, 0.039059,-0.022973,
-0.012643, 0.001426,-0.007667, 0.022651, 0.007858,
 0.025878, 0.012598,-0.001053,-0.026409, 0.005266,
 0.017710, 0.031970, 0.031590, 0.030719, 0.007001,
-0.026022, 0.031546,-0.024272, 0.011570,-0.017533,

-0.006734, 0.028563,-0.030689,-0.019099, 0.019433,
-0.007794, 0.006445,-0.022106,-0.016143,-0.027225,
-0.000789,-0.005100, 0.022942, 0.005511,-0.034001,
 0.036197, 0.017654, 0.006837,-0.023138,-0.011583,
 0.040291,-0.015031, 0.039798, 0.021226,-0.002708,

 0.026276,-0.009128, 0.008632,-0.012718,-0.029916,
-0.005608, 0.041321,-0.024122, 0.022425, 0.029174,
 0.002145, 0.016748, 0.019581,-0.010866,-0.017992,
 0.041991, 0.052572,-0.012256, 0.012996,-0.008940,
-0.016654,-0.021789, 0.007122,-0.015686, 0.014092,

-0.013363, 0.016837,-0.008611,-0.007329,-0.028968,
-0.018362, 0.005179, 0.000585,-0.004486,-0.011810,
 0.036124,-0.005565,-0.003034, 0.005679, 0.038384,
-0.004219, 0.017611,-0.005281,-0.038196, 0.000298,
 0.002411,-0.003850,-0.031447, 0.004238, 0.027386,

-0.009993,-0.003101, 0.026550, 0.020567, 0.024034,
 0.000491,-0.023654, 0.010729, 0.003390,-0.009338,
-0.025247,-0.020335, 0.021704,-0.029533,-0.024189,
-0.032591,-0.001432,-0.020521,-0.011251,-0.024668,
 0.020128,-0.029346,-0.024356, 0.016661, 0.023301,

 0.013824,-0.019764, 0.019365, 0.004042,-0.010447,
 0.021436, 0.019679,-0.001135, 0.017274, 0.030050,
 0.021626, 0.020837, 0.051252, 0.000384, 0.010001,
-0.026124, 0.030244, 0.040402,-0.020396, 0.006639,
 0.014660,-0.010744,-0.025650,-0.017153,-0.001478,

-0.025480,-0.020182,-0.003903,-0.028435,-0.026835,
 0.005831,-0.002103,-0.001810, 0.022682, 0.024097,
 0.023578, 0.010173,-0.031902, 0.010652, 0.024368,
 0.018940,-0.026891,-0.033729, 0.007854,-0.006759,
 0.027884,-0.031273, 0.025631,-0.015051, 0.031373,

 0.001045, 0.031900, 0.025975,-0.019276,-0.000901,
-0.006352,-0.000570,-0.026168, 0.010133, 0.016387,
-0.026072,-0.019316, 0.043244,-0.004834, 0.039018,
-0.026975,-0.008974,-0.007026, 0.017802, 0.031549,
-0.012221, 0.026832,-0.032883,-0.008533, 0.008162,

 0.021775,-0.000543,-0.015073, 0.012645, 0.033230,
-0.017848,-0.008791, 0.029491, 0.025913, 0.012736,
 0.016751,-0.025965, 0.001197, 0.032633, 0.025853,
-0.023676,-0.002095,-0.008734,-0.019769, 0.033364,
-0.012688,-0.015703, 0.023623, 0.013217, 0.014424,

-0.004632, 0.039827,-0.029031,-0.004689,-0.029673,
 0.025680,-0.006662, 0.015826, 0.024772, 0.000551,
-0.022579, 0.015057,-0.022207, 0.005273, 0.029914,
 0.009179,-0.024723,-0.002054, 0.028013, 0.000793,
-0.013432,-0.019800, 0.036738,-0.024199, 0.037148,

 0.005931,-0.008833,-0.028628,-0.007303,-0.030235,
 0.022816,-0.027213, 0.007950,-0.031213, 0.001678,
-0.014212, 0.028030, 0.018577,-0.007052,-0.013131,
-0.005740, 0.000104, 0.002159, 0.027938, 0.028518,
-0.012106,-0.012264, 0.010597, 0.030730, 0.016246,

 0.030987, 0.020511, 0.033228, 0.033222, 0.019619,
 0.023707, 0.015884, 0.002896,-0.020922, 0.028445,
-0.030062, 0.019523,-0.020133, 0.028801,-0.008557,
-0.031790,-0.007394, 0.028913, 0.009740, 0.027624,
-0.015674, 0.019105, 0.005666, 0.016991,-0.033863,

-0.006188, 0.032371, 0.005268, 0.007787,-0.029021,
 0.026558,-0.003336, 0.018358, 0.009393, 0.011743,
-0.009218, 0.032482, 0.009831,-0.006503, 0.024348,
-0.011431,-0.021600,-0.017438,-0.000995, 0.024796,
-0.007302,-0.014176,-0.026947, 0.019062, 0.014278,

 0.005818,-0.016408, 0.030869, 0.020732,-0.014626,
-0.018218,-0.025027, 0.002670, 0.028756, 0.028173,
-0.015139,-0.028675,-0.003524, 0.014460, 0.001151,
-0.033441, 0.027086, 0.016430, 0.023370,-0.035066,
 0.006000, 0.004936, 0.021784,-0.022811, 0.018049,

-0.028369,-0.013783,-0.022849, 0.019336,-0.013874,
-0.008263,-0.030242, 0.023268,-0.025869, 0.034591,
 0.031903, 0.031481, 0.027029,-0.022152, 0.026912,
 0.008831,-0.024866,-0.027786,-0.031925, 0.013043,
-0.019840, 0.011232,-0.035053,-0.015954, 0.030726,

-0.002371, 0.026061,-0.002155,-0.004585,-0.013295,
-0.001176, 0.036756, 0.012342,-0.022885, 0.028901,
-0.026799, 0.016045, 0.026495, 0.017411, 0.024376,
 0.014250,-0.026362,-0.019381,-0.028025,-0.031821,
 0.015365,-0.025174,-0.003449,-0.009816, 0.023784,

 0.024336,-0.003246, 0.023243,-0.000017, 0.032480,
 0.032544,-0.003118, 0.015984, 0.031417, 0.037405,
 0.016773, 0.008392,-0.004950,-0.019927,-0.002377,
 0.034721,-0.010137,-0.012980, 0.002803,-0.018619,
-0.009165,-0.023140,-0.019679,-0.009883,-0.023691,

 0.005750, 0.033430, 0.027538, 0.007219,-0.016758,
 0.027361,-0.001700, 0.033200,-0.026739, 0.031497,
-0.016280,-0.005630, 0.033539,-0.002654, 0.029833,
-0.011939, 0.012565,-0.026995, 0.022338, 0.032076,
-0.001363,-0.010200,-0.004977, 0.034562,-0.033477,

 0.008987, 0.001432, 0.030959,-0.018042,-0.017263,
-0.017979, 0.027000, 0.012470, 0.035579,-0.011298,
-0.027321, 0.014588,-0.004117, 0.001496,-0.002909,
 0.011229, 0.003139,-0.006134, 0.026760,-0.022250,
 0.014762, 0.013028,-0.031748,-0.034025, 0.014258,

 0.033810,-0.012856,-0.027816,-0.024099,-0.007226,
 0.008897,-0.022192, 0.001049, 0.028830, 0.030437,
 0.026891, 0.032022, 0.033486, 0.027190, 0.011593,
 0.010188,-0.004446,-0.020504, 0.013889,-0.018845,
-0.018847,-0.015104, 0.008537, 0.031115, 0.010332,

 0.026024, 0.007616, 0.002044, 0.009047,-0.007108,
-0.010241, 0.021460, 0.007356,-0.022249,-0.029787,
 0.031374, 0.024705,-0.010077,-0.016636,-0.019985,
-0.015456,-0.025851,-0.007206, 0.029465, 0.024892,
-0.029292, 0.007956,-0.000711,-0.005977,-0.027088,

 0.029468, 0.030731, 0.025152, 0.033939, 0.005076,
 0.037723, 0.029753, 0.002059, 0.003537,-0.008290,
 0.022211, 0.036925,-0.005581, 0.007231,-0.020669,
-0.007011, 0.003187,-0.016309,-0.012427,-0.017740,
 0.010139,-0.026721, 0.001588,-0.000375,-0.025267,

-0.010030,-0.024636,-0.022847, 0.022556, 0.014287,
 0.019462, 0.010798, 0.008563,-0.023285, 0.008830,
 0.008199, 0.032933,-0.019247, 0.019478,-0.027120,
 0.003845,-0.014398, 0.034457,-0.022096, 0.025679,
 0.024741,-0.012564, 0.016220,-0.000168, 0.009189,

-0.032696,-0.020423, 0.017307, 0.002259, 0.015691,
 0.007315,-0.033176,-0.014785,-0.024564, 0.035988,
-0.016388, 0.017875,-0.021914, 0.001440,-0.023537,
-0.004585, 0.006108,-0.018576, 0.018910, 0.027886,
 0.012113, 0.013010,-0.029989, 0.020151,-0.002367,

 0.013078,-0.023607, 0.024172,-0.009451,-0.001836,
 0.000297, 0.011890,-0.015963,-0.015296, 0.019112,
-0.023457, 0.017357, 0.007729, 0.017078, 0.023327,
 0.024642, 0.000949,-0.015636,-0.003080,-0.014375,
 0.036957,-0.024599,-0.012669, 0.006608,-0.010000,

-0.004832,-0.010198,-0.015076,-0.027451,-0.027843,
 0.002733, 0.021858,-0.013588, 0.006606,-0.005675,
 0.018966,-0.020541, 0.018986,-0.028646, 0.001623,
-0.010259,-0.016668,-0.010113,-0.030139, 0.000713,
 0.005982, 0.004395, 0.020925,-0.005222,-0.027705,

 0.002122, 0.018182,-0.011191,-0.018177, 0.012307,
-0.000381, 0.035506,-0.023703,-0.020512,-0.026785,
 0.008133,-0.029117,-0.023948,-0.011510, 0.026315,
-0.005508,-0.000381,-0.007991, 0.030616, 0.003765,
 0.001772, 0.011754,-0.033830,-0.021006,-0.033096,

 0.036373,-0.009580,-0.023063, 0.008483, 0.000365,
-0.019367, 0.034282,-0.022740, 0.013009,-0.014887,
 0.023343, 0.015328, 0.023576,-0.000317, 0.002214,
-0.007179, 0.020868,-0.026445,-0.033809,-0.010767,
 0.011984, 0.023273, 0.001773,-0.004221,-0.021992,

-0.026898, 0.037976,-0.000297,-0.005331, 0.024097,
 0.015595, 0.030952,-0.010951,-0.003417, 0.003559,
 0.024564,-0.024858, 0.001680,-0.007499, 0.010773,
-0.028461,-0.020132, 0.003310,-0.022056, 0.033860,
-0.026254,-0.036163,-0.027330,-0.005559, 0.009288,

-0.021889, 0.029210,-0.027513, 0.017924, 0.008559,
-0.005916,-0.011672, 0.000155,-0.018755,-0.026484,
 0.032053,-0.003949,-0.017766, 0.023666,-0.013152,
 0.008543,-0.001886,-0.015189, 0.031313, 0.026455,
-0.000505,-0.011193, 0.034276, 0.023065, 0.012514,

-0.034158,-0.020877,-0.007043, 0.024700,-0.005355,
 0.025350,-0.010399, 0.020164,-0.027434, 0.013775,
-0.028099,-0.020105, 0.024112, 0.013192, 0.010084,
-0.008412, 0.015148, 0.015714, 0.032513,-0.021907,
-0.030669,-0.000029, 0.016536, 0.018668,-0.028018,

 0.024903,-0.025409,-0.021751,-0.015856, 0.030192,
 0.011869,-0.012113,-0.001770, 0.014502, 0.012173,
 0.011424, 0.034131,-0.009640, 0.031357, 0.001947,
-0.035105, 0.034468, 0.003584,-0.003336,-0.003860,
 0.026305,-0.003543,-0.001429, 0.004925,-0.033691,

-0.022312,-0.021363, 0.014999, 0.003046,-0.028073,
-0.014986,-0.031175, 0.031378, 0.004013,-0.019205,
-0.005109, 0.006366, 0.005365, 0.031656, 0.035312,
 0.004090,-0.006596, 0.011977, 0.016595, 0.033994,
-0.001076,-0.025405,-0.012085, 0.026400, 0.001961,

-0.011949, 0.010463,-0.021569, 0.019534, 0.009152,
 0.002909,-0.028225,-0.000191, 0.009939,-0.007392,
 0.021963, 0.021072, 0.011013,-0.011706, 0.009704,
 0.008623, 0.013324, 0.002899, 0.025551, 0.005398,
-0.021219,-0.022636, 0.001553, 0.008802, 0.023237,

 0.039040,-0.004981,-0.016284,-0.019915, 0.005284,
-0.023362, 0.035623,-0.023660,-0.016254,-0.021592,
-0.004340,-0.018052,-0.016761, 0.015743, 0.030511,
 0.022873,-0.008849, 0.030412, 0.005887, 0.028032,
-0.030190,-0.011624,-0.021734,-0.006384,-0.009734,

 0.034412,-0.030647, 0.000922, 0.005832,-0.029453,
 0.030221, 0.030727,-0.019111,-0.022851,-0.017564,
-0.029366,-0.025704, 0.017567, 0.031592, 0.034476,
 0.024230, 0.025771,-0.014934, 0.003718,-0.022126,
 0.010172,-0.035173, 0.023888,-0.015874, 0.004391,

-0.009177,-0.013957, 0.020110, 0.029547, 0.006113,
 0.009890, 0.033093,-0.025009, 0.014585, 0.006912,
-0.006268,-0.033006, 0.023132, 0.024161,-0.024102,
 0.020595, 0.026026, 0.021156, 0.020664, 0.020139,
 0.018564,-0.001732, 0.010073,-0.031033,-0.003432,

-0.022172, 0.028127, 0.024491, 0.026091,-0.003477,
-0.021665, 0.030313,-0.007309, 0.033972, 0.021629,
 0.017781, 0.025954,-0.016303, 0.010965, 0.019452,
 0.030455,-0.028280,-0.028649,-0.027949, 0.021293,
-0.030488,-0.007161,-0.001265, 0.026741, 0.007646,

-0.034262, 0.002502,-0.007002,-0.011620,-0.031926,
 0.028278, 0.001669, 0.022386, 0.011821, 0.027657,
 0.033200,-0.000626, 0.020435,-0.031558, 0.026316,
 0.008490,-0.029552,-0.025431, 0.009276,-0.001650,
-0.016929, 0.028342,-0.032381,-0.024144, 0.009267,

 0.031284,-0.019046, 0.027762, 0.000929,-0.026631,
-0.029820,-0.004733, 0.001175, 0.008129,-0.013827,
 0.002457, 0.001156,-0.031091, 0.012211,-0.013314,
-0.018722,-0.031693,-0.009662, 0.011423, 0.012034,
 0.029216,-0.016338,-0.011097, 0.025521, 0.009492,

-0.017082, 0.014904,-0.026329, 0.022394,-0.000811,
-0.032903, 0.019664,-0.032492, 0.024880, 0.009837,
-0.025724,-0.033999, 0.012820,-0.013473,-0.004170,
 0.027976, 0.023950,-0.030238,-0.019089,-0.007463,
 0.007787, 0.032498,-0.023515, 0.014830,-0.009742,

 0.007209, 0.028204, 0.004172,-0.004984,-0.033255,
-0.008294,-0.031155,-0.004658,-0.016191, 0.009450,
 0.018164,-0.030045, 0.023619, 0.036925, 0.003604,
 0.008799, 0.028895,-0.002756, 0.017630,-0.018872,
-0.029903,-0.003223,-0.026229, 0.018766,-0.020584,

 0.026729,-0.029480, 0.016445, 0.025709,-0.024728,
 0.026485,-0.018776, 0.028430,-0.007798,-0.033747,
-0.011933,-0.024633, 0.031300, 0.029810, 0.024134,
 0.009907, 0.013796,-0.014584, 0.029335, 0.004833,
 0.020277,-0.000890, 0.017739, 0.017233, 0.017747,

 0.017595,-0.015352, 0.017659, 0.008570,-0.004877,
-0.015856,-0.005718, 0.007631, 0.001289, 0.008262,
-0.005845, 0.007277,-0.011563,-0.012750,-0.006526,
 0.027851,-0.021678,-0.025312,-0.008220, 0.030242,
 0.022752,-0.023448,-0.022190,-0.025559, 0.018776,

 0.030148,-0.016579,-0.008264,-0.013069,-0.018036,
 0.032361,-0.031602,-0.009857,-0.006735, 0.019389,
 0.017375,-0.000256, 0.035400,-0.007211,-0.008744,
-0.023926,-0.007135,-0.001399,-0.026509, 0.034812,
 0.008506,-0.014835, 0.021649, 0.014588,-0.013922,

 0.014322,-0.002913, 0.020413,-0.000226, 0.014583,
-0.019469, 0.016030,-0.028191,-0.007771, 0.029052,
-0.002095, 0.023507, 0.024287,-0.012612, 0.021304,
 0.014853,-0.000805, 0.026355, 0.003222,-0.023952,
-0.015695, 0.015473,-0.023267, 0.029487,-0.021535,

-0.014520,-0.028860, 0.027164, 0.025694, 0.012215,
 0.029978, 0.036779,-0.032482, 0.022595, 0.034076,
-0.022278, 0.016892,-0.021123,-0.025887, 0.003413,
-0.031349, 0.007689, 0.002220,-0.014300, 0.025767,
-0.019177,-0.016988, 0.015051,-0.011983,-0.033035,

 0.011895, 0.032530,-0.032250,-0.017982,-0.019126,
-0.026906,-0.016829,-0.019443,-0.029526, 0.004099,
-0.003045,-0.021884,-0.009842, 0.035069,-0.018649,
 0.000042, 0.032315, 0.034737,-0.020323,-0.008198,
-0.017884,-0.005767,-0.021050,-0.008508, 0.002766,

-0.028074, 0.037664, 0.020575,-0.021973,-0.027023,
-0.015165, 0.031542,-0.007982, 0.023970, 0.015179,
 0.014689,-0.023829, 0.016383,-0.013511,-0.012611,
 0.009779,-0.002117, 0.015576, 0.006697, 0.034850,
 0.012256, 0.013227, 0.028030, 0.000158, 0.030563,

 0.038262,-0.026626,-0.025551, 0.027317, 0.027577,
 0.028734, 0.013636,-0.003170,-0.003725, 0.029864,
 0.009768,-0.028937, 0.026920,-0.033859,-0.011887,
 0.032965, 0.029881, 0.013628, 0.028408,-0.017810,
-0.018225,-0.003934,-0.018086, 0.024379,-0.012308,

 0.016515,-0.020470,-0.021547, 0.008179,-0.011933,
 0.039841,-0.026900,-0.034947, 0.026788, 0.021351,
-0.003158, 0.015261, 0.016040,-0.027893,-0.008446,
-0.007566, 0.012951, 0.011876,-0.005463,-0.019640,
 0.019936,-0.019625,-0.028087, 0.019123, 0.003331,

 0.028037, 0.025612, 0.029169,-0.025628, 0.010767,
-0.014080,-0.029642,-0.015853, 0.006392,-0.032697,
 0.018653,-0.013101,-0.030632,-0.022717,-0.003743,
 0.026182,-0.009494, 0.004691,-0.004256,-0.029538,
 0.011484, 0.009579,-0.014671,-0.012421,-0.028860,

-0.004622,-0.023882,-0.027240,-0.004041, 0.017741,
 0.010554,-0.028356, 0.039103, 0.000370,-0.000745,
 0.022234, 0.030500, 0.017502,-0.005191,-0.031604,
-0.029509,-0.020591,-0.028139,-0.025088,-0.015381,
-0.009335,-0.016574, 0.018073, 0.002005, 0.001394,

 0.033256,-0.013457,-0.035304, 0.018851,-0.005787,
-0.011621, 0.008891,-0.028295, 0.005181, 0.022316,
-0.007749,-0.001094, 0.026069,-0.001766,-0.016505,
 0.002687, 0.004314, 0.033765,-0.015085, 0.014212,
-0.013721,-0.001018, 0.019882,-0.016216, 0.028362,

 0.029424,-0.032109,-0.031308, 0.008120, 0.010822,
-0.012769, 0.003692,-0.007203, 0.028256, 0.004284,
 0.011628, 0.001720, 0.030118,-0.009462,-0.005269,
-0.023297,-0.004871,-0.028270, 0.000446,-0.005256,
-0.035485,-0.026301, 0.020033,-0.029823,-0.000804,

 0.007417, 0.023497,-0.001214,-0.011705, 0.027922,
-0.017293, 0.008173,-0.029581, 0.017007, 0.032411,
 0.022688,-0.026012, 0.013039,-0.009062,-0.019297,
-0.009649, 0.000066,-0.018799,-0.030884,-0.015515,
-0.016185, 0.012537, 0.029225, 0.022071, 0.017359,

 0.022125,-0.025113, 0.026502, 0.000645,-0.013747,
 0.015382, 0.019245,-0.018462, 0.003958,-0.033201,
 0.019735,-0.018268, 0.032015,-0.002626, 0.017519,
-0.008296,-0.015425, 0.005744,-0.027530, 0.019968,
 0.027217,-0.032408,-0.007515,-0.015308, 0.032474,

 0.028383,-0.034564, 0.005524, 0.008179, 0.013362,
-0.033597,-0.017450,-0.015325,-0.002374, 0.021620,
-0.028978, 0.018669, 0.007197, 0.024574,-0.002445,
 0.032312,-0.002926,-0.014207, 0.008651,-0.019009,
 0.008712, 0.028564,-0.001626,-0.030379,-0.024795,

-0.017432, 0.022371, 0.009906,-0.033482,-0.019602,
-0.017936,-0.028484,-0.001998,-0.029735, 0.018561,
 0.020057, 0.025155, 0.035536, 0.033412, 0.035355,
 0.011530,-0.006504, 0.005797,-0.023718,-0.013178,
-0.014385, 0.018817,-0.030504, 0.011006,-0.034757,

 0.032917,-0.025040, 0.031189, 0.017673,-0.021542,
 0.000212,-0.007018, 0.025249, 0.022866, 0.002060,
-0.008176,-0.029187,-0.018153,-0.025601, 0.017730,
-0.000615, 0.036357,-0.013279, 0.003120, 0.009674,
-0.022610, 0.020094, 0.000756,-0.029824,-0.032856,

 0.001321, 0.011438,-0.026201,-0.030360, 0.030692,
 0.036028, 0.031184,-0.016089, 0.027237, 0.036253,
-0.004722, 0.017107, 0.000577,-0.022958, 0.007159,
-0.027308,-0.025141, 0.016615,-0.007885,-0.007247,
 0.027153,-0.009216,-0.012211,-0.000701,-0.035470,

-0.008337, 0.002258, 0.006094,-0.000414, 0.002895,
 0.026042,-0.031844, 0.007826,-0.008507,-0.025770,
 0.014965,-0.033438, 0.034558, 0.028784, 0.021960,
-0.029510,-0.034298, 0.004398, 0.015296, 0.002252,
-0.018220, 0.028151, 0.024697,-0.025574,-0.007246,

 0.006607, 0.031565,-0.000848,-0.003987, 0.032116,
 0.000358, 0.030335,-0.018227,-0.033728, 0.025315,
-0.027377,-0.029788, 0.028293, 0.009373,-0.004423,
 0.003350,-0.020305,-0.002228, 0.008860,-0.000180,
-0.004181,-0.001240, 0.011087, 0.034313,-0.016348,

-0.032043, 0.015371, 0.022817, 0.018747,-0.006811,
 0.009788, 0.005663,-0.017735,-0.015487, 0.033672,
-0.031888,-0.006998, 0.026369, 0.003537, 0.027560,
 0.000438, 0.027308, 0.034462,-0.029555,-0.005853,
 0.011679, 0.030539,-0.033879, 0.003338, 0.005949,

 0.009618, 0.006354, 0.029114, 0.005091,-0.021530,
 0.020094,-0.029125,-0.020391,-0.000788, 0.032051,
-0.010355, 0.033348, 0.028900,-0.034613,-0.008750,
-0.026124, 0.020942, 0.035146,-0.019497,-0.011812,
-0.010896,-0.022695,-0.014595, 0.005497, 0.025568,

-0.010132,-0.033224, 0.007504, 0.017096, 0.029165,
 0.020344, 0.016717, 0.023380, 0.003865,-0.007500,
-0.020099, 0.027365,-0.010249, 0.017122, 0.020154,
 0.028993, 0.036782,-0.033260,-0.024060, 0.035105,
 0.023360, 0.011551, 0.033745, 0.030640,-0.031878,

-0.025981, 0.032750, 0.009451,-0.004710, 0.006142,
 0.012609,-0.010199,-0.022486, 0.017379,-0.011868,
 0.004167,-0.023132, 0.018093, 0.020406,-0.027739,
 0.025558,-0.011158, 0.024259,-0.030144, 0.003015,
-0.031252,-0.035009,-0.035488, 0.023409,-0.002814,

 0.008473, 0.000250, 0.017355, 0.033954, 0.001065,
-0.033222,-0.006292,-0.020708,-0.023306,-0.002218,
 0.022338, 0.001048,-0.022508, 0.010372, 0.013238,
-0.005616,-0.009995,-0.007307,-0.011353,-0.023969,
-0.007761,-0.019071, 0.006402,-0.022673,-0.019612,

 0.013448,-0.019112,-0.030997, 0.031632, 0.012189,
-0.021109, 0.014527,-0.034013, 0.031408, 0.031067,
-0.021934, 0.022601, 0.012542, 0.005945,-0.022334,
-0.000482, 0.004115,-0.013571,-0.018683,-0.017400,
 0.016409, 0.034092, 0.024353, 0.034460,-0.021974,

-0.011091, 0.025738,-0.001426,-0.000090, 0.009579,
-0.010698,-0.010712, 0.003193,-0.016519,-0.020012,
-0.001675, 0.034207, 0.035866, 0.034405,-0.032097,
-0.015117,-0.001523,-0.032939, 0.017557, 0.032224,
 0.037690, 0.019759,-0.016104,-0.014803,-0.001812,

-0.005096,-0.022102, 0.020175,-0.001572, 0.023305,
 0.011419, 0.002591,-0.021486,-0.010934, 0.025800,
-0.015085,-0.022976, 0.024417,-0.005247, 0.008301,
 0.020699,-0.000372,-0.006780,-0.000896, 0.008066,
-0.030837,-0.026850, 0.026033,-0.024159, 0.026022,

 0.026492, 0.000639, 0.007049, 0.032677,-0.005286,
-0.020883, 0.006872,-0.013467, 0.007583, 0.020757,
 0.016745, 0.036029, 0.029374,-0.020600, 0.017026,
-0.011307, 0.025645,-0.006370,-0.018764, 0.019139,
-0.030165, 0.033749,-0.025706, 0.032770,-0.011406,

-0.023967,-0.018616, 0.032246, 0.023422, 0.010377,
-0.011630,-0.007683,-0.018347, 0.011053, 0.003588,
-0.022135, 0.013836,-0.033887, 0.019867,-0.012361,
-0.008288,-0.027495, 0.034301, 0.024397,-0.026073,
-0.014149,-0.002587, 0.005455, 0.000503,-0.018914,

-0.026883, 0.000437,-0.004014, 0.018255,-0.001394,
-0.026994,-0.011445,-0.016702,-0.034653, 0.013881,
-0.015464, 0.020100, 0.024756, 0.002235,-0.016357,
-0.020980, 0.016637, 0.028447, 0.028833,-0.019971,
 0.028591,-0.007069, 0.012809,-0.028892, 0.008977,

 0.014076,-0.001136, 0.027487,-0.003758, 0.014682,
 0.007671, 0.025266,-0.009899,-0.032177,-0.016901,
 0.019328,-0.021639,-0.020698,-0.021668, 0.001723,
-0.017351,-0.017989,-0.030325, 0.009155, 0.030501,
-0.023600, 0.022988, 0.012692,-0.004505, 0.035576,

-0.014015,-0.026235,-0.026554,-0.016593, 0.020614,
 0.005515,-0.034402,-0.030625, 0.003817, 0.005435,
 0.026972,-0.034901, 0.026338,-0.027674, 0.001500,
-0.004869,-0.023826, 0.001416,-0.011208,-0.018668,
-0.033504,-0.025056, 0.033679,-0.026090,-0.025292,

 0.026799, 0.012550, 0.023989, 0.014979, 0.033516,
 0.033408,-0.020074, 0.023987,-0.015954,-0.009616,
 0.018626, 0.007095, 0.007394, 0.004038, 0.014738,
-0.031346, 0.015472, 0.008285, 0.013131, 0.005579,
 0.001955, 0.005111, 0.013687,-0.020420, 0.026045,

 0.024433,-0.014513,-0.006593, 0.011170, 0.021168,
 0.017253, 0.006773, 0.034202, 0.033346, 0.014438,
-0.010618,-0.026829, 0.017609, 0.021771, 0.031254,
-0.033424, 0.013307,-0.024900, 0.014724,-0.023382,
-0.023614,-0.029311,-0.017984, 0.019421, 0.027338,

 0.024705, 0.030960,-0.022164,-0.019358,-0.023375,
-0.024907,-0.027511, 0.005585,-0.013021,-0.023009,
 0.005718, 0.007156, 0.022728,-0.008380,-0.028333,
 0.029539,-0.027323,-0.014499,-0.012112,-0.009343,
-0.006675,-0.007572, 0.002218, 0.006478,-0.015670,

-0.000606, 0.003807,-0.020720, 0.037037,-0.033511,
 0.035005,-0.018778,-0.034066, 0.023256, 0.022433,
 0.029521, 0.011542, 0.015013,-0.018367, 0.014112,
-0.010604, 0.023278,-0.001544, 0.010329, 0.025262,
-0.002392,-0.028632,-0.014066,-0.010553,-0.003048,

-0.019354, 0.017340,-0.008685,-0.027216, 0.021913,
 0.010708,-0.001313,-0.018305,-0.003209, 0.002153,
-0.013861,-0.003946,-0.009696, 0.020043,-0.008811,
-0.009346, 0.029432, 0.013343,-0.009589, 0.005039,
-0.020262, 0.014994,-0.029004, 0.007579, 0.036717,

 0.021757,-0.019826,-0.009141,-0.010286,-0.008083,
 0.029130, 0.028496,-0.005270, 0.032151, 0.007716,
 0.005891,-0.008131, 0.019194,-0.004270,-0.016596,
 0.026430,-0.012515, 0.029649,-0.030813, 0.003747,
 0.011361,-0.022070,-0.001105,-0.000075,-0.026038,

 0.011585, 0.031641,-0.017635,-0.003640, 0.027357,
 0.003984, 0.032251,-0.020931, 0.026515, 0.003158,
 0.036682,-0.005665, 0.014701, 0.016399,-0.005560,
-0.016265, 0.030892,-0.014259, 0.027680, 0.032095,
-0.008950,-0.022428,-0.014481,-0.018207, 0.018549,

-0.030315,-0.014673,-0.013609, 0.009809,-0.000214,
-0.004066,-0.008592, 0.000167,-0.016389, 0.020828,
 0.030049, 0.003925,-0.030969, 0.019583,-0.022123,
-0.027196,-0.008565, 0.026108, 0.002107, 0.037178,
 0.026750, 0.017995, 0.034277, 0.013678, 0.033360,

 0.035004,-0.002409, 0.009227, 0.027117, 0.029338,
-0.019044, 0.020584, 0.025632,-0.002899,-0.037815,
 0.010391,-0.033780,-0.013652,-0.034310, 0.030820,
 0.028993, 0.007032, 0.005897,-0.038643,-0.018322,
 0.005894,-0.017343, 0.024384,-0.011046, 0.002171,

-0.017813,-0.009105,-0.021143, 0.020539, 0.007451,
 0.030193,-0.004425,-0.033141,-0.018617,-0.021144,
-0.021567,-0.010166,-0.024644, 0.003272,-0.027096,
-0.019961,-0.033259,-0.034927, 0.023109, 0.010737,
 0.023010, 0.014891,-0.027109, 0.001680, 0.005816,

 0.034009,-0.008042,-0.020161, 0.011529,-0.001210,
 0.010552, 0.005965,-0.000359,-0.011206,-0.027608,
-0.009346, 0.019189, 0.019639, 0.004136, 0.008475,
-0.024782,-0.020597, 0.035126,-0.028708,-0.011723,
-0.032610, 0.014017, 0.003831,-0.010946,-0.026585,

 0.001412, 0.009792,-0.031412,-0.008427,-0.004955,
-0.007930, 0.032917,-0.027655,-0.030631,-0.012695,
-0.007487, 0.031065, 0.003487, 0.006455, 0.007237,
 0.021656,-0.023719,-0.018252,-0.010570,-0.008758,
 0.031472, 0.025484,-0.021741,-0.016570,-0.031350,

-0.000959, 0.037762,-0.023306, 0.007299, 0.021890,
 0.023285, 0.002082, 0.000215, 0.028792,-0.034049,
-0.010353,-0.020203, 0.005791, 0.023485, 0.031458,
 0.013332,-0.005405,-0.013963, 0.023796, 0.034803,
-0.014536, 0.004360, 0.012322,-0.000051, 0.033286,

 0.013823,-0.034380, 0.021575, 0.019940,-0.003882,
 0.025244,-0.009857,-0.010973, 0.012461,-0.008861,
-0.026099,-0.006296, 0.013002, 0.026768,-0.022790,
-0.007890, 0.004141,-0.008605, 0.000831,-0.025949,
 0.012137, 0.018971, 0.025822,-0.006568,-0.002868,

-0.022638, 0.003222,-0.027256,-0.012667,-0.033439,
 0.019186, 0.010801, 0.002969, 0.026757, 0.023245,
 0.033908,-0.023614, 0.014097, 0.014989,-0.002675,
 0.018076,-0.017714, 0.014730,-0.027035,-0.024108,
 0.008938, 0.030652,-0.008875,-0.020522, 0.000646,

-0.029852,-0.020350, 0.027885,-0.004361,-0.027970,
 0.025576,-0.016912, 0.014691, 0.031999,-0.013284,
 0.002649, 0.010950,-0.013469, 0.024977, 0.004756,
-0.019429,-0.012364,-0.017374, 0.030853,-0.006033,
-0.030795, 0.033492, 0.010574,-0.026159, 0.034747,

-0.023402,-0.015465, 0.008861,-0.026259, 0.030285,
 0.036280, 0.009612,-0.037671,-0.028099,-0.011570,
 0.034171, 0.023710, 0.007272,-0.019904, 0.031551,
 0.020190, 0.025708, 0.014860,-0.016143, 0.007740,
 0.031370, 0.025427, 0.029086, 0.002632, 0.039750,

 0.008110,-0.020168, 0.000002,-0.028586, 0.022613,
-0.017059,-0.025911, 0.015146, 0.005387,-0.011047,
-0.004801,-0.011859,-0.005258, 0.017066, 0.006252,
 0.007155, 0.023665, 0.018338,-0.018330,-0.008523,
 0.019652, 0.034207, 0.035455, 0.010855, 0.036864,

 0.012062, 0.025662, 0.031791,-0.032064, 0.035371,
-0.032747, 0.003167,-0.016898, 0.032705, 0.027914,
 0.008282,-0.020486, 0.006641, 0.021899,-0.025850,
 0.006518, 0.009903, 0.022710, 0.013774,-0.017839,
-0.015509, 0.012402, 0.014050, 0.019029,-0.022901,

 0.021159,-0.018827,-0.028815, 0.035704, 0.016255,
-0.007121,-0.017241, 0.024977, 0.005761, 0.003471,
-0.013867,-0.024478,-0.024092, 0.021994, 0.004699,
-0.020027, 0.013033,-0.018269,-0.016851,-0.011992,
-0.010624,-0.030683, 0.012754, 0.026267,-0.002967,

 0.000205,-0.032641,-0.030228, 0.024893,-0.001434,
 0.013653,-0.016722, 0.021295,-0.016787, 0.023466,
-0.016967,-0.000729,-0.005631, 0.019718,-0.005346,
-0.030881, 0.022422, 0.026724,-0.006889,-0.035467,
 0.019854, 0.016962, 0.002220, 0.001629,-0.028710,

-0.010715, 0.031656, 0.030947,-0.012869, 0.014792,
 0.025421, 0.008019, 0.013791,-0.002420, 0.017240,
 0.024513,-0.023144,-0.011490,-0.021923,-0.020807,
-0.020588, 0.003664, 0.027405,-0.019372, 0.027200,
-0.013877,-0.002434, 0.002283,-0.000354,-0.021952,

 0.016177,-0.001506,-0.030652, 0.006186, 0.023088,
-0.033092, 0.036821,-0.034663,-0.029931,-0.016359,
-0.004729, 0.028139, 0.017287, 0.013851, 0.004129,
-0.035380,-0.023616,-0.029868, 0.014304,-0.013986,
 0.032571, 0.012477, 0.027653, 0.011231, 0.019367,

 0.018538, 0.033990,-0.031675, 0.000331, 0.004119,
 0.023511, 0.033981,-0.008992, 0.018815,-0.035203,
-0.020117, 0.020177,-0.004761,-0.019862,-0.024211,
 0.031214, 0.011828,-0.025159,-0.031356,-0.002925,
 0.018876, 0.025349, 0.011181, 0.024900,-0.023301,

 0.031341,-0.011873,-0.005214,-0.003522,-0.030047,
 0.032097, 0.029372,-0.019508, 0.006725, 0.019011,
-0.005156,-0.003372,-0.031552, 0.017827,-0.018449,
-0.002990, 0.022088, 0.035683, 0.018350,-0.011981,
-0.015894, 0.000799, 0.037046,-0.024433,-0.026034,

-0.030886,-0.029992, 0.025374,-0.024223, 0.001872,
 0.006475, 0.038155,-0.029785, 0.030763, 0.031096,
-0.024960,-0.031399, 0.018929,-0.004193,-0.003657,
-0.007559,-0.020367,-0.023012,-0.036069, 0.013118,
 0.001856, 0.011605, 0.017347, 0.013022,-0.006492,

 0.018701,-0.026558,-0.026660,-0.023058, 0.005194,
-0.028362, 0.003216,-0.024238,-0.004881,-0.027837,
 0.015115, 0.034651,-0.005065, 0.031747, 0.002472,
-0.024424, 0.005331, 0.030268, 0.006831,-0.002018,
-0.025168,-0.032403, 0.000930,-0.025515,-0.024791,

 0.008168, 0.005967,-0.003607,-0.005077,-0.032972,
-0.021998,-0.006934, 0.012534,-0.024895, 0.011484,
 0.020071,-0.004318,-0.034064,-0.033903,-0.034491,
-0.014755, 0.006146, 0.023903,-0.016301,-0.008040,
-0.016709, 0.029678, 0.000127,-0.026062, 0.032342,

-0.000347, 0.021411,-0.018669,-0.020514, 0.000553,
-0.030047,-0.032157,-0.030313, 0.022085,-0.021124,
-0.035882, 0.014051, 0.014681, 0.013525,-0.015397,
-0.012267,-0.020375, 0.037755,-0.018191,-0.002866,
-0.022849, 0.005446, 0.036544,-0.021274, 0.014704,

-0.002774,-0.033096, 0.002881,-0.005496,-0.015205,
 0.015162,-0.011860, 0.016825, 0.024098, 0.023811,
-0.023353, 0.008420,-0.026557,-0.031444, 0.020617,
-0.014798, 0.013330,-0.005196,-0.019881, 0.016128,
 0.025959, 0.027847, 0.024648, 0.016384,-0.024679,

 0.029915, 0.030259,-0.030861,-0.017598,-0.001480,
-0.028709,-0.007980, 0.013709, 0.000171,-0.011589,
-0.023409, 0.013301,-0.028956, 0.031394, 0.008818,
 0.026247, 0.008347,-0.028032, 0.030105,-0.007314,
 0.030639, 0.021250, 0.019567,-0.028821, 0.008886,

-0.013522, 0.011530, 0.032399,-0.032060,-0.010191,
-0.030359, 0.008425, 0.024332,-0.000152,-0.023901,
 0.014694, 0.021407, 0.010210,-0.012400,-0.020980,
 0.033304,-0.016478,-0.008060,-0.025829, 0.012475,
 0.027452, 0.032081, 0.023260,-0.016475,-0.010434,

 0.029212,-0.029209, 0.005176,-0.033488, 0.013867,
-0.024576, 0.030934,-0.029454,-0.022165, 0.024371,
-0.014229, 0.023096, 0.011362,-0.015907, 0.000380,
 0.024804, 0.013710, 0.026393, 0.027386,-0.028711,
-0.003944,-0.014067, 0.000385, 0.012114,-0.018374,

 0.033998,-0.008419, 0.036298,-0.031339, 0.006324,
 0.024247,-0.006585,-0.017903, 0.008901,-0.031746,
 0.011250, 0.028514,-0.004070, 0.006629, 0.000206,
-0.005950,-0.024144,-0.031149,-0.008131, 0.032543,
-0.002808, 0.012411, 0.033408,-0.030360, 0.031450,

 0.022480, 0.005928, 0.035283, 0.008102,-0.025551,
-0.035454, 0.008896, 0.017296,-0.018685, 0.026596,
-0.034001, 0.006108,-0.010049, 0.008503,-0.034110,
 0.027336,-0.003197,-0.006751, 0.004158, 0.021664,
 0.031504, 0.025575,-0.020423,-0.022603,-0.027018,

-0.014137, 0.003139,-0.019507,-0.000158, 0.014243,
 0.032515,-0.017022,-0.030019,-0.035174,-0.001478,
-0.006776,-0.002925, 0.005922, 0.031837, 0.023912,
 0.003033,-0.030025, 0.008677,-0.031545,-0.013122,
 0.016229,-0.014176, 0.034778,-0.033755, 0.019265,

 0.006259, 0.034265, 0.003507,-0.033067,-0.023965,
-0.030088, 0.023543, 0.007409,-0.029326,-0.030868,
 0.009984,-0.033200,-0.018756,-0.017359,-0.006987,
-0.017661,-0.029081, 0.032459,-0.008089, 0.012969,
 0.020349, 0.027556,-0.010291, 0.003179, 0.029903,

 0.012518, 0.029199,-0.000124,-0.007189,-0.030108,
 0.020950, 0.000443,-0.035057, 0.009867,-0.033676,
-0.030714,-0.027205,-0.032286,-0.026762,-0.017544,
-0.017805, 0.026385, 0.029761, 0.006885, 0.040921,
 0.026366,-0.014431,-0.022322, 0.011265, 0.037817,

 0.015417, 0.000909, 0.022837,-0.006512, 0.025414,
-0.008235, 0.033109, 0.007723, 0.007641,-0.024093,
-0.028338,-0.015160,-0.030860,-0.025318, 0.020424,
 0.034540, 0.022265, 0.015714, 0.009019,-0.021643,
-0.028542,-0.027617,-0.031069, 0.013626,-0.006903,

 0.027485, 0.013915, 0.033316, 0.020476,-0.000099,
 0.028752,-0.020544, 0.024901,-0.003624,-0.016817,
-0.018659, 0.017206, 0.031191, 0.006108, 0.016964,
 0.008039, 0.011923, 0.011363,-0.028145,-0.002726,
 0.000525, 0.010617, 0.017446, 0.015135,-0.021865,

 0.035080, 0.024981,-0.028112, 0.031816,-0.013709,
 0.000395,-0.023651, 0.005946, 0.004572, 0.028358,
 0.028174,-0.006037, 0.019553, 0.028241, 0.021892,
 0.000373, 0.000388, 0.025653, 0.023627,-0.011289,
 0.039904, 0.038572, 0.023686, 0.003984,-0.005840,

 0.017093, 0.036643, 0.027879,-0.008998, 0.016620,
-0.000950,-0.002630, 0.009962, 0.001770, 0.007684,
-0.009031, 0.032333,-0.010283, 0.011715, 0.017921,
 0.020725,-0.014620,-0.029330, 0.029695, 0.000500,
-0.001316, 0.010626, 0.003095, 0.005139,-0.028333,

 0.007631, 0.028247, 0.027365,-0.025904,-0.011738,
-0.009169, 0.009880,-0.032343,-0.000022,-0.009508,
-0.004913,-0.015639, 0.029036, 0.028880, 0.011065,
 0.014458, 0.009596, 0.017068,-0.025764, 0.018673,
 0.030115,-0.027278, 0.017877, 0.034194, 0.002263,

-0.014394,-0.022656, 0.030408, 0.024870,-0.035381,
-0.029853,-0.001606, 0.031463, 0.027568, 0.019187,
 0.002858,-0.033498, 0.017512, 0.026796,-0.010869,
-0.037193,-0.002736,-0.023081, 0.032513,-0.010705,
-0.006089,-0.005476, 0.019103, 0.003882,-0.031779,

-0.019043, 0.019941,-0.006350,-0.016818,-0.005540,
 0.031394, 0.006938,-0.032506, 0.035936, 0.021424,
 0.001802, 0.019428, 0.026103, 0.010019,-0.029641,
 0.013979, 0.029591,-0.009156, 0.004600, 0.000510,
 0.001749,-0.004239, 0.002077,-0.010738, 0.014144,

-0.016066, 0.025115, 0.017395, 0.014153,-0.021944,
-0.031255, 0.027418,-0.019724, 0.020524, 0.011572,
-0.008779, 0.012693, 0.017272,-0.015887, 0.001101,
 0.019619, 0.003054,-0.028012, 0.023938,-0.019785,
 0.025463, 0.033005,-0.024869, 0.027024,-0.013888,

 0.023913, 0.021011,-0.020349, 0.027303,-0.015503,
-0.001667,-0.011558, 0.025029, 0.008081, 0.013615,
 0.021871, 0.030600, 0.020003,-0.008752, 0.027843,
 0.004272, 0.007957, 0.031974,-0.028342,-0.021809,
-0.010867,-0.025222,-0.024336, 0.030347,-0.021878,

-0.005816,-0.021012,-0.004420,-0.030885, 0.024846,
 0.000776, 0.003107,-0.002679, 0.011911,-0.015523,
 0.026639, 0.020285, 0.025038, 0.023168, 0.008557,
-0.028766, 0.035746, 0.012088,-0.027831,-0.029461,
 0.011235,-0.033125,-0.022080, 0.001298,-0.035609,

 0.017182,-0.024514, 0.017647, 0.013310, 0.025645,
-0.023271, 0.032302, 0.021916,-0.030358, 0.039649,
-0.003488,-0.017575, 0.022063,-0.004086,-0.005854,
-0.005645, 0.007643, 0.010772,-0.018957,-0.028081,
-0.000242, 0.028290,-0.033958,-0.037275,-0.037935,

-0.000446, 0.014120, 0.027253,-0.019920, 0.009920,
 0.013635,-0.034324,-0.000381, 0.030892, 0.013616,
 0.004254, 0.029914, 0.019688, 0.035572, 0.033715,
 0.029472,-0.006041, 0.027780, 0.003016, 0.030806,
-0.014571,-0.019878,-0.004222, 0.012953,-0.027350,

-0.032488,-0.016418,-0.003896, 0.033274,-0.005978,
-0.021297, 0.008668, 0.031759, 0.005362,-0.003899,
-0.019456,-0.005119, 0.028269,-0.031073,-0.034638,
-0.003381,-0.023235, 0.011683,-0.028074,-0.026636,
 0.010121, 0.024270,-0.022084,-0.019431,-0.026568,

 0.000682,-0.032651,-0.007827, 0.033122, 0.003908,
 0.003348,-0.026755, 0.017631, 0.015325, 0.030587,
 0.005040,-0.024502,-0.012866,-0.027655, 0.000816,
-0.029871,-0.019338,-0.030695, 0.019874, 0.031983,
-0.006706, 0.027964, 0.020949, 0.000430,-0.019950,

 0.001421, 0.027656,-0.002605,-0.002514, 0.033421,
-0.017135, 0.027061,-0.011691, 0.028833, 0.004407,
 0.032727, 0.023155, 0.021988, 0.016450,-0.035357,
-0.027637,-0.011396, 0.017233, 0.009448, 0.029886,
-0.025614, 0.016707,-0.012269, 0.027284, 0.009288,

 0.020069, 0.014615,-0.021735, 0.010178,-0.023951,
-0.017579, 0.000325,-0.035750, 0.029255,-0.014072,
-0.014343, 0.019192,-0.008732, 0.009440, 0.012040,
 0.023741, 0.010735, 0.008260, 0.029379,-0.005044,
 0.007346, 0.002208, 0.007481, 0.016388,-0.021074,

-0.017220,-0.025379,-0.015996, 0.004952,-0.020050,
 0.032839,-0.027069,-0.036138,-0.011740,-0.013961,
 0.026629,-0.023822,-0.009005, 0.024034, 0.029500,
-0.011131, 0.029976,-0.000073,-0.005830, 0.021599,
 0.022147, 0.026815, 0.005492,-0.007619,-0.030995,

 0.024869, 0.008638, 0.018720,-0.006768,-0.015974,
-0.029203,-0.016037, 0.009726, 0.018941,-0.007714,
 0.017943, 0.016380, 0.032586, 0.012549,-0.016532,
 0.010807,-0.021892, 0.011808,-0.019019, 0.017909,
-0.016558, 0.006830,-0.024063,-0.011041, 0.018682,

 0.033799, 0.030882,-0.007036,-0.018359,-0.018131,
-0.007857,-0.015247,-0.010797, 0.035328,-0.010532,
 0.023326,-0.019442, 0.014959,-0.019060, 0.017132,
 0.026103,-0.012535,-0.005109,-0.027181,-0.015171,
 0.009665, 0.022339,-0.021100,-0.019715, 0.014987,

 0.006835,-0.009453, 0.005078,-0.028290, 0.015987,
 0.011549, 0.003265,-0.027673,-0.008173, 0.026196,
 0.030448,-0.034807,-0.010565,-0.017779,-0.025489,
 0.005165, 0.021130,-0.028608, 0.002586,-0.023443,
 0.022134, 0.035584,-0.004871,-0.014149, 0.004924,

 0.017822,-0.016110,-0.011132,-0.014854,-0.034389,
-0.029449, 0.020514,-0.013200,-0.015559,-0.030885,
-0.023508,-0.018500,-0.017840, 0.029955,-0.023539,
 0.029022,-0.021459, 0.030704,-0.000339,-0.022469,
 0.021557, 0.028189, 0.025480, 0.018754, 0.008318,

-0.014015, 0.025273, 0.016505, 0.006460, 0.008122,
 0.006602, 0.014279, 0.033311, 0.022835, 0.020781,
 0.023604,-0.017046, 0.032423, 0.004188, 0.027830,
-0.018552,-0.032965,-0.022711, 0.006192,-0.015421,
-0.012924, 0.034294,-0.030370, 0.022155,-0.028822,

-0.016439,-0.018829, 0.008929, 0.033537,-0.003335,
-0.029737, 0.023974, 0.008822,-0.020727, 0.025332,
 0.028735, 0.023317,-0.003302,-0.007537,-0.007769,
 0.006772, 0.020364, 0.021905,-0.036712, 0.003165,
 0.015334,-0.011784,-0.014110, 0.023833, 0.036530,

-0.026111,-0.009709,-0.028964,-0.027127, 0.023676,
 0.015544, 0.013573, 0.008948, 0.010535, 0.016401,
 0.031645,-0.004394, 0.017041, 0.002273,-0.021730,
 0.023900,-0.014837, 0.008386,-0.011341, 0.019792,
-0.030620,-0.007238,-0.011316, 0.025819,-0.018224,

-0.029213, 0.010690, 0.004449, 0.009197, 0.015978,
-0.027363, 0.005530, 0.009237,-0.020548, 0.004323,
-0.031291,-0.016326,-0.019921, 0.000843,-0.025894,
-0.021201,-0.018689,-0.032768,-0.006399, 0.003182,
-0.022978, 0.016218,-0.022022, 0.005923, 0.000975,

 0.001544, 0.001032, 0.020257,-0.021905,-0.017307,
 0.015740, 0.001180,-0.003659,-0.014595,-0.017490,
 0.005238, 0.015256,-0.007088,-0.030630, 0.000738,
-0.017968, 0.004973,-0.001217,-0.010491, 0.005196,
 0.018848,-0.012681, 0.012144,-0.016617,-0.003380,

-0.020191, 0.031544, 0.001699, 0.024945,-0.005329,
-0.028561,-0.010439,-0.027380,-0.001178, 0.003412,
-0.026038,-0.008988, 0.012003, 0.002285, 0.016056,
 0.007856, 0.002537,-0.008678,-0.007939, 0.019353,
 0.034796,-0.005115,-0.020088,-0.007859, 0.026637,

-0.022334,-0.000467, 0.010776,-0.001607,-0.023670,
 0.033756, 0.011469, 0.005074,-0.030826, 0.002828,
-0.002551,-0.023435, 0.001210,-0.011831, 0.028515,
-0.019917, 0.006288,-0.017638, 0.018958,-0.008751,
-0.006135,-0.004081, 0.008869,-0.004896, 0.033021,

-0.006047,-0.009769, 0.015907,-0.016491,-0.011267,
-0.034158,-0.011591, 0.022893,-0.017452, 0.012539,
 0.003585, 0.005347,-0.011274,-0.033516,-0.008169,
-0.004886,-0.017583, 0.002278, 0.018542,-0.004994,
 0.013241,-0.006205,-0.026882, 0.002269,-0.018593,

-0.019603,-0.007088, 0.031786, 0.027803,-0.013864,
-0.015456, 0.023067,-0.022174,-0.023059, 0.008040,
 0.012157, 0.014798,-0.014892,-0.032049,-0.029188,
-0.031816,-0.002174, 0.006849,-0.021500, 0.027362,
 0.008584, 0.026698,-0.011353, 0.025980, 0.019923,

-0.027673, 0.015135,-0.020413, 0.043201,-0.001882,
 0.007436, 0.027828, 0.036082,-0.026800, 0.014128,
-0.005471, 0.039757,-0.024340, 0.016496, 0.029281,
-0.028964,-0.035423,-0.008526, 0.014866,-0.002511,
 0.024594,-0.004632, 0.001163,-0.014913, 0.032262,

-0.012855, 0.010404, 0.031346, 0.041491,-0.017697,
 0.009214, 0.036822,-0.007938, 0.029397, 0.033087,
 0.028973, 0.017048,-0.002644, 0.028515,-0.013741,
 0.009327,-0.030595,-0.009903, 0.012203, 0.000521,
-0.016014,-0.007863,-0.024224,-0.028371,-0.022364,

-0.014336, 0.041010, 0.018368, 0.008783,-0.006723,
-0.012220, 0.017026,-0.021658,-0.009658, 0.021286,
-0.002231,-0.021799,-0.033133, 0.000215,-0.018953,
 0.020709,-0.012325,-0.022013,-0.010766, 0.023161,
-0.007323,-0.008255, 0.029627,-0.010642, 0.018609,

 0.001535, 0.040824,-0.016770,-0.025417, 0.033704,
 0.036935,-0.013033, 0.037024,-0.020764, 0.016092,
 0.016933,-0.012770,-0.013467,-0.036037,-0.012534,
-0.017863,-0.018424,-0.012678, 0.014868, 0.006806,
 0.002336, 0.021248, 0.017556,-0.020027, 0.026980,

-0.005717, 0.012084,-0.014964,-0.000045, 0.029902,
 0.013553, 0.035469, 0.002428, 0.004249, 0.029235,
-0.019692,-0.008991,-0.015465, 0.021876, 0.026198,
-0.021224, 0.028807,-0.005410, 0.016943,-0.016045,
 0.025223, 0.011776, 0.013348, 0.001651, 0.020517,

 0.013702, 0.027293, 0.038961,-0.029206, 0.019089,
-0.016737, 0.039960, 0.007596, 0.035846,-0.012149,
-0.010564, 0.025976, 0.001048, 0.017573,-0.027606,
 0.016996,-0.029908, 0.032566, 0.019439, 0.014927,
-0.030039,-0.007547,-0.020841, 0.025305, 0.009125,

-0.010206,-0.027847,-0.000720, 0.005428, 0.032522,
-0.018020,-0.027818,-0.002107,-0.008213,-0.004307,
-0.020497, 0.027021,-0.022282,-0.017604, 0.018815,
-0.018591, 0.031180,-0.009488, 0.025127,-0.022030,
 0.013847,-0.018654, 0.010479, 0.018269,-0.014098,

-0.000286, 0.018822,-0.007677,-0.022923,-0.019295,
-0.029854, 0.026991, 0.036371, 0.034402, 0.020736,
-0.004331, 0.011026,-0.007874, 0.028567,-0.030048,
-0.024282, 0.018506,-0.018712, 0.018766,-0.011161,
-0.014388, 0.031618, 0.026086, 0.014118,-0.012411,

 0.024408, 0.001333, 0.037894, 0.003040, 0.019049,
-0.015174, 0.013308,-0.006069, 0.002522, 0.027820,
-0.003395, 0.024626,-0.016587,-0.019526, 0.010121,
-0.013320,-0.008847,-0.035921,-0.038717, 0.009237,
-0.030327,-0.004569, 0.006547,-0.001960,-0.011748,

-0.014185, 0.011943, 0.029779, 0.014700, 0.011481,
 0.016443, 0.025665,-0.021408,-0.012732,-0.034184,
 0.031372, 0.011270, 0.023554, 0.016138,-0.024892,
-0.006708,-0.001538,-0.023434,-0.002193,-0.019514,
-0.013407,-0.022752,-0.020997,-0.001911, 0.009833,

 0.032996, 0.001458,-0.020309,-0.010085, 0.010921,
-0.009648,-0.001225, 0.019041,-0.008225, 0.031310,
-0.026687,-0.003730, 0.025712,-0.018431, 0.021287,
-0.034726,-0.020082,-0.031892,-0.015480,-0.015326,
 0.010903, 0.018020, 0.031535, 0.010937, 0.023186,

-0.005105,-0.030378, 0.035017, 0.020657, 0.021195,
 0.032915, 0.004459,-0.028216,-0.017220, 0.022750,
-0.003978,-0.002304,-0.004510, 0.007902,-0.035440,
 0.028944,-0.027735,-0.027474, 0.002939, 0.023958,
-0.018028, 0.025095, 0.015282,-0.014185,-0.006625,

-0.003081, 0.015804, 0.022321,-0.023224,-0.031163,
 0.010131, 0.010897, 0.015599,-0.016957, 0.002007,
 0.027475,-0.013436, 0.019549,-0.001916, 0.027805,
 0.027955,-0.019453, 0.015939, 0.013959, 0.006389,
-0.004735,-0.021329,-0.008825, 0.024232, 0.004979,

-0.019739,-0.033894,-0.017715, 0.025500, 0.023597,
-0.026749,-0.021489, 0.011840,-0.018786,-0.011446,
-0.028460,-0.001528, 0.004474,-0.033319, 0.011956,
-0.029012,-0.007202, 0.012474, 0.032496, 0.013256,
-0.024728,-0.000918,-0.001067, 0.012336,-0.012205,

 0.027776,-0.002237, 0.004724,-0.024925,-0.030887,
-0.017248, 0.027883,-0.020167,-0.027114,-0.024053,
 0.018368,-0.024657, 0.018997,-0.033356,-0.007000,
 0.015216,-0.030690, 0.015491,-0.016027, 0.016083,
 0.015334,-0.027313,-0.019994,-0.018581, 0.027201,

 0.009342, 0.011450, 0.018713,-0.027513, 0.005261,
-0.025455, 0.031223, 0.009406,-0.022338, 0.009823,
-0.033938, 0.033307,-0.026736, 0.001244, 0.025815,
-0.015148, 0.025316,-0.035831, 0.013545,-0.009106,
 0.012322, 0.026277, 0.033478,-0.017437,-0.024633,

-0.015199, 0.028777, 0.029026, 0.027899,-0.017739,
 0.029221, 0.034616, 0.018875,-0.008444,-0.020248,
-0.003604, 0.023814, 0.007187, 0.018551, 0.028362,
 0.028159, 0.010382, 0.001582,-0.008475,-0.006656,
 0.017486, 0.021724,-0.009645, 0.029128,-0.010592,

 0.010179, 0.039566, 0.017889,-0.011276,-0.018178,
-0.011188, 0.029405, 0.020521, 0.010625,-0.004625,
 0.027014, 0.014228, 0.022391,-0.025460, 0.027232,
-0.012125,-0.025496, 0.026352, 0.002989,-0.025882,
-0.020016, 0.023498,-0.019754,-0.005783, 0.009281,

 0.032696, 0.017204, 0.039716, 0.006945,-0.022389,
-0.021916, 0.034731, 0.001397, 0.020586, 0.025906,
 0.030624, 0.035903, 0.034762, 0.033392,-0.002858,
-0.019726, 0.005604,-0.015307,-0.001357, 0.027645,
 0.011902, 0.008001, 0.007015, 0.012378,-0.004241,

-0.027294, 0.011959, 0.038005,-0.027783, 0.000552,
 0.030548,-0.026349, 0.004865, 0.006383,-0.034193,
 0.024691,-0.017894,-0.039348,-0.015534,-0.010346,
 0.000973,-0.036145, 0.009858,-0.012631, 0.025482,
-0.035951, 0.012612,-0.024859, 0.001999,-0.022520,

 0.012949,-0.028163,-0.021291,-0.009858,-0.005006,
 0.002242,-0.016865, 0.018196,-0.028490, 0.034244,
-0.030497, 0.030888,-0.022572,-0.016411,-0.031269,
-0.033001,-0.006645, 0.001882,-0.006353, 0.015507,
 0.006733, 0.029139, 0.027986, 0.020956, 0.035464,

-0.010493, 0.025619, 0.037823, 0.026111, 0.037648,
 0.017866, 0.025646,-0.024694, 0.032743, 0.006425,
 0.037111, 0.029974, 0.009066,-0.006714, 0.029243,
-0.005274, 0.004210, 0.009959,-0.003023,-0.029486,
-0.015541,-0.035378,-0.024764,-0.032294,-0.024481,

 0.023038,-0.027095,-0.023551, 0.003270, 0.005638,
-0.011827,-0.025944,-0.028911, 0.014067,-0.016092,
-0.027523, 0.015336,-0.020528, 0.014370, 0.032797,
-0.004971, 0.026229, 0.022598, 0.006349, 0.012078,
 0.023314, 0.016505,-0.028989,-0.007888, 0.024951,

 0.005333,-0.030568, 0.001296, 0.009204, 0.002975,
-0.023268,-0.016512,-0.015871,-0.009247,-0.019054,
 0.008550, 0.009815,-0.015563, 0.020805,-0.025035,
 0.009393, 0.017119, 0.014100,-0.017043, 0.024001,
-0.030891, 0.009004, 0.008809, 0.007500,-0.005346,

-0.028715,-0.015708, 0.026539,-0.030479, 0.025319,
 0.014735,-0.000444, 0.014833,-0.019566, 0.003594,
 0.008996, 0.014540, 0.020786,-0.015284,-0.014588,
 0.005324, 0.035841,-0.012422, 0.015163,-0.023946,
-0.029766, 0.003967,-0.005328, 0.023026, 0.011626,

-0.021253, 0.013211, 0.025560,-0.017610,-0.014968,
 0.029224,-0.026691, 0.033355,-0.024179,-0.013156,
-0.000015, 0.008539,-0.019478,-0.012315,-0.004892,
 0.032231,-0.009303,-0.021390, 0.034494,-0.021446,
 0.013398, 0.009275,-0.024961,-0.031513, 0.013366,

-0.008622, 0.002807, 0.033987,-0.004393, 0.028316,
-0.019248,-0.006114, 0.013618, 0.023322, 0.025330,
-0.005577,-0.029000,-0.012273,-0.018188, 0.007164,
-0.028058,-0.033429,-0.002600,-0.031045, 0.024821,
 0.006208,-0.032757,-0.007394,-0.008493, 0.001653,

-0.026618,-0.020505,-0.023403, 0.034603, 0.022985,
 0.013825, 0.000324,-0.017759,-0.027364, 0.024732,
-0.015397,-0.020392, 0.017987, 0.008520, 0.007029,
-0.019203,-0.012279,-0.003841,-0.005586,-0.014622,
-0.013154, 0.015337,-0.013695, 0.029780, 0.029410,

 0.006089, 0.033796,-0.018649,-0.031186,-0.010846,
 0.033821,-0.026037,-0.006942,-0.017041,-0.026734,
-0.019254, 0.026061, 0.005897, 0.014545, 0.032118,
 0.022856,-0.014680, 0.023740, 0.024092,-0.019416,
-0.021776, 0.029397, 0.020548, 0.023478,-0.029631,

-0.001218, 0.003715, 0.003012, 0.018720,-0.022551,
 0.004132, 0.008539, 0.018534,-0.015201,-0.002387,
 0.013230,-0.033206,-0.019625, 0.007166,-0.000721,
 0.001776, 0.008001, 0.034562,-0.013294, 0.000691,
-0.018612,-0.036576, 0.004872,-0.011800,-0.029909,

-0.006190, 0.000650,-0.034251,-0.024674,-0.030680,
-0.018387,-0.018470,-0.032098,-0.010595,-0.017661,
 0.031179,-0.009984,-0.011675,-0.010088,-0.028499,
 0.033783,-0.020829, 0.020879, 0.029506, 0.012306,
-0.027877,-0.014819, 0.033890,-0.004695, 0.026721,

-0.017954,-0.022915,-0.007326, 0.005748, 0.008087,
 0.000084,-0.036157,-0.015976, 0.006303, 0.036826,
 0.015799, 0.005496,-0.016305, 0.019233,-0.006263,
-0.005246, 0.002700, 0.014753, 0.012243, 0.008091,
-0.023132, 0.030819,-0.014465, 0.013411, 0.003737,

 0.014537, 0.016352, 0.010524,-0.033977, 0.006487,
 0.002634,-0.030201,-0.013013, 0.017747, 0.024116,
-0.029180, 0.005260, 0.027285, 0.005150, 0.023271,
 0.004150, 0.026124, 0.024145,-0.018813, 0.011615,
-0.028015,-0.014317,-0.019315,-0.011814,-0.015983,

-0.025077,-0.004445, 0.033486, 0.011163, 0.016553,
-0.031833,-0.019361,-0.014877, 0.010622,-0.025680,
-0.014167, 0.008600,-0.024000, 0.004821, 0.032672,
 0.026771,-0.011754, 0.002324, 0.028781, 0.031976,
 0.029584,-0.015925, 0.029486,-0.012250,-0.005456,

 0.006809,-0.002736,-0.019399, 0.025306,-0.014964,
-0.006899,-0.013822,-0.021726,-0.000396, 0.039796,
 0.019020,-0.027884, 0.032861,-0.015197, 0.009234,
-0.014957, 0.018851, 0.010502,-0.003809, 0.017648,
 0.009869, 0.033303, 0.035356,-0.004565,-0.007506,

 0.022772, 0.016200,-0.010660,-0.018490,-0.028862,
 0.003893, 0.007034,-0.034759, 0.013539,-0.000629,
-0.023335,-0.016779, 0.024608, 0.025485,-0.024489,
 0.036574, 0.012721, 0.040108, 0.045766, 0.005554,
-0.003652, 0.007666, 0.033616, 0.044825, 0.038606,

 0.003138,-0.037505,-0.025174,-0.013623,-0.006041,
 0.027525, 0.015265,-0.036643, 0.018462, 0.032016,
-0.028081,-0.009836,-0.031581,-0.030929, 0.038660,
-0.012638,-0.006147, 0.013880, 0.014299, 0.025913,
 0.018248, 0.031972, 0.036207,-0.001177, 0.022555,

-0.030410,-0.014666, 0.008967, 0.014066,-0.020790,
-0.003535, 0.009785, 0.007262, 0.028159, 0.018482,
-0.035863, 0.024814, 0.010167,-0.031880,-0.011420,
-0.006316,-0.001852, 0.004822, 0.033027, 0.021086,
 0.005072,-0.013401,-0.032081,-0.010226, 0.036235,

-0.035157, 0.023727,-0.009930, 0.016999, 0.007284,
-0.016272,-0.025479, 0.014089, 0.023189, 0.027443,
-0.010182,-0.023967, 0.009395, 0.009096,-0.030902,
 0.026482,-0.009267, 0.021410,-0.000619,-0.009880,
 0.030514, 0.004741, 0.003177, 0.036221, 0.019301,

 0.025876, 0.012416, 0.005633, 0.008989,-0.027534,
-0.028566, 0.023418,-0.035848, 0.009573, 0.034508,
-0.011546,-0.014611,-0.027909,-0.001673, 0.018838,
 0.016105,-0.017133,-0.029605, 0.026233,-0.017927,
 0.012280, 0.034264, 0.029914, 0.003782, 0.036621,

-0.007377,-0.019314,-0.033368, 0.003502, 0.010108,
-0.031762, 0.019488,-0.018646, 0.004849, 0.016668,
-0.025526, 0.019455,-0.013182,-0.013764, 0.022965,
 0.022626, 0.013571,-0.024771,-0.013133, 0.013867,
 0.015430, 0.031514, 0.014534, 0.035729, 0.033097,

-0.031533,-0.023241, 0.023813, 0.033370, 0.024649,
 0.027724,-0.015510, 0.021213,-0.019330,-0.028911,
-0.006439,-0.006805, 0.017561, 0.012147, 0.013524,
 0.023950,-0.016819,-0.022566,-0.008624,-0.006226,
 0.029484,-0.002403,-0.007018,-0.004686, 0.025036,

 0.019294, 0.036812,-0.026922,-0.022387,-0.020273,
-0.031333, 0.031979, 0.029185, 0.001129, 0.014699,
-0.029258,-0.011450,-0.004100, 0.006157,-0.006916,
-0.029773, 0.001117,-0.019330,-0.004562, 0.021878,
-0.010965, 0.020420,-0.020333,-0.020049, 0.022025,

-0.020380, 0.010040,-0.002105,-0.014299,-0.016291,
-0.009236,-0.003644,-0.028024, 0.014382,-0.029920,
-0.017551,-0.012137, 0.034617, 0.009692, 0.026593,
 0.030750,-0.001839, 0.014184, 0.031949, 0.001972,
 0.034365, 0.010176,-0.000438, 0.022720, 0.005236,

-0.015263,-0.017391,-0.033361, 0.017865, 0.031658,
-0.011366,-0.012824,-0.031453,-0.012432, 0.034913,
 0.000122,-0.035882,-0.011403, 0.001219,-0.020209,
 0.012544, 0.022553,-0.003231, 0.022470, 0.018132,
-0.017115,-0.012398, 0.007848, 0.026322, 0.015842,

-0.023662,-0.035803,-0.026432,-0.004804,-0.003472,
-0.007521, 0.028396, 0.001021,-0.005948, 0.005266,
 0.026510,-0.030032,-0.006805, 0.003322,-0.009768,
-0.015772,-0.001977,-0.027032,-0.028306, 0.008776,
-0.016209, 0.005216, 0.027852, 0.010854,-0.001374,

 0.029276,-0.008987,-0.013715, 0.011713,-0.007569,
-0.028145, 0.022085, 0.017857,-0.028111, 0.021541,
-0.004370,-0.022531, 0.018647, 0.004439, 0.034574,
-0.027302,-0.025716,-0.001417,-0.029995, 0.000002,
 0.007503,-0.023738, 0.030574,-0.005330,-0.014421,

-0.007329, 0.000179,-0.031418, 0.014163, 0.008747,
 0.033377,-0.019101, 0.014478,-0.034289,-0.008284,
-0.005128,-0.032720,-0.030992, 0.001963,-0.014381,
-0.021467, 0.030142,-0.018054,-0.018813,-0.031855,
-0.029148,-0.016635, 0.034766,-0.010367,-0.014248,

-0.029839, 0.023477,-0.027445, 0.027847,-0.016722,
-0.022326,-0.013251,-0.010474,-0.013216, 0.013502,
 0.018491,-0.020599,-0.005345,-0.013940, 0.026107,
 0.025271, 0.019297,-0.012192,-0.035509, 0.015995,
 0.017086, 0.007638,-0.010079, 0.006546, 0.004757,

 0.022278,-0.032135,-0.019489,-0.019309, 0.006015,
 0.022079,-0.016327,-0.011435,-0.016614, 0.016848,
-0.031008, 0.030165, 0.027573, 0.004656, 0.033018,
-0.036340,-0.017069, 0.018389,-0.012577, 0.034447,
-0.003398,-0.002168, 0.019192,-0.021129,-0.023455,

-0.016974,-0.035064, 0.002026,-0.027835, 0.002404,
 0.007565,-0.006399,-0.006818, 0.002842, 0.032492,
-0.036253, 0.019223,-0.007354, 0.030044, 0.016830,
-0.001962, 0.019870, 0.017609, 0.030878, 0.010369,
-0.029355,-0.023514,-0.003693, 0.011148, 0.030092,

-0.029468,-0.025191, 0.033245, 0.027669, 0.009360,
 0.025964,-0.018998,-0.018085, 0.005895, 0.023566,
 0.032936,-0.005880,-0.013708, 0.017232, 0.016061,
-0.008322,-0.007415, 0.039992, 0.009857, 0.016391,
 0.007914, 0.032334, 0.013579, 0.032393, 0.025664,

 0.016389, 0.029240,-0.026524,-0.000786,-0.015231,
 0.009577, 0.018535,-0.008916,-0.006963,-0.013095,
 0.031478,-0.025157,-0.004528, 0.016238, 0.016339,
 0.002014,-0.025922,-0.023523, 0.038237, 0.003063,
-0.006069, 0.028982,-0.020577,-0.022263,-0.023414,

 0.030249,-0.005294,-0.016898,-0.013622, 0.000078,
 0.018360,-0.007900,-0.021879, 0.025259, 0.006538,
 0.021150,-0.024597,-0.025049, 0.027867,-0.022537,
-0.030586,-0.002364,-0.033415, 0.007761, 0.045891,
 0.023862,-0.027808,-0.011405, 0.017135, 0.015400,

-0.025594, 0.011370,-0.005705,-0.012112, 0.011541,
-0.006350, 0.001952,-0.000969,-0.030087, 0.031607,
 0.027509, 0.011789,-0.012609,-0.026157,-0.013745,
 0.008899, 0.014590, 0.003303,-0.002621, 0.016987,
-0.015393, 0.024238, 0.011080,-0.033795,-0.018151,

-0.027865,-0.032301,-0.003411,-0.011186, 0.000448,
 0.015206,-0.015990,-0.021791,-0.023636, 0.009649,
-0.007725, 0.018383, 0.016949,-0.006487, 0.032264,
-0.032126, 0.006594,-0.006835,-0.006607, 0.025793,
 0.013141,-0.018403, 0.015434, 0.000700, 0.032674,

 0.021537, 0.015233,-0.013874,-0.025837,-0.032435,
-0.015715, 0.025529, 0.031163, 0.013779, 0.008467,
-0.026989,-0.025762, 0.028341,-0.021627, 0.031096,
 0.010948, 0.039584, 0.041878,-0.010337,-0.017225,
 0.034643,-0.003781, 0.012773,-0.015577,-0.004501,

 0.027213,-0.024784, 0.032758, 0.031392, 0.033837,
-0.009264, 0.000730,-0.030843,-0.013596, 0.023667,
-0.014730, 0.015662,-0.005226, 0.039121, 0.015088,
 0.034802, 0.001559,-0.022554, 0.013306, 0.028503,
-0.028939, 0.014293, 0.030646,-0.017327,-0.000695,

-0.004911,-0.018724,-0.025631, 0.002452, 0.003329,
-0.008890,-0.027154, 0.016952,-0.003568, 0.015322,
-0.003265, 0.024533, 0.018139,-0.004623, 0.008246,
-0.006173, 0.023634,-0.025818, 0.002051, 0.021764,
 0.012736, 0.013097,-0.021311,-0.023337,-0.012507,

-0.012395,-0.015133,-0.006627,-0.009769, 0.029015,
 0.008387,-0.014302,-0.015160,-0.001070,-0.031482,
-0.022032, 0.024263,-0.004150,-0.004019, 0.009886,
 0.013119, 0.017540,-0.032402, 0.013563,-0.019864,
-0.026000,-0.005115, 0.021622, 0.026355,-0.009966,

-0.023709, 0.024106, 0.000609, 0.011391, 0.009927,
-0.025711, 0.026618, 0.002572,-0.018675, 0.004349,
 0.027409,-0.026399, 0.004235, 0.024295,-0.018130,
-0.021334,-0.026094,-0.023613,-0.014402, 0.022390,
-0.025468, 0.019714, 0.026403, 0.001040,-0.035018,

 0.010301, 0.029451,-0.033935, 0.021500,-0.006475,
-0.000389, 0.001745,-0.035442, 0.014333,-0.012472,
-0.009729,-0.028492,-0.005467,-0.020698,-0.005525,
-0.000340, 0.012651,-0.014317,-0.032416,-0.019134,
 0.027688, 0.003322,-0.027899, 0.030233,-0.004591,

 0.030114, 0.010709,-0.029512,-0.015873,-0.010202,
-0.022490, 0.012958,-0.018520, 0.026661,-0.000438,
 0.016492,-0.020843,-0.001313,-0.021437, 0.032913,
 0.022543,-0.018002,-0.008040, 0.028979, 0.011445,
-0.023664, 0.016029, 0.005706, 0.025966, 0.014985,

-0.028108,-0.017874, 0.008236, 0.019516,-0.010132,
 0.009102, 0.021924, 0.026947, 0.033732, 0.008214,
 0.011354, 0.026350,-0.005620, 0.021051,-0.002563,
-0.015909, 0.010737,-0.020329,-0.003123, 0.027421,
 0.015838, 0.013930,-0.015152,-0.023698, 0.031867,

-0.004634,-0.000512, 0.000377, 0.012763,-0.026465,
 0.017689,-0.031825, 0.032142, 0.005828,-0.011437,
-0.001181, 0.031086,-0.009485,-0.022908, 0.024931,
-0.010124,-0.032377,-0.033732,-0.025859,-0.026528,
-0.033192,-0.022808, 0.002244, 0.010746, 0.008856,

-0.027167, 0.025096,-0.003690, 0.026249,-0.028834,
 0.013586,-0.017624,-0.016740, 0.004775,-0.017574,
-0.021347,-0.029058, 0.008163, 0.016943,-0.022069,
 0.008236, 0.018649,-0.014949, 0.013124,-0.009511,
 0.002582,-0.003452,-0.018582,-0.013383, 0.021355,

-0.020639,-0.004090,-0.000550,-0.014321, 0.005281,
 0.010578, 0.027395, 0.009426, 0.001710,-0.010911,
 0.034726, 0.010582,-0.018034,-0.028447,-0.029243,
-0.010979,-0.016355, 0.009767,-0.024244, 0.004447,
 0.016168, 0.005597,-0.024193, 0.001811,-0.035213,

-0.022091, 0.031765, 0.025697,-0.009669,-0.002832,
 0.034749,-0.008857, 0.015950, 0.017446, 0.023937,
-0.019413, 0.029726,-0.004628,-0.024392,-0.022062,
-0.021112,-0.027995, 0.024608,-0.036145, 0.012498,
 0.010239,-0.025488,-0.011701, 0.006205,-0.005072,

-0.026741,-0.023975,-0.019193,-0.003268,-0.021773,
 0.011039, 0.024231,-0.026975, 0.007140,-0.024897,
 0.022156,-0.020028, 0.033544,-0.014465, 0.009113,
-0.014527, 0.030318,-0.029263, 0.025558,-0.018591,
 0.012537,-0.003416,-0.008552,-0.003917,-0.026079,

-0.001201, 0.008459,-0.010262,-0.005364,-0.021106,
-0.005363,-0.012671,-0.011889,-0.030833,-0.013620,
-0.020494,-0.014335, 0.016644,-0.021952, 0.017587,
-0.006840,-0.016998,-0.018307,-0.006203, 0.029163,
-0.004553,-0.001221, 0.017983, 0.029115,-0.029619,

 0.026378, 0.011460, 0.031657, 0.030016,-0.005891,
 0.034372, 0.018134,-0.029934, 0.005743,-0.008069,
 0.033425,-0.018456, 0.021349,-0.024351,-0.035894,
 0.004802,-0.002097,-0.030971, 0.018955, 0.015802,
 0.020358, 0.025805,-0.007581,-0.000330, 0.016845,

 0.009093,-0.021279,-0.010452,-0.016337, 0.034520,
 0.022308, 0.013854, 0.001160,-0.028573, 0.001730,
 0.015853, 0.012616, 0.005721,-0.024288,-0.004461,
 0.018586, 0.010235, 0.003962,-0.012240, 0.019112,
 0.011486, 0.008889,-0.015344,-0.021501,-0.033816,

-0.001884, 0.003532,-0.027466, 0.000684, 0.017924,
-0.000949,-0.015063,-0.023968, 0.014969,-0.021942,
 0.017268,-0.024010,-0.022811, 0.032991,-0.024398,
-0.020172, 0.032291,-0.035584, 0.017641,-0.022080,
-0.027319, 0.007990, 0.019360,-0.034090, 0.016339,

-0.022576,-0.013138, 0.003693, 0.030369, 0.008739,
-0.016279,-0.000628,-0.028966,-0.027005, 0.001736,
 0.007258, 0.020480, 0.000398,-0.022044, 0.002179,
-0.014212,-0.030532,-0.025118,-0.021819,-0.005641,
-0.014651,-0.008025,-0.011352, 0.034439, 0.001690,

-0.016339,-0.026502, 0.011756,-0.006490,-0.005158,
 0.020747, 0.010019,-0.032206,-0.018709,-0.029396,
-0.026561,-0.002164, 0.025707,-0.005422,-0.027959,
 0.001692,-0.033120, 0.021825, 0.013760, 0.030780,
-0.004771,-0.006393,-0.027941, 0.016875, 0.027325,

 0.000834, 0.023365, 0.000474, 0.013426, 0.020957,
 0.013238,-0.022077,-0.023740, 0.030877, 0.013198,
 0.010832, 0.019181, 0.028041, 0.012208, 0.018650,
-0.000082, 0.005061,-0.001172,-0.005468, 0.003107,
-0.024662,-0.031863, 0.016029, 0.009403, 0.002031,

-0.013274, 0.010542,-0.017760, 0.034189,-0.020342,
-0.029358, 0.029237, 0.024435,-0.007015, 0.021486,
-0.006931,-0.002634, 0.004135, 0.013823, 0.002148,
 0.030059, 0.032954,-0.002321,-0.016421, 0.022002,
 0.035541,-0.018846, 0.019976,-0.026717, 0.000380,

 0.026267, 0.033471,-0.011154,-0.022545,-0.004084,
 0.021312,-0.003243, 0.010694, 0.009041, 0.009689,
-0.002690, 0.014058, 0.013422, 0.002183, 0.017325,
-0.029361,-0.003678,-0.006251,-0.016745, 0.020179,
-0.002758, 0.018950,-0.013805,-0.032837,-0.024661,

 0.007879, 0.024609, 0.026942, 0.001749,-0.033023,
 0.023226,-0.026266,-0.035277, 0.026015,-0.027736,
-0.022537, 0.012064,-0.033695,-0.025317,-0.001480,
-0.025089,-0.008820, 0.020307, 0.013475, 0.025704,
 0.017239, 0.022244,-0.028432,-0.017957,-0.031699,

-0.022442,-0.001933,-0.016035,-0.021750,-0.009845,
 0.027836, 0.022236, 0.021519,-0.000694, 0.023349,
 0.027583, 0.023261, 0.011139,-0.009046, 0.006287,
-0.010458, 0.031286, 0.017148, 0.017682, 0.014621,
 0.005972, 0.026250,-0.033244,-0.019901, 0.019732,

-0.033958, 0.020283, 0.009209,-0.010409,-0.024757,
 0.016337, 0.032949,-0.003595, 0.036013,-0.008965,
-0.030115,-0.029615,-0.020570,-0.005123,-0.014658,
 0.009133, 0.032113, 0.004385, 0.027101,-0.033627,
-0.033661, 0.033225,-0.021140, 0.023489,-0.034936,

-0.016383,-0.013932,-0.029344, 0.008109, 0.025839,
-0.027288,-0.015356, 0.000737,-0.017353, 0.025028,
-0.021659, 0.004729,-0.027987,-0.019864, 0.001899,
-0.033877, 0.033376, 0.002221, 0.029664, 0.019199,
 0.031868,-0.019711,-0.022527, 0.008316, 0.004643,

-0.023592, 0.015074, 0.035451,-0.034575, 0.005752,
 0.030995,-0.022520,-0.014344, 0.017536,-0.015361,
 0.016625,-0.011459,-0.019593, 0.002754,-0.027479,
-0.014368, 0.029076,-0.025848, 0.020828, 0.031652,
 0.004565, 0.024377, 0.027606,-0.033043, 0.008960,

 0.007684, 0.027590,-0.005960, 0.025760,-0.019633,
 0.023346, 0.011641,-0.018868,-0.026731,-0.034504,
-0.017430,-0.002480, 0.014793,-0.009259, 0.023049,
 0.014326, 0.024339,-0.012562, 0.030909,-0.008735,
 0.004805,-0.034451,-0.003149,-0.017370, 0.030187,

-0.026757, 0.000517,-0.034439, 0.015435, 0.033038,
-0.013415, 0.035501, 0.010067, 0.012641,-0.025911,
 0.002901, 0.007420, 0.010756,-0.009733,-0.027596,
 0.018115, 0.031628,-0.014770, 0.026540, 0.011467,
 0.017218,-0.027191,-0.006120,-0.001667,-0.028523,

-0.019581, 0.013167,-0.027654, 0.024000, 0.004008,
 0.016427,-0.033952, 0.031470, 0.018270, 0.014711,
-0.019281,-0.003215, 0.029415, 0.017137, 0.001731,
 0.033858,-0.008294, 0.031433, 0.006193,-0.011976,
-0.008704,-0.018045, 0.031627,-0.027901,-0.016937,

-0.009818,-0.008358,-0.005757,-0.024375,-0.009699,
-0.021091,-0.018349,-0.031645,-0.011603, 0.020593,
-0.001308,-0.003844, 0.015258,-0.003807, 0.006325,
-0.034870, 0.006613, 0.023644, 0.006414, 0.033704,
 0.030424, 0.029960, 0.031358, 0.008072, 0.003659,

 0.026686,-0.019515,-0.027061, 0.031590, 0.011196,
-0.023226, 0.015194, 0.010936, 0.007434, 0.033676,
 0.014300, 0.018258,-0.009887, 0.031000, 0.001451,
-0.029258, 0.005701,-0.028292, 0.005074,-0.004462,
-0.021498, 0.016695, 0.011886,-0.003112, 0.015850,

 0.010977, 0.013886, 0.011088,-0.031681,-0.009185,
 0.006200,-0.029008,-0.027550, 0.000164,-0.030856,
 0.015138, 0.032210, 0.023688, 0.001644, 0.007653,
 0.002124,-0.018582,-0.022084, 0.019203,-0.003152,
 0.036247,-0.012970, 0.016480,-0.012696, 0.033542,

 0.006277, 0.032662,-0.018062,-0.011796,-0.022907,
 0.032696, 0.001527, 0.006927, 0.003676,-0.023558,
 0.025351,-0.021298,-0.017601, 0.004099, 0.030296,
 0.030226, 0.021554, 0.021130,-0.015524, 0.021077,
 0.011107,-0.003944,-0.006337, 0.009250, 0.003479,

 0.021988,-0.032362, 0.034667, 0.013120, 0.005825,
 0.026540, 0.019401,-0.022791, 0.016170, 0.005076,
-0.025376, 0.005560, 0.028106, 0.029895,-0.013181,
 0.012980,-0.015595,-0.027466, 0.018032, 0.020828,
-0.008228,-0.002948, 0.005747, 0.023793, 0.020749,

 0.010667, 0.020696, 0.009960, 0.014138, 0.023102,
 0.017000,-0.004446, 0.022627,-0.013261, 0.008275,
-0.021655, 0.012099,-0.011675, 0.035032, 0.008552,
-0.032574, 0.002860, 0.021976, 0.018230,-0.017414,
-0.003717, 0.031171,-0.027386, 0.004384,-0.022924,

 0.011839,-0.011933, 0.003771, 0.034204, 0.014842,
-0.030606, 0.002738, 0.033172, 0.001916, 0.006939,
 0.002979, 0.021529,-0.031170,-0.032528,-0.024288,
 0.007751, 0.018662, 0.013683, 0.027313,-0.015897,
-0.021144,-0.006353,-0.004168,-0.008836, 0.009904,

-0.001078, 0.029967,-0.005151, 0.011755, 0.028824,
 0.031430,-0.025364, 0.033929,-0.027783,-0.031238,
 0.001963,-0.028572, 0.017233, 0.023072, 0.019330,
-0.010159, 0.006748,-0.010186,-0.027318,-0.019002,
 0.026756, 0.023109, 0.032439, 0.001041, 0.015955,

-0.012467, 0.029557, 0.000929,-0.013830, 0.008215,
 0.024516, 0.033978,-0.028724,-0.030768, 0.017735,
 0.019836,-0.019795,-0.021756, 0.020357,-0.028819,
 0.006069, 0.001035, 0.014392,-0.033192,-0.005753,
-0.029732, 0.006140, 0.030719,-0.017769,-0.020823,

 0.017456, 0.026020, 0.026043, 0.002223,-0.032207,
 0.016017,-0.028111,-0.023078,-0.032292,-0.029679,
 0.009095,-0.011734, 0.011754,-0.010005,-0.029181,
-0.010271,-0.032882,-0.015368,-0.001822,-0.009686,
-0.023708,-0.028217,-0.020020, 0.026279,-0.026459,

-0.015166,-0.003048,-0.018746, 0.008999,-0.019194,
-0.007112,-0.008657,-0.000286, 0.008001, 0.034112,
 0.009229,-0.029329, 0.023538,-0.003594,-0.016307,
-0.032527,-0.019371,-0.000683, 0.017260, 0.004427,
-0.001148, 0.031734, 0.000745, 0.010063, 0.025829,

 0.000595,-0.000209, 0.028499, 0.003259, 0.027127,
 0.035633,-0.000328,-0.000047,-0.010743, 0.026105,
-0.000414, 0.002849,-0.035150,-0.001948, 0.010383,
 0.038359, 0.016051,-0.019310,-0.004346, 0.008121,
-0.027721, 0.017604, 0.000623, 0.025478,-0.018542,

 0.019897,-0.026991, 0.030624, 0.011450,-0.031631,
-0.006306, 0.027480, 0.028672, 0.015362,-0.032016,
 0.018760,-0.011029, 0.016157, 0.016707, 0.031525,
 0.032355,-0.011108, 0.033927,-0.020520,-0.013236,
 0.020274,-0.001914, 0.028397,-0.008615,-0.002582,

 0.012715,-0.016137,-0.034167,-0.034580, 0.030758,
-0.028024, 0.008357,-0.018403,-0.001330, 0.004011,
-0.016870, 0.006780, 0.014955, 0.030553, 0.026336,
-0.005759, 0.022252, 0.030185,-0.022156, 0.024198,
-0.006265,-0.021249, 0.018814,-0.015273, 0.019870,

-0.028474, 0.031187,-0.026193, 0.015998,-0.007866,
 0.008966,-0.020426,-0.029537,-0.002375,-0.023838,
-0.008374,-0.009080, 0.019399, 0.033628,-0.023506,
 0.034066,-0.028230, 0.008954, 0.018081, 0.026897,
 0.019438,-0.005895,-0.013268, 0.030297,-0.008945,

-0.003491,-0.025839,-0.024714, 0.019649,-0.022015,
-0.018057,-0.015778, 0.033753, 0.029648,-0.016366,
-0.024468,-0.022096, 0.023359,-0.016339, 0.032141,
 0.029126, 0.012790,-0.002729,-0.024109,-0.022143,
-0.004755, 0.016183, 0.006982, 0.002142, 0.018372,

 0.019817, 0.000400,-0.018809, 0.021429, 0.031199,
 0.021330, 0.002681,-0.008484,-0.025840,-0.032542,
 0.021570,-0.014043, 0.017906,-0.002353,-0.002224,
-0.022484,-0.018367,-0.022004, 0.013448,-0.031615,
 0.019534, 0.027206, 0.017848, 0.013830,-0.031321,

-0.003754, 0.015213, 0.000219, 0.024265, 0.014139,
-0.026418, 0.024473, 0.008569, 0.002347,-0.008062,
 0.003377, 0.022558,-0.003518,-0.013756,-0.023979,
-0.008279, 0.033162, 0.031385,-0.018752,-0.002615,
-0.021884, 0.011586, 0.024029,-0.016295, 0.028496,

 0.018037, 0.001609, 0.018482, 0.007764,-0.023158,
 0.024262,-0.013620,-0.015454, 0.011665,-0.001630,
-0.021936, 0.000498, 0.030824,-0.014265,-0.023380,
-0.010975,-0.027352,-0.016470,-0.002963,-0.022028,
-0.028396, 0.003410, 0.005361,-0.028289, 0.025313,

 0.000022,-0.023322,-0.021072, 0.023546,-0.021298,
-0.009214,-0.028566, 0.009037,-0.002769,-0.003639,
 0.001725,-0.019409,-0.020981,-0.023074, 0.026521,
-0.001532,-0.015752,-0.015843, 0.013736, 0.003450,
 0.018956, 0.005009,-0.027404,-0.021401, 0.031880,

 0.002261,-0.006727,-0.004031, 0.032803, 0.023966,
 0.027369, 0.010461,-0.002019, 0.011437,-0.017242,
-0.010443, 0.004948, 0.030460,-0.020469,-0.000308,
 0.009620, 0.010657, 0.006954, 0.003027,-0.004932,
 0.018175, 0.035934, 0.021873,-0.005550,-0.033074,

-0.008509,-0.024230, 0.011340,-0.025701,-0.032919,
-0.022818, 0.029466,-0.005806,-0.027876,-0.021159,
 0.009534, 0.005639,-0.004179,-0.026018, 0.006923,
 0.004398,-0.013890,-0.011450,-0.031380, 0.006144,
 0.014116,-0.030119,-0.002107, 0.003834, 0.014804,

 0.021380, 0.032697, 0.002769, 0.000728,-0.006523,
-0.019439, 0.015983,-0.032291, 0.016187, 0.018223,
-0.001090,-0.032489, 0.027129,-0.010668,-0.004585,
 0.021514, 0.020099, 0.027656,-0.017100, 0.000915,
-0.019601,-0.018815, 0.022290,-0.029982,-0.008396,

 0.035045,-0.015815,-0.020451, 0.011647,-0.031063,
-0.011680,-0.016699,-0.000225, 0.024555, 0.031909,
-0.002260,-0.007839, 0.002337,-0.007964,-0.003456,
 0.006095,-0.002796, 0.006593, 0.030245, 0.021506,
 0.025390, 0.006527,-0.010764, 0.015456,-0.024283,

-0.016371, 0.028237,-0.009963,-0.025290, 0.013013,
-0.029596, 0.022034, 0.027779, 0.016360,-0.031252,
-0.022852, 0.023861,-0.012364,-0.020904, 0.010669,
 0.024615,-0.006951, 0.028950,-0.022740,-0.010029,
 0.020412,-0.018989, 0.007576,-0.014210, 0.018264,

 0.012851, 0.035139,-0.002981, 0.018610, 0.018500,
 0.027081, 0.010846, 0.014986,-0.000334,-0.028234,
 0.021865,-0.009935, 0.015604,-0.000565,-0.022177,
 0.006555,-0.021636, 0.030669,-0.001243, 0.000577,
 0.024649,-0.000334,-0.033019,-0.002641,-0.012259,

-0.019915, 0.011118, 0.016971,-0.023241,-0.018809,
-0.015141, 0.013885, 0.008703,-0.013391,-0.030496,
 0.027683, 0.031215, 0.027997, 0.028626,-0.034880,
-0.022477, 0.001739, 0.003201,-0.028491, 0.016635,
 0.011925,-0.001997, 0.026478, 0.012944,-0.018907,

 0.000032, 0.012919, 0.017007,-0.032290, 0.000209,
 0.020718,-0.014643,-0.016012, 0.012671,-0.001294,
-0.013634, 0.010273,-0.012500,-0.012590, 0.003504,
-0.027140,-0.032561,-0.000163,-0.008438, 0.010670,
-0.000125, 0.010270,-0.023794,-0.019825, 0.012494,

-0.006103,-0.026117, 0.021391,-0.017277, 0.015061,
-0.014491, 0.032059,-0.021892,-0.024163, 0.034022,
-0.012282,-0.017551,-0.023183, 0.021614,-0.016485,
 0.005056,-0.007650, 0.017081,-0.022662, 0.020233,
-0.004153, 0.002494, 0.007469, 0.023005, 0.021715,

 0.025992,-0.001246, 0.022304,-0.010152,-0.027276,
 0.020550,-0.034221, 0.008121,-0.026511,-0.022713,
-0.023655,-0.014681, 0.000431,-0.014432, 0.023664,
-0.028564,-0.026254, 0.021746,-0.001883, 0.007653,
-0.001696,-0.028056, 0.016829, 0.018886,-0.002533,

 0.030854, 0.013169, 0.005445, 0.001008,-0.019485,
 0.015887, 0.002555,-0.025179, 0.014663,-0.030483,
 0.001720,-0.005734, 0.013062, 0.014019, 0.018341,
 0.022948, 0.013215,-0.015888,-0.004103, 0.030879,
 0.019365,-0.024476,-0.026768,-0.020377, 0.004816,

-0.031799, 0.000189,-0.022577,-0.029210,-0.024995,
-0.000146, 0.003913, 0.030758, 0.001706, 0.011139,
-0.008162, 0.019157, 0.026539, 0.003918, 0.004612,
 0.016135, 0.030587, 0.027034,-0.030128, 0.003377,
-0.018733, 0.025062, 0.006852,-0.008864,-0.014847,

-0.024109, 0.018900,-0.014596, 0.026538,-0.012449,
-0.005248, 0.006162, 0.013177, 0.035225, 0.018907,
-0.028561,-0.020038,-0.032697,-0.031600, 0.033598,
-0.019098,-0.019768,-0.012040,-0.030502,-0.016990,
 0.032735,-0.014096, 0.008116, 0.021755, 0.001290,

 0.027915, 0.002003, 0.016135,-0.015853, 0.006203,
 0.002046,-0.008907, 0.023195,-0.034828,-0.020370,
-0.001328,-0.024841,-0.001361, 0.026826,-0.022450,
-0.020019, 0.027002, 0.027974,-0.005617,-0.020727,
-0.028314, 0.022314, 0.018102, 0.024339, 0.026558,

 0.018042, 0.011930, 0.036436, 0.035088,-0.030941,
 0.024144,-0.018643, 0.014191,-0.012818,-0.007106,
 0.031263,-0.016520,-0.012019,-0.013332,-0.010685,
 0.003577,-0.023043,-0.003313, 0.007220,-0.001326,
 0.004644, 0.031070,-0.010879, 0.016093,-0.026086,

-0.002577,-0.023970,-0.005447, 0.006449, 0.017086,
-0.010384, 0.021996,-0.017124,-0.005050, 0.022856,
 0.012262, 0.028507,-0.027142, 0.025736, 0.007761,
 0.028985,-0.018135, 0.031356,-0.025593, 0.024239,
-0.000134,-0.026680, 0.030131,-0.024752,-0.021852,

-0.018932, 0.035500,-0.007463,-0.022217, 0.000554,
 0.014452, 0.024629, 0.031304,-0.018655,-0.024254,
-0.012059, 0.013783, 0.009960, 0.031567,-0.027850,
 0.001632, 0.014492,-0.035194, 0.009225, 0.002630,
-0.016080,-0.023233,-0.011039,-0.027596, 0.011773,

 0.016538, 0.019157,-0.018984,-0.009113,-0.031847,
 0.026823, 0.031138,-0.005731, 0.010545, 0.028225,
 0.003867,-0.028665,-0.032131, 0.001302,-0.015880,
 0.011083, 0.011758, 0.014166, 0.014844,-0.004479,
 0.007788, 0.008088, 0.006468, 0.027654,-0.008135,

-0.036331,-0.021653, 0.003965,-0.019094, 0.012193,
 0.014008, 0.011322, 0.031762,-0.028769,-0.014225,
-0.026881,-0.024092, 0.019376, 0.014957,-0.029209,
-0.021133, 0.007395, 0.021113,-0.014404, 0.029823,
-0.010384, 0.021282, 0.013941, 0.014762,-0.011160,

-0.033491, 0.003547, 0.023921,-0.003322, 0.021409,
-0.033194,-0.031878,-0.024621,-0.011070, 0.031001,
-0.031053, 0.021947,-0.008517, 0.032157, 0.006366,
-0.001104, 0.020752, 0.034828,-0.023098,-0.021322,
-0.020301,-0.016670, 0.014096,-0.021445,-0.008818,

 0.033797,-0.025873, 0.012037,-0.016270, 0.005994,
-0.000037, 0.009282, 0.016982, 0.012093,-0.004723,
 0.021271, 0.025531, 0.012329,-0.025948,-0.003526,
 0.029898, 0.023873, 0.000108,-0.019166, 0.020344,
 0.032336,-0.005091,-0.017205, 0.032292,-0.019523,

 0.004826, 0.001221, 0.035852,-0.022600, 0.010785,
 0.000878,-0.017568, 0.021922,-0.006280,-0.009945,
 0.005924, 0.034030, 0.021465, 0.016287, 0.032268,
-0.026441,-0.011416,-0.020008, 0.030250,-0.021201,
-0.025275,-0.019660,-0.027770, 0.023940, 0.006743,

-0.014673, 0.010219, 0.033113,-0.001446,-0.028915,
 0.010180,-0.008913,-0.003792, 0.010738, 0.025053,
 0.021579,-0.025573, 0.003155,-0.031647,-0.002614,
 0.004745,-0.004643, 0.017686,-0.027466, 0.010676,
-0.009249, 0.005157,-0.017362,-0.002451,-0.023011,

-0.000826,-0.013131,-0.013793, 0.005935, 0.000281,
 0.012568,-0.021405, 0.007644, 0.022957,-0.026695,
-0.030401, 0.034416,-0.020931,-0.003234,-0.012215,
-0.026755, 0.015597,-0.003490,-0.000611, 0.017083,
 0.024881,-0.009892,-0.011243, 0.033089, 0.038408,

 0.003668, 0.038799, 0.021315,-0.018897,-0.022023,
 0.011385,-0.002490, 0.020523,-0.023786,-0.000283,
-0.002940, 0.015061,-0.015902,-0.008007, 0.019196,
-0.019692, 0.002906,-0.001816,-0.009073,-0.013546,
-0.017407,-0.006437,-0.004411, 0.005027,-0.031679,

 0.008565,-0.009697,-0.010821, 0.022832,-0.026669,
 0.009467,-0.026266,-0.020795, 0.000922, 0.016411,
-0.030760, 0.017886,-0.028922,-0.021898,-0.024054,
 0.012830, 0.033759,-0.012551,-0.002489,-0.016813,
 0.034649, 0.008564,-0.028460, 0.008886,-0.015824,

 0.011548,-0.026742, 0.033741, 0.020302, 0.011385,
 0.028464, 0.004896, 0.029577, 0.009121,-0.033638,
-0.034663, 0.026229,-0.004411,-0.007217,-0.033929,
-0.015311,-0.018939, 0.031972,-0.017920,-0.007314,
 0.033361, 0.012974,-0.012960, 0.023365,-0.010684,

-0.028915,-0.012524, 0.032189,-0.025824, 0.032560,
 0.009310, 0.010027,-0.035628,-0.002923,-0.012684,
-0.011896, 0.002143, 0.003271, 0.016164,-0.029422,
 0.031791,-0.004726,-0.031603, 0.026930, 0.011282,
-0.011047, 0.023103, 0.002061,-0.012715, 0.012271,

 0.034135, 0.025437, 0.015146,-0.002836, 0.031319,
-0.036469, 0.033362, 0.005050,-0.019875, 0.006651,
 0.033118, 0.021319, 0.033103, 0.034511, 0.004077,
-0.005993, 0.011288, 0.031651, 0.004654,-0.025637,
-0.002534,-0.025217,-0.034251,-0.034357,-0.030116,

 0.023219,-0.009874, 0.020741,-0.013450,-0.000437,
-0.005067, 0.014103, 0.011121,-0.001805, 0.004420,
 0.018739, 0.003898, 0.020003,-0.009440,-0.005485,
-0.017973, 0.030215, 0.031970, 0.031166,-0.002843,
 0.025686,-0.007006, 0.015406, 0.007791,-0.007255,

-0.016037,-0.002313, 0.030659,-0.014546, 0.000554,
 0.026783, 0.026406, 0.008258,-0.017629,-0.004481,
-0.011958,-0.003235, 0.027223, 0.006044,-0.019151,
-0.008319, 0.026171, 0.016482, 0.023183, 0.016552,
-0.024652, 0.023549,-0.021163,-0.032431, 0.001473,

 0.017364,-0.007069,-0.016303,-0.016885, 0.001157,
-0.023267, 0.022446, 0.001651, 0.018782,-0.018503,
 0.025111,-0.024560, 0.030813, 0.030165,-0.002189,
-0.003085, 0.002434,-0.004236,-0.028809, 0.028577,
-0.016780, 0.016068,-0.016933, 0.025666,-0.027209,

-0.011596,-0.015586, 0.000978,-0.016546, 0.006082,
-0.002078,-0.003325,-0.009471, 0.030804, 0.021476,
 0.017445, 0.021421,-0.025196,-0.007748,-0.032059,
-0.023291,-0.020121, 0.014060, 0.009149,-0.032717,
 0.031689,-0.021129,-0.019051, 0.030339, 0.028388,

-0.009661,-0.009117,-0.028390, 0.025847,-0.023241,
-0.011553, 0.022345, 0.008764,-0.009353, 0.023783,
 0.016808,-0.004288, 0.017688, 0.003878,-0.028427,
-0.018534,-0.030188,-0.025392, 0.000002, 0.000115,
-0.024765, 0.018790,-0.018507, 0.019196,-0.005449,

 0.020474,-0.025734,-0.031835, 0.025736,-0.028347,
 0.009662, 0.012607, 0.007698, 0.024405,-0.006787,
 0.023892, 0.020559, 0.010894,-0.011328,-0.027266,
-0.029842, 0.025654, 0.000088, 0.032629, 0.032172,
 0.029012,-0.017372, 0.001640,-0.028228, 0.001446,

-0.030732, 0.021453,-0.003325, 0.031398, 0.002739,
 0.015479, 0.015565, 0.016361, 0.000508, 0.031199,
 0.019703, 0.022658, 0.032512,-0.005262, 0.018360,
-0.023437,-0.014028,-0.009200,-0.002347,-0.034122,
 0.005275,-0.001202,-0.018111, 0.026427,-0.012249,

 0.001396,-0.033775,-0.014281, 0.027608,-0.029060,
 0.024982,-0.011149,-0.034938, 0.017375,-0.020652,
 0.002047,-0.015923, 0.018792,-0.026679,-0.030271,
-0.022097, 0.032299,-0.006944, 0.014747,-0.001846,
-0.014048,-0.032362,-0.009749,-0.016847,-0.025654,

-0.028826,-0.032150,-0.018170, 0.030808, 0.016970,
 0.032476, 0.032076, 0.003724,-0.033461, 0.004625,
 0.028777, 0.010876, 0.000752, 0.020518,-0.016083,
-0.034997,-0.006718,-0.017899,-0.023407, 0.024962,
-0.028175,-0.023449, 0.001512, 0.023214,-0.034480,

-0.034553, 0.010537, 0.035685, 0.021240, 0.033928,
-0.017126,-0.030595, 0.035441,-0.021612, 0.033734,
-0.016913,-0.030168, 0.016330, 0.024981,-0.029254,
 0.019536, 0.021180,-0.007322, 0.011723, 0.001550,
-0.004710,-0.027415,-0.001016,-0.018468, 0.006039,

 0.021120, 0.035091, 0.028551, 0.013904, 0.008758,
-0.022235,-0.013833, 0.008209,-0.005845, 0.001289,
-0.028778, 0.024575, 0.032069,-0.030680, 0.019004,
 0.025115,-0.001092, 0.022534, 0.008926, 0.021504,
 0.012686,-0.015274,-0.007985,-0.007650, 0.025963,

-0.008375,-0.020749, 0.011191,-0.004537,-0.031425,
-0.007229, 0.010478,-0.021854, 0.021886, 0.006247,
-0.003963, 0.006455, 0.019341,-0.031749,-0.028372,
-0.028677,-0.024075,-0.031110, 0.024111,-0.015504,
 0.004619,-0.018207, 0.014789, 0.033309, 0.013217,

 0.027714, 0.009788,-0.002579, 0.017065,-0.010284,
 0.014829, 0.006782,-0.016873,-0.021359, 0.019925,
-0.016028,-0.032756, 0.009550,-0.000036,-0.021235,
 0.010864,-0.017269, 0.004943, 0.034489,-0.001146,
 0.036432, 0.007829,-0.015295,-0.012741, 0.011178,

 0.013459,-0.003962, 0.020279,-0.022920,-0.020264,
 0.024286,-0.031338,-0.034636,-0.010440,-0.013752,
-0.031323, 0.034308, 0.030792, 0.026621, 0.017102,
 0.015242,-0.006051,-0.005847, 0.028289, 0.028972,
-0.001435, 0.011230,-0.023445, 0.022364, 0.025034,

-0.019583,-0.017446, 0.028054,-0.029779,-0.000807,
 0.011491, 0.041334,-0.013618,-0.036571, 0.020270,
-0.023520,-0.027265,-0.029455,-0.013586, 0.033790,
-0.019612, 0.034112,-0.006724, 0.031866, 0.029055,
-0.001929,-0.011578, 0.024832,-0.021727, 0.018721,

 0.027461,-0.021471,-0.001510, 0.029591, 0.014701,
 0.019847,-0.002821, 0.000595,-0.014395, 0.018186,
 0.022698,-0.007529,-0.014665, 0.015814, 0.032718,
 0.013917,-0.024734,-0.020227, 0.010930, 0.033127,
-0.032615, 0.012138, 0.013322, 0.031451,-0.009154,

-0.007763,-0.008991,-0.005870, 0.017004, 0.014793,
-0.012824, 0.001699,-0.019245, 0.022327,-0.025406,
 0.000998,-0.002779, 0.034660,-0.030435, 0.004178,
 0.003286, 0.023433, 0.005222,-0.020739, 0.034502,
 0.018993, 0.009866,-0.012247,-0.029392,-0.032767,

-0.028725, 0.013585, 0.024700,-0.013335, 0.021110,
-0.013357,-0.019194,-0.003584,-0.004835,-0.024863,
 0.032673,-0.026726,-0.032247,-0.024475, 0.025579,
 0.004932,-0.032203,-0.015684,-0.011152,-0.029019,
-0.028035,-0.026600, 0.021757,-0.006784, 0.031890,

-0.029608, 0.001993, 0.019788, 0.026634, 0.004752,
 0.007079,-0.014415, 0.006801,-0.013065,-0.002323,
 0.017579,-0.013548,-0.016049, 0.005510,-0.009013,
-0.004949,-0.009657, 0.024930, 0.025586, 0.037238,
-0.000260,-0.031399,-0.002505, 0.024655, 0.035241,

-0.025556, 0.015758,-0.010797,-0.003469,-0.019763,
-0.031688, 0.015786,-0.014863,-0.020243, 0.003533,
-0.007557, 0.016151,-0.011888,-0.007648,-0.001333,
-0.005953, 0.005976, 0.003261, 0.003467,-0.006908,
 0.030425, 0.026375, 0.027031,-0.027356,-0.008526,

 0.020460,-0.015486,-0.008462,-0.029602, 0.019416,
 0.034020, 0.035174,-0.030369,-0.019465, 0.014592,
 0.000954, 0.025789, 0.008727, 0.007296,-0.001735,
 0.000113,-0.024160, 0.013013,-0.026475, 0.004915,
 0.012171,-0.032356, 0.026961, 0.022538,-0.002121,

 0.034731,-0.004494, 0.021006,-0.000593, 0.028410,
-0.032990, 0.006149,-0.000004,-0.033045,-0.008560,
-0.018885, 0.018577,-0.003540,-0.022439,-0.011975,
-0.008902, 0.019845,-0.019096, 0.004032, 0.023550,
 0.030649,-0.015107, 0.001888, 0.027362,-0.001625,

-0.003213, 0.018637,-0.029331, 0.018151,-0.003410,
 0.027044, 0.009235, 0.018969,-0.011511, 0.033641,
-0.018802, 0.031612, 0.011598,-0.000804,-0.002630,
-0.002502,-0.019588, 0.005524,-0.010754, 0.007328,
 0.015586, 0.017358, 0.021362,-0.010027, 0.032763,

-0.022847,-0.007451,-0.001578,-0.002307,-0.028087,
-0.031547, 0.019260, 0.017411,-0.030955,-0.034024,
-0.018420, 0.023414, 0.005640, 0.027538, 0.000357,
-0.010381,-0.031656, 0.029558,-0.002859, 0.031767,
-0.020714,-0.015508, 0.005706, 0.004078, 0.031410,

-0.032839,-0.031471,-0.029436,-0.029599,-0.026978,
-0.006501,-0.004970, 0.033552, 0.008958, 0.000581,
 0.021536, 0.030308, 0.003039, 0.019163,-0.001788,
 0.031946,-0.002579, 0.012804, 0.022524, 0.016673,
 0.031915, 0.002406,-0.012770,-0.015119, 0.006251,

-0.024244, 0.030592, 0.004398,-0.022679, 0.003646,
-0.006148, 0.000898,-0.024929, 0.006051, 0.017358,
-0.001071, 0.025557,-0.020208, 0.012504, 0.007887,
-0.007530,-0.003031,-0.011266, 0.039003, 0.020830,
 0.037923, 0.046585, 0.022944,-0.018073, 0.008819,

-0.008977, 0.016408,-0.007176,-0.001670, 0.035697,
 0.004071,-0.017802,-0.025284,-0.021193, 0.019330,
-0.006974,-0.018907, 0.013112, 0.021869,-0.019761,
-0.039897,-0.028109,-0.009449,-0.014636,-0.021732,
-0.006044, 0.026427,-0.009435, 0.015962,-0.022320,

-0.000541, 0.032501, 0.029551,-0.013426, 0.033761,
 0.022010, 0.034175, 0.039772, 0.042501,-0.008106,
-0.027363, 0.025002, 0.044426, 0.005150,-0.037113,
-0.023651, 0.033688, 0.021031,-0.009168,-0.014835,
-0.015621,-0.007310, 0.045555, 0.003593, 0.027432,

-0.006610, 0.015614, 0.032797,-0.005172,-0.006503,
-0.016463, 0.003272, 0.022968, 0.018682, 0.032921,
 0.013816, 0.018008,-0.008387, 0.026456, 0.032027,
 0.029461, 0.021231,-0.013308,-0.001324, 0.010186,
 0.010613, 0.036522, 0.002101,-0.017519, 0.016290,

-0.029222,-0.016800,-0.016475, 0.038774,-0.014247,
-0.027593,-0.004697,-0.002582, 0.036531,-0.023297,
-0.003522, 0.022248, 0.025878,-0.011810, 0.003886,
-0.017366, 0.037134, 0.021991, 0.019965, 0.031717,
 0.013580,-0.005973, 0.020090,-0.027988,-0.013211,

 0.029328, 0.012243,-0.010864,-0.031456, 0.013641,
-0.037677, 0.023075,-0.003741, 0.021756, 0.033995,
 0.012732,-0.027170,-0.009836,-0.029296, 0.021756,
-0.016931,-0.025131,-0.001078,-0.008852,-0.012612,
-0.022763, 0.024693, 0.002078, 0.036992,-0.012268,

 0.008484,-0.000777,-0.021102, 0.013071,-0.002347,
 0.020803, 0.031271, 0.013242, 0.026746,-0.027461,
-0.022152,-0.013591,-0.030953, 0.000877,-0.011342,
-0.016833,-0.011915, 0.021060, 0.019133,-0.019650,
-0.012552, 0.005051,-0.013380, 0.033968, 0.034140,

 0.023526, 0.005047, 0.003262,-0.023689, 0.016133,
 0.007115, 0.018599,-0.036226, 0.022413,-0.028365,
-0.003035, 0.015364, 0.016735, 0.013278, 0.001892,
-0.034665, 0.009748,-0.004956,-0.009709,-0.025732,
-0.009403, 0.023590, 0.019691,-0.009921, 0.007449,

-0.003560,-0.013535, 0.008784, 0.029272, 0.006995,
-0.018473, 0.027092,-0.002766, 0.017678, 0.014295,
-0.035729,-0.010952, 0.030779,-0.006656, 0.012526,
-0.034384, 0.009876,-0.002168, 0.019032, 0.018021,
-0.016370, 0.016701,-0.029209, 0.011040,-0.024695,

 0.031159, 0.010793, 0.035156, 0.019239, 0.013156,
 0.020059,-0.004332,-0.003931,-0.017291,-0.008925,
 0.026912,-0.019663,-0.016189, 0.036207, 0.010483,
 0.001362, 0.002309,-0.003421,-0.020591,-0.033695,
-0.034204,-0.018442, 0.034858,-0.005078, 0.025342,

 0.013729, 0.027466,-0.032504, 0.006296,-0.015750,
-0.021709, 0.015163, 0.029755, 0.028188,-0.000483,
-0.014592,-0.008639, 0.031089,-0.032104,-0.033818,
-0.006583, 0.014051,-0.027804,-0.033019, 0.007484,
 0.035200,-0.001876,-0.021954, 0.014747,-0.015006,

-0.016705, 0.021733,-0.015120,-0.006470, 0.020006,
 0.014279,-0.014083, 0.008084, 0.035137,-0.021163,
-0.015444, 0.023136,-0.023636, 0.010308,-0.000915,
-0.016631, 0.012723, 0.030673, 0.021601,-0.017484,
 0.021462,-0.026952, 0.029218,-0.033550,-0.033174,

-0.029901,-0.030092, 0.007464,-0.005604, 0.000252,
 0.022582,-0.028828, 0.001529,-0.016200, 0.026166,
 0.003400,-0.006599, 0.023210, 0.020659,-0.010222,
-0.016224, 0.008508,-0.004970,-0.012040, 0.003613,
-0.023729, 0.042950, 0.006631,-0.009418, 0.000034,

 0.029308, 0.004802, 0.026267,-0.022213, 0.035578,
-0.016196,-0.035200,-0.022997, 0.037579,-0.007740,
-0.005854, 0.013035,-0.028313,-0.015409,-0.005931,
 0.000385,-0.028843,-0.027228, 0.010401,-0.020167,
-0.001141,-0.033405, 0.025483,-0.017412,-0.018332,

-0.033015, 0.004323,-0.031176, 0.015312, 0.013604,
-0.025999, 0.028344, 0.031947,-0.022602,-0.009819,
-0.019864,-0.014417,-0.017889, 0.012504, 0.014405,
-0.003130,-0.016730,-0.031161,-0.006777, 0.030575,
 0.021026,-0.000755,-0.002400, 0.004059,-0.007568,

-0.005939,-0.009654,-0.001183,-0.012821, 0.010199,
-0.032636,-0.003003, 0.021431,-0.014750,-0.013987,
-0.022653,-0.012636,-0.006583,-0.011869,-0.032112,
-0.019299,-0.018549,-0.022105, 0.008432,-0.003614,
 0.006831, 0.024028, 0.012201, 0.019890,-0.015109,

 0.024153,-0.009191, 0.005817,-0.023094, 0.024104,
-0.020276,-0.033732, 0.011206, 0.014713,-0.023156,
 0.003960,-0.032884, 0.006151,-0.030349, 0.007481,
-0.029344, 0.010254, 0.011797,-0.017438,-0.023924,
-0.029060, 0.015746, 0.012160,-0.009258, 0.028640,

 0.031600,-0.001694, 0.029115,-0.000623,-0.029071,
-0.004608, 0.019076,-0.021901, 0.009294,-0.014219,
-0.010772,-0.015223, 0.031602,-0.000343,-0.014614,
 0.021498,-0.022461,-0.023934,-0.029612,-0.029534,
 0.031554, 0.026115,-0.007541, 0.016551, 0.005712,

-0.036997, 0.001264,-0.013680, 0.021831,-0.010302,
 0.029019, 0.000358, 0.037247, 0.006601, 0.018667,
-0.037381, 0.028731, 0.025536, 0.023270,-0.028404,
 0.008587, 0.019826,-0.016738,-0.026933,-0.012740,
 0.005731,-0.009229, 0.006077,-0.004612, 0.014441,

-0.025638, 0.001090, 0.034931, 0.012340, 0.030032,
-0.030118, 0.000517, 0.034368,-0.009206,-0.010263,
-0.029019,-0.001747,-0.005364,-0.029909,-0.035252,
 0.033047,-0.000686, 0.023588,-0.008262,-0.025317,
 0.011348, 0.037731,-0.006810,-0.024076,-0.019330,

 0.008634, 0.029120,-0.026277, 0.001385,-0.030816,
-0.017412, 0.032984,-0.007842,-0.030223,-0.033513,
 0.029301, 0.017799, 0.033201,-0.007867, 0.007410,
 0.027708, 0.015174,-0.011708,-0.002159,-0.020470,
 0.013837, 0.001271, 0.025315,-0.009159,-0.014337,

-0.027160,-0.002360,-0.035691, 0.025312,-0.019257,
 0.027661, 0.010562, 0.001161, 0.011478, 0.008569,
-0.024042, 0.029555,-0.004156, 0.004877, 0.019270,
 0.014263, 0.034135, 0.017507, 0.045108,-0.016245,
-0.005233, 0.011718, 0.017175, 0.019494,-0.014864,

-0.022170, 0.031652, 0.001249, 0.018471,-0.033924,
 0.024169, 0.014134, 0.005233, 0.022411,-0.013318,
 0.030780, 0.004161,-0.000706, 0.003098, 0.002318,
-0.022920, 0.023170, 0.006195, 0.008055, 0.029226,
 0.018294,-0.022376,-0.010554,-0.007498,-0.026909,

 0.027092, 0.027855,-0.015474, 0.003768, 0.017500,
-0.020303,-0.023029,-0.029483, 0.021848, 0.001369,
 0.018975, 0.024891, 0.022302, 0.029731,-0.006267,
-0.020978, 0.017720,-0.017620, 0.011729, 0.020253,
-0.029678, 0.029565, 0.034528, 0.022857,-0.012615,

-0.026245,-0.033172, 0.011240, 0.022920, 0.009461,
 0.031893,-0.022126,-0.019403, 0.022447,-0.015218,
 0.006482, 0.032386,-0.009315, 0.001203,-0.022168,
 0.032490, 0.019236, 0.011693,-0.010065,-0.031019,
-0.024226,-0.010675,-0.032914, 0.031541,-0.028663,

 0.016166, 0.009238, 0.036836, 0.013925, 0.003533,
 0.011915, 0.022529, 0.006571,-0.018296, 0.021174,
-0.005289, 0.040877, 0.016203,-0.012307, 0.012005,
-0.030101,-0.023526,-0.011735, 0.017206,-0.028057,
-0.022253,-0.019001,-0.035288,-0.018547, 0.020711,

 0.009685, 0.013027, 0.016237, 0.002231, 0.015602,
 0.004279,-0.001968, 0.026867, 0.022827, 0.018726,
-0.024362,-0.014648, 0.005806,-0.025649,-0.012174,
 0.025963, 0.025006,-0.021633,-0.024904,-0.030136,
 0.029037,-0.024432, 0.033686,-0.005269, 0.034038,

 0.017843,-0.008218,-0.021510, 0.025535, 0.020396,
-0.009756, 0.027764,-0.021460,-0.003990,-0.024535,
-0.005550, 0.020209,-0.027859,-0.028039,-0.003451,
-0.019009,-0.020571, 0.016461,-0.010117, 0.028823,
 0.031262, 0.025000, 0.008819,-0.012706, 0.017953,

-0.016965, 0.003827, 0.032945,-0.000534,-0.029035,
 0.006165,-0.010536, 0.023039, 0.012463, 0.005176,
-0.029667,-0.018191,-0.027613, 0.031517, 0.001493,
-0.022834, 0.020334,-0.008738,-0.028142,-0.001646,
-0.016628,-0.004813,-0.024846, 0.016113,-0.007092,

-0.024007,-0.025466, 0.009891,-0.002412,-0.033812,
-0.002889, 0.025308, 0.000753, 0.020671,-0.013266,
-0.014292, 0.032580, 0.016694, 0.026801,-0.008883,
-0.035755, 0.016852, 0.002265,-0.001260, 0.032369,
 0.006812, 0.025882,-0.017840,-0.026648,-0.005868,

-0.017017,-0.026535,-0.027829,-0.000283,-0.012256,
 0.028214,-0.025627, 0.022894,-0.032906,-0.015282,
-0.004415,-0.030395,-0.027743, 0.020099, 0.034516,
 0.031863, 0.019203,-0.005483, 0.030119, 0.015075,
-0.008774,-0.000690, 0.031269, 0.022886, 0.004339,

 0.006625,-0.034423,-0.009184, 0.009881,-0.006758,
 0.032656,-0.013449,-0.003627, 0.000931, 0.021408,
-0.000915, 0.018977, 0.008374, 0.035098, 0.021765,
 0.020539,-0.017494, 0.035472,-0.018587,-0.032712,
 0.017305, 0.016459,-0.027086, 0.000357,-0.002700,

-0.012371,-0.014185, 0.018652, 0.001952,-0.003623,
-0.008755, 0.003990, 0.025431,-0.010927, 0.004269,
 0.002043, 0.037305, 0.019785,-0.014579, 0.026989,
 0.005705, 0.015382,-0.030494,-0.023831, 0.032122,
 0.035125,-0.019891,-0.030421,-0.021047, 0.014809,

-0.030852, 0.001268, 0.002854,-0.001686,-0.000161,
-0.036460, 0.022080, 0.012490,-0.036368,-0.034210,
 0.019640, 0.021261,-0.011716, 0.018376,-0.018992,
