 0.022315,-0.014471, 0.017010, 0.006573, 0.028791,-0.005754, 0.016496,-0.028211, 0.027078, 0.013021,-0.002209,-0.004009,-0.013778, 0.017903,-0.020348,-0.020178,-0.010825,-0.008518, 0.041819,-0.028273,-0.002177, 0.016076,-0.003068, 0.003600,-0.012891, 0.008307,-0.017004, 0.007864, 0.002899,-0.016951, 0.028021,-0.000628,-0.028334, 0.020155,-0.012053, 0.027382,-0.020498, 0.005267,-0.003364, 0.021936, 0.013344,-0.000240,-0.013799,-0.013086, 0.027213, 0.013551,-0.012797, 0.012588, 0.032969, 0.040013, 0.002859, 0.021381, 0.001384,-0.012036, 0.017832,-0.004127, 0.025147, 0.023826, 0.013338, 0.008229,-0.035050, 0.000791,-0.012221,-0.000208, 0.021086, 0.018667,-0.005286, 0.027869, 0.019991, 0.033686,-0.029807, 0.000025, 0.022480, 0.046878, 0.017394, 0.027696,-0.003968, 0.025819,-0.022216, 0.026598, 0.007779, 0.030122,-0.033410,-0.025199,-0.019529, 0.020169, 0.032761,-0.027869, 0.010660,-0.031290,-0.019480,-0.000787, 0.029924,-0.024645, 0.017104,-0.019812, 0.008460, 0.011240,-0.036161,-0.010607,-0.018637,-0.006017,-0.014199, 0.015064,-0.010118,-0.044716,-0.027064,-0.007609, 0.019041,-0.013312,-0.017533,-0.004348,-0.010030,-0.023157, 0.002254, 0.018449, 0.025498,-0.003529,-0.017993, 0.021322,-0.009305, 0.052805,-0.009471,-0.012521,-0.004294, 0.007533,-0.010986,-0.027935,-0.024521, 0.025167,-0.006634, 0.007977, 0.015821,-0.009163,-0.017785,-0.004558, 0.006856, 0.012147,-0.017324,-0.000318, 0.012562,-0.027577,-0.019106, 0.000887,-0.023943, 0.010238,-0.024502,-0.024844, 0.009911,-0.027455,-0.037883,-0.009770, 0.008266,-0.005688,-0.016494,-0.028623, 0.000527, 0.004343,-0.016682,-0.028960, 0.014940, 0.008150,-0.020650,-0.020733,-0.028291, 0.019374,-0.015090, 0.015321, 0.010946, 0.040913, 0.019250,-0.005315, 0.013411, 0.026116, 0.012314,-0.031827, 0.031149, 0.016978, 0.005619, 0.008455,-0.028016, 0.022891, 0.003579, 0.007751, 0.002469, 0.003182,-0.015484,-0.008953,-0.007025, 0.005286, 0.017952,-0.025464,-0.028916,-0.020391, 0.011726,-0.006713,-0.022413,-0.013128, 0.039628, 0.003560, 0.007035,-0.029483,-0.038003,-0.022847, 0.025958, 0.001853, 0.004203, 0.010336, 0.028325, 0.004432,-0.007286, 0.022822, 0.001023,-0.004635,-0.022141, 0.025022,-0.027693, 0.025561, 0.023656, 0.021501, 0.010100,-0.009263,-0.010712,-0.019768, 0.014280,-0.030405,-0.010776,-0.001254,-0.005682, 0.013980,-0.011375, 0.018907,-0.009466, 0.029355, 0.013905, 0.014475, 0.022977, 0.021686, 0.023373, 0.023768,-0.010181, 0.000922,-0.012706,-0.004876,-0.004371,-0.016036,-0.000893, 0.006578,-0.009427,-0.031209, 0.003595, 0.032777, 0.019437, 0.002566, 0.004164,-0.007864, 0.016777, 0.016213,-0.004746, 0.027405, 0.012285, 0.020374, 0.002941, 0.031242,-0.036526,-0.020117,-0.029804, 0.008434,-0.016529, 0.018402, 0.022420,-0.018285,-0.016891,-0.000241, 0.005473, 0.029901,-0.007189, 0.022432, 0.005747,-0.020356, 0.022315, 0.032828,-0.007557,-0.004753, 0.020142,-0.026148,-0.025513,-0.000234, 0.035578,-0.005896,-0.028186, 0.008235,-0.022825, 0.020042, 0.007708, 0.008556,-0.022337,-0.025718, 0.007178, 0.005260, 0.036912, 0.028641, 0.003709,-0.013517, 0.018553, 0.011558, 0.011640, 0.023681, 0.002991, 0.009861,-0.012015, 0.003212,-0.011737, 0.036316, 0.014861,-0.006102, 0.001679, 0.012770,-0.028763,-0.025029, 0.041250, 0.034679, 0.021915, 0.023515, 0.006327, 0.026582,-0.002809, 0.001661, 0.044863,-0.013481,-0.007013,-0.015559,-0.012437,-0.013411, 0.023323, 0.020133,-0.018595,-0.010234,-0.025253, 0.017739, 0.015010,-0.000083,-0.004659, 0.002137, 0.020746, 0.003205, 0.002663,-0.003324, 0.032000, 0.020290, 0.013660, 0.013354, 0.012042,-0.009781,-0.009722, 0.030967,-0.004690,-0.020044,-0.023674,-0.005196, 0.010134, 0.023353, 0.034015,-0.016921, 0.028529, 0.020193,-0.030820,-0.006807,-0.027590,-0.027385, 0.009967, 0.008137,-0.033618, 0.019036,-0.017105, 0.011732,-0.016669,-0.003440, 0.025471,-0.023571,-0.011544,-0.017797,-0.010871,-0.000459, 0.041706,-0.003890,-0.025489, 0.014141,-0.004081, 0.020736,-0.022320, 0.021802,-0.016468, 0.037762, 0.012066,-0.002897, 0.013598, 0.015376,-0.009319, 0.000817,-0.004539,-0.000331, 0.005385,-0.021667, 0.022060, 0.011311,-0.023099,-0.031061, 0.017196, 0.028032, 0.031143, 0.002569, 0.022169, 0.013968, 0.028311,-0.000766, 0.016170, 0.030225, 0.005004,-0.008786, 0.018270,-0.007302, 0.007325, 0.021621,-0.008068,-0.027451, 0.007593,-0.018619, 0.029181, 0.020817, 0.015358,-0.019668,-0.033633, 0.019840,-0.019398,-0.023248,-0.005952, 0.020573, 0.020431,-0.003774,-0.011799,-0.037108, 0.011675,-0.003963, 0.016457,-0.012252,-0.023941,-0.028042, 0.028605,-0.014449,-0.012211, 0.014618, 0.001199, 0.011886, 0.008922, 0.019754, 0.008041,-0.000537,-0.031042, 0.015034, 0.005954, 0.010414,-0.024702, 0.018872,-0.007989,-0.020988, 0.012015,-0.003478, 0.030925, 0.037922, 0.014742, 0.004780,-0.022732,-0.018316, 0.026403,-0.015367, 0.016933, 0.013105, 0.016471,-0.021445,-0.003296,-0.018222, 0.021272, 0.025343,-0.015359, 0.017691, 0.023205, 0.011281, 0.007754, 0.006658,-0.013133, 0.030967, 0.028668, 0.004795, 0.014581, 0.008102,-0.018040,-0.019621, 0.032262, 0.007404,-0.021327,-0.025113, 0.019173,-0.018355,-0.018951,-0.038576, 0.022644, 0.000847,-0.017178,-0.022280,-0.026820,-0.001937,-0.025816,-0.031195,-0.000679,-0.018963,-0.024380, 0.004835,-0.012645, 0.002006, 0.029564, 0.020363,-0.028685, 0.026163,-0.002443,-0.002593,-0.012565, 0.003804, 0.035632,-0.026363, 0.025329, 0.009880, 0.001817, 0.020484, 0.012388, 0.026092, 0.020222,-0.026114,-0.019897, 0.016935, 0.025478,-0.027253,-0.003773,-0.001272, 0.021869, 0.039846,-0.022771,-0.028708,-0.002819, 0.022463, 0.012605,-0.012493, 0.029986,-0.000532, 0.023092,-0.011357, 0.028218, 0.004374,-0.019678, 0.027556, 0.016549,-0.028628, 0.024721, 0.021692, 0.002536,-0.017675,-0.013738,-0.009941,-0.027457, 0.039627,-0.005836, 0.028415, 0.033877,-0.016515,-0.029741, 0.029086,-0.017792,-0.007710, 0.018286, 0.002213,-0.013620, 0.001728, 0.007039,-0.025842,-0.023689, 0.011101,-0.021459,-0.017474,-0.000959, 0.008775, 0.025557, 0.012527, 0.006498, 0.000979, 0.015246,-0.006693,-0.028454, 0.001773, 0.012840, 0.029829,-0.038707, 0.009887, 0.014116,-0.009372,-0.029426, 0.012940,-0.026894,-0.021321, 0.012848, 0.023212,-0.013883,-0.016378,-0.001518, 0.033001,-0.012170,-0.010820,-0.027968,-0.029235,-0.002423,-0.003887, 0.001269,-0.026553,-0.020360, 0.038147,-0.020118, 0.031810,-0.000880, 0.009686,-0.013749,-0.018050, 0.022796, 0.029058, 0.027113,-0.020160, 0.010174,-0.009326,-0.022020,-0.018911,-0.030330, 0.008912, 0.015411, 0.010181,-0.018874,-0.006688,-0.018029, 0.025858, 0.007793,-0.028314,-0.018637, 0.017416, 0.009989,-0.030555, 0.022223, 0.025279,-0.005922,-0.007693, 0.008008, 0.012389, 0.027643,-0.020824, 0.011083, 0.004617, 0.003593, 0.025347,-0.012439, 0.008979, 0.002894,-0.014602,-0.020112, 0.030248, 0.016204,-0.023476, 0.005121, 0.021496, 0.021171,-0.030159, 0.000882, 0.003793,-0.025863,-0.017160,-0.003522,-0.010828,-0.004069,-0.017062,-0.015788, 0.017260, 0.018684,-0.029897,-0.020032, 0.028504, 0.030450,-0.008693, 0.036794,-0.003676,-0.002537,-0.007454,-0.019742, 0.019445,-0.020287,-0.002068, 0.023408,-0.004825, 0.006847,-0.010633,-0.030460,-0.026433, 0.028501,-0.027266,-0.001701,-0.007537, 0.020145, 0.007995,-0.017002, 0.015301, 0.020529,-0.010439, 0.002387,-0.000198,-0.036319,-0.001548, 0.021594,-0.009064,-0.017631, 0.003755, 0.020144, 0.025983, 0.010066, 0.015210,-0.010123, 0.017978, 0.004340, 0.005005, 0.021562, 0.017240, 0.009381, 0.029901, 0.019733, 0.030107, 0.034866,-0.011149,-0.018421, 0.016687,-0.002228,-0.008268,-0.027308,-0.016844,-0.022595, 0.014142,-0.028853,-0.032098,-0.017793,-0.015172,-0.003056, 0.042352,-0.010834,-0.030544, 0.021585,-0.031009, 0.015856, 0.012293, 0.003093, 0.007300,-0.041546, 0.001319, 0.013396,-0.007504, 0.019078,-0.005308,-0.021647, 0.016509,-0.017670, 0.002862, 0.008386, 0.028244, 0.017309,-0.007095,-0.001828,-0.014753, 0.009516, 0.032304,-0.003305,-0.002801, 0.028702, 0.018726, 0.032141, 0.009317, 0.000509, 0.011077,-0.029419,-0.007138, 0.037665, 0.001842,-0.019068, 0.013084,-0.033237,-0.005380, 0.007074, 0.027365,-0.028682, 0.019271, 0.023646,-0.027908, 0.003730,-0.016299, 0.023349,-0.028346, 0.021431, 0.001354, 0.000543, 0.006002, 0.005271, 0.000166, 0.014455,-0.027860, 0.014221,-0.001277, 0.009414,-0.002400, 0.013075, 0.025267, 0.024510,-0.025828, 0.001756, 0.004771,-0.013572, 0.006920, 0.024385,-0.009786, 0.016511, 0.023831, 0.037561, 0.005566,-0.034477,-0.017335, 0.009474, 0.025324,-0.027786,-0.033388, 0.012335,-0.012368, 0.039018,-0.004894,-0.000501,-0.000734,-0.025357, 0.005071,-0.002777,-0.013089,-0.016900,-0.015164, 0.020948,-0.008919, 0.027907, 0.022958,-0.001640,-0.013385,-0.028535, 0.008778,-0.001019, 0.037366, 0.027210,-0.009492, 0.032532,-0.012363, 0.005210, 0.031543, 0.030232, 0.004677,-0.022949,-0.014265,-0.031366,-0.008082,-0.004430,-0.014147,-0.008064,-0.001237, 0.026915, 0.005091,-0.030354, 0.016242, 0.003612,-0.013604,-0.024276, 0.009801,-0.016457, 0.027748, 0.017793, 0.027880,-0.039563, 0.012456,-0.022786, 0.023787,-0.020943, 0.023573, 0.006770,-0.009035,-0.010824, 0.009588, 0.014349,-0.023857,-0.000750,-0.001565,-0.001570,-0.000269, 0.022852,-0.002211,-0.018322, 0.028296,-0.019773, 0.025890, 0.021854, 0.015721,-0.012461, 0.009700,-0.036734, 0.012738,-0.012307, 0.016318,-0.011209, 0.004801, 0.038787, 0.002563,-0.022777,-0.024521,-0.011832,-0.016829, 0.002844, 0.020333,-0.011966,-0.007301, 0.009290, 0.023570, 0.027462,-0.013660, 0.013178,-0.011010,-0.011171,-0.019524, 0.016933,-0.029132,-0.003879,-0.024410,-0.016117,-0.004942, 0.029657, 0.024832, 0.037590,-0.030295, 0.022831, 0.005881, 0.026188, 0.015863,-0.009222, 0.011116, 0.051178, 0.000993,-0.022823, 0.025532, 0.025721, 0.004007,-0.000877,-0.009275, 0.024549,-0.012876, 0.004875,-0.021511, 0.022777,-0.009116,-0.021685,-0.011684, 0.042560,-0.008912,-0.017579,-0.012603,-0.006669,-0.000620, 0.008928,-0.006275, 0.008893, 0.039816,-0.019097, 0.027439,-0.006250, 0.014879, 0.018629, 0.000102,-0.016831,-0.011965, 0.018950, 0.005837, 0.009233,-0.005954, 0.008393, 0.000403, 0.011373,-0.008194, 0.025928,-0.009529, 0.004729,-0.034130, 0.014056, 0.001148,-0.012924, 0.030115, 0.024959,-0.006678,-0.010230, 0.018771,-0.020360,-0.016720, 0.001915, 0.025659, 0.023277, 0.010783, 0.022835,-0.011586,-0.033762,-0.005291, 0.016530, 0.035987, 0.004444, 0.042693, 0.006570, 0.022258,
-0.003540, 0.021054, 0.022392, 0.005536, 0.025279,-0.031720,-0.027069,-0.011392, 0.004768, 0.027946,-0.009962, 0.014647, 0.000256,-0.014430,-0.005609,-0.018124, 0.021762, 0.013160,-0.013866,-0.032848,-0.013836,-0.008159,-0.008411,-0.007667,-0.004307, 0.002350, 0.007224, 0.018506, 0.026516,-0.022003, 0.001310, 0.030902, 0.027477, 0.037917, 0.017754,-0.025563,-0.016380, 0.020910,-0.016469,-0.010932,-0.004316, 0.004164,-0.014201, 0.004469,-0.006413, 0.010385,-0.011348,-0.004114,-0.028604,-0.024343, 0.014895,-0.033767, 0.005999,-0.011394, 0.010689, 0.011123, 0.011584, 0.019758,-0.003918,-0.007570,-0.021643,-0.005289,-0.023222, 0.007409,-0.029649,-0.028407,-0.024169,-0.021784, 0.014838, 0.029456,-0.013824, 0.012907, 0.003939, 0.002781, 0.000093,-0.033881, 0.028525, 0.027360, 0.030959, 0.013848, 0.020789,-0.027255, 0.017874,-0.014347,-0.030041,-0.022082,-0.029222, 0.033958,-0.006131,-0.018694, 0.037692,-0.007872,-0.006278, 0.030432, 0.001979, 0.014139, 0.024058, 0.022723, 0.016548, 0.030443, 0.000904,-0.002003, 0.026119,-0.031174, 0.008902,-0.002522,-0.003061,-0.028570,-0.010309,-0.011358,-0.020943, 0.033842,-0.002223, 0.016290,-0.032340, 0.017654, 0.023260,-0.000222, 0.004218, 0.039643,-0.018006,-0.025897,-0.028011,-0.013111, 0.002941, 0.008537,-0.008197, 0.003280, 0.016552, 0.021264, 0.033200,-0.018394, 0.025300,-0.026266, 0.003123,-0.004704,-0.024521,-0.024540,-0.018761, 0.031237,-0.018227,-0.009755,-0.028951, 0.001109,-0.018379,-0.017863,-0.010684, 0.009547, 0.001547,-0.000658,-0.002849, 0.027566, 0.010406,-0.011811, 0.005685,-0.026170, 0.007129, 0.010978,-0.005931, 0.015268,-0.028833,-0.030296,-0.023007,-0.004526, 0.009726,-0.019372,-0.022982, 0.027657, 0.012473,-0.009937,-0.028981,-0.002636,-0.015133, 0.005560,-0.020954,-0.005806, 0.000335, 0.026820,-0.002623,-0.015977, 0.010325, 0.004440,-0.025690, 0.014567,-0.015502, 0.021412, 0.018356, 0.013782, 0.027483,-0.029309,-0.006689, 0.015336,-0.004316,-0.030718,-0.029213, 0.019778, 0.018971,-0.019081, 0.009789,-0.006295, 0.016808, 0.011975, 0.018069,-0.019492,-0.023258,-0.015164, 0.016822,-0.028067,-0.037276,-0.002492, 0.022318,-0.021111, 0.002322, 0.043536,-0.015159,-0.018539,-0.035365, 0.001032, 0.007709, 0.021461, 0.034201,-0.025720, 0.019963,-0.026940,-0.027392,-0.006854, 0.035066, 0.008624,-0.017092, 0.030673, 0.040523,-0.004827, 0.011216, 0.021954,-0.011722, 0.026519,-0.017057, 0.028969, 0.020977, 0.013199, 0.010387, 0.030783,-0.032697, 0.005030, 0.017699,-0.001136,-0.038807,-0.016554, 0.022443, 0.025495, 0.026617, 0.010370,-0.017180, 0.027047,-0.007349,-0.022493, 0.012236,-0.037398,-0.022007,-0.004473,-0.022138,-0.005110, 0.012773, 0.004647, 0.002066,-0.034670, 0.025063, 0.027498,-0.006294,-0.002328, 0.029272,-0.006401, 0.018275, 0.026001,-0.007720,-0.003369,-0.004842,-0.003036,-0.030392,-0.028232, 0.027235,-0.028808, 0.030999, 0.028693, 0.009560,-0.014799, 0.031680,-0.034131, 0.010844,-0.024972, 0.024171, 0.005766, 0.043356, 0.008889,-0.023352, 0.029808, 0.004212, 0.013141,-0.009638,-0.008934,-0.023656,-0.014970, 0.015230, 0.007915, 0.027788,-0.020062, 0.009304, 0.017823, 0.012997,-0.003167, 0.012206,-0.025101, 0.038518,-0.045583,-0.024692,-0.014076, 0.003116, 0.026835,-0.023268,-0.012681,-0.038079, 0.009510, 0.015399, 0.002224, 0.020517,-0.016667,-0.000207, 0.037708,-0.044075,-0.029248,-0.017000, 0.018949, 0.019376,-0.017276, 0.018029,-0.037386, 0.003627, 0.030711, 0.018201,-0.022379, 0.000693, 0.008160, 0.017651,-0.027683,-0.026564, 0.020593, 0.012149, 0.026359,-0.033955, 0.000801,-0.026860,-0.003032,-0.028909, 0.022866,-0.035794, 0.003749, 0.014669,-0.029283, 0.011797,-0.020590,-0.028697,-0.009114, 0.028622, 0.034088, 0.025288,-0.030035,-0.007009, 0.018564,-0.005364, 0.038077, 0.024694, 0.004058, 0.034326,-0.001617, 0.008244, 0.007089,-0.005335,-0.025135, 0.024356, 0.015472, 0.012262, 0.037162, 0.021842, 0.006016, 0.014823, 0.024291, 0.012066,-0.010548, 0.009248,-0.007850,-0.016024, 0.011265,-0.017997,-0.009544, 0.017584,-0.029311, 0.024550, 0.030312, 0.008709, 0.013442,-0.013841,-0.025654, 0.028028,-0.006778,-0.020823,-0.031231,-0.000293,-0.021471, 0.009473,-0.017563, 0.011245, 0.019188,-0.009003, 0.014973, 0.017152,-0.006182,-0.021788, 0.004310, 0.039133, 0.033391, 0.011805,-0.016444, 0.027379, 0.006965, 0.009948,-0.002348, 0.013539,-0.023396, 0.009947,-0.007139,-0.007576, 0.009282, 0.012585, 0.017932,-0.001792, 0.019053,-0.016810,-0.000945,-0.002329, 0.040024,-0.021665, 0.024275,-0.021673, 0.020852, 0.009476,-0.013155, 0.027648,-0.014938, 0.036761, 0.030858, 0.029532, 0.023810,-0.016851, 0.023647,-0.010016,-0.012284,-0.009227,-0.012323, 0.020414,-0.016778, 0.007540,-0.005076, 0.023208,-0.030034,-0.002587,-0.012523,-0.040448,-0.012329,-0.011408, 0.021158, 0.002273,-0.015397,-0.024382,-0.016554, 0.010650, 0.031779, 0.006572, 0.008379,-0.029984, 0.009711, 0.028653, 0.019983,-0.010481, 0.004999, 0.016596,-0.000597,-0.011858, 0.018640, 0.028854,-0.038015,-0.007046, 0.011913,-0.022750, 0.033780,-0.024073,-0.000880, 0.022544, 0.002418, 0.024570,-0.013356, 0.026726, 0.007458,-0.023463,-0.008593, 0.002316, 0.005913,-0.003081, 0.006619,-0.006723, 0.028192,-0.023166, 0.025744,-0.036499, 0.006833, 0.028470,-0.021629, 0.015991, 0.012476,-0.005797,-0.017239,-0.006915,-0.010329, 0.004324, 0.035056, 0.010550, 0.023336, 0.011696,-0.007433,-0.031416,-0.019567,-0.002042,-0.033537,-0.008714,-0.015490, 0.014039,-0.021944,-0.003042,-0.010745, 0.010319, 0.009427,-0.017943, 0.039222,-0.018098,-0.013771,-0.047818,-0.036571,-0.017688,-0.026538,-0.026802, 0.002934,-0.002639,-0.020582, 0.014394, 0.003419,-0.020726,-0.013819, 0.000017, 0.002865, 0.033558,-0.027453,-0.032875,-0.000489,-0.020671, 0.028628,-0.022136, 0.004976,-0.026275,-0.022952,-0.009902, 0.021843, 0.013329,-0.018477, 0.014091, 0.007303, 0.017474, 0.008474, 0.011932, 0.011338, 0.026565, 0.029947,-0.004610,-0.009134,-0.012312, 0.029227,-0.021215, 0.019241,-0.012172,-0.017353,-0.023927, 0.011912,-0.011477,-0.003896,-0.012835,-0.001788,-0.010550,-0.010761, 0.031278, 0.018268,-0.021668, 0.024797, 0.037187, 0.037177, 0.029670, 0.013693,-0.019045,-0.018871,-0.018812,-0.003721, 0.009261,-0.005114,-0.005699, 0.027031,-0.003575,-0.018062, 0.027937,-0.008783,-0.006397, 0.037700,-0.018892,-0.004041,-0.003450,-0.033711, 0.000485, 0.005368, 0.005833, 0.008722, 0.002891,-0.012703,-0.012190,-0.006013, 0.026663,-0.006602,-0.026236,-0.026678,-0.025309,-0.013570, 0.029861, 0.021984,-0.006681, 0.003072,-0.028642,-0.022834,-0.013392, 0.019178,-0.029499,-0.003122,-0.011259, 0.002349,-0.023860, 0.003220, 0.005847,-0.006175,-0.024077,-0.001972, 0.023177, 0.028779, 0.025752, 0.019546, 0.022690,-0.020591,-0.026959, 0.002439,-0.002026,-0.026511, 0.014696,-0.017917,-0.000883, 0.020336, 0.016395, 0.005698,-0.001741, 0.007312, 0.024880,-0.020026,-0.000527, 0.018002,-0.011190, 0.005405,-0.023347,-0.022493,-0.024470, 0.024792, 0.003159, 0.025043,-0.017779, 0.027156, 0.024016,-0.001145,-0.035162,-0.005440, 0.014984,-0.011757,-0.007764, 0.018501, 0.033793,-0.015476, 0.021920,-0.020245, 0.034407, 0.024241, 0.023970, 0.013948, 0.013590, 0.024504, 0.027107,-0.015138,-0.002996, 0.037187,-0.002248,-0.004292,-0.015957,-0.006162,-0.034405, 0.002167, 0.005278,-0.051514, 0.013423,-0.001817, 0.016044,-0.017394,-0.010480,-0.016233,-0.040833, 0.002053, 0.005670, 0.030432,-0.014382, 0.026932, 0.019212, 0.016425, 0.007673, 0.009028,-0.018266,-0.019495,-0.011503, 0.003539, 0.029118, 0.024905,-0.003121, 0.000246, 0.000506,-0.010011,-0.004334, 0.012488, 0.015287,-0.027679, 0.016386,-0.025965, 0.001575, 0.028473, 0.005935, 0.005841, 0.021403,-0.039879, 0.015893,-0.014184, 0.024126, 0.020822,-0.004317, 0.029881,-0.009650, 0.028655, 0.039552, 0.013851,-0.029236,-0.020034,-0.005420,-0.014586, 0.016910, 0.014416, 0.025168,-0.018068,-0.006526,-0.008481, 0.036477,-0.012020, 0.009692,-0.013268, 0.010770, 0.010976,-0.002700, 0.013708,-0.022687, 0.029907,-0.035242,-0.022870,-0.021271, 0.001950, 0.009102,-0.022390, 0.017804,-0.013848, 0.024804,-0.017891,-0.006882,-0.000787, 0.000303,-0.017172, 0.006923,-0.007963,-0.017654,-0.016222,-0.011642, 0.007977,-0.020670, 0.012710, 0.003025, 0.028767, 0.014101,-0.011949, 0.005661,-0.022831,-0.008944, 0.013122, 0.008186, 0.015969,-0.004541,-0.012372,-0.004751, 0.019255, 0.003268,-0.022635,-0.004427,-0.025034, 0.021758,-0.022374, 0.009147,-0.008563,-0.027386, 0.027831,-0.019569, 0.026787,-0.017743,-0.023185,-0.033740,-0.020862, 0.017071,-0.018884, 0.029495, 0.012406,-0.025170, 0.026754, 0.013583, 0.012581,-0.023965, 0.001358,-0.031072,-0.024515,-0.024015, 0.029823,-0.030813,-0.021351,-0.020627,-0.028322,-0.016257, 0.003436,-0.011143,-0.024476, 0.013995,-0.033438,-0.006476,-0.037722, 0.036920, 0.008874,-0.021348, 0.001002,-0.017110,-0.020825, 0.023895,-0.000231,-0.001133,-0.002637,-0.001095, 0.020994, 0.009006,-0.026703,-0.021905, 0.002046, 0.001326,-0.006126,-0.018243, 0.022537, 0.009422, 0.022017,-0.030668, 0.012514, 0.001753, 0.020550,-0.003711,-0.012533, 0.006413, 0.024094, 0.000015,-0.001854,-0.026982,-0.021452, 0.014667, 0.011926,-0.021135,-0.014817,-0.024814,-0.025366, 0.002420,-0.022684, 0.011552, 0.015700, 0.026728, 0.004204, 0.022306, 0.020131,-0.003468, 0.030561,-0.004234, 0.025030,-0.020911,-0.001063, 0.031252, 0.007793,-0.010407, 0.028242, 0.013579,-0.000787,-0.002929,-0.016741,-0.007864,-0.026718, 0.006023,-0.034756,-0.009759,-0.018813, 0.019662,-0.023831,-0.026967,-0.023880, 0.019398,-0.025661,-0.008500, 0.027163,-0.028990,-0.009467,-0.023464,-0.006877, 0.012447, 0.014760, 0.005040,-0.025626,-0.020289, 0.012345, 0.011198, 0.035190,-0.015542, 0.018703, 0.009912, 0.013708,-0.014734,-0.002106, 0.024484,-0.036358, 0.007747,-0.005307,-0.035223,-0.030578, 0.007864, 0.022186,-0.005879,-0.003474, 0.022516,-0.017327,-0.005653,-0.000845,-0.025014, 0.006290,-0.009759,-0.034842, 0.026186,-0.002748, 0.002368, 0.034322,-0.023998, 0.001378, 0.027665,-0.026961,-0.017558, 0.002661, 0.016503, 0.025861,-0.011376, 0.012173,-0.034769, 0.023456,-0.015982,-0.021003,-0.012627, 0.023393, 0.013328, 0.012739,-0.031051,-0.011015,-0.004184,-0.007832,-0.014242, 0.018656, 0.021578, 0.000227,-0.006820, 0.021177,-0.034624, 0.030310, 0.001124,-0.017993, 0.006003,-0.011141,-0.014397, 0.007643, 0.023915, 0.026653,-0.005686, 0.003181, 0.014696, 0.009352,-0.009011, 0.002094, 0.021309,-0.024151,
 0.022682,-0.014870,-0.001664, 0.005472, 0.026975,-0.028962,-0.017978,-0.028126,-0.001299, 0.015710, 0.033057, 0.002481, 0.009876, 0.006135, 0.000116, 0.003355,-0.020908, 0.003634, 0.013369,-0.000605,-0.011883,-0.016697, 0.021290, 0.031334,-0.006623, 0.004728, 0.027325,-0.018899, 0.019987, 0.004878, 0.004984,-0.010994, 0.018993, 0.037369,-0.025407, 0.009119,-0.010872, 0.023825, 0.013527,-0.021150, 0.008035, 0.003994,-0.001970, 0.026618,-0.001649,-0.025147, 0.020426, 0.009107, 0.008410, 0.020498,-0.015112, 0.004725, 0.018113, 0.042747,-0.023489,-0.029621,-0.003307, 0.012145, 0.024628, 0.020360,-0.008623,-0.018644,-0.000856,-0.010660, 0.027132, 0.026531, 0.026393,-0.000214, 0.009085, 0.002965,-0.021736, 0.013742, 0.021874,-0.003123,-0.024072, 0.008313,-0.011020,-0.019412, 0.013758,-0.021587, 0.003042, 0.013703, 0.041847, 0.016045, 0.021843,-0.002723, 0.015886,-0.008313, 0.020968,-0.016940, 0.004766,-0.011267,-0.000935,-0.006664, 0.014467, 0.014931, 0.008273, 0.024791,-0.027256,-0.002756,-0.020632,-0.003443,-0.013950, 0.024130, 0.002459,-0.018683,-0.008104,-0.003635, 0.015865,-0.001253,-0.018964, 0.008733, 0.028255,-0.007823,-0.033122, 0.029992, 0.019751,-0.008785,-0.002001, 0.022591,-0.005444,-0.015328,-0.004938,-0.011423,-0.000048, 0.015138, 0.023650,-0.031970, 0.002548, 0.022276,-0.017983, 0.008117,-0.023869, 0.033406, 0.002051,-0.029268, 0.007300, 0.013197, 0.016556,-0.024623,-0.001211, 0.019701,-0.024862, 0.011720,-0.027806, 0.012659,-0.006035, 0.014016,-0.015601,-0.034484, 0.032614, 0.008180,-0.010957,-0.025934, 0.001803,-0.002169, 0.004484,-0.001373, 0.022931,-0.025893, 0.020073,-0.019778,-0.020152, 0.006069,-0.001952,-0.024129,-0.016296, 0.031926,-0.009392,-0.021656, 0.021100,-0.019759,-0.031051, 0.022115, 0.022928, 0.035613,-0.005828, 0.019941,-0.032596, 0.003875, 0.023065,-0.028324,-0.004074,-0.008669,-0.019184,-0.031811, 0.015272, 0.017928,-0.018961,-0.022259, 0.001516, 0.000743, 0.018426, 0.009612,-0.003935,-0.014855, 0.010132, 0.030725, 0.010798,-0.037458, 0.030379,-0.002356,-0.000880,-0.027215,-0.020564, 0.031634,-0.018986, 0.003942,-0.023444,-0.020875, 0.002610, 0.029031, 0.012343,-0.032057, 0.011911, 0.027921, 0.034164,-0.016525,-0.025767, 0.007657,-0.029736, 0.028212, 0.010807,-0.009828, 0.005745,-0.002444,-0.019983, 0.002587,-0.006327,-0.001954, 0.028133, 0.002124,-0.000856, 0.016185,-0.003348, 0.001768,-0.024245, 0.012569, 0.002262,-0.023808,-0.010588, 0.025269,-0.029718,-0.015566, 0.024246,-0.004022, 0.017806, 0.018715,-0.031508,-0.027369,-0.026376,-0.018445,-0.012363,-0.030883,-0.012487, 0.001913, 0.011029,-0.020415, 0.029417, 0.003341, 0.015320, 0.014418, 0.024227,-0.004988, 0.005368, 0.019439, 0.006052,-0.001136,-0.014564, 0.013271, 0.016580,-0.009471, 0.010144, 0.002629, 0.015389,-0.017787, 0.006853,-0.001278,-0.004681,-0.021682,-0.020928,-0.012717, 0.011948,-0.010046, 0.007146, 0.006116,-0.021451, 0.000758, 0.011201,-0.030968,-0.029127, 0.009331, 0.020075,-0.019554,-0.003322,-0.030090, 0.030907,-0.004781,-0.008698,-0.025470,-0.008022, 0.015754, 0.017679, 0.027900, 0.016488, 0.003774, 0.023488, 0.008481,-0.012578,-0.010916, 0.006272, 0.010247, 0.026638,-0.006893,-0.022334,-0.002046, 0.012543, 0.023084, 0.025691, 0.025537,-0.017108,-0.016189,-0.019928,-0.013273,-0.026128,-0.000345, 0.025755, 0.015823, 0.020415,-0.016244,-0.021783, 0.030770, 0.015474,-0.016251,-0.000085, 0.008867, 0.023841, 0.004469, 0.000848, 0.004102,-0.008660,-0.017171, 0.030969,-0.015855, 0.006285,-0.002740,-0.017215, 0.029301, 0.022171,-0.023797, 0.030282,-0.002870, 0.010860,-0.032454,-0.023996,-0.001955,-0.004711, 0.015032, 0.025295, 0.005337, 0.009422, 0.001933,-0.017346,-0.006131,-0.003541,-0.008479, 0.024787, 0.024782,-0.003360, 0.004319,-0.024663, 0.022523,-0.002015, 0.027756,-0.030858, 0.012609, 0.002564, 0.029697, 0.005612,-0.017990, 0.011230, 0.024239,-0.030252, 0.012531,-0.016092, 0.008241, 0.026931, 0.027781,-0.030572, 0.015342, 0.003158,-0.016841, 0.019968,-0.021001,-0.008941,-0.029120,-0.016627,-0.025160, 0.028937,-0.008302,-0.014813, 0.005051,-0.009551, 0.009276,-0.028844,-0.004193,-0.013757, 0.005702,-0.028402,-0.027883, 0.014194,-0.018282, 0.023156,-0.023849, 0.021037, 0.025939, 0.013246,-0.016747, 0.036176,-0.003177, 0.020151, 0.024564, 0.024292, 0.004082,-0.006107, 0.011665, 0.003220, 0.027060, 0.011407,-0.011787, 0.011735,-0.005085,-0.020632,-0.019719, 0.000658, 0.008999, 0.021063,-0.011047,-0.033059,-0.017103,-0.026241,-0.023927, 0.031578,-0.005141, 0.008143,-0.008273, 0.020444, 0.010670, 0.019243, 0.001344,-0.010185, 0.011515, 0.023001, 0.023983,-0.025639,-0.007539,-0.020432,-0.009101, 0.025942, 0.013602,-0.031756, 0.008571,-0.016423,-0.027354, 0.018147, 0.010370,-0.024330,-0.009556,-0.028847, 0.025823, 0.003714, 0.027325,-0.026397, 0.009927,-0.029725,-0.003402,-0.015124, 0.001442, 0.041072,-0.001827,-0.028004, 0.002310,-0.025467,-0.007894, 0.034505, 0.020308, 0.018445,-0.012511, 0.010649, 0.030354, 0.023368, 0.025660,-0.031086,-0.005692,-0.016769, 0.006693, 0.032922,-0.021627,-0.023166, 0.017850,-0.013165,-0.027106,-0.012418,-0.008022,-0.004214, 0.030134, 0.016448,-0.001981,-0.004201,-0.011012,-0.028084, 0.004170,-0.021810, 0.019169,-0.016487,-0.010754,-0.021983,-0.004788, 0.014553,-0.016900, 0.011512, 0.029315, 0.010734, 0.010816,-0.030371,-0.019307, 0.002415,-0.001814, 0.002429,-0.004410,-0.020896, 0.017123, 0.018945, 0.032984,-0.000194, 0.015357,-0.000818,-0.020174, 0.002857,-0.011497,-0.002916, 0.013498,-0.021969,-0.025163, 0.024439,-0.005316, 0.002309, 0.015196,-0.008842,-0.033966,-0.013300, 0.003386,-0.026119, 0.001827, 0.008235, 0.021055,-0.036187, 0.028470, 0.016083, 0.016605,-0.018889,-0.027762,-0.006343, 0.003813,-0.002166, 0.001644,-0.019583, 0.014064, 0.002649,-0.006494,-0.012224,-0.017153, 0.001595, 0.016907,-0.000148, 0.022525,-0.012759,-0.031476, 0.004036, 0.030140,-0.015313,-0.018828, 0.004031,-0.009475, 0.028092, 0.016547,-0.015366,-0.031781,-0.022177, 0.014305,-0.017353, 0.033585,-0.023521,-0.013080, 0.018135,-0.020410,-0.006369,-0.020190,-0.009769,-0.030708, 0.028242,-0.032169,-0.006619,-0.031235,-0.015712,-0.019307,-0.003903,-0.018810,-0.001846,-0.007791, 0.013184,-0.007232, 0.031026, 0.006677,-0.013894, 0.013657, 0.001092, 0.028212,-0.008809,-0.019290, 0.017173, 0.002674,-0.027209,-0.035623,-0.034079,-0.005952,-0.014928,-0.014249,-0.028005, 0.004409, 0.010256,-0.013503, 0.015861,-0.010229, 0.019253,-0.003502,-0.025195, 0.022212, 0.002938,-0.004922, 0.024226, 0.015596, 0.030064,-0.023894,-0.008386, 0.036303, 0.024902, 0.023613, 0.002746,-0.030644,-0.022255,-0.014655, 0.009177,-0.006045,-0.020252,-0.011759, 0.005882, 0.031283, 0.012815, 0.000124, 0.027279, 0.029286, 0.007079, 0.021444, 0.002382,-0.012723, 0.031053,-0.006780,-0.031178,-0.008138,-0.011422, 0.012949,-0.000519,-0.020589, 0.031933,-0.026290, 0.018747, 0.033050,-0.015173,-0.011499, 0.015397, 0.007241,-0.008859,-0.016080, 0.003533,-0.005912, 0.022036, 0.024286, 0.028421, 0.036182,-0.019263,-0.017900,-0.012762, 0.010696,-0.005880, 0.000968, 0.028210, 0.032279, 0.011948, 0.026869, 0.010643, 0.005073, 0.002086, 0.003538, 0.030202, 0.011592,-0.010219,-0.023765,-0.016910,-0.001785, 0.015662,-0.004650, 0.006722,-0.004846, 0.012326,-0.016783,-0.016165,-0.008754, 0.001902, 0.016848,-0.001252,-0.008328,-0.009213,-0.026528,-0.022510, 0.005271,-0.008011, 0.013349, 0.010080, 0.011430,-0.021553,-0.015129, 0.000685,-0.021632,-0.023865,-0.022208,-0.018582, 0.016047, 0.025197, 0.013227,-0.028799,-0.020026, 0.006242,-0.024275,-0.025707,-0.031214,-0.031274, 0.017521, 0.028578, 0.013483,-0.027057, 0.008658, 0.012332, 0.018963, 0.005616, 0.013009,-0.025876, 0.017258,-0.020786,-0.016243,-0.028905, 0.027529, 0.023536,-0.000545, 0.008120,-0.027128,-0.028082, 0.020687, 0.017862,-0.022658, 0.022329, 0.016648, 0.030383,-0.034190,-0.017491,-0.029721, 0.020109,-0.009440,-0.000903,-0.028409, 0.012733, 0.001459,-0.002569, 0.023684, 0.009541,-0.014437, 0.003664, 0.006225, 0.017371,-0.002426,-0.030759, 0.026915, 0.009527,-0.000556, 0.020304,-0.005350,-0.002046,-0.000378,-0.008617, 0.009318,-0.028997, 0.009969, 0.027354, 0.015819,-0.016563, 0.029599,-0.007989,-0.013582, 0.011871,-0.021762,-0.000818,-0.027056,-0.013115,-0.025963, 0.019201, 0.003683, 0.002130,-0.024847,-0.005681,-0.002403,-0.024614, 0.011768,-0.011408,-0.010086, 0.021964, 0.016418, 0.003592, 0.024731, 0.018002,-0.036288, 0.014033,-0.031489,-0.019598, 0.008816,-0.020989, 0.009326, 0.024453,-0.011202, 0.021072,-0.010278, 0.032697,-0.012285, 0.011474,-0.013832,-0.005473,-0.005997,-0.025169, 0.032380, 0.011326, 0.023601, 0.013753,-0.022704, 0.013973,-0.005364, 0.010109, 0.010776, 0.013619,-0.005502, 0.024730,-0.009326,-0.008664, 0.009893, 0.025815,-0.012311, 0.021556,-0.021472,-0.007680, 0.012499,-0.011239, 0.040823,-0.022559, 0.018867,-0.011241,-0.018727,-0.006231, 0.023769, 0.012316, 0.007311, 0.004857,-0.026710, 0.016653, 0.016129, 0.000080, 0.008586, 0.004528, 0.032176, 0.006352,-0.003340,-0.026999,-0.024167, 0.011245, 0.010613,-0.005016, 0.024195,-0.021661,-0.023191, 0.000795,-0.022638, 0.015946, 0.015145,-0.014818, 0.026978, 0.022130,-0.029903,-0.026766,-0.009576,-0.027630, 0.023077, 0.008350,-0.002641, 0.023094, 0.004215,-0.015365, 0.000693, 0.000045,-0.034013, 0.007379,-0.024772,-0.032679, 0.019627,-0.020112,-0.001116, 0.007010, 0.003237, 0.008781,-0.006857,-0.027383,-0.022517,-0.015627, 0.020624, 0.010675,-0.010297, 0.030722, 0.016881,-0.006222, 0.009887,-0.002807,-0.021590, 0.007949, 0.019198,-0.028079,-0.011925,-0.019879, 0.009767, 0.020960,-0.029338, 0.010017, 0.022187, 0.022726, 0.020658,-0.002109,-0.008588,-0.022696,-0.021424, 0.001393,-0.006818, 0.023697, 0.025809,-0.030680,-0.020785, 0.022425,-0.015698,-0.010473, 0.021610,-0.017900,-0.028861, 0.016332,-0.007457,-0.000641, 0.020469,-0.030864, 0.026454,-0.020593,-0.004116, 0.020921,-0.026495,-0.020720,-0.006747,-0.017516, 0.015147,-0.001199, 0.005455, 0.029634, 0.021364,-0.012433,-0.002543,-0.038113, 0.031354,-0.017203, 0.032026, 0.009361,-0.015160, 0.024845, 0.027203, 0.018156, 0.009626,-0.020256,-0.005400, 0.006898, 0.017513, 0.036610, 0.001376,-0.005539,-0.013180,-0.012373,-0.023207,-0.000796, 0.024739,-0.019778,-0.015744, 0.013087, 0.029056, 0.024529,-0.010678, 0.024420,-0.012897,-0.026002, 0.008346,-0.026346,-0.001404, 0.003423, 0.015236, 0.003482,-0.006441,
 0.005206,-0.019895, 0.027417, 0.030531, 0.017486,-0.002839,-0.023040,-0.015902, 0.021755, 0.022568, 0.012378, 0.002704,-0.005011, 0.009547, 0.027394, 0.033389,-0.002881, 0.007720, 0.032004,-0.002248, 0.029757, 0.022915,-0.030530, 0.026816, 0.026453,-0.000927,-0.020999,-0.001062,-0.012241, 0.024210,-0.029297, 0.001792, 0.010776,-0.022752,-0.017922,-0.022433,-0.012507,-0.011065, 0.006410, 0.010340,-0.005196, 0.030675, 0.017958, 0.010787, 0.008984, 0.022142,-0.001447,-0.017852,-0.009920,-0.024783,-0.005193,-0.004695,-0.015244,-0.014006,-0.004785, 0.007718,-0.020992, 0.022675,-0.021712, 0.027245, 0.019794, 0.010918,-0.009885,-0.009659,-0.005116, 0.011898, 0.008582,-0.031177,-0.008798,-0.024640,-0.022089,-0.024889,-0.033861, 0.017919,-0.011118,-0.002095,-0.001203,-0.017235,-0.015395,-0.021210,-0.016817, 0.003251,-0.012645, 0.026685, 0.018065,-0.002605, 0.001541,-0.008015, 0.003128, 0.016950,-0.029670,-0.005842, 0.028408,-0.020618, 0.004312, 0.033578, 0.010363,-0.003204, 0.014391,-0.015092, 0.021873,-0.020382,-0.013326, 0.009907,-0.008879,-0.025229,-0.021446, 0.012976, 0.011719, 0.001282, 0.033389,-0.008746, 0.018904,-0.034413,-0.030437, 0.015850,-0.019723, 0.019629, 0.007830, 0.028749, 0.014193, 0.020796,-0.030607,-0.005431,-0.015191, 0.009070,-0.010524, 0.025253, 0.026713,-0.018691,-0.003324,-0.024484, 0.028353,-0.030074,-0.014103,-0.005372, 0.013061, 0.021423, 0.013179, 0.033534,-0.008599, 0.029327, 0.006145, 0.030147, 0.009683, 0.011898, 0.016897, 0.029806, 0.015807, 0.000670, 0.004076, 0.021485, 0.003297,-0.006198, 0.026296, 0.006566,-0.014174,-0.017507, 0.021528, 0.014192,-0.001329, 0.007701,-0.022216, 0.031872, 0.001007, 0.013778,-0.026653,-0.017136,-0.007350, 0.009072, 0.000872,-0.019876,-0.008212, 0.010530, 0.030684, 0.025172, 0.020972,-0.018459, 0.011411,-0.026362, 0.001876,-0.001943, 0.012110, 0.014785,-0.014592, 0.009607,-0.029020,-0.016240,-0.008246,-0.027591,-0.028508,-0.024313,-0.017792, 0.019165, 0.031638,-0.001008, 0.027347,-0.017321, 0.031731,-0.001792,-0.007699,-0.009894,-0.036026,-0.006405, 0.031934, 0.034147, 0.007777,-0.022315, 0.034536, 0.013320,-0.012920, 0.000488,-0.013024,-0.018360,-0.020004,-0.024274,-0.022271,-0.011838,-0.013168, 0.002332, 0.002638, 0.010408,-0.023738,-0.011299, 0.020471, 0.016627,-0.004823,-0.010514, 0.035830,-0.000324, 0.031895,-0.016582, 0.002298,-0.028421, 0.032585,-0.010857, 0.019667,-0.019895,-0.006112, 0.026143,-0.003453, 0.001407,-0.028372, 0.018351, 0.031103,-0.025407, 0.005584, 0.020787,-0.010016, 0.011037, 0.032111, 0.005864,-0.008875,-0.020762, 0.008346,-0.025221,-0.004346,-0.028297,-0.007033,-0.036962,-0.026649,-0.023504, 0.009582, 0.003950, 0.014851, 0.013232,-0.030287,-0.042064,-0.005590, 0.013257,-0.002100, 0.029781,-0.002663,-0.031992,-0.009833,-0.022269,-0.009757,-0.026578,-0.033761,-0.010834,-0.018920,-0.013861, 0.015981,-0.025194, 0.023346, 0.030543,-0.028597,-0.015145, 0.029180,-0.015353, 0.010740,-0.011324,-0.011079, 0.008870,-0.025170, 0.007132, 0.010393, 0.006563, 0.000392,-0.011801,-0.034163,-0.020162, 0.015330,-0.003541, 0.029700, 0.005040,-0.004940, 0.014094, 0.026120, 0.004914, 0.001303,-0.020104, 0.025186, 0.016245,-0.029765,-0.004041,-0.017106,-0.010808, 0.039238,-0.011435,-0.020999, 0.001036, 0.009376, 0.025102,-0.012882,-0.011244,-0.005367,-0.044900,-0.005622,-0.019384,-0.025319, 0.012405,-0.030732,-0.028014,-0.014539,-0.023961, 0.013307,-0.005303,-0.004049,-0.004109, 0.023814, 0.005231,-0.015481, 0.004313,-0.002682,-0.022410, 0.009996,-0.003513,-0.031887, 0.010024, 0.000314,-0.001578, 0.012468, 0.025479,-0.024737,-0.017433,-0.016254,-0.002178,-0.029510, 0.018356, 0.003978, 0.006235, 0.004830,-0.027846,-0.014047, 0.009562, 0.007564,-0.001961, 0.017007, 0.021930,-0.014100, 0.021336, 0.009834, 0.022548,-0.008955,-0.005384, 0.012361,-0.009428,-0.016443, 0.030828, 0.022101,-0.000756, 0.003075, 0.018017, 0.000265,-0.027497, 0.009866,-0.022486, 0.008719,-0.026994,-0.014966, 0.028909,-0.003619,-0.021165, 0.004011, 0.020936,-0.035243, 0.014824, 0.006116, 0.028587, 0.004277, 0.029208,-0.023257,-0.007970,-0.012608, 0.009866,-0.021372,-0.021908,-0.017432,-0.018056,-0.013336, 0.001545, 0.025523, 0.021776, 0.008602, 0.008218,-0.015552,-0.020126,-0.000757,-0.026846, 0.000731,-0.021562, 0.024918, 0.000997,-0.008196, 0.018794, 0.000034, 0.019798,-0.016709,-0.007016,-0.026229,-0.023143, 0.015913, 0.034510, 0.013960, 0.002226, 0.015702,-0.006373,-0.027655,-0.012964,-0.030978, 0.026824, 0.003415,-0.014001, 0.009602,-0.014203,-0.026990,-0.026302, 0.018736, 0.015716,-0.034261,-0.001464,-0.014299, 0.006346, 0.017921,-0.018383, 0.001102,-0.003590,-0.004271, 0.006152,-0.017997, 0.011373,-0.024066, 0.029793,-0.026384,-0.015969,-0.020870, 0.004491, 0.012559,-0.011112, 0.002094,-0.002075, 0.005088,-0.029820, 0.020141,-0.017628,-0.028120,-0.008883, 0.033374,-0.021225, 0.004154, 0.016418,-0.024254,-0.015442,-0.025585, 0.009964, 0.010362,-0.012959, 0.005994, 0.010354,-0.005086, 0.023865, 0.001743,-0.005594,-0.002145,-0.007195,-0.010838, 0.027114,-0.016218,-0.012210, 0.028917, 0.029436,-0.027234,-0.014673, 0.021794, 0.025329,-0.008493,-0.007736,-0.010117,-0.036396, 0.024687,-0.010745, 0.027209,-0.026282,-0.003295, 0.011858, 0.004186,-0.029429,-0.030652, 0.013389,-0.016536,-0.002514, 0.020387,-0.012345, 0.002231, 0.007987, 0.003604,-0.005707, 0.000552,-0.003789, 0.000838,-0.028058,-0.001559,-0.001670, 0.020390, 0.008661,-0.006920, 0.020944, 0.004170,-0.010355,-0.001441,-0.029399,-0.006400,-0.013408,-0.009108,-0.014398,-0.004370, 0.030759,-0.012186,-0.016987, 0.030284,-0.008412,-0.009498,-0.026118, 0.025146, 0.005230, 0.027384,-0.014615, 0.003132,-0.029138, 0.037765,-0.009364,-0.005216, 0.015715,-0.021794, 0.015220,-0.004020,-0.019748,-0.000933,-0.010256, 0.018240, 0.021933,-0.009570,-0.029788,-0.027487,-0.001330,-0.021834,-0.018581, 0.010509,-0.005290, 0.000460, 0.034574, 0.003354,-0.010408,-0.017744,-0.022542, 0.003223, 0.009116,-0.026384, 0.013926, 0.019922,-0.020573, 0.023320,-0.017474, 0.015625,-0.029692, 0.027937,-0.012305, 0.018838,-0.023403,-0.005857, 0.002593,-0.027245,-0.016791, 0.025414,-0.025264,-0.020596, 0.025716,-0.017946, 0.017928, 0.010719, 0.023324,-0.024785,-0.004633, 0.014562, 0.032891, 0.009887,-0.025903, 0.027058, 0.025960, 0.022857,-0.026862, 0.014059, 0.017741,-0.014162, 0.024852, 0.028205, 0.030477, 0.026983,-0.008342,-0.006747,-0.034926,-0.016505,-0.004313, 0.022742, 0.027084,-0.000098,-0.008317, 0.029494, 0.011818, 0.026295, 0.025397,-0.006092,-0.009352, 0.019658, 0.001108, 0.006597,-0.026029,-0.022293,-0.007427,-0.026125,-0.004843,-0.020868,-0.022297, 0.021236,-0.016189,-0.001867,-0.004412,-0.016570,-0.023287, 0.009477, 0.015184, 0.010348, 0.008493,-0.014055,-0.015581, 0.024292, 0.024309, 0.014957, 0.022788,-0.006070,-0.000753,-0.008226, 0.003735, 0.024927,-0.004647, 0.016457, 0.014124,-0.017551,-0.002053, 0.012335,-0.002148,-0.000501,-0.014467,-0.019175, 0.027226,-0.012907, 0.026918,-0.032906,-0.007933, 0.002300, 0.014408, 0.039150, 0.028104,-0.023097,-0.014508,-0.003617,-0.021058, 0.029437, 0.025148, 0.010966, 0.028523, 0.001106, 0.028781,-0.013225,-0.010613, 0.002960, 0.029504, 0.003890, 0.024235,-0.016860, 0.016643, 0.011885, 0.005205, 0.008531, 0.031945,-0.013531, 0.019771, 0.017390, 0.024470,-0.021315, 0.019436, 0.007347,-0.009298,-0.010579, 0.019201,-0.035251, 0.024813,-0.030165,-0.016509,-0.009744,-0.027417,-0.029787, 0.013366, 0.027275, 0.009987, 0.026341,-0.000911, 0.020826, 0.004269, 0.010318, 0.019800, 0.013291,-0.031505, 0.026991, 0.000674, 0.024916,-0.021629, 0.033514, 0.020122,-0.004569, 0.004533, 0.004579, 0.025544, 0.025283, 0.008892,-0.000581, 0.000309, 0.030387,-0.007040, 0.005443,-0.025305,-0.033867,-0.008002,-0.021724, 0.024220, 0.004826,-0.011050, 0.014534, 0.015363, 0.012785,-0.037432,-0.019854, 0.013998,-0.014632, 0.011722,-0.009769,-0.007796,-0.024407,-0.013503,-0.007725, 0.003903,-0.006899, 0.001395,-0.000293,-0.017202, 0.003183, 0.036369,-0.010171, 0.000967,-0.024570,-0.003734, 0.029894,-0.027584,-0.018400, 0.003368, 0.040030,-0.020800,-0.017398, 0.028813, 0.017029, 0.015004, 0.014348,-0.009710,-0.017760, 0.001863,-0.010466,-0.033852, 0.003201,-0.030869,-0.018947,-0.002996,-0.015346, 0.006542,-0.018119, 0.017893,-0.015221, 0.033065, 0.013222,-0.013028,-0.010515,-0.022826,-0.009728, 0.024102,-0.035444, 0.008962, 0.027827,-0.027719,-0.021193,-0.027140, 0.018991, 0.003456,-0.025412, 0.021275,-0.010543,-0.000519, 0.020490,-0.010740,-0.016765, 0.013286,-0.023184,-0.015178,-0.020601, 0.025066,-0.006208, 0.010380,-0.001975,-0.011152, 0.011282, 0.033268, 0.021496,-0.028090, 0.012760, 0.002751,-0.007119, 0.024238,-0.012831, 0.014805, 0.004405,-0.012696, 0.019848, 0.002069,-0.025319,-0.010186,-0.020902,-0.035105, 0.028866,-0.029243, 0.035800, 0.020830,-0.002966,-0.024573,-0.028568, 0.009886,-0.010248,-0.016620, 0.016016,-0.008910,-0.000926,-0.023758, 0.027183,-0.016756,-0.019593,-0.015384,-0.004789,-0.007155,-0.027254,-0.004967,-0.000881,-0.014134, 0.002715, 0.007852,-0.018650,-0.030247,-0.020544,-0.028263, 0.016489, 0.010886,-0.025086, 0.007258,-0.007157,-0.002080, 0.017209, 0.029457, 0.031097,-0.007264,-0.026695, 0.011293,-0.022568,-0.015811, 0.030713, 0.024113, 0.028024,-0.021811,-0.018601,-0.025509,-0.000746, 0.024497, 0.023286, 0.010316,-0.024205,-0.003115, 0.032856, 0.043699, 0.018612,-0.016887, 0.025779,-0.007894, 0.025419,-0.013313,-0.020009,-0.024074, 0.006233,-0.013652,-0.028492,-0.021924, 0.024134, 0.007363,-0.007309,-0.026075,-0.023632, 0.037629,-0.021520,-0.017448, 0.037490,-0.005439, 0.014993, 0.019463, 0.027708, 0.017024,-0.015430,-0.025782,-0.015398,-0.005266, 0.019034,-0.027047, 0.012909, 0.002034, 0.027219, 0.022533,-0.019316,-0.020858,-0.015443,-0.005229,-0.028285,-0.007205, 0.019959, 0.021239, 0.002680,-0.008930, 0.011385, 0.030526,-0.024677,-0.006623,-0.002577,-0.016027,-0.010316,-0.030483, 0.015762,-0.027407, 0.002420, 0.001908, 0.014669, 0.010390, 0.008366, 0.008101,-0.031891, 0.025100,-0.022979, 0.024884,-0.018287, 0.029534,-0.018319,-0.028464,-0.005113,-0.026063,-0.014297,-0.022353, 0.020356,-0.010274,-0.018703,-0.029328, 0.004835, 0.004084, 0.015359, 0.029729,-0.006020,-0.013388, 0.024673, 0.002477, 0.009848,-0.000946,-0.005137,-0.023738, 0.027920, 0.025218,-0.021651, 0.027730,-0.016031, 0.001628, 0.027111, 0.007868, 0.004563,-0.019232,
-0.016248, 0.013691, 0.025608,-0.028966, 0.000495,-0.030500, 0.004892, 0.002835, 0.005745,-0.007330, 0.009264,-0.005184, 0.008767, 0.030340, 0.023051,-0.032865,-0.010768, 0.001588,-0.027997, 0.002821,-0.015451, 0.030223,-0.022079,-0.025761, 0.013034, 0.004440, 0.030912,-0.029023,-0.015844, 0.029640, 0.001294,-0.008361,-0.029890,-0.020401,-0.037093, 0.027605, 0.028576, 0.010741,-0.011554, 0.004939,-0.021190,-0.010519,-0.014253,-0.006844, 0.000879, 0.010374,-0.012877,-0.004922,-0.037454, 0.005232, 0.020771, 0.014435,-0.002125,-0.017781,-0.015648,-0.026983,-0.003420,-0.008653, 0.000237, 0.025290,-0.019741,-0.030129,-0.020646, 0.020332,-0.030545,-0.003640,-0.014497, 0.014914,-0.000679, 0.014103, 0.004583, 0.005905, 0.016120,-0.027517, 0.004971,-0.014959,-0.032850, 0.004147,-0.028124, 0.027532,-0.025120, 0.012093, 0.018637, 0.012436, 0.030854, 0.000710,-0.007656, 0.015754, 0.018328,-0.025739,-0.028135, 0.030931,-0.005249,-0.006359,-0.018857, 0.002467, 0.017024, 0.006974,-0.002271,-0.013635, 0.007485,-0.018883,-0.017742, 0.014125, 0.019881,-0.022330,-0.019083,-0.028061,-0.010144, 0.028430, 0.009223, 0.032502, 0.021886, 0.028384, 0.031488, 0.027670,-0.003118,-0.010834, 0.006789, 0.010320,-0.019312,-0.004446,-0.024896, 0.021525, 0.029330, 0.008889,-0.010485,-0.019791,-0.004104, 0.010605,-0.010892, 0.002006,-0.000940,-0.003457, 0.025484, 0.003536,-0.020828, 0.036471,-0.005177,-0.021060,-0.012990, 0.008009, 0.013056,-0.015963,-0.013976, 0.012609, 0.012360,-0.009427, 0.001339,-0.033925, 0.027869,-0.013598, 0.014595,-0.028152, 0.030674, 0.019161,-0.021022, 0.015663,-0.002696, 0.017951, 0.016807, 0.016751,-0.030564,-0.007047, 0.017995, 0.021789,-0.011970,-0.009127,-0.002181,-0.019543, 0.004750, 0.010628,-0.007271,-0.023049,-0.030062,-0.020377,-0.012679,-0.021276, 0.031934,-0.001275,-0.005996, 0.007244,-0.032604,-0.025668, 0.011178, 0.016331, 0.028092, 0.012120,-0.003171,-0.026517, 0.022376,-0.020866,-0.021981, 0.008911, 0.006534, 0.026284,-0.021161, 0.002613,-0.030126,-0.003098, 0.037026, 0.006385, 0.041652, 0.013337,-0.024899,-0.006237, 0.024566,-0.003868, 0.005518,-0.024322, 0.027611,-0.013560,-0.014527,-0.012124,-0.010219,-0.028186,-0.028634, 0.016084, 0.022454,-0.010184,-0.020571, 0.029386,-0.015340,-0.009403, 0.002704,-0.025614, 0.009181, 0.012149,-0.013901, 0.002748, 0.012633, 0.002199,-0.023946, 0.002011, 0.030720, 0.023641,-0.018231, 0.019221,-0.000996, 0.014219,-0.032673, 0.004744, 0.004434,-0.016865, 0.010104,-0.006263, 0.003409, 0.002204, 0.012468,-0.013774, 0.004134,-0.007757,-0.001431,-0.003518, 0.035352, 0.025860,-0.032638, 0.025586, 0.024765,-0.029643, 0.006864, 0.015227,-0.001671,-0.009753, 0.004455, 0.003847, 0.009309, 0.027946,-0.019760, 0.001788,-0.001935,-0.000659,-0.008129,-0.019223, 0.020376,-0.002839,-0.010962, 0.000912,-0.007774,-0.013262, 0.027448,-0.024957,-0.000308,-0.001900, 0.003832,-0.019304,-0.026762, 0.020543,-0.006457,-0.018273, 0.013153, 0.022976,-0.032405,-0.012971,-0.007179,-0.006735, 0.015992, 0.018646, 0.007068, 0.017946,-0.020364, 0.013453, 0.022141, 0.025405,-0.003360,-0.003512,-0.012209,-0.007818,-0.025638, 0.007921,-0.001782,-0.020143,-0.003792,-0.004031, 0.004948,-0.018412, 0.025295,-0.027100,-0.022717,-0.008434, 0.013031, 0.021934,-0.021633, 0.012152, 0.003384, 0.013006,-0.029247, 0.007021, 0.003426,-0.015183,-0.000390, 0.018396, 0.017193,-0.003322,-0.036313,-0.025861, 0.022957,-0.011381, 0.022986,-0.025146,-0.014889, 0.009184,-0.001073, 0.008164,-0.000056, 0.027980, 0.005420, 0.025594, 0.014117,-0.005541,-0.029353, 0.019460,-0.007770,-0.017929, 0.002921, 0.025197, 0.021790,-0.023156, 0.012402,-0.021465, 0.010664, 0.003981,-0.035007, 0.015870,-0.030632, 0.026430, 0.009194, 0.004345,-0.005622, 0.008764,-0.025018, 0.004759, 0.036457, 0.005783,-0.032728,-0.002040,-0.027278,-0.026783, 0.004866, 0.017358,-0.026110,-0.006723, 0.006252, 0.019640,-0.023932, 0.012206, 0.031615,-0.012403,-0.009687,-0.023299, 0.012388,-0.027841,-0.005746,-0.013280,-0.001074,-0.029466, 0.011102, 0.019943, 0.029180,-0.014482,-0.034331,-0.027355, 0.002307,-0.013309, 0.013134, 0.007498,-0.006622, 0.020673,-0.003119,-0.007886, 0.003475,-0.020929,-0.007015,-0.008281,-0.017174,-0.019893,-0.000563,-0.019685, 0.003774, 0.003358, 0.006245,-0.004738,-0.022340, 0.012937, 0.000557,-0.021709,-0.025927,-0.028991,-0.023609, 0.012396, 0.013366,-0.017138, 0.018106,-0.034423, 0.026669,-0.021589,-0.019747, 0.022454,-0.017358, 0.011506,-0.007937, 0.010785, 0.005878,-0.022113, 0.000763, 0.006101,-0.011165, 0.010988,-0.020624, 0.013818,-0.010478, 0.024178, 0.020498, 0.005989, 0.029634, 0.002679,-0.009174, 0.002639,-0.029874,-0.018199, 0.007181, 0.028461, 0.015451, 0.010916, 0.025555, 0.003570, 0.027916,-0.008736, 0.010758, 0.003041,-0.015591, 0.010700, 0.033308, 0.026803,-0.022279, 0.014974,-0.006878,-0.012354, 0.012321, 0.028398,-0.025984,-0.017629,-0.022274,-0.004722, 0.023472,-0.016342, 0.028617, 0.001763, 0.028768,-0.022751, 0.026285,-0.017388,-0.025257, 0.005040, 0.003436, 0.002129, 0.019758, 0.019119,-0.028093, 0.004742, 0.011457,-0.028049, 0.010326, 0.024592, 0.012632, 0.000500, 0.028471, 0.002540, 0.006430, 0.007272, 0.006113,-0.014100,-0.006978,-0.003529,-0.022134, 0.012118,-0.013611,-0.006353, 0.041751,-0.012381, 0.009964, 0.005716, 0.009061,-0.024793,-0.009278,-0.030420, 0.028023, 0.032257,-0.029744,-0.030918, 0.026657, 0.037493, 0.031467,-0.041268, 0.004211, 0.031004,-0.029922, 0.013096, 0.005000,-0.013628,-0.017335, 0.002623,-0.027311,-0.010165,-0.025144, 0.018000, 0.011563,-0.021814,-0.002625, 0.005632,-0.011110, 0.030209, 0.020502,-0.035218, 0.003752, 0.009333,-0.024726,-0.000598, 0.042527,-0.017232, 0.001371,-0.031717, 0.026993, 0.020036,-0.028984, 0.026291,-0.020285, 0.016536,-0.023210,-0.017553, 0.000981, 0.002363,-0.023197,-0.029034, 0.027568, 0.003718, 0.029296,-0.029822,-0.002073, 0.014441, 0.005828, 0.015677, 0.023061, 0.028623, 0.003792, 0.008761, 0.017132, 0.015138, 0.011754,-0.002525, 0.009270,-0.021517,-0.025947, 0.004044,-0.022544, 0.029679,-0.010140, 0.026458,-0.022114,-0.008882, 0.035712, 0.021228, 0.024718,-0.026044,-0.028881,-0.009323,-0.018358,-0.019171,-0.009394,-0.011185,-0.018051, 0.002062,-0.008572, 0.008291, 0.034591,-0.025059,-0.021934,-0.010738, 0.014020, 0.008913,-0.015479, 0.012312,-0.011601,-0.022094, 0.004320,-0.001478, 0.014370,-0.007602,-0.008195, 0.004188, 0.000032, 0.007531, 0.030262, 0.006539,-0.020642, 0.016140,-0.026229,-0.013672, 0.009327, 0.020845,-0.026120,-0.030545,-0.028069,-0.027575,-0.011861, 0.025862, 0.009041,-0.009748,-0.023771,-0.002228, 0.018544,-0.022706, 0.016179, 0.022087,-0.016124, 0.022069,-0.002788,-0.008757, 0.020038,-0.033239,-0.019457, 0.022704, 0.003075, 0.011706,-0.013222,-0.021572,-0.021198, 0.021436,-0.004283, 0.005059, 0.003925,-0.021845, 0.003592, 0.002023, 0.002935,-0.015462,-0.028977, 0.014139, 0.014835,-0.011811,-0.001022, 0.001195, 0.026979, 0.005311,-0.019407, 0.003029,-0.031184,-0.035222, 0.013018, 0.032157, 0.013284,-0.017179, 0.009416,-0.028712,-0.002831,-0.028216,-0.028787,-0.000331,-0.025069,-0.005632, 0.024033,-0.018266,-0.028702,-0.023257,-0.030357,-0.009622,-0.005049, 0.004337,-0.015040, 0.017553, 0.021827, 0.029928, 0.037570, 0.027258, 0.026290, 0.012876, 0.016423, 0.009802,-0.001083, 0.016473,-0.005271, 0.024476, 0.045428,-0.026230,-0.010788, 0.020995, 0.011654, 0.001402,-0.011314, 0.004660, 0.023618,-0.014443,-0.002284, 0.021604, 0.002072,-0.006664,-0.028564,-0.002900,-0.012047, 0.012360,-0.012459,-0.005444, 0.016423,-0.022642, 0.028137, 0.026453, 0.010188, 0.001312,-0.000834,-0.020838, 0.025897, 0.005670,-0.004911, 0.001541,-0.030820,-0.007289, 0.023968,-0.035727, 0.005239,-0.003375,-0.024202, 0.015263,-0.011703, 0.002464,-0.020526, 0.018292, 0.006541,-0.003268, 0.002592,-0.027446, 0.007641, 0.022165,-0.004803, 0.007410,-0.004780, 0.019758, 0.008277, 0.015401,-0.011931, 0.024768, 0.019293,-0.027086, 0.030310,-0.000029,-0.023817, 0.000771,-0.021562, 0.015757,-0.017125,-0.011794,-0.016808, 0.028658, 0.018370, 0.028894, 0.000767, 0.023914, 0.018670,-0.010944,-0.012838,-0.017758,-0.024136,-0.001353,-0.014087,-0.030403, 0.014662,-0.010602, 0.031603,-0.008235, 0.028334, 0.011832, 0.024415,-0.015429,-0.010217,-0.032152, 0.009860, 0.007572,-0.011093,-0.000538, 0.018543,-0.000895,-0.000800, 0.021909,-0.033017, 0.010744, 0.028363,-0.001869,-0.032524,-0.030526,-0.003613, 0.036977, 0.027293, 0.026775,-0.022529, 0.014980, 0.029795,-0.010716, 0.006591, 0.020047,-0.019174, 0.031604, 0.021994,-0.001339, 0.007711,-0.013025, 0.026656, 0.018196, 0.022777,-0.028598, 0.013869, 0.018058,-0.008982,-0.001549,-0.026105, 0.016198,-0.004354, 0.022163,-0.003911,-0.022597,-0.024104, 0.005174,-0.031042,-0.033492,-0.005314, 0.008577, 0.019807,-0.005830,-0.003999,-0.025398, 0.014610, 0.017632,-0.027125,-0.019892,-0.008601,-0.008828,-0.020222, 0.014867,-0.032992, 0.024092, 0.017862, 0.005281,-0.026805, 0.014488, 0.024759,-0.005287,-0.011007,-0.032072,-0.011784, 0.003288, 0.014900, 0.008766,-0.017934,-0.029114, 0.012069, 0.017030, 0.012756, 0.031850,-0.025827,-0.014061, 0.019935,-0.010865,-0.023933,-0.020277,-0.001097, 0.030974, 0.007133, 0.027609, 0.023733, 0.009468,-0.007508,-0.022529, 0.020984,-0.003190, 0.010653,-0.028297, 0.031302, 0.001351,-0.015259,-0.024558, 0.029619,-0.019239, 0.011298,-0.020846,-0.022468,-0.019830, 0.017269, 0.025735, 0.003148, 0.000720,-0.013672,-0.013892,-0.001701, 0.002548,-0.000347,-0.000947, 0.002179, 0.012157, 0.000261, 0.009432,-0.030724,-0.025702,-0.011152, 0.015707, 0.026865, 0.035447, 0.008836, 0.021751,-0.024404, 0.030247, 0.020408,-0.031524, 0.016326, 0.018325, 0.033173,-0.013532,-0.007152, 0.006509,-0.024554, 0.038348,-0.008800, 0.013158, 0.011509, 0.021890,-0.006180, 0.018310, 0.012172, 0.018157,-0.004230,-0.031537,-0.023724, 0.006629,-0.009582, 0.021105, 0.014810,-0.011787,-0.006540, 0.004497,-0.023960, 0.025262, 0.019650,-0.009677,-0.011866,-0.023250,-0.027869, 0.000478,-0.019954, 0.018883,-0.013610, 0.006164,-0.013368,-0.000305, 0.017558, 0.011170, 0.024288,-0.000274, 0.020930, 0.020488,-0.030814,-0.005865,-0.029529,-0.005853, 0.005924,-0.020414, 0.020189,-0.003543, 0.002145,-0.006624,-0.019235, 0.009456,-0.016156,-0.012656, 0.022880,-0.022922,-0.001086, 0.000485,-0.027549, 0.001899, 0.007787,-0.005998,-0.031451,-0.005046,-0.032095, 0.005205, 0.013768, 0.017902,
 0.025479, 0.017283,-0.013653,-0.021470,-0.019282,-0.013410,-0.008711,-0.021260, 0.018886,-0.026390, 0.027586, 0.012968, 0.009656,-0.009422,-0.017354,-0.014739, 0.008964, 0.005096, 0.029213,-0.020396, 0.021239,-0.004373,-0.005110, 0.019337, 0.015717,-0.027605, 0.011159, 0.009357, 0.024574,-0.027742,-0.010196,-0.009165, 0.013062,-0.025981, 0.030807, 0.021957,-0.033037,-0.032133, 0.025562,-0.010790,-0.008747,-0.014069,-0.022188,-0.014587, 0.000168,-0.014883, 0.008242,-0.030317, 0.021991,-0.008972, 0.008341,-0.028797, 0.011488,-0.028438, 0.019048,-0.003678, 0.012933,-0.027025, 0.028455,-0.010422, 0.007718, 0.027041, 0.003170,-0.024466, 0.007480, 0.025232, 0.021634, 0.010510,-0.022657,-0.023540, 0.009568, 0.008664, 0.015900, 0.004837,-0.004022, 0.018420,-0.009316, 0.033131,-0.010143,-0.029032,-0.009453,-0.017470,-0.017741, 0.016443,-0.029314, 0.001062,-0.023340, 0.008713, 0.027905, 0.017875, 0.015747,-0.007615, 0.007650,-0.011621, 0.021964,-0.017847,-0.002899, 0.024527,-0.016572, 0.009597, 0.017783, 0.005058,-0.002937, 0.025395, 0.000653,-0.017018,-0.026151, 0.000331,-0.002973,-0.013935,-0.022950,-0.005561,-0.009213, 0.011453, 0.031346, 0.021610, 0.015158, 0.020992,-0.007990,-0.005108, 0.010911,-0.010901, 0.022870, 0.020073, 0.029966,-0.012765, 0.017171, 0.016798,-0.011205, 0.022983, 0.002868,-0.006035,-0.016081,-0.001436, 0.028226,-0.010854, 0.018997,-0.002006,-0.014698,-0.031677, 0.027884,-0.003105, 0.021823, 0.004672,-0.002569, 0.024001, 0.003011, 0.013255,-0.004723, 0.023376,-0.030500, 0.025587,-0.017187,-0.015216,-0.010211, 0.001840, 0.022365,-0.003887, 0.013812,-0.017197, 0.011162, 0.021978,-0.030585,-0.017408,-0.013585, 0.005267,-0.027012,-0.031177, 0.026064, 0.006555, 0.013627, 0.024978, 0.031057,-0.012670,-0.022672,-0.030594, 0.011891, 0.024191, 0.017708, 0.007621,-0.020635,-0.015760, 0.007660, 0.029747,-0.021666,-0.004751,-0.002798, 0.009724,-0.024188,-0.008616,-0.008340,-0.026676,-0.023030,-0.032163, 0.026781,-0.015072,-0.003389, 0.007758, 0.031163, 0.013053,-0.030942,-0.024548, 0.010576, 0.006053, 0.023896,-0.003795,-0.024298,-0.020271,-0.021343, 0.007572,-0.014839, 0.010333, 0.004504, 0.025344, 0.004805,-0.008475, 0.004981, 0.017548,-0.006831,-0.007755,-0.029464, 0.023472,-0.001108, 0.005140,-0.014318, 0.000885, 0.015565,-0.011193, 0.004381,-0.004003, 0.000560,-0.009598,-0.007652,-0.018250,-0.011044,-0.011445,-0.031179, 0.023019,-0.014429, 0.003561,-0.004483, 0.020907,-0.022068, 0.012824, 0.005464, 0.004418,-0.001874, 0.021418, 0.011915,-0.002180,-0.001050,-0.002942, 0.004211, 0.026248, 0.010312,-0.000476,-0.014303, 0.027735,-0.013125, 0.005409,-0.001543, 0.020324,-0.012129,-0.009034, 0.026923, 0.008882,-0.015541,-0.011478,-0.025078,-0.005656, 0.014947, 0.019642,-0.012695, 0.027913,-0.010590, 0.004875, 0.021341,-0.012652,-0.025823, 0.013726,-0.009181,-0.027098,-0.000969, 0.016559, 0.005962,-0.018913, 0.014373, 0.013879, 0.007355,-0.017388, 0.014658,-0.008974, 0.019556,-0.030907,-0.002959,-0.026308, 0.017253, 0.000720,-0.030453,-0.011769, 0.011377,-0.010227,-0.007107,-0.001749, 0.002760,-0.011314,-0.009960, 0.024861, 0.022545,-0.004318,-0.024968,-0.010717,-0.014612, 0.006474, 0.021635,-0.005864,-0.035832, 0.013160, 0.013546,-0.011166, 0.021072,-0.019412,-0.026155, 0.023934, 0.006908, 0.005858, 0.013323, 0.008547, 0.018956, 0.005424,-0.030739, 0.018770, 0.000313,-0.025026, 0.014300, 0.011253, 0.003443,-0.025504, 0.030590, 0.011420,-0.022876, 0.006099, 0.006272,-0.020175,-0.030209, 0.014480,-0.018531, 0.012922,-0.014510,-0.029459,-0.029913, 0.029041, 0.001654,-0.018498,-0.021830, 0.021304, 0.014302,-0.027586,-0.030817, 0.014760,-0.016297,-0.011120,-0.018962, 0.021328, 0.017868,-0.007759, 0.022076,-0.014980,-0.031697,-0.026557, 0.030703, 0.023093, 0.013919, 0.010146, 0.006979,-0.026460,-0.029045,-0.019505,-0.000568, 0.020334,-0.009424,-0.009643,-0.010442,-0.019649, 0.015283, 0.021164, 0.029125, 0.012839, 0.025858, 0.013411,-0.013897, 0.011268, 0.029150,-0.028253,-0.023338, 0.015026,-0.004058, 0.024445, 0.009611, 0.024511, 0.009829,-0.011187, 0.012515, 0.011362,-0.014403, 0.030537, 0.005361, 0.028363,-0.020070, 0.012743,-0.009835, 0.014871, 0.005859, 0.010180,-0.017247,-0.012758,-0.010650,-0.025417, 0.005039, 0.015365,-0.013705, 0.020214, 0.018987, 0.027327, 0.030942, 0.008471,-0.022133,-0.023043,-0.018371, 0.026075, 0.020973,-0.023875, 0.002769, 0.033285, 0.029296,-0.013294, 0.020457,-0.026698,-0.002080,-0.025871,-0.025843,-0.019212,-0.032228, 0.030789, 0.020455,-0.007436, 0.012579,-0.017018, 0.026199, 0.032856,-0.021480,-0.012433,-0.022754, 0.015098, 0.018859, 0.029666,-0.013271,-0.032472,-0.024957, 0.023908,-0.004539, 0.007809,-0.027891, 0.007084, 0.019787,-0.009944, 0.026226, 0.026965,-0.025617,-0.007005, 0.007733,-0.004452, 0.003281, 0.009925,-0.019153, 0.022560, 0.014095,-0.015549, 0.027562,-0.013265,-0.000240,-0.031506,-0.011246, 0.000440,-0.022750,-0.009922, 0.002154,-0.023228, 0.022088,-0.022560,-0.007484,-0.008229,-0.000755,-0.016861,-0.030483, 0.019772,-0.000962,-0.012090,-0.024476, 0.018717,-0.016128,-0.005190, 0.013877, 0.017215, 0.023685,-0.013764,-0.017263, 0.013475, 0.032040,-0.014439,-0.001219,-0.029267,-0.024877, 0.021300, 0.028807,-0.005826, 0.014026,-0.007339, 0.019110,-0.019969,-0.018912,-0.003594, 0.030245, 0.010579, 0.038657,-0.012475,-0.006478,-0.010015, 0.010510,-0.015284, 0.003006,-0.019368,-0.021616, 0.036127, 0.013651,-0.011167, 0.000321,-0.028744,-0.007506, 0.031136, 0.017199,-0.017054,-0.021357, 0.014009, 0.022230, 0.003919,-0.008582,-0.004561,-0.015931, 0.007796,-0.028470,-0.006607,-0.023919,-0.018763, 0.029674,-0.000573,-0.003993,-0.017586, 0.020087, 0.008082, 0.003553,-0.015250,-0.004685,-0.001693,-0.028043, 0.018952, 0.026697, 0.017875,-0.006255, 0.019173,-0.010244, 0.029341, 0.013742, 0.025467, 0.024316, 0.008621,-0.027786,-0.028509,-0.028924,-0.029053, 0.006007,-0.016962, 0.002003,-0.024560,-0.002201,-0.014857, 0.025644, 0.002155, 0.030600, 0.005322, 0.011037,-0.013749,-0.004065, 0.000847,-0.019687,-0.020936,-0.006350, 0.018333,-0.034140, 0.019955,-0.038220,-0.019823,-0.021737, 0.025587,-0.004406,-0.015378,-0.025953, 0.015919,-0.003124, 0.004075, 0.002307, 0.000482,-0.023361, 0.014542, 0.017501,-0.025226,-0.026977,-0.034101,-0.018766,-0.025579,-0.030486,-0.005645,-0.026405, 0.006914,-0.000117,-0.008425,-0.017116,-0.002558,-0.008018, 0.016149,-0.021792,-0.036913, 0.019167, 0.030436,-0.008619, 0.019875,-0.020710, 0.020135, 0.001813, 0.004756,-0.006482, 0.026271, 0.026793,-0.010321,-0.002088,-0.024283,-0.016150, 0.009001,-0.016089, 0.027524, 0.000966, 0.002124, 0.015226, 0.008076, 0.001839,-0.021253, 0.011706, 0.030900, 0.005271, 0.017460, 0.014855, 0.003444, 0.023810,-0.017950, 0.005429, 0.018395, 0.005937, 0.016444, 0.009576, 0.016610, 0.013710, 0.012868,-0.022444,-0.017707, 0.010048,-0.012276, 0.025440, 0.024742,-0.001589,-0.029699, 0.010671, 0.015144,-0.017214, 0.024439, 0.013661, 0.025767,-0.016452, 0.023545, 0.000459, 0.020553,-0.012919,-0.010106, 0.004887, 0.023136, 0.018139,-0.010634,-0.026137,-0.008867,-0.033110,-0.034685, 0.021978, 0.000932,-0.015814, 0.003268,-0.016970,-0.028987, 0.022926,-0.028971,-0.007275, 0.026564, 0.023182, 0.005953,-0.014681,-0.025405,-0.014402,-0.006050,-0.008135,-0.025600,-0.009189,-0.020602, 0.020484, 0.018930,-0.014976,-0.002994, 0.013602,-0.006049,-0.031139, 0.029336,-0.014629, 0.024257,-0.022420,-0.029327, 0.006766, 0.025183,-0.027318, 0.022700, 0.013459, 0.005285, 0.002056,-0.020100, 0.009141, 0.005897,-0.011095,-0.020406,-0.006926, 0.017489,-0.018733,-0.022263,-0.020690,-0.020902,-0.011023, 0.001717,-0.001442,-0.002645, 0.025358, 0.003342, 0.007559, 0.022607, 0.003453,-0.010980, 0.008568,-0.030120,-0.017860, 0.024473,-0.004183,-0.006430,-0.008933,-0.021570, 0.020287,-0.021455,-0.012540, 0.025915, 0.031149,-0.001161,-0.011157,-0.009252, 0.036074,-0.016936, 0.019983,-0.026258,-0.028729,-0.001187, 0.008522,-0.025961,-0.003979, 0.029207,-0.019398, 0.024782,-0.013793,-0.008895,-0.009141,-0.026227, 0.023800, 0.030085, 0.024923,-0.013115, 0.013121,-0.031169,-0.030558, 0.008803, 0.005534,-0.007045,-0.026052, 0.020195, 0.023765,-0.026944,-0.014419,-0.016574, 0.026141,-0.008985,-0.013169,-0.012639, 0.004216, 0.012294, 0.030577, 0.009679,-0.026889, 0.029312, 0.001800,-0.005186, 0.000748,-0.016541, 0.018545, 0.010380, 0.018391,-0.025338,-0.004971,-0.010454, 0.030601, 0.002071,-0.009093, 0.019699, 0.002138,-0.018214, 0.019328, 0.012965,-0.024002,-0.004425, 0.016671,-0.028366,-0.025317,-0.010231, 0.001670, 0.005870, 0.016274,-0.014474, 0.012570, 0.006443,-0.000763,-0.012823,-0.025128,-0.005437, 0.022914, 0.002167, 0.019502,-0.001034,-0.030940, 0.020186,-0.021229,-0.015142,-0.025756, 0.028216, 0.004545,-0.009883, 0.012433,-0.028005,-0.021559,-0.002204, 0.007698, 0.025248, 0.027018, 0.002267, 0.015396,-0.000410,-0.022108, 0.003983, 0.009742, 0.013923,-0.010132,-0.013226, 0.020858,-0.030709, 0.025908,-0.007823,-0.030519, 0.006949,-0.012800,-0.006728, 0.002454,-0.004815,-0.024032, 0.027175,-0.000857, 0.010264, 0.021035,-0.003337,-0.014085, 0.017800,-0.002420,-0.001274, 0.009446, 0.002323, 0.015756, 0.021625, 0.024798, 0.023054,-0.001577,-0.009116, 0.007145, 0.016196, 0.017941,-0.008933, 0.007155, 0.014047,-0.010723,-0.015283,-0.006232, 0.005425, 0.000521, 0.016909,-0.001998,-0.012435, 0.007920, 0.028616,-0.033907, 0.027063,-0.001518,-0.008859,-0.030614,-0.022437, 0.022058, 0.026181,-0.024224,-0.001866,-0.021861,-0.029986,-0.031121, 0.026918,-0.018910, 0.006045, 0.006367, 0.000945, 0.024637, 0.011894, 0.009456, 0.002905, 0.022496, 0.022185, 0.022046,-0.008198, 0.001691,-0.006262, 0.027033, 0.005574,-0.023245,-0.029392, 0.007458, 0.008657, 0.023842,-0.004426,-0.016516, 0.014136,-0.013720,-0.017883, 0.029288, 0.017811, 0.002681,-0.003109, 0.005086,-0.021814, 0.029184,-0.017842,-0.002648, 0.025997,-0.027863, 0.024738, 0.007823, 0.006294, 0.019299, 0.012775, 0.023184,-0.012707,-0.020780, 0.002794, 0.006966,-0.029968,-0.014721, 0.018245,-0.029779,-0.032587,-0.030523,-0.003616, 0.007131,-0.025693,-0.020749, 0.029517, 0.032501,-0.023000, 0.012987, 0.011684,-0.023600, 0.009592,-0.009624,-0.030636, 0.024735, 0.010255, 0.018459,-0.004856, 0.000292,-0.028213, 0.013544,-0.000408,-0.008071, 0.015666, 0.019940, 0.033516,-0.026250,-0.026518, 0.023400,-0.021198, 0.032634, 0.023863,-0.031915, 0.032997,
 0.012523,-0.003285, 0.030241,-0.009053,-0.021589,-0.016242, 0.036482, 0.027427,-0.008795,-0.032186,-0.027737, 0.020763,-0.018606, 0.028669, 0.024698, 0.000698,-0.013091, 0.009977, 0.021412, 0.025770, 0.017943, 0.018808, 0.015159, 0.013285, 0.006572,-0.009864, 0.029246, 0.021466,-0.000446,-0.025040,-0.013419,-0.017525,-0.024332, 0.003285,-0.005597, 0.023447, 0.010243, 0.032543,-0.006536,-0.029671,-0.008667, 0.015581,-0.003066, 0.027986, 0.022480, 0.012448,-0.007850,-0.023458,-0.027941,-0.027208, 0.016799,-0.002355,-0.007205,-0.018913, 0.023196,-0.013291,-0.014055,-0.023508,-0.028875, 0.008704, 0.005540, 0.035052,-0.014207, 0.022312, 0.009846, 0.005179,-0.000790, 0.020639, 0.000098, 0.033554, 0.025205, 0.006025,-0.033567, 0.007292,-0.016850,-0.003555, 0.011175,-0.034407,-0.022302, 0.009697,-0.001478,-0.014843,-0.007953, 0.000451,-0.017670, 0.000701, 0.025034,-0.016474,-0.015912, 0.030911,-0.012993,-0.027740,-0.007206,-0.021593,-0.028071, 0.026103,-0.012111,-0.011992,-0.012018, 0.022427, 0.008948,-0.000601,-0.009822, 0.002520,-0.012976,-0.031042, 0.016628,-0.014438,-0.023203, 0.010261,-0.010014,-0.030093,-0.005429,-0.030731,-0.010450,-0.017605, 0.010658, 0.024735,-0.016263,-0.024078, 0.027174,-0.011945,-0.001160,-0.004168,-0.012568, 0.010091, 0.014623,-0.039697,-0.006053, 0.007764,-0.022792, 0.012116, 0.010890, 0.032745, 0.002625, 0.024076,-0.029732,-0.026734,-0.019250,-0.034274, 0.010457,-0.004357,-0.018783, 0.004013, 0.007946, 0.016957, 0.016675,-0.006649,-0.003089,-0.026278, 0.007914,-0.033215,-0.011628, 0.024143,-0.016752, 0.008658,-0.011737, 0.003958, 0.007772, 0.011581,-0.005438, 0.018263, 0.009117,-0.020267,-0.015850, 0.002957,-0.026958, 0.011041,-0.000840,-0.041004, 0.027962,-0.000944,-0.004709,-0.022727,-0.033023,-0.025515,-0.028217, 0.023413, 0.014119, 0.015893,-0.007926,-0.024720,-0.031530, 0.023935,-0.023725,-0.000336,-0.022831, 0.002329,-0.029511, 0.030411,-0.026444,-0.021921, 0.018537,-0.013471, 0.033669,-0.021845,-0.018480,-0.011912,-0.031382,-0.026344,-0.007175,-0.032947, 0.007577, 0.013955,-0.002793,-0.011628, 0.005072,-0.016281,-0.004075,-0.024182, 0.013813, 0.016182,-0.023095, 0.009340,-0.015280,-0.018697, 0.025252, 0.009815,-0.040671,-0.011994, 0.025855,-0.021017, 0.026178, 0.018359,-0.021275,-0.015018,-0.026902, 0.026482, 0.013288, 0.024194, 0.028649, 0.002048,-0.028760, 0.021993, 0.016658,-0.002706, 0.011965, 0.010742,-0.010721, 0.039009, 0.013419, 0.005957, 0.026045, 0.007239,-0.010255,-0.038340,-0.020606,-0.028862,-0.009108, 0.011137,-0.030235,-0.035945,-0.022341, 0.017094, 0.017721, 0.022478,-0.014469, 0.044284, 0.031220, 0.032551, 0.027488, 0.022782, 0.027271, 0.018644, 0.000356,-0.014516, 0.029913, 0.023839,-0.026561, 0.003770, 0.013927, 0.017617, 0.014099, 0.026775,-0.003230, 0.001898,-0.020863,-0.017901,-0.025141,-0.002846, 0.018472, 0.012273, 0.027330, 0.001831,-0.022053,-0.003111, 0.037825, 0.026458, 0.018650, 0.013355,-0.018296,-0.022235, 0.006908,-0.001644, 0.014455, 0.007909,-0.015312,-0.022428, 0.001761, 0.002638,-0.029697, 0.012181,-0.008084,-0.000675,-0.003689, 0.033808,-0.005994, 0.002823, 0.017545,-0.002171, 0.009003,-0.029087,-0.020404,-0.000555,-0.031718, 0.029279,-0.011967, 0.016354, 0.001032,-0.001519, 0.016370, 0.018079,-0.032991, 0.000263,-0.013417, 0.007288,-0.010769,-0.007886, 0.023490, 0.013021, 0.026883,-0.015973, 0.025017, 0.013849, 0.001120, 0.010480, 0.024667,-0.022499, 0.004544, 0.012138,-0.031689, 0.006240,-0.008763,-0.037325, 0.027788, 0.027492, 0.009716, 0.001968,-0.031818, 0.033641,-0.004804, 0.031930, 0.016028,-0.012905,-0.016719,-0.023272,-0.020282, 0.013206,-0.024644, 0.004918, 0.009691, 0.012542, 0.011058, 0.009367,-0.025027, 0.025571,-0.021639,-0.008312,-0.033044,-0.026865,-0.001985,-0.022826,-0.016022,-0.011199,-0.034480, 0.014824,-0.009463,-0.013095, 0.028505,-0.026034,-0.008252, 0.003805, 0.025006,-0.000528,-0.007256, 0.009145,-0.012495,-0.000789, 0.025926, 0.022719,-0.017629, 0.009734, 0.020589, 0.029319,-0.001247, 0.030303, 0.014487,-0.036727,-0.007763, 0.018586, 0.016558, 0.030461,-0.015587,-0.011187, 0.023321,-0.028734, 0.000281,-0.023311,-0.016132,-0.023650,-0.012635, 0.019983, 0.024819, 0.005003, 0.011006, 0.015908, 0.009205, 0.012176, 0.005745, 0.025681, 0.005582, 0.013951, 0.029262,-0.011317,-0.017533,-0.011585, 0.015746,-0.026576,-0.031700, 0.000239, 0.024674, 0.004896, 0.009823,-0.005215,-0.017952,-0.028174, 0.001721, 0.003512, 0.013277, 0.024928, 0.005332,-0.034863,-0.013290, 0.012040, 0.036831, 0.005830,-0.019045, 0.026299,-0.029645, 0.039443,-0.024191,-0.024620,-0.013397,-0.013202,-0.022697, 0.028556,-0.023282, 0.028618,-0.007762, 0.006157,-0.018828,-0.024577, 0.020391, 0.023560, 0.002508,-0.014659,-0.022529,-0.011203,-0.023623,-0.009228, 0.002151, 0.017833,-0.024370,-0.004981,-0.016574,-0.013070,-0.011903, 0.006312, 0.019100,-0.021987,-0.011777, 0.009147, 0.011497, 0.007001, 0.029395, 0.019013,-0.038965, 0.026554, 0.007331, 0.035315, 0.020432,-0.021002,-0.025803, 0.013463,-0.022549, 0.007295, 0.027871, 0.015732, 0.016708, 0.009162,-0.018970,-0.003987,-0.028123,-0.002885,-0.022950, 0.007666, 0.011829, 0.029137,-0.025541,-0.021419,-0.025756,-0.025532, 0.019196,-0.020365, 0.033717, 0.016020,-0.013291,-0.018717,-0.007678, 0.020346, 0.050312, 0.018936,-0.030236,-0.034523,-0.022159, 0.030395, 0.016554,-0.009939, 0.019052, 0.032363, 0.021587, 0.009916,-0.004628,-0.023494, 0.010811, 0.013113, 0.006999, 0.014179, 0.020674, 0.020318, 0.022328, 0.038625,-0.029370, 0.012429, 0.012015,-0.004761, 0.001600, 0.002596,-0.022726,-0.018396,-0.006655,-0.017772, 0.018937, 0.012641,-0.007614,-0.026278,-0.021791,-0.003113, 0.017157,-0.030476,-0.007025,-0.005760, 0.012424,-0.007291, 0.004055,-0.024396, 0.002360, 0.008780,-0.006537, 0.010702,-0.009639, 0.014312,-0.017801,-0.000715, 0.023979, 0.016536, 0.002934,-0.001680,-0.015224,-0.027602, 0.006580, 0.006758,-0.009154, 0.002655, 0.010806,-0.004334,-0.012416, 0.002341,-0.028781, 0.032801,-0.021038,-0.026057,-0.030345, 0.011080, 0.028089, 0.019733,-0.006060, 0.005188, 0.015280,-0.025839, 0.018720,-0.022928, 0.028983, 0.032082, 0.030299,-0.030416,-0.030977,-0.018767, 0.027850,-0.024012, 0.016659,-0.001799,-0.019064,-0.000541,-0.034029, 0.022581, 0.027314, 0.005026, 0.003656, 0.010697,-0.001535, 0.007139, 0.021766, 0.003173, 0.014271, 0.006777,-0.027936, 0.020706,-0.027338, 0.017780, 0.013410,-0.014330,-0.008647,-0.022639, 0.017071, 0.007749, 0.005178,-0.008813,-0.025516,-0.022865,-0.018803,-0.020790, 0.016822, 0.001309, 0.008714, 0.009676,-0.026802, 0.006539, 0.012130, 0.021806,-0.007944, 0.025880,-0.021698,-0.012664,-0.006928,-0.005271, 0.002816, 0.004030,-0.027582,-0.000181,-0.006430, 0.024248, 0.015143, 0.020914,-0.002776,-0.015244, 0.012188,-0.006975,-0.011074, 0.011252, 0.007677,-0.003451,-0.011740, 0.016118,-0.015714, 0.011763, 0.003339, 0.020039,-0.020100, 0.007941,-0.026505,-0.009477,-0.016797,-0.000749, 0.008149, 0.017158,-0.022370, 0.024661, 0.021715, 0.022220,-0.005827,-0.000672, 0.017776, 0.036069, 0.022763, 0.023918,-0.031780, 0.009013,-0.033875, 0.037583, 0.011009, 0.022603, 0.001906,-0.007536,-0.027016,-0.015147, 0.002907,-0.022618,-0.023599,-0.020692,-0.001647, 0.023237, 0.012095,-0.002536,-0.004365, 0.010979,-0.025325,-0.008698, 0.003189, 0.022941,-0.004943,-0.010371,-0.008495, 0.018951, 0.024152, 0.025283, 0.009449, 0.021803, 0.024704,-0.032544,-0.030038, 0.010340,-0.025314, 0.002368,-0.027656,-0.011598, 0.019114,-0.010417,-0.023442,-0.017818,-0.016800,-0.001117,-0.005270,-0.022086, 0.020374,-0.025071,-0.021766,-0.027474,-0.003511, 0.002475, 0.022399,-0.017354,-0.002339,-0.008247, 0.016064,-0.001590, 0.030967, 0.028214, 0.029832,-0.021472, 0.027628, 0.017160,-0.018945, 0.027557,-0.031315, 0.003691, 0.026719, 0.020993, 0.015059,-0.018654, 0.027449, 0.020631,-0.007793, 0.016306,-0.025780, 0.016241, 0.030999,-0.026723, 0.026281, 0.001010, 0.007481,-0.015381, 0.003401, 0.025802, 0.012873, 0.019247, 0.020099, 0.012207,-0.004609,-0.015698, 0.032816, 0.011230, 0.025423,-0.002345, 0.015292,-0.032067,-0.000164, 0.028488,-0.012896, 0.010685,-0.017049, 0.003721, 0.031381,-0.013836, 0.002187, 0.024514, 0.007588,-0.011553,-0.006790, 0.023467,-0.010352,-0.006379, 0.001580, 0.011557,-0.000113,-0.018925,-0.034310, 0.000761,-0.024371,-0.030019,-0.023613,-0.025946,-0.020475, 0.011690, 0.014390, 0.026111,-0.019395,-0.010994,-0.030846,-0.000166,-0.003085,-0.010368,-0.013987,-0.002355,-0.020539,-0.003572, 0.001982, 0.022092,-0.011684,-0.011268, 0.036379, 0.025261,-0.013587,-0.015001,-0.007090,-0.018511,-0.012368,-0.021387,-0.013968,-0.002867,-0.009007,-0.010842, 0.016461,-0.008367, 0.029667, 0.020088, 0.021350, 0.009840, 0.023083,-0.009885, 0.025471, 0.018482,-0.006628, 0.026840, 0.022499, 0.027308, 0.037780,-0.003697,-0.003525, 0.028800,-0.018241, 0.030303, 0.017388,-0.002786,-0.022995,-0.032308, 0.026761, 0.001707, 0.006135,-0.003817, 0.015813, 0.007378, 0.012342, 0.005683,-0.008934, 0.003868, 0.007038, 0.024040, 0.027848,-0.020189, 0.018702,-0.004195, 0.013410, 0.014671, 0.021764,-0.006108,-0.024109, 0.023319, 0.024513,-0.016098,-0.028139, 0.006720, 0.024179, 0.005157,-0.011692,-0.011246,-0.021149,-0.021440, 0.028586,-0.003363, 0.006878, 0.014973, 0.000108, 0.019578, 0.013157,-0.010707,-0.033788, 0.006420,-0.009456, 0.018362,-0.015329, 0.025786,-0.028290, 0.016300,-0.006868, 0.022563, 0.003506,-0.028079,-0.029600, 0.018755, 0.002116,-0.003813,-0.001542, 0.009087,-0.005487,-0.033829,-0.017885, 0.001392,-0.027071,-0.018180, 0.027397,-0.023156,-0.008359, 0.037422, 0.025511,-0.030866,-0.019618, 0.014146,-0.006171, 0.022959,-0.002440, 0.017512, 0.008989, 0.017816, 0.002256,-0.009402, 0.019315,-0.012036, 0.020191, 0.015629, 0.006799, 0.018340,-0.011382,-0.006405, 0.021436, 0.030997, 0.007726,-0.023462, 0.005067, 0.002641, 0.019263, 0.015598,-0.010740, 0.005220,-0.000949, 0.038463, 0.025454,-0.013698,-0.006825,-0.008583,-0.032379, 0.001493,-0.019319,-0.000152, 0.002388, 0.005341, 0.000258, 0.032607, 0.018680, 0.013046,-0.025718, 0.018605, 0.015505,-0.021051, 0.025661,-0.013300,-0.008646,-0.004766,-0.025588,-0.008816,-0.015315,-0.024479,-0.018251,-0.002276,-0.021257, 0.022835, 0.016596,-0.002579,-0.020159,-0.017754,-0.015187, 0.003155, 0.015325, 0.026620,-0.028836, 0.009354,-0.032458,-0.018468, 0.020795, 0.007212,-0.003693, 0.027973, 0.003600, 0.011626,
 0.016892, 0.009629,-0.027185,-0.034928,-0.001268, 0.006189, 0.017931,-0.028028, 0.028422, 0.010182, 0.004203,-0.005073,-0.002002, 0.007518, 0.023960, 0.022947, 0.007767, 0.013234,-0.037924,-0.026676, 0.016090, 0.008920, 0.027454,-0.006181, 0.036220,-0.007310,-0.005698, 0.003252, 0.005343,-0.007118,-0.024276,-0.018154,-0.022575,-0.016167,-0.024347,-0.006166,-0.026072,-0.026762,-0.001618,-0.001869,-0.012316,-0.002812, 0.008859, 0.008350,-0.001117,-0.000804, 0.000941, 0.021823, 0.028119,-0.035373,-0.000094, 0.031750,-0.002933,-0.012641,-0.006826, 0.008223, 0.030750,-0.026721, 0.021988, 0.018214, 0.017210,-0.005789,-0.009201,-0.011865, 0.004439,-0.023965, 0.023425, 0.029179, 0.029333,-0.000866,-0.020028, 0.006566,-0.000003,-0.004655,-0.031179,-0.010346, 0.000637, 0.020170,-0.006548, 0.017095,-0.008378,-0.005200,-0.008291, 0.029654, 0.021785, 0.010874,-0.021786, 0.002540, 0.023016,-0.009019,-0.008678, 0.016636,-0.020374, 0.019808, 0.007759,-0.009725,-0.030787, 0.029752,-0.017166, 0.021459,-0.010093, 0.014335, 0.009305,-0.005527, 0.020339, 0.047805,-0.018152,-0.011857, 0.012239,-0.024587,-0.014264,-0.033715,-0.007428, 0.016702,-0.008875, 0.004756,-0.006927, 0.002565, 0.029987, 0.033191,-0.029766,-0.037448,-0.022785, 0.026296, 0.011838,-0.035100, 0.005429, 0.034956, 0.003883, 0.013558,-0.014708,-0.010586, 0.023456,-0.042929, 0.008963,-0.030914, 0.006930,-0.031254, 0.000919, 0.045379, 0.001290,-0.014357,-0.006908,-0.033851, 0.005977,-0.020901, 0.019542, 0.020460,-0.011871, 0.027805,-0.004924,-0.024898,-0.007692, 0.002176,-0.014340, 0.019546,-0.005902, 0.029667, 0.020175,-0.029925,-0.004941,-0.010266,-0.012240,-0.025051,-0.025509,-0.027998,-0.027971,-0.026457, 0.016489, 0.018073,-0.022591, 0.009707, 0.015695,-0.030437,-0.008390,-0.002655,-0.024801,-0.018582, 0.007305,-0.014703,-0.000346,-0.022893,-0.023309,-0.002629,-0.007772,-0.020032,-0.024007,-0.029814, 0.014804, 0.015988,-0.017806,-0.020350,-0.005051,-0.029350,-0.013500,-0.012275,-0.028032,-0.016148, 0.004077, 0.013246, 0.027569, 0.032690,-0.014523,-0.027359, 0.018427, 0.003136,-0.020270,-0.000811, 0.009578, 0.029174, 0.026575, 0.010988,-0.029128,-0.000484, 0.015241,-0.029591,-0.031121,-0.029008, 0.001773, 0.011380, 0.010314,-0.005744, 0.007223, 0.018665,-0.017211, 0.017276, 0.019809, 0.004136, 0.028876, 0.009501,-0.002718, 0.003385, 0.024717, 0.003201,-0.027501,-0.019612, 0.015705, 0.017844, 0.011158,-0.015287, 0.020480, 0.025452,-0.024843,-0.024979, 0.012216, 0.002564, 0.012685,-0.020661, 0.014632,-0.027754, 0.018229, 0.016427, 0.012161,-0.008852, 0.015833, 0.009050, 0.007917,-0.031110,-0.026054,-0.014435,-0.027503,-0.000160, 0.010493, 0.012121, 0.021385,-0.006419,-0.000995, 0.000260,-0.024296, 0.029228, 0.001985, 0.019802, 0.020352, 0.011561,-0.011666,-0.021797,-0.008579,-0.023615,-0.018774,-0.023351,-0.027485,-0.015459, 0.021012,-0.024506,-0.011015, 0.019642, 0.026680, 0.004449,-0.036040, 0.022164,-0.024119, 0.026065,-0.002702, 0.015194,-0.015565, 0.005478, 0.021354, 0.002041,-0.015607, 0.023107,-0.021102,-0.010788,-0.001674, 0.008287,-0.013022, 0.027514, 0.020720,-0.001838,-0.021670,-0.005458,-0.027186,-0.020867,-0.005296, 0.048379,-0.025003, 0.025498,-0.022882, 0.007436, 0.009081, 0.020602,-0.013337, 0.019704,-0.020534,-0.025023,-0.004266,-0.001187, 0.029824, 0.006000,-0.015727,-0.019508, 0.019231,-0.026255,-0.033513,-0.009797,-0.007244,-0.008962, 0.014733, 0.008263,-0.020473, 0.010209, 0.000431, 0.034132,-0.006443, 0.024210,-0.031067, 0.028328, 0.015251,-0.009424,-0.024312, 0.013263, 0.031083,-0.033302,-0.029768,-0.025938, 0.018987, 0.028111, 0.024048,-0.004076, 0.021819,-0.023289, 0.005079, 0.004506, 0.000579,-0.005117,-0.010015, 0.017288,-0.027709, 0.017863, 0.024581, 0.029232, 0.016090, 0.012794,-0.022875, 0.003634, 0.024036,-0.015633, 0.019213,-0.010755,-0.027332,-0.005850,-0.033946, 0.011676,-0.003022, 0.008174, 0.009320,-0.021104,-0.031448, 0.013420, 0.009250,-0.027902, 0.007964,-0.003187,-0.028603,-0.013928, 0.017907, 0.001698, 0.007377, 0.035245,-0.022954, 0.016322,-0.000263, 0.018473, 0.004146,-0.005127,-0.012758,-0.019422, 0.012768,-0.001558, 0.039468,-0.016597, 0.008583, 0.009510,-0.023161,-0.005893, 0.002590,-0.021836,-0.018413, 0.007746,-0.019795, 0.017792,-0.006303, 0.021918, 0.023833, 0.024812,-0.004580, 0.006281,-0.019875,-0.020054, 0.026104, 0.012522,-0.024341, 0.006583,-0.003718,-0.007369, 0.022961, 0.004788, 0.026482,-0.026182, 0.027037,-0.015022, 0.014961, 0.024158, 0.029239,-0.009054,-0.014134, 0.011370, 0.029473,-0.031300,-0.021978,-0.037670, 0.039202, 0.024466, 0.019743,-0.005549, 0.003113, 0.010337, 0.022201,-0.032801,-0.002629,-0.000241, 0.024460,-0.025714,-0.010857, 0.028700,-0.024621, 0.019479,-0.007817, 0.028404,-0.003257,-0.010418,-0.015469, 0.001487, 0.011788, 0.026185, 0.013294, 0.022761, 0.014805,-0.024889,-0.013775,-0.009272, 0.030839, 0.027208,-0.003193, 0.029463,-0.018559,-0.035378, 0.016137, 0.030267,-0.000968, 0.017569,-0.025651,-0.006161,-0.022099, 0.021593,-0.003558,-0.016675,-0.007869,-0.005509,-0.013782,-0.020334,-0.012378,-0.017032, 0.016804,-0.015030, 0.020321,-0.021782, 0.022154,-0.002607, 0.007687, 0.014546, 0.003390,-0.012076, 0.016582, 0.015395, 0.000977,-0.009921,-0.000186, 0.012638, 0.019076,-0.006215,-0.017667, 0.027588, 0.010193, 0.017558, 0.020905,-0.008872,-0.000458,-0.030401,-0.023256,-0.031456,-0.025052,-0.004361, 0.017180, 0.002946,-0.008347,-0.030486,-0.028673, 0.025927,-0.023503, 0.007565, 0.001119,-0.010298,-0.018345,-0.011234,-0.008364, 0.004497, 0.014382,-0.007760,-0.002228, 0.017436,-0.013441,-0.007196,-0.012299, 0.020692,-0.039099,-0.004673, 0.027478,-0.027535, 0.010713,-0.006341, 0.027903,-0.013681,-0.029053, 0.019553, 0.011049,-0.026047,-0.023545, 0.006075,-0.003527,-0.004797,-0.008128, 0.011281, 0.004677, 0.019190, 0.000594, 0.005013, 0.029596, 0.015109, 0.023465,-0.022242,-0.026201, 0.021416, 0.014672, 0.007434, 0.027436,-0.014888,-0.012703,-0.018175,-0.010791, 0.004495, 0.012943,-0.016580,-0.021960,-0.022603,-0.029569, 0.022746, 0.019023,-0.036270,-0.015501, 0.001777, 0.011011, 0.016263, 0.024076,-0.032555,-0.006583, 0.029094, 0.022202, 0.016539,-0.001224,-0.018854, 0.002668,-0.030063, 0.012065,-0.023903,-0.024193, 0.024795,-0.019253, 0.010418, 0.024799,-0.026742,-0.005589,-0.005756,-0.011118, 0.007042, 0.025922, 0.022827, 0.018466, 0.026180, 0.026294,-0.029716,-0.017064,-0.000215,-0.002858, 0.022871, 0.026081, 0.025753,-0.022714,-0.016645,-0.004245, 0.003755,-0.027725, 0.028515, 0.026629,-0.003739, 0.012660, 0.025566, 0.027361,-0.030323,-0.006325,-0.001226,-0.000471, 0.005233,-0.008050, 0.020460,-0.032880,-0.014225,-0.014322,-0.032333,-0.028566, 0.006599, 0.017634, 0.015562, 0.004335,-0.023785, 0.013777,-0.027799,-0.023317, 0.030244,-0.007836, 0.002593,-0.013647, 0.019655, 0.019798, 0.021012,-0.025239,-0.029792,-0.013822, 0.007584,-0.028058,-0.006725,-0.019742,-0.004555,-0.019527,-0.002661, 0.002134,-0.013949, 0.012861,-0.010568,-0.014354,-0.035624, 0.025805,-0.008218,-0.034464, 0.010028, 0.014319,-0.027691,-0.034330,-0.022777,-0.021409,-0.028761, 0.013421, 0.023672,-0.007991, 0.004120, 0.027135,-0.030062, 0.023878, 0.030761,-0.023249, 0.034054,-0.004738, 0.017002,-0.021818, 0.022656,-0.016700, 0.046181,-0.014958,-0.008311,-0.028376, 0.004581,-0.018823,-0.021688, 0.013878,-0.021781,-0.018129, 0.026286, 0.038380,-0.019257,-0.010749, 0.006365,-0.025136,-0.022848,-0.035206,-0.021106, 0.005258,-0.025653,-0.011087, 0.006509,-0.026867,-0.014179, 0.021206,-0.009401,-0.020480,-0.029885,-0.030349, 0.009322, 0.035964, 0.015746,-0.002101,-0.008814, 0.000810,-0.006755, 0.007227,-0.014502, 0.029185, 0.001375,-0.017155, 0.010470,-0.027855,-0.020827,-0.007400, 0.006398,-0.007172, 0.025296, 0.020906, 0.021088, 0.002686, 0.002679, 0.033414,-0.000416,-0.015816, 0.020833, 0.013283,-0.028842, 0.012555,-0.016270,-0.014861, 0.008313,-0.015355,-0.000048, 0.020502,-0.001502,-0.008178,-0.025205, 0.000653, 0.026115, 0.001525,-0.008076, 0.011411, 0.009771, 0.022926,-0.017753,-0.006056, 0.018186,-0.029164,-0.002425, 0.011428, 0.016522, 0.024028,-0.011046, 0.018077, 0.016718, 0.001289,-0.020315,-0.026205, 0.028183, 0.010073,-0.005792, 0.022949,-0.027294,-0.019164,-0.012669, 0.017537,-0.011663,-0.013437, 0.022251, 0.022872,-0.021522, 0.019645, 0.021464, 0.003140,-0.007858, 0.003848, 0.007139,-0.010769, 0.022149, 0.005927, 0.019768,-0.021684, 0.011123, 0.008631,-0.010413,-0.007592,-0.028966, 0.028987,-0.005343, 0.011021, 0.002725,-0.012457, 0.012895, 0.004303, 0.017788, 0.003595,-0.001647,-0.020100, 0.029883,-0.005820,-0.008883,-0.007568, 0.027195, 0.028293, 0.007382,-0.003064,-0.013061,-0.011093, 0.031553, 0.023993, 0.014473,-0.022946, 0.001668, 0.012792,-0.016544,-0.006864,-0.030661, 0.027769, 0.000530, 0.012893,-0.009891,-0.012258,-0.003793,-0.013510, 0.019523, 0.002305,-0.009509, 0.006380, 0.016805, 0.012209, 0.006686,-0.020797,-0.010806,-0.014821,-0.027936, 0.007971,-0.025381,-0.001458,-0.016220,-0.005084, 0.003549,-0.020555,-0.017870,-0.019352, 0.030241, 0.021164,-0.012892,-0.025107, 0.017883,-0.003932,-0.016275, 0.014885,-0.009876, 0.014417, 0.001377,-0.014358,-0.015580,-0.009495, 0.014292,-0.016566, 0.023050, 0.017468, 0.023537, 0.017433,-0.024206,-0.025056, 0.020300,-0.017535,-0.012567, 0.008555, 0.019062, 0.015611, 0.014982,-0.021433, 0.017537,-0.018738,-0.016414, 0.004673,-0.035165, 0.012495,-0.023572,-0.025189,-0.028491,-0.011005, 0.014739, 0.020530,-0.021621,-0.028631, 0.018275, 0.012442,-0.002579,-0.024423,-0.023615,-0.010523, 0.015732, 0.013530, 0.020244, 0.005641,-0.010414, 0.002356,-0.017657, 0.037767, 0.000455, 0.024054,-0.030646, 0.027942, 0.029816, 0.011941,-0.018429,-0.026426,-0.012238, 0.027462, 0.030226, 0.019355, 0.007188, 0.000679,-0.019042,-0.024415, 0.030756,-0.000677, 0.029611,-0.024319, 0.032360, 0.016412,-0.009244,-0.015149,-0.004387, 0.020776,-0.003276,-0.029223,-0.004244,-0.004134,-0.022061, 0.022521,-0.011059,-0.027799,-0.015977,-0.019125, 0.023545, 0.033333,-0.035685, 0.039237,-0.000385, 0.019516,-0.013031, 0.006263,-0.031195,-0.025987, 0.027912,-0.018011, 0.021191,-0.013617, 0.025247, 0.027600,-0.026675,-0.002493, 0.017794,-0.004392,-0.012333, 0.025638,-0.007802, 0.028279,-0.008039, 0.009902,-0.029786, 0.032718,-0.012754,-0.021829,-0.036212, 0.028701, 0.010945, 0.030612, 0.014310,-0.023719, 0.008994, 0.011477,-0.035477,
-0.022233, 0.016685,-0.019216,-0.015282, 0.005890,-0.000353, 0.007428, 0.011665,-0.019175, 0.006864, 0.015909,-0.019459, 0.024757, 0.024895, 0.011188, 0.022673, 0.035950, 0.000760,-0.007214,-0.017750, 0.016519,-0.014645,-0.022471, 0.015755, 0.010647,-0.024739, 0.025780,-0.009366,-0.002105,-0.029661, 0.009717,-0.009679, 0.009328,-0.021241, 0.026390, 0.028507,-0.008018, 0.028718, 0.005638,-0.031634, 0.016685, 0.011868,-0.003209, 0.009066, 0.013129, 0.030601, 0.017254, 0.015332, 0.000867,-0.008569,-0.025292, 0.022275, 0.016054,-0.031910,-0.031075, 0.021993, 0.002849,-0.010721,-0.016037, 0.010878,-0.011287, 0.025900, 0.014439, 0.006736,-0.027406, 0.021876, 0.024427,-0.010992,-0.014295, 0.013414,-0.021684,-0.019582,-0.003726,-0.035578, 0.021287,-0.020590, 0.009698, 0.034659,-0.014412, 0.008911, 0.010974, 0.003845,-0.006200,-0.008252, 0.006862, 0.005928, 0.027483, 0.031551, 0.012366,-0.011577, 0.014156, 0.031123, 0.000186,-0.003728, 0.003431, 0.014942,-0.020313, 0.026862, 0.025908,-0.013961, 0.024733, 0.010041,-0.028621,-0.010280, 0.012316, 0.015571,-0.000145, 0.003284,-0.002996, 0.024004, 0.018229, 0.016864, 0.025326,-0.010400,-0.006814,-0.026531, 0.011526, 0.003543, 0.030540, 0.015269, 0.002253, 0.005108, 0.000452, 0.023949,-0.024949, 0.009625,-0.021840, 0.029496,-0.027542,-0.030195, 0.025100, 0.014642, 0.026171,-0.019612, 0.004426,-0.007901, 0.024284, 0.012036, 0.026620,-0.000431, 0.013711, 0.021080, 0.008516,-0.000466, 0.009091,-0.025009,-0.011595,-0.012490, 0.030964, 0.025648, 0.022565, 0.002646,-0.000853,-0.004257, 0.020631, 0.001023,-0.027327, 0.021521,-0.030105, 0.004585,-0.033177,-0.018578, 0.026522,-0.008883,-0.010782,-0.000964,-0.001000, 0.023011,-0.003399, 0.003513, 0.016975, 0.025880, 0.017988,-0.002556, 0.004174,-0.010043,-0.003488, 0.024114,-0.020656, 0.020125, 0.024344,-0.026625, 0.015091, 0.006223,-0.029830,-0.017946,-0.025349, 0.000713, 0.025683,-0.006666, 0.013540,-0.017235, 0.002234, 0.032776,-0.025313, 0.023933,-0.003853,-0.013754,-0.001662, 0.005982,-0.031582,-0.024141, 0.018244, 0.006543,-0.026178,-0.001784,-0.018727, 0.011290, 0.032076,-0.019061,-0.017092,-0.006212,-0.002607, 0.011912, 0.027991, 0.016379, 0.028511, 0.020033, 0.023970, 0.005497,-0.006858, 0.019413, 0.001088,-0.027429, 0.028152, 0.003347, 0.020165,-0.022289,-0.014322,-0.029709, 0.016286, 0.028868, 0.017418, 0.025437, 0.023878,-0.016726,-0.026424, 0.005465, 0.024128,-0.004644,-0.021024, 0.013360,-0.009204, 0.013066,-0.012371, 0.021429, 0.020877,-0.005109, 0.008402, 0.011829,-0.015316, 0.003774, 0.018749,-0.025215,-0.014741,-0.007622,-0.019726, 0.001190,-0.019275, 0.001126, 0.005685,-0.008265, 0.019955, 0.005062, 0.001293,-0.027483,-0.020733, 0.025121, 0.000924,-0.026274, 0.012272, 0.005357, 0.006375,-0.026659,-0.014207,-0.002069,-0.023724,-0.019000, 0.012661,-0.024706, 0.026126, 0.000595, 0.003060,-0.023411,-0.003929,-0.011959,-0.022102,-0.023996,-0.008388,-0.006344,-0.009641,-0.005500, 0.041932,-0.029109,-0.017777,-0.025391, 0.019113,-0.005219,-0.011103, 0.019037,-0.004187,-0.018838,-0.011620, 0.015873,-0.003515,-0.021660, 0.014821, 0.015683, 0.020042,-0.030821, 0.005936, 0.008956,-0.023932, 0.004602,-0.013969, 0.022445, 0.015670, 0.019388,-0.022769,-0.001959,-0.037532, 0.015009,-0.025370,-0.016985,-0.008906,-0.023834,-0.012052,-0.005279,-0.033792, 0.004161,-0.008453,-0.021667, 0.026330, 0.000275, 0.021011,-0.020596, 0.015132,-0.016646,-0.011350,-0.022578,-0.028014, 0.021048, 0.025171, 0.032741,-0.010114, 0.021609,-0.018401,-0.029612, 0.013550,-0.030370, 0.018119,-0.006283,-0.013491,-0.016090,-0.018883, 0.031198, 0.001358,-0.025701, 0.004582,-0.026047,-0.024091, 0.013854, 0.026624,-0.009364, 0.029909,-0.020308, 0.011887,-0.021213,-0.029334, 0.024867, 0.012507,-0.015765,-0.016370,-0.009340,-0.002440,-0.005570,-0.019262, 0.037828,-0.025120, 0.009505,-0.016500,-0.003324,-0.013261,-0.013734, 0.027642,-0.007267,-0.007246, 0.015970,-0.021783,-0.002626,-0.023840,-0.028668,-0.030939,-0.005746,-0.026978,-0.006297, 0.004842, 0.010801, 0.013180, 0.009091,-0.022169,-0.002225,-0.008033, 0.022442,-0.014964, 0.004413,-0.012216, 0.005708,-0.028393, 0.015705,-0.006725,-0.003187,-0.023206, 0.018086,-0.013414,-0.001118,-0.011739, 0.021914,-0.010315, 0.031633,-0.022613,-0.032976,-0.010059,-0.002902, 0.017919, 0.024912, 0.005918,-0.025966,-0.029123,-0.005384, 0.026073, 0.010962,-0.020202, 0.026776,-0.025593, 0.009348, 0.009540, 0.004203, 0.009535,-0.006079, 0.022976, 0.020527, 0.026468, 0.022063,-0.021145, 0.004561,-0.029710, 0.026984, 0.034147,-0.002587, 0.025842, 0.006159,-0.012500,-0.003689, 0.009262,-0.009207, 0.010663, 0.002918, 0.002748, 0.023839, 0.018630, 0.026858,-0.014732,-0.032738, 0.009400, 0.000530,-0.007076,-0.004026,-0.010838,-0.023780, 0.019016, 0.000514, 0.023418, 0.016627, 0.029735, 0.014817,-0.005855, 0.000988,-0.003819,-0.010152,-0.004816,-0.016513, 0.027407, 0.010234,-0.010795,-0.021727,-0.020804, 0.009316, 0.021907,-0.025960,-0.025218,-0.027431, 0.002748,-0.028413,-0.016410,-0.024438, 0.025851, 0.001797,-0.030359,-0.017817,-0.000256, 0.000339, 0.005503,-0.018972,-0.004641,-0.024784,-0.033674,-0.032704,-0.015201,-0.001548, 0.002325,-0.019533, 0.009766,-0.014162,-0.002160,-0.005915, 0.031461, 0.020237, 0.024753,-0.028231,-0.020714, 0.005709, 0.026263, 0.002721, 0.003851,-0.022252,-0.010006, 0.024349, 0.021908,-0.012581, 0.025738, 0.028101, 0.029472,-0.016823,-0.014727,-0.017838,-0.006277,-0.004716,-0.023614,-0.008664,-0.017092, 0.008000,-0.025126, 0.000867,-0.026494, 0.023663, 0.017607,-0.007219,-0.008852, 0.023557,-0.027996,-0.030258,-0.003509, 0.012560,-0.025414, 0.025408,-0.031391, 0.012009, 0.029416,-0.018739,-0.015876,-0.017778,-0.000519, 0.004692,-0.008093, 0.014002,-0.020157,-0.019132, 0.030308, 0.003004,-0.004636, 0.008274, 0.016356,-0.022457,-0.009068, 0.003653, 0.005468,-0.003698, 0.027149, 0.008003, 0.018858,-0.021648,-0.006453, 0.017408, 0.020058, 0.007601,-0.016826, 0.018110, 0.021486, 0.029831, 0.016587, 0.024137,-0.025076, 0.028767,-0.001257,-0.027060,-0.006381,-0.013014,-0.020782, 0.010595, 0.027061, 0.024457,-0.015425,-0.023981, 0.022923, 0.015471,-0.028479,-0.005354, 0.027059,-0.032666, 0.021857,-0.020327, 0.017063,-0.002089, 0.018691, 0.021135,-0.003669, 0.008181,-0.029822,-0.009146,-0.022562,-0.025620, 0.031241,-0.014873, 0.024264,-0.003231,-0.023185, 0.002691, 0.008939, 0.026707,-0.010571, 0.008226, 0.011998, 0.017619,-0.002853,-0.013165,-0.019377,-0.000639,-0.028380, 0.018344,-0.012120, 0.005382, 0.003949,-0.002513,-0.002863, 0.008396,-0.026677,-0.013821,-0.025158, 0.020129,-0.014637,-0.029934,-0.004755, 0.011996, 0.020889, 0.000853, 0.017680,-0.017656,-0.010952,-0.031781, 0.000056, 0.017640, 0.003244, 0.017625,-0.002196,-0.030747, 0.014549,-0.004061, 0.026012,-0.015515,-0.030143,-0.024243,-0.009450,-0.029772, 0.011257,-0.003789,-0.013299, 0.026809,-0.026586,-0.008314,-0.027401,-0.008354, 0.007394, 0.005043,-0.033330,-0.005401, 0.029399,-0.025464,-0.030777, 0.020023,-0.020467, 0.032807, 0.011487,-0.011379,-0.018371,-0.019933, 0.033749,-0.013632, 0.001839, 0.012498,-0.005230, 0.021663, 0.010141,-0.000012,-0.027047, 0.026734, 0.001495,-0.007830,-0.011283, 0.010664,-0.016227, 0.015006,-0.032189, 0.002797,-0.007551,-0.012103,-0.024384, 0.029289,-0.017189,-0.003919, 0.021277, 0.012733,-0.020338, 0.022872, 0.003964,-0.019811, 0.017919, 0.020491, 0.002280,-0.022441, 0.024416,-0.007652, 0.024801,-0.004251,-0.012664, 0.004032, 0.023974, 0.003629,-0.003489,-0.002483, 0.015864,-0.021438,-0.021499, 0.002102,-0.016219,-0.011486,-0.021445, 0.008280, 0.014146, 0.027441, 0.002229, 0.004472, 0.002393, 0.015558,-0.025978,-0.012217,-0.006480, 0.005832, 0.030942, 0.006091,-0.009101,-0.024803, 0.019843, 0.027559, 0.024659, 0.003212,-0.005898, 0.002484, 0.013042,-0.020980, 0.008580,-0.023577, 0.019212, 0.005747, 0.020493, 0.007304,-0.001517,-0.007198,-0.025177, 0.024047, 0.004924, 0.013433,-0.017239,-0.012989, 0.025173, 0.003022,-0.000937, 0.007436, 0.009986,-0.024542,-0.032523, 0.012584, 0.026347,-0.005049, 0.025020,-0.010593, 0.025704,-0.011727, 0.014173,-0.008695,-0.011535,-0.029913,-0.020240,-0.023265, 0.018809, 0.015259, 0.008562,-0.022304, 0.022407,-0.000799, 0.005608,-0.026756,-0.013450, 0.006735,-0.011548,-0.006181, 0.008127, 0.030665,-0.006115,-0.018794,-0.020113, 0.016528,-0.015868,-0.019325,-0.014861, 0.005177,-0.020533,-0.012813,-0.006909, 0.022453,-0.006484,-0.002879, 0.022573,-0.023586,-0.028603, 0.005793,-0.028704,-0.005182,-0.006676, 0.016856, 0.027292, 0.006404, 0.013159,-0.017021, 0.021074,-0.000611, 0.026154,-0.020413,-0.015913,-0.035507,-0.031535, 0.022757,-0.033216,-0.023510, 0.000391,-0.014624, 0.005523, 0.024965, 0.029035, 0.024279, 0.000676,-0.031763, 0.020918, 0.029959, 0.020503,-0.004816,-0.018097,-0.008180,-0.030487, 0.027720,-0.008101, 0.006498,-0.017907, 0.008807,-0.018967,-0.027003,-0.017658,-0.008253, 0.012363,-0.006802,-0.021666, 0.023473, 0.012621,-0.028249, 0.015871,-0.007393, 0.010716,-0.014798,-0.011635, 0.022332, 0.024157, 0.006351,-0.025719, 0.015442, 0.023405,-0.030637, 0.027734, 0.021807, 0.024396,-0.001460, 0.022494,-0.028410, 0.004420, 0.018351,-0.031213,-0.008430,-0.013656,-0.012947, 0.025498,-0.009532,-0.002914,-0.002519,-0.022537, 0.009833, 0.007035, 0.029794,-0.015043,-0.000310,-0.013768,-0.029380,-0.028363,-0.016903, 0.018357, 0.002383, 0.024475,-0.031164, 0.025433,-0.034999,-0.025167, 0.005438, 0.002660, 0.020626, 0.010862,-0.013670,-0.027007,-0.002056, 0.029216,-0.018049, 0.012206,-0.002355,-0.003541,-0.008248,-0.011213,-0.025010,-0.003496,-0.007240,-0.021451, 0.013230,-0.007496, 0.028907,-0.025838,-0.023574,-0.017485,-0.011572,-0.033357, 0.013568, 0.006771, 0.009149, 0.028848, 0.017840, 0.004624,-0.022374,-0.023168,-0.023109,-0.028371, 0.021745,-0.024441, 0.022002,-0.012646, 0.013153,-0.026448,-0.023801, 0.016484,-0.022652, 0.010847, 0.029256,-0.013817,-0.007591, 0.020891, 0.024240,-0.017674,-0.002450, 0.016146,-0.022986,-0.021423, 0.005787,-0.008346,-0.007522, 0.002018,-0.012391, 0.017279, 0.007448,-0.025014,-0.020027,-0.015155,-0.008382,-0.025081, 0.015456, 0.000586,-0.000970,-0.025974, 0.024519, 0.029031,-0.017108,-0.031882, 0.018153,-0.014954,-0.001839,-0.012807,-0.030541,-0.005724, 0.008264, 0.028892, 0.018471, 0.022459, 0.005889, 0.010961,-0.030648, 0.024859,-0.031677, 0.037891,-0.004291,-0.004504,-0.009542,
