1618,
54,
695,
186,
1379,
848,
288,
617,
-695,
-277,
-12,
562,
-339,
275,
-757,
-728,
318,
-1300,
-295,
-898,
-1037,
1728,
-941,
-175,
-640,
-419,
276,
384,
880,
105,
629,
0,
665,
-213,
-186,
1031,
-215,
-793,
403,
-923,
-82,
99,
801,
-1081,
-626,
-372,
-1131,
1313,
-1001,
-1050,
-1049,
-368,
82,
1622,
584,
1155,
536,
1368,
64,
-1112,
-1245,
-176,
279,
1314,
-800,
975,
618,
-514,
53,
908,
1014,
-376,
236,
-982,
1584,
218,
-50,
1516,
915,
-1041,
-154,
-68,
46,
727,
403,
573,
-984,
1115,
593,
-798,
1595,
660,
-8,
-927,
1170,
-848,
-1312,
-94,
-996,
1425,
-333,
580,
101,
429,
1276,
-439,
1858,
-999,
-616,
944,
716,
1448,
622,
-1488,
1484,
-1764,
-197,
-1507,
906,
1059,
-1513,
1148,
278,
1691,
-543,
-483,
-1015,
-1467,
501,
-644,
212,
-474,
550,
1488,
-532,
1127,
-272,
316,
-195,
1080,
-827,
-1117,
-1317,
1050,
580,
151,
-79,
223,
1985,
221,
-1254,
1146,
1082,
-1155,
-172,
-432,
-353,
324,
-154,
-729,
1644,
606,
-564,
-799,
-292,
330,
-1066,
11,
280,
-167,
-1496,
-1124,
-418,
1245,
1321,
375,
453,
412,
818,
1035,
530,
-793,
668,
835,
-677,
886,
-299,
-996,
404,
-1153,
615,
648,
-1204,
-1274,
-1082,
-593,
1537,
-938,
1123,
1170,
-679,
1536,
-79,
-1389,
650,
-438,
-799,
-520,
-953,
-51,
39,
-590,
-731,
-455,
1024,
656,
713,
350,
-19,
514,
938,
1059,
-797,
-876,
13,
-1309,
-62,
944,
1176,
-894,
916,
234,
5,
-21,
-582,
492,
-110,
-135,
-1112,
1056,
774,
1417,
1584,
-385,
-204,
-697,
-724,
-101,
1036,
555,
-1466,
-227,
-663,
-295,
381,
-30,
602,
-508,
232,
721,
-345,
704,
200,
-23,
-1277,
-1231,
-208,
-307,
-1630,
1088,
474,
-1340,
-1455,
-705,
182,
1270,
24,
1052,
-811,
1380,
1392,
-470,
1389,
1920,
-269,
684,
326,
465,
1282,
400,
395,
119,
-867,
1224,
1050,
1038,
-1160,
1542,
-145,
1412,
-849,
1405,
-727,
262,
1395,
1038,
-1083,
-320,
-687,
-655,
1013,
-105,
-487,
-526,
-155,
-1280,
346,
539,
1533,
1431,
781,
-410,
-231,
-733,
1260,
-1332,
-258,
-209,
331,
162,
979,
148,
841,
956,
-1371,
-1221,
-1094,
1374,
-42,
1672,
192,
-537,
1614,
15,
-1737,
898,
-431,
-67,
-561,
-802,
759,
-599,
-787,
-329,
480,
87,
1510,
720,
79,
-43,
-93,
611,
1154,
795,
1159,
-789,
-56,
678,
315,
-1262,
-766,
247,
-973,
1312,
1015,
-536,
-1314,
1229,
-680,
-318,
-1328,
1625,
1817,
-218,
389,
802,
1089,
95,
-1140,
783,
-1205,
554,
580,
-396,
1419,
-1354,
967,
119,
-665,
-111,
-434,
-731,
350,
-454,
864,
1359,
1347,
-1278,
999,
954,
610,
439,
-277,
233,
236,
-71,
674,
744,
-792,
-1022,
139,
624,
246,
-163,
39,
261,
-1285,
-343,
-249,
-49,
1528,
-1532,
845,
1218,
1293,
1534,
35,
900,
908,
791,
-904,
774,
-518,
123,
-967,
-351,
-1018,
653,
1699,
1249,
1615,
-37,
462,
257,
-1049,
-93,
1131,
127,
-355,
105,
1209,
1092,
-316,
-1262,
-331,
-493,
-1236,
-956,
939,
1125,
409,
-835,
-571,
1657,
-935,
1107,
910,
-920,
805,
-755,
-237,
-159,
34,
1577,
-931,
-1155,
117,
1481,
-107,
197,
1063,
-1332,
-161,
-893,
440,
630,
396,
841,
347,
-1276,
781,
-1421,
-687,
84,
1459,
811,
-827,
-1304,
1086,
1605,
-963,
-93,
582,
-249,
1518,
551,
-625,
1731,
385,
-1234,
-303,
-168,
-717,
278,
-148,
-176,
1242,
1079,
1327,
378,
-981,
918,
770,
-405,
1269,
-1035,
-276,
-1449,
-937,
182,
338,
496,
925,
675,
749,
260,
-139,
-43,
1379,
-870,
1230,
201,
-296,
-607,
859,
636,
-250,
675,
-862,
1206,
604,
-762,
-855,
-1135,
2094,
855,
-286,
496,
-15,
1453,
-751,
-1068,
948,
61,
-183,
772,
-258,
-1332,
-1405,
1006,
-488,
131,
-921,
-511,
1051,
-1588,
-525,
-1247,
-419,
-262,
222,
171,
1093,
154,
-279,
1041,
-309,
439,
1380,
-40,
288,
723,
367,
-1001,
1281,
-998,
898,
-242,
-645,
970,
-269,
8,
804,
895,
1324,
-1048,
1455,
770,
634,
101,
1244,
-1607,
1479,
1412,
829,
496,
1651,
592,
-1415,
-617,
996,
-506,
659,
-981,
-80,
-181,
991,
-765,
-781,
903,
1196,
944,
-1315,
-1038,
-1429,
-18,
1102,
395,
-180,
-1336,
-309,
56,
860,
-996,
910,
-309,
570,
-1636,
-1281,
545,
1729,
1021,
-160,
-575,
-1181,
828,
-1343,
-1255,
586,
936,
1386,
-801,
-201,
-42,
-1226,
51,
408,
308,
-581,
-199,
-929,
-20,
5,
-758,
59,
1140,
-786,
637,
124,
1609,
-1265,
106,
-559,
1108,
513,
277,
1485,
-570,
498,
-386,
-1121,
286,
-674,
-432,
1192,
-207,
1410,
-717,
907,
-16,
0,
1067,
864,
1,
-824,
1472,
1167,
-649,
-1197,
-606,
562,
699,
305,
-269,
883,
-205,
893,
-920,
-209,
932,
-219,
575,
-866,
833,
662,
1028,
1218,
-1579,
1130,
-765,
695,
827,
-752,
496,
426,
600,
-56,
795,
1122,
-409,
-1066,
157,
765,
1348,
-1088,
227,
814,
653,
497,
-868,
-208,
-839,
1278,
-1590,
739,
1029,
-806,
-480,
-37,
316,
-491,
-408,
-771,
-1308,
-838,
-1095,
-1203,
638,
-1191,
839,
-829,
169,
1117,
-133,
610,
1344,
-1324,
579,
-859,
1320,
-1050,
1093,
-833,
666,
-1615,
-883,
1571,
435,
572,
-339,
-56,
744,
-1408,
9,
364,
1283,
1093,
-1235,
949,
-504,
14,
-816,
-356,
-1422,
983,
372,
1170,
-1024,
747,
681,
703,
44,
445,
-268,
-236,
-746,
834,
-905,
9,
723,
-1377,
-944,
-344,
495,
-711,
-4,
245,
1388,
1512,
197,
615,
475,
-1529,
1218,
67,
-776,
-1322,
1152,
-511,
994,
-323,
-1499,
-1030,
-748,
574,
-329,
-743,
630,
-1082,
795,
652,
1802,
786,
580,
1132,
86,
-753,
-427,
-425,
147,
947,
349,
-992,
384,
-1472,
-156,
276,
22,
-528,
-7,
467,
407,
1310,
-1617,
1133,
1405,
178,
-1888,
-200,
-319,
-380,
1211,
1628,
1390,
-92,
-972,
-599,
-1418,
257,
233,
1544,
-676,
-1019,
-858,
-503,
1340,
1188,
665,
403,
560,
516,
1586,
-1013,
-310,
437,
-971,
-338,
1455,
-871,
640,
-409,
-1559,
-774,
401,
-376,
-390,
900,
541,
-588,
-53,
1021,
-104,
-315,
1209,
-251,
-128,
907,
1433,
1141,
-771,
1230,
-1047,
-897,
1356,
75,
289,
-569,
-603,
-1544,
989,
469,
-157,
-749,
373,
1036,
1143,
-576,
682,
-964,
-60,
326,
549,
-85,
-1332,
-1581,
-816,
1697,
-382,
325,
367,
169,
-55,
119,
1170,
-1160,
526,
491,
-123,
515,
762,
-1022,
-370,
-1001,
73,
-1227,
-778,
-25,
736,
1377,
-1126,
1395,
-407,
684,
938,
699,
1507,
1210,
791,
240,
751,
-278,
-580,
-46,
-170,
552,
1397,
-1213,
-558,
-168,
-373,
859,
977,
-687,
489,
-1169,
1721,
1065,
1230,
238,
-992,
1054,
369,
907,
-489,
