1488,
-668,
602,
-1046,
1199,
-2057,
310,
279,
1035,
-1570,
-496,
-200,
-92,
-46,
476,
73,
-1124,
-519,
576,
-72,
-1285,
215,
456,
-26,
436,
592,
199,
2028,
-67,
-1224,
-1111,
-712,
530,
165,
-521,
-2699,
1168,
-1441,
426,
-1307,
931,
-1818,
596,
-692,
-729,
-3216,
-735,
459,
-1076,
-2071,
-234,
1052,
-1995,
-543,
-1046,
1100,
2735,
-1518,
815,
-357,
-128,
1560,
-493,
348,
-997,
279,
137,
1485,
-496,
-747,
481,
-667,
-1496,
1741,
504,
2401,
940,
310,
1076,
719,
795,
-625,
70,
-867,
1052,
-3062,
-1614,
242,
-67,
816,
89,
771,
1251,
244,
-148,
-2920,
318,
1072,
-3234,
-1743,
-63,
-1821,
47,
414,
-445,
-142,
1981,
702,
1153,
207,
-550,
-2007,
-1208,
34,
-3217,
304,
-905,
-1005,
873,
1017,
435,
-562,
-1224,
-1841,
-789,
-1332,
-746,
123,
1476,
-1825,
113,
244,
643,
-891,
1495,
401,
-594,
838,
-959,
1284,
-2303,
-845,
-2075,
-1776,
-1537,
1230,
-482,
100,
-420,
430,
344,
-1716,
961,
714,
-1264,
-2369,
-1337,
-3242,
1278,
-2136,
-657,
405,
412,
1356,
-4902,
-247,
-1521,
981,
1548,
84,
-1095,
1112,
-561,
-284,
2427,
-1403,
1590,
343,
-4092,
965,
-649,
185,
699,
682,
1179,
444,
-389,
535,
758,
-826,
-15,
-277,
-253,
625,
-1492,
344,
-517,
562,
-1796,
-2295,
-275,
-601,
-1690,
347,
-1180,
-2744,
373,
-1828,
1441,
-363,
645,
1411,
-2413,
160,
-2735,
1285,
-3325,
666,
528,
-1221,
-2693,
-2243,
122,
-2611,
-1813,
1035,
468,
-866,
-1609,
-39,
558,
1269,
1107,
-184,
1701,
-1558,
870,
-222,
-1395,
230,
1111,
-3235,
651,
-204,
-1579,
-1392,
648,
178,
-2245,
3012,
-749,
966,
6,
548,
3308,
1447,
-921,
748,
-3094,
1497,
2997,
-1191,
1648,
-68,
1382,
-2805,
-746,
-813,
-2446,
1233,
-401,
304,
64,
538,
2410,
-2588,
1720,
-778,
936,
-669,
459,
-1410,
182,
115,
-498,
-1407,
-637,
1054,
1367,
1559,
-334,
118,
1462,
633,
-1409,
271,
905,
924,
251,
-794,
-2319,
450,
335,
-2303,
675,
-296,
16,
-2500,
-16,
-278,
-371,
-1029,
-585,
-1502,
-3050,
359,
1,
-612,
-1677,
891,
602,
-240,
-1024,
-902,
-2907,
1735,
646,
-940,
945,
-1325,
1626,
-930,
-1042,
1525,
294,
-749,
-52,
2249,
509,
-1598,
-302,
-738,
751,
-1525,
-77,
-59,
825,
-2439,
143,
-412,
-2145,
-447,
-1407,
-1519,
22,
566,
820,
-1767,
-1012,
-3321,
681,
1548,
2369,
443,
1409,
98,
227,
278,
674,
-1958,
-2270,
-409,
-131,
-968,
-612,
-1437,
469,
-325,
262,
561,
-616,
1238,
-1036,
787,
1333,
-2198,
705,
-1806,
-1774,
-790,
-749,
-739,
639,
-949,
658,
-1368,
-902,
443,
647,
-1491,
432,
1673,
833,
-155,
597,
-36,
-498,
-964,
1071,
783,
804,
-36,
-1965,
-607,
-703,
-1178,
1298,
-1448,
-1531,
1384,
1535,
239,
-841,
81,
-2481,
414,
1115,
990,
-560,
-276,
-787,
-507,
-730,
-3530,
668,
1621,
-2984,
1057,
-1898,
854,
855,
-2316,
-2805,
-41,
-369,
-196,
80,
-538,
1605,
-1332,
2387,
1072,
269,
-3202,
536,
671,
545,
1071,
842,
-1133,
1454,
934,
-5,
421,
-497,
298,
-763,
1338,
-107,
-712,
-1484,
1600,
-185,
4121,
-1821,
-1262,
-1111,
-79,
1758,
-52,
-205,
1030,
60,
230,
-937,
-4486,
342,
-141,
873,
594,
-1420,
-2145,
2304,
556,
-904,
-3029,
224,
-926,
-1457,
5,
808,
549,
1249,
-740,
3143,
1275,
1583,
-617,
931,
-1337,
157,
1316,
-1044,
-1449,
-1525,
923,
2089,
793,
-958,
135,
-2030,
71,
651,
53,
883,
182,
-2307,
-1014,
-3886,
1398,
-64,
2021,
-2474,
-649,
-2751,
-2430,
675,
1013,
-1455,
262,
1068,
-174,
-600,
1341,
732,
407,
375,
-74,
835,
-481,
291,
-264,
-963,
-59,
-1543,
91,
1572,
1226,
673,
1927,
1778,
-2445,
992,
138,
1142,
-2006,
1377,
-117,
1236,
64,
1706,
-2612,
-832,
-1080,
-3690,
264,
-719,
220,
-2344,
-1712,
-4631,
-813,
862,
357,
-280,
-38,
-2219,
-716,
68,
-1234,
1863,
-2931,
2133,
938,
-410,
551,
-583,
-2840,
1150,
-479,
871,
1138,
1259,
1313,
-287,
-148,
596,
1966,
885,
-679,
-376,
1105,
-398,
-2074,
574,
398,
-1847,
-3369,
-1629,
-10,
-1481,
461,
-967,
-1279,
-997,
725,
903,
643,
-386,
656,
498,
-1251,
1253,
-1854,
1400,
1807,
266,
-2486,
927,
-2429,
-616,
458,
337,
305,
1241,
-293,
2600,
-1345,
845,
-890,
-222,
555,
-1059,
-1990,
799,
-1013,
104,
56,
-778,
1850,
-1245,
133,
384,
1406,
-810,
2811,
-763,
1330,
-1229,
378,
-1263,
-1241,
-569,
-53,
255,
56,
-1349,
1164,
-1242,
953,
883,
-2886,
1239,
-1216,
-1205,
-822,
877,
1702,
-3811,
-3900,
-442,
1855,
-1756,
-1198,
926,
-351,
489,
-1970,
-739,
-740,
938,
1266,
937,
2531,
734,
-1157,
-1271,
959,
597,
475,
675,
781,
-1804,
485,
-1217,
1012,
-2214,
248,
148,
-138,
-1976,
-472,
-1302,
239,
1644,
-609,
-1922,
1436,
1568,
190,
1488,
1536,
-1883,
1490,
-2197,
1075,
-593,
823,
-1334,
-43,
113,
-473,
638,
207,
-837,
-424,
166,
38,
170,
-2512,
1051,
-892,
179,
-604,
-167,
1074,
-274,
-1650,
-711,
-2089,
596,
-487,
-1048,
-968,
-52,
1354,
-1261,
192,
-2787,
945,
-2345,
-3034,
-1273,
1378,
490,
353,
846,
76,
-269,
356,
-170,
-1786,
752,
450,
-1437,
2069,
357,
-318,
824,
487,
-169,
-9,
1137,
-642,
-749,
-178,
1087,
-1857,
-1008,
1385,
-165,
847,
1106,
-2685,
-357,
-1333,
149,
-952,
517,
139,
-115,
308,
153,
512,
138,
-18,
371,
-1038,
1582,
480,
-2821,
668,
439,
597,
-3199,
-23,
1234,
-2108,
-1003,
895,
477,
-1177,
-396,
-1103,
-1378,
-1465,
423,
2510,
-388,
345,
218,
-3021,
-782,
318,
575,
740,
672,
-4854,
-2436,
-2008,
1539,
-1238,
-3142,
-75,
2247,
-595,
284,
-286,
543,
-946,
-4019,
1310,
-1297,
262,
-315,
-404,
420,
-1742,
-510,
-817,
1405,
-660,
1173,
1507,
-525,
1101,
-1678,
1431,
-56,
-1159,
-1016,
371,
-1272,
404,
64,
-1089,
-517,
-1070,
1303,
-236,
553,
2169,
-245,
993,
1884,
1321,
1063,
-819,
686,
-1621,
-635,
-777,
771,
978,
881,
762,
1317,
-791,
1307,
-2338,
180,
824,
1892,
-2044,
-775,
114,
172,
-945,
362,
-1342,
830,
-857,
657,
-1078,
1186,
3227,
-101,
1682,
-2748,
-645,
-2689,
-457,
-166,
903,
-1677,
1029,
-2145,
-1115,
537,
-558,
271,
-686,
548,
1601,
-159,
-919,
-903,
-1124,
1184,
257,
1025,
238,
457,
-1050,
1211,
-209,
543,
-201,
1099,
-2658,
359,
1345,
880,
403,
-2631,
-1947,
-1050,
37,
-608,
1208,
971,
-1619,
-3843,
-148,
411,
-379,
-2549,
-910,
896,
996,
-96,
-4432,
614,
387,
-1036,
2621,
940,
-1083,
-478,
-2022,
-797,
753,
-2465,
-120,
-584,
943,
-930,
-1501,
-213,
968,
-689,
830,
-80,
830,
1372,
-2483,
-730,
-311,
-1121,
-1189,
-1732,
957,
279,
445,
-43,
-1384,
-445,
-1318,
-317,
-1313,
-126,
779,
1503,
-4119,
2697,
159,
-901,
-835,
-976,
318,
-1530,
-583,
-1993,
2288,
-559,
-227,
786,
-1776,
-282,
-3000,
1924,
-4212,
-287,
961,
2086,
-592,
-103,
437,
-2184,
-1240,
-2404,
-1381,
-295,
-1282,
3462,
-1553,
811,
1106,
-2411,
228,
-777,
762,
-810,
815,
-248,
423,
-1665,
320,
-2113,
1436,
-1592,
-531,
-589,
-823,
32,
1199,
109,
1484,
586,
-3271,
-859,
-32,
120,
-1186,
-2,
623,
97,
1301,
-285,
-877,
1101,
805,
-159,
-2964,
1062,
338,
-59,
117,
-1168,
-1291,
2179,
-1676,
-2109,
667,
-1750,
-7,
350,
-380,
39,
1300,
2087,
307,
-1310,
-1010,
1030,
1001,
-307,
-1848,
944,
46,
644,
320,
938,
1519,
-295,
1722,
237,
-391,
595,
1992,
905,
-710,
-2177,
-1578,
-667,
-206,
-26,
104,
1896,
35,
-573,
-785,
-637,
84,
808,
2898,
881,
144,
340,
-501,
-232,
1055,
909,
-1026,
9,
537,
-2186,
-213,
-1099,
-1195,
816,
-720,
-109,
217,
-407,
784,
487,
917,
150,
31,
-83,
388,
62,
133,
1695,
-156,
-313,
1124,
223,
1069,
1848,
1569,
-1074,
159,
-1733,
911,
-945,
957,
-1905,
-254,
1087,
-1131,
1256,
-2395,
-147,
802,
500,
-1321,
2198,
-454,
180,
-142,
1515,
530,
-798,
-142,
-1776,
-705,
810,
1592,
915,
879,
-1184,
455,
1056,
738,
-316,
1026,
-799,
1262,
1162,
-353,
-2417,
901,
368,
2054,
-849,
-576,
-1210,
-230,
-1881,
-2143,
-607,
-1056,
563,
-1982,
584,
-2566,
1283,
-1062,
275,
-889,
312,
-3456,
-2629,
-6,
1985,
1673,
106,
-47,
-1980,
31,
639,
-372,
239,
-3,
-1061,
834,
1747,
588,
651,
67,
-359,
-1317,
924,
-384,
377,
-235,
-1135,
-1277,
627,
-1922,
470,
2706,
-972,
-1198,
1242,
1137,
517,
296,
1413,
-582,
2557,
-63,
1336,
697,
2245,
637,
-611,
726,
974,
-811,
-1061,
-993,
-1107,
-2302,
-702,
564,
348,
769,
-42,
-373,
-2332,
-669,
-1839,
1277,
-3234,
-1501,
-351,
599,
2300,
-1791,
85,
-2124,
823,
-415,
-1893,
-333,
508,
361,
-352,
-356,
-1612,
1701,
-230,
-2324,
863,
-2500,
-322,
-90,
-695,
1567,
2333,
-3944,
2316,
10,
798,
107,
2399,
2453,
749,
-907,
-2358,
690,
374,
1021,
1576,
-1405,
-909,
-105,
1171,
1212,
-2450,
-2197,
109,
770,
-702,
-972,
-246,
683,
-2163,
-2260,
252,
672,
-1643,
908,
-1522,
1260,
774,
1375,
-661,
1079,
140,
495,
994,
233,
1791,
-816,
-388,
-1440,
346,
-1308,
-1303,
889,
653,
1606,
1742,
679,
728,
-2675,
-2355,
-1741,
-588,
525,
599,
3254,
1048,
-53,
-1014,
-1121,
-1194,
161,
-1027,
1915,
1002,
1342,
957,
823,
253,
-905,
-1029,
-505,
-1150,
-2287,
-566,
269,
1674,
453,
-1561,
-2202,
906,
852,
-1489,
1091,
-1689,
-134,
-90,
-2331,
-1040,
-1885,
1170,
-458,
1739,
-43,
-727,
63,
678,
506,
-1455,
600,
326,
-183,
714,
978,
-483,
-481,
-315,
-1382,
-1092,
477,
-3082,
-1707,
-896,
-5,
-1321,
-2009,
-990,
1590,
-1396,
2709,
-1356,
846,
994,
1399,
2170,
491,
-3108,
1245,
-1106,
-1745,
-3425,
54,
-874,
-1619,
1248,
-807,
1074,
-2590,
1018,
95,
527,
762,
-2308,
-2372,
-1427,
-1407,
-947,
303,
-1285,
-17,
1513,
1878,
202,
-3475,
103,
392,
-2498,
-2453,
192,
-367,
-947,
-910,
934,
-47,
958,
1853,
115,
-874,
-1136,
827,
1038,
-1886,
735,
-1788,
179,
-3447,
367,
206,
3,
-247,
-604,
-878,
-276,
87,
-240,
2128,
2144,
-1177,
94,
-2032,
1359,
-930,
-723,
-1838,
-449,
2652,
647,
-215,
1779,
480,
990,
-1654,
684,
-1421,
829,
1358,
1512,
-412,
175,
-543,
988,
-986,
1407,
-1513,
-2372,
785,
1724,
569,
1691,
-214,
575,
-141,
-899,
1024,
2226,
302,
501,
1628,
-2314,
1015,
643,
-53,
-2414,
-741,
-71,
851,
1262,
672,
1,
2240,
-848,
551,
2394,
-91,
1149,
2621,
-1329,
-2043,
1538,
-2088,
-1671,
-1026,
-2164,
1310,
592,
1070,
-1897,
-226,
-1493,
349,
-162,
43,
1174,
400,
755,
775,
-797,
527,
900,
76,
-307,
-47,
-828,
420,
868,
-373,
1260,
2520,
-1824,
-958,
115,
801,
1459,
-1428,
464,
-2079,
-2654,
-841,
210,
772,
1467,
1761,
-352,
-419,
60,
-681,
-199,
-417,
-1138,
-118,
1267,
-1027,
1258,
-1293,
1883,
566,
1008,
1356,
-792,
-1111,
454,
611,
-794,
1577,
716,
-1360,
-4367,
-340,
2004,
-47,
660,
-574,
1461,
-981,
-603,
-156,
-2014,
642,
123,
-212,
694,
317,
-429,
-765,
-549,
1926,
-99,
1425,
-3099,
-493,
60,
865,
636,
1195,
545,
1472,
-1134,
967,
-2044,
932,
-1051,
-2868,
1252,
-890,
1165,
616,
-1545,
-1815,
-1089,
1308,
-473,
67,
567,
597,
646,
921,
-217,
-765,
129,
-904,
-1868,
606,
-1668,
-3089,
803,
623,
-98,
-1192,
-71,
-294,
1881,
944,
1307,
-1108,
1001,
701,
-1443,
-838,
-1726,
1381,
304,
-1918,
-1369,
249,
197,
-785,
-381,
-277,
932,
-1904,
-715,
-373,
462,
-146,
-452,
571,
-1298,
-792,
499,
-273,
-855,
-2588,
1409,
37,
-372,
340,
1460,
386,
1044,
999,
-117,
-707,
1193,
-191,
1198,
205,
-992,
-742,
561,
1068,
593,
46,
803,
620,
-804,
-1108,
-835,
-1546,
300,
1304,
-529,
-1374,
-2269,
692,
-1112,
-574,
-448,
-8,
1238,
-1196,
946,
-232,
-1645,
68,
-311,
2386,
-1431,
-896,
-2701,
-1334,
-1974,
-213,
-664,
889,
742,
543,
516,
-813,
1251,
1263,
-919,
1095,
-2677,
-2068,
-1595,
-1518,
-2486,
-3,
-648,
-975,
2954,
1361,
1082,
-998,
-1632,
-2258,
-227,
1162,
188,
-190,
820,
597,
-1482,
-755,
-1964,
-759,
-1177,
-1069,
2854,
-240,
-2355,
159,
-610,
393,
359,
-2941,
396,
-1751,
941,
-1673,
-387,
-185,
-958,
-123,
166,
-556,
-2920,
-415,
352,
718,
-240,
-712,
-1262,
-1752,
57,
848,
742,
-2493,
17,
1124,
130,
714,
-460,
64,
1376,
1732,
502,
-363,
-42,
-293,
1542,
521,
-1771,
-1351,
1361,
408,
638,
1480,
-2234,
-1437,
-1831,
-330,
1257,
-1412,
-182,
-664,
-223,
1256,
-172,
-3209,
-177,
-273,
158,
-2192,
535,
-696,
-503,
542,
660,
1245,
976,
-1806,
-173,
666,
-1267,
322,
-1641,
-133,
-3489,
-3800,
1030,
1517,
-491,
1112,
-1731,
-1238,
702,
377,
-699,
-326,
-1553,
-1060,
1226,
-841,
-326,
-1709,
-2085,
1240,
1393,
-2531,
1234,
-1567,
-2528,
1377,
1426,
-5,
-296,
94,
1414,
1332,
-211,
284,
1020,
629,
1517,
140,
-818,
-878,
-848,
620,
-1516,
474,
-912,
-68,
1637,
-391,
1743,
483,
-2027,
-1995,
-1244,
-1697,
-2699,
526,
-838,
-557,
-280,
-1441,
-7,
-1489,
-1913,
662,
-1486,
648,
-302,
650,
398,
-322,
323,
1944,
834,
-1043,
-286,
957,
993,
1348,
1288,
-1234,
-272,
-658,
1087,
1007,
249,
782,
3628,
2684,
416,
-217,
-132,
2532,
-1150,
-1726,
249,
-817,
-699,
-559,
-1067,
184,
-107,
-900,
994,
1036,
1284,
-2047,
-334,
-734,
-1833,
-656,
153,
-24,
-1416,
22,
2648,
170,
-239,
12,
-811,
-621,
-802,
875,
658,
22,
1811,
1173,
-1406,
-589,
-1441,
489,
-3875,
2346,
813,
-701,
-51,
-277,
-1340,
556,
-107,
1393,
-800,
757,
1882,
-1132,
387,
-733,
2601,
-806,
1389,
-540,
-3579,
-803,
1023,
486,
344,
564,
-506,
1237,
1003,
1395,
67,
-1416,
690,
-1469,
-671,
953,
349,
650,
188,
-2835,
619,
-1362,
-1595,
414,
-323,
-2141,
623,
2240,
1110,
573,
-47,
2039,
-1587,
308,
-2021,
-927,
1744,
-160,
-233,
-1076,
1283,
366,
-930,
2253,
-390,
679,
-1687,
-546,
-834,
-633,
-3051,
1546,
431,
511,
-1304,
1789,
-30,
1262,
-2508,
1150,
696,
2148,
1432,
145,
1066,
-881,
787,
382,
65,
452,
722,
-1757,
-540,
-272,
-761,
-1817,
548,
441,
845,
-2187,
-3460,
2051,
-2665,
1412,
-3078,
1883,
-641,
-969,
824,
11,
401,
1108,
1196,
-939,
-1461,
-319,
-1543,
-620,
1286,
1046,
1133,
-3096,
-877,
-2490,
1161,
-284,
-56,
669,
-3132,
-861,
495,
73,
319,
1086,
1549,
-1617,
-2526,
-193,
-616,
-357,
-2379,
618,
-3793,
-108,
-214,
-59,
-1362,
-190,
982,
-1256,
-191,
-350,
-2180,
1806,
-1917,
-1371,
-1362,
506,
-1633,
844,
-840,
-1075,
-156,
766,
1529,
-2262,
-548,
-2199,
225,
-1501,
-3236,
-1767,
767,
553,
1192,
-739,
837,
314,
-1956,
-2941,
-488,
-547,
-101,
1127,
-2723,
-369,
903,
586,
-87,
1358,
-2481,
563,
-445,
-1837,
1186,
-391,
-776,
-266,
-2323,
1226,
607,
468,
1925,
-1547,
-331,
-515,
1694,
333,
281,
-2625,
1176,
2284,
857,
361,
-106,
1968,
1884,
754,
-810,
-420,
299,
-212,
-1664,
-1977,
606,
1419,
-789,
942,
166,
-441,
-1538,
-409,
-2066,
503,
2099,
-2748,
-2346,
-642,
945,
-1610,
528,
-349,
1489,
105,
161,
222,
-3017,
593,
80,
2045,
-220,
-50,
1183,
1016,
-200,
1045,
1481,
-60,
-2786,
946,
-2598,
345,
-1478,
-2858,
2281,
424,
-1962,
-1635,
-3332,
-1965,
223,
808,
-17,
-2875,
1222,
219,
-2269,
2297,
-279,
-724,
-609,
1032,
170,
-3553,
62,
2640,
-128,
-1957,
1581,
735,
927,
-1115,
-760,
292,
1032,
1465,
772,
-388,
921,
1219,
-2470,
147,
141,
710,
388,
-1074,
-923,
1837,
43,
-779,
-1783,
-88,
-2162,
1545,
3120,
-303,
126,
-145,
877,
1595,
-4736,
408,
-2128,
-2836,
642,
-467,
1058,
321,
-287,
331,
-95,
332,
347,
2701,
-496,
-38,
-1074,
1902,
837,
1414,
-2680,
-544,
-693,
2370,
1067,
-1011,
-3323,
-538,
-3423,
-452,
-89,
437,
984,
-3677,
179,
796,
-932,
366,
2286,
1118,
-279,
87,
1531,
-18,
-3087,
-440,
-756,
-608,
1850,
940,
1125,
-4273,
937,
525,
-1545,
1619,
681,
580,
242,
-3692,
935,
-3186,
-41,
-481,
1462,
1348,
-1462,
-25,
106,
-15,
293,
-247,
749,
-236,
1473,
893,
152,
-1142,
1260,
1484,
113,
2592,
-600,
-2197,
1342,
712,
789,
-280,
1203,
1564,
-2243,
-987,
1199,
483,
-3237,
948,
-3446,
-2496,
187,
-148,
-1053,
-1074,
1164,
910,
307,
120,
-1030,
-340,
90,
460,
-386,
-62,
248,
1371,
1730,
1258,
1194,
1008,
1368,
-3687,
1598,
1947,
-2257,
-3246,
2428,
-570,
858,
874,
1409,
0,
1587,
289,
2945,
1821,
-2039,
-882,
-2340,
-777,
1740,
-3273,
597,
-1149,
-300,
-431,
1327,
62,
-3523,
-775,
340,
-492,
174,
322,
-206,
-2851,
-3038,
-2732,
-1115,
-411,
133,
-748,
2053,
482,
187,
431,
-320,
-3241,
583,
1497,
-1531,
-1197,
-1173,
10,
185,
772,
587,
0,
-173,
824,
-1904,
-885,
-1040,
2590,
-2326,
526,
1631,
399,
816,
-682,
-403,
-343,
-425,
-1603,
2638,
930,
-2606,
391,
-1294,
692,
-1272,
-234,
517,
1360,
-565,
350,
1671,
-1023,
-470,
-1513,
-2270,
1915,
127,
504,
-585,
89,
-2921,
1675,
-2237,
-291,
1593,
1214,
-1588,
-934,
851,
980,
-1858,
668,
-2691,
475,
-1535,
-1557,
1085,
-3054,
1080,
937,
-1894,
-2130,
-3152,
906,
-660,
-4790,
730,
1447,
1228,
326,
-1520,
-672,
-557,
799,
1114,
1225,
-1948,
724,
490,
145,
-2631,
1626,
1934,
-353,
-986,
-368,
757,
508,
588,
-852,
1376,
-290,
320,
-453,
-270,
-129,
186,
415,
1349,
-175,
-128,
443,
-530,
-589,
-690,
-2454,
-231,
-1196,
984,
780,
-2512,
2007,
-2114,
-1942,
-222,
1153,
108,
832,
-697,
792,
-575,
482,
589,
2295,
-966,
1251,
-2491,
-135,
1044,
89,
2174,
1398,
744,
362,
949,
1947,
-2727,
-2165,
-1324,
879,
-1952,
1231,
1333,
890,
2099,
-372,
-2988,
444,
680,
-3532,
-1734,
818,
-2178,
-1567,
567,
592,
-1381,
-635,
852,
1260,
619,
-448,
2476,
-855,
221,
1327,
-2456,
1831,
-2805,
-2278,
-256,
1648,
-579,
1130,
-1104,
1418,
1165,
1058,
668,
-1004,
-407,
-402,
1865,
-1199,
3157,
3147,
929,
591,
-4502,
2104,
-643,
-352,
-1148,
2582,
-1331,
-2374,
-2295,
1455,
908,
-1483,
1166,
-621,
431,
291,
-992,
146,
-2599,
-1373,
1089,
-3162,
-1408,
1713,
667,
-228,
-985,
-772,
-980,
332,
1247,
929,
-2226,
-3891,
1890,
259,
712,
722,
-674,
1577,
1043,
680,
-1342,
-590,
592,
102,
-3663,
358,
1298,
21,
-1943,
-757,
-3349,
-1724,
-2018,
1363,
-1500,
1481,
-182,
-1858,
-534,
-1116,
180,
97,
-265,
-323,
85,
-148,
829,
-1340,
376,
511,
1255,
727,
678,
755,
2571,
-1582,
43,
182,
1145,
644,
99,
-122,
-2548,
-677,
2354,
-1202,
770,
-617,
-390,
-3737,
-616,
793,
74,
-1553,
-2028,
136,
-824,
-1864,
-2452,
-883,
825,
-2355,
-1147,
-3005,
622,
661,
-481,
86,
-448,
3205,
318,
-280,
-3056,
1628,
-1224,
2308,
311,
1211,
1242,
1445,
-1787,
-3033,
-3868,
-408,
806,
1262,
1585,
-729,
-2543,
2757,
-250,
387,
-534,
-551,
1164,
223,
2938,
-2248,
-951,
465,
821,
-1231,
1442,
-691,
985,
1368,
-775,
-115,
-1390,
-3690,
-1939,
-1045,
1791,
2334,
519,
-1477,
-286,
-2387,
-425,
-393,
-2268,
2401,
48,
-2823,
659,
-2256,
2179,
993,
-280,
-1043,
-2076,
142,
1859,
540,
-620,
1102,
-1292,
1301,
1688,
3045,
1842,
469,
1154,
843,
661,
-2774,
-1688,
-1863,
-4226,
-3518,
1456,
-1867,
-2290,
-1996,
-1963,
178,
645,
-363,
-2425,
2348,
-738,
1559,
69,
-1208,
-3733,
1016,
1021,
112,
-325,
52,
-4608,
725,
1781,
565,
1755,
-668,
697,
2393,
919,
-159,
-119,
-3420,
183,
1416,
-432,
-390,
-92,
1788,
-160,
137,
3243,
1595,
-4662,
351,
566,
-4847,
-2531,
1530,
1776,
563,
934,
1464,
-1937,
-896,
787,
1341,
386,
445,
-603,
606,
1488,
924,
-3121,
-900,
-1343,
737,
608,
-713,
-1791,
-2039,
1449,
767,
384,
-360,
-1994,
-1624,
-1581,
-1147,
-354,
1043,
1181,
93,
1715,
505,
-133,
-770,
1509,
-838,
-589,
-1987,
639,
-482,
2177,
183,
688,
-2609,
-699,
49,
-3886,
-163,
85,
960,
-44,
-732,
-391,
-1613,
-2699,
833,
1415,
-625,
-10,
2595,
-142,
-1183,
356,
-824,
-66,
-401,
1715,
145,
1314,
-1033,
235,
-312,
-733,
-2649,
-695,
1358,
858,
-1973,
69,
328,
-3803,
-846,
657,
235,
-2332,
-4590,
3339,
782,
-924,
9,
-133,
863,
-2048,
346,
949,
716,
1204,
404,
-3820,
-3897,
-702,
-594,
-1189,
1312,
-1214,
-3541,
759,
-897,
-670,
-686,
1684,
-684,
85,
2038,
-3280,
987,
-353,
-541,
-734,
-1300,
-550,
-1081,
-1567,
-261,
144,
-707,
-1722,
-467,
-336,
400,
1260,
1808,
-2181,
-724,
860,
1,
860,
3628,
-302,
1923,
-1287,
341,
-199,
-2036,
-20,
-1161,
-775,
674,
1141,
-1834,
520,
2893,
1276,
-1729,
685,
-1574,
604,
1485,
127,
1411,
-4955,
-865,
-292,
-241,
-215,
307,
-575,
312,
2315,
1276,
1507,
-1360,
724,
1549,
-1678,
-797,
-715,
-1956,
1742,
-3302,
847,
-881,
1268,
-569,
1680,
-581,
553,
2628,
627,
1040,
2054,
-1869,
-390,
-2082,
744,
-1800,
380,
-2034,
710,
-2121,
-838,
287,
462,
-3367,
645,
-52,
1075,
-1545,
600,
-167,
-975,
578,
-310,
464,
-45,
-180,
-473,
380,
-46,
2316,
61,
2563,
-1149,
-513,
203,
-2630,
449,
366,
-2273,
1500,
992,
-2043,
133,
935,
541,
11,
858,
814,
721,
-444,
-1925,
-832,
1240,
-774,
567,
-891,
-2904,
1847,
-2221,
2053,
-2355,
-70,
1452,
1304,
-483,
-727,
1680,
765,
-166,
2200,
37,
-1800,
2807,
-970,
-64,
780,
-1164,
1788,
-1548,
-2819,
584,
558,
-425,
-2163,
882,
-11,
687,
2239,
-648,
-1512,
214,
-208,
-1526,
-749,
2,
647,
-642,
565,
-3028,
1127,
536,
-914,
-149,
288,
888,
-544,
1061,
-3477,
-338,
1425,
-2528,
828,
1733,
-1122,
125,
1509,
-2266,
695,
-1014,
-799,
-1061,
-1080,
1007,
-2012,
-1916,
767,
-2693,
-1411,
284,
-826,
509,
-3628,
977,
1831,
-312,
2555,
330,
383,
992,
1301,
-3988,
-67,
-2066,
-59,
-3621,
-813,
-545,
-50,
-1136,
-126,
-1074,
-139,
-1197,
1188,
-258,
628,
811,
127,
1229,
-977,
555,
-721,
-454,
-1542,
-1746,
-1020,
1075,
-351,
-2762,
2451,
795,
-20,
-2455,
368,
-2679,
1289,
632,
-807,
-566,
1039,
-377,
771,
1253,
-487,
2210,
-963,
1140,
-976,
-868,
644,
-2699,
-1905,
-750,
-910,
330,
1336,
1116,
-65,
837,
-1266,
-1372,
779,
374,
-492,
-737,
-497,
541,
-1784,
-2152,
1475,
176,
-2203,
982,
-112,
58,
455,
-608,
-873,
-5587,
-642,
-3491,
187,
-2175,
-866,
-369,
218,
-319,
385,
1468,
1633,
405,
616,
2050,
-3254,
1268,
-4009,
1829,
-544,
526,
1216,
-82,
-966,
-464,
1010,
1770,
-909,
1246,
-493,
461,
-450,
-1087,
-2671,
-1521,
-3999,
-536,
-483,
-531,
-1764,
464,
-912,
-2992,
-1021,
-3165,
357,
-1146,
-875,
-1623,
-1303,
-2624,
-1671,
-2434,
1264,
-172,
-216,
341,
-829,
-1210,
992,
34,
-641,
1901,
1354,
-443,
-94,
1320,
-91,
-405,
-353,
-907,
316,
-315,
143,
-794,
-83,
1031,
396,
-1238,
-1330,
-195,
-246,
-4977,
316,
36,
-880,
1018,
1075,
-956,
-2199,
-449,
-173,
-2098,
1723,
-1500,
183,
-922,
-257,
-1975,
1177,
1594,
469,
-22,
1174,
774,
1195,
-1956,
-603,
-4014,
-2396,
1703,
-2386,
350,
-1257,
-298,
124,
112,
832,
-1009,
717,
870,
1079,
16,
1413,
688,
260,
1280,
-1580,
-3111,
-615,
-1480,
-1270,
-2249,
559,
-1767,
-1723,
903,
524,
51,
271,
-3532,
-630,
-2038,
-3046,
1086,
359,
-3800,
-4743,
562,
116,
665,
-67,
1601,
84,
-964,
-1127,
-3360,
-1259,
-752,
-248,
-164,
-2033,
137,
2179,
1022,
-697,
329,
-113,
1550,
1780,
-618,
426,
-123,
-836,
1096,
-296,
1725,
475,
-2630,
813,
-768,
746,
-2881,
-1750,
-781,
-27,
-982,
243,
272,
-3607,
-73,
-2312,
-2587,
1524,
-2578,
-1985,
-12,
-723,
-980,
1055,
-86,
-2702,
-3113,
776,
-1343,
1016,
-119,
194,
1171,
2742,
1453,
-159,
-2815,
1096,
243,
484,
-2315,
-78,
-950,
254,
-640,
-301,
672,
755,
1706,
1452,
-810,
392,
1397,
-2836,
1289,
-578,
394,
254,
1580,
-5100,
-149,
-145,
-342,
1145,
-130,
456,
1582,
-2778,
-1281,
-3142,
-2774,
-1663,
-1174,
-4621,
-1892,
644,
-1040,
480,
-2830,
1891,
1030,
-1779,
-700,
-4971,
-1781,
1131,
991,
900,
2589,
-1607,
-1108,
168,
1588,
-699,
-760,
-1691,
663,
534,
1858,
-642,
867,
-774,
-791,
1396,
-1383,
-2206,
-3717,
-1102,
85,
-1336,
197,
1395,
-2963,
-1193,
-29,
1499,
568,
-115,
1208,
-345,
-1827,
-2554,
-1119,
100,
796,
-1841,
-499,
1117,
-472,
-773,
1798,
900,
-619,
-1788,
-1044,
-265,
-1214,
1212,
-246,
173,
-4270,
-2264,
300,
847,
-904,
1327,
-729,
1044,
2079,
1101,
1084,
1780,
-676,
-1325,
931,
1555,
-2899,
-736,
1097,
103,
-2998,
101,
-163,
718,
-731,
795,
-336,
2156,
-1876,
929,
2571,
-502,
579,
-3236,
-218,
-473,
-996,
342,
-1051,
-2423,
-917,
2032,
1790,
-1063,
685,
605,
-1371,
796,
-3108,
-1532,
1244,
526,
521,
-543,
2059,
442,
536,
-1443,
940,
1550,
661,
-3332,
-4,
2367,
1769,
76,
-233,
1193,
-1490,
-186,
-1834,
-528,
654,
542,
-3629,
-828,
738,
-831,
-1136,
-1768,
536,
-1297,
728,
-474,
-910,
33,
-3334,
-774,
828,
-962,
-1986,
428,
-1074,
-55,
-886,
165,
789,
1230,
-2541,
-222,
920,
30,
-2515,
1399,
242,
-1037,
-1419,
1585,
3272,
-2123,
-543,
-612,
589,
-401,
-1825,
1513,
486,
-397,
2205,
-1177,
759,
-561,
-190,
1117,
-891,
-10,
1001,
136,
915,
-486,
-126,
128,
-3271,
-2452,
656,
-326,
297,
1744,
-2032,
-1919,
1715,
274,
-1324,
-1873,
-2498,
-2672,
-1523,
501,
-695,
256,
-1693,
2074,
-2691,
-535,
-2557,
-2240,
850,
-329,
-1640,
-3011,
-924,
-1824,
-1461,
-1304,
-1221,
898,
-1783,
-1934,
850,
889,
-1517,
-2565,
-2817,
-1603,
256,
239,
1516,
-2545,
1781,
-154,
-390,
1212,
1121,
-1417,
-779,
1044,
-105,
332,
-1823,
895,
984,
538,
2019,
357,
-1165,
481,
-972,
3,
228,
207,
516,
-691,
86,
483,
-176,
163,
473,
1798,
1331,
-4,
-367,
464,
1601,
788,
995,
-1644,
-900,
1107,
-1330,
-2068,
-250,
1985,
524,
-3587,
-2514,
1231,
1025,
698,
225,
542,
-1739,
1597,
1331,
549,
-50,
-864,
647,
2388,
-1396,
-99,
839,
1850,
2539,
-1623,
454,
-141,
-2803,
-4423,
103,
-1717,
215,
322,
2136,
-726,
-689,
-2606,
-1654,
-1852,
-435,
-2364,
-1460,
490,
-1208,
-2123,
83,
478,
746,
260,
-51,
-13,
-1271,
-346,
-698,
-1576,
199,
-726,
15,
-18,
-782,
36,
121,
-460,
330,
-1190,
-1024,
-1167,
609,
-171,
123,
650,
-531,
1277,
409,
1266,
822,
-178,
-21,
-252,
-3065,
1503,
641,
-275,
1303,
1046,
-2232,
731,
702,
749,
-250,
142,
-198,
1288,
-1470,
-1616,
-2652,
-769,
-2094,
-887,
-272,
547,
852,
1312,
2545,
21,
1157,
-441,
738,
81,
1526,
-1053,
447,
343,
666,
718,
-1825,
1335,
-726,
2016,
1444,
-301,
-3014,
-373,
539,
-709,
1171,
212,
-2096,
-1621,
-343,
661,
1148,
252,
-362,
-1358,
1693,
657,
1029,
-1409,
91,
-1484,
438,
-719,
1853,
1260,
3355,
1350,
2167,
1250,
133,
875,
-387,
-489,
352,
-397,
527,
-351,
-256,
893,
-1275,
1262,
915,
-1718,
-1060,
375,
1477,
1439,
-2322,
529,
-196,
185,
1529,
-920,
-986,
-2714,
-1266,
1164,
-406,
-294,
439,
1316,
693,
958,
-93,
-747,
805,
141,
-2025,
-510,
-406,
-111,
587,
1706,
-795,
-805,
216,
-780,
741,
-1434,
1345,
-3561,
-1151,
-720,
-877,
-527,
462,
-1567,
1239,
1258,
-1320,
-117,
-2110,
-649,
-1124,
856,
-3222,
-214,
435,
-2543,
-880,
409,
950,
756,
625,
571,
-2049,
793,
1099,
-45,
-416,
-1566,
-1404,
7,
1046,
1499,
490,
1415,
-2017,
-244,
1507,
-2754,
1772,
3,
844,
-778,
110,
-763,
-697,
591,
163,
931,
-1477,
-690,
-58,
1040,
-3923,
-673,
-3312,
1276,
1463,
2083,
-2114,
666,
-3377,
1354,
-2381,
671,
1074,
-4187,
-818,
-1620,
-988,
937,
-775,
1338,
-872,
-3078,
2203,
945,
-842,
-190,
-1991,
-828,
465,
1591,
339,
1037,
2011,
585,
176,
-1520,
-179,
-990,
927,
1367,
290,
-766,
-1463,
178,
2377,
-1709,
1059,
-5,
-1604,
115,
643,
508,
1153,
-400,
1071,
1266,
-1928,
-1129,
709,
756,
1391,
-80,
-715,
-2867,
941,
95,
364,
-238,
-981,
1352,
1383,
-455,
-1771,
-2604,
244,
-1396,
-1235,
1647,
-1209,
978,
-939,
654,
700,
-657,
-1138,
-1382,
-664,
777,
-1010,
258,
9,
2057,
2139,
82,
1158,
-432,
841,
-2154,
-4067,
1209,
-3011,
-355,
1205,
-935,
-326,
849,
-2065,
982,
1748,
2287,
-316,
-882,
192,
-544,
1022,
-217,
205,
-1079,
-77,
-4334,
-716,
779,
-399,
-1136,
773,
-709,
1512,
854,
-2506,
141,
-1082,
-362,
-599,
958,
-1634,
-1600,
-1932,
934,
-677,
1516,
336,
1085,
621,
-63,
852,
1366,
1663,
1906,
842,
209,
249,
396,
-2784,
374,
-1871,
-3417,
-949,
-809,
613,
-201,
-3654,
-720,
-815,
-745,
1422,
-325,
-1238,
-611,
1395,
898,
1389,
6,
-2288,
943,
1054,
-2636,
1213,
-657,
-940,
-1257,
2604,
418,
946,
-830,
-2323,
-1034,
-1211,
-1489,
-961,
-1221,
1793,
-1295,
1602,
706,
1234,
-1290,
-462,
-393,
-833,
-1219,
-4933,
818,
-497,
627,
-300,
540,
-1497,
-1857,
169,
1340,
-2573,
544,
-1091,
-149,
-151,
-185,
-100,
-2774,
1819,
1559,
82,
-780,
-1917,
2026,
662,
-336,
-67,
655,
-159,
299,
-822,
179,
-493,
1018,
-1031,
92,
-122,
-444,
1872,
685,
557,
393,
-271,
-142,
-4313,
-855,
2328,
2410,
-490,
-2046,
727,
-179,
-542,
-117,
642,
-1888,
-902,
-38,
-183,
-660,
-796,
-1841,
1183,
-858,
-1318,
-641,
-1354,
2570,
2229,
1448,
-1416,
-377,
1194,
-921,
741,
-1033,
1859,
183,
-617,
-4209,
-3889,
-278,
-3443,
-1605,
-845,
936,
-3709,
-1376,
661,
-1199,
-1768,
-1090,
1296,
-275,
609,
1059,
-239,
-198,
818,
-1066,
420,
769,
-704,
-305,
-1662,
-2809,
-1350,
728,
-1516,
371,
-1866,
211,
662,
111,
-601,
-288,
-2059,
-75,
-2254,
588,
-4,
-1389,
-285,
-2034,
1529,
998,
977,
-2279,
794,
-305,
-275,
1105,
-647,
1723,
-1457,
-920,
607,
949,
-3215,
-2474,
1852,
-1469,
386,
403,
699,
1178,
316,
-1623,
870,
1865,
-1020,
-75,
-454,
850,
2014,
-319,
29,
-3487,
-1487,
-525,
-1885,
924,
995,
51,
-728,
-1829,
751,
-185,
2325,
113,
-2068,
-266,
-307,
1489,
-1454,
1906,
689,
923,
-2371,
-2781,
850,
1188,
-141,
-250,
-2113,
1250,
1245,
-1325,
972,
35,
1251,
-249,
200,
763,
1325,
-1985,
-603,
-1140,
-1150,
370,
799,
432,
216,
63,
-281,
522,
-987,
-2286,
588,
380,
-954,
-1673,
-1021,
-810,
732,
945,
-3022,
1112,
-1146,
1087,
227,
855,
1226,
450,
294,
-1136,
-2964,
-74,
-1557,
1074,
-5427,
-35,
-882,
-789,
-615,
1415,
1120,
-2740,
501,
-989,
-630,
-1719,
886,
-4518,
-220,
1406,
1969,
811,
202,
-1100,
-1545,
-1085,
884,
1271,
-1498,
282,
694,
205,
-1829,
-442,
992,
546,
-1205,
1495,
-903,
-1129,
2442,
-1565,
-295,
2464,
1257,
-615,
561,
-787,
1185,
982,
-1876,
1572,
992,
-1564,
942,
-624,
-3140,
561,
159,
-473,
637,
863,
-2594,
271,
-1023,
75,
-2297,
1469,
-1225,
1891,
-1082,
1409,
990,
879,
1712,
422,
1521,
-404,
614,
656,
-1435,
698,
-1390,
622,
115,
344,
1118,
276,
-2989,
-1239,
1242,
1660,
55,
1036,
-148,
721,
-530,
-162,
-561,
802,
1356,
-232,
823,
-759,
442,
-990,
1030,
1035,
-1075,
946,
-359,
-1914,
295,
-1443,
-896,
-3243,
-516,
-1424,
-100,
507,
-2026,
-397,
1450,
404,
1660,
992,
651,
2198,
-2948,
1505,
-3353,
814,
-374,
-865,
-1568,
-83,
907,
-57,
-1386,
-2232,
1228,
-1897,
716,
242,
1560,
873,
-486,
-243,
-240,
-1369,
-705,
-2104,
976,
363,
-1909,
230,
-808,
357,
-1586,
-3597,
-3850,
1036,
1115,
-975,
581,
-503,
-293,
635,
1397,
847,
903,
-128,
1464,
1589,
490,
-2906,
1354,
-1705,
260,
-1168,
2118,
1143,
-70,
-835,
469,
-3265,
2717,
401,
1784,
-2371,
1326,
300,
584,
1956,
2040,
584,
1641,
804,
-1349,
365,
-1206,
-2309,
1299,
1438,
-1258,
-4,
956,
-577,
1111,
-22,
-987,
1269,
147,
-1986,
1479,
675,
-732,
-3740,
-83,
697,
16,
-534,
-891,
-1012,
1387,
-1632,
-1832,
891,
-943,
-692,
-5406,
-2515,
-792,
-958,
-488,
960,
1280,
-3679,
-1156,
1155,
-89,
591,
-84,
1137,
-1833,
-567,
-476,
622,
-134,
694,
1293,
-4022,
236,
-1877,
-19,
-1867,
145,
588,
437,
-337,
1942,
-2100,
1330,
-3049,
-834,
-670,
-57,
1529,
1446,
336,
1191,
401,
709,
487,
1377,
-1488,
72,
451,
2939,
-174,
-136,
-86,
245,
1633,
19,
-864,
-2150,
749,
1492,
-2177,
-328,
1414,
-220,
-459,
-3411,
-1722,
1614,
-1245,
-1457,
-2420,
502,
1528,
568,
839,
1202,
-837,
678,
-1993,
360,
125,
1144,
-561,
-1946,
261,
-655,
-495,
2369,
-4334,
839,
-776,
-946,
-1726,
814,
964,
-913,
685,
-827,
-899,
-537,
-582,
-2180,
1417,
-722,
1179,
-1063,
-3331,
-1391,
-320,
1325,
465,
422,
-1832,
308,
804,
-982,
-299,
978,
2450,
756,
-2074,
-1584,
-586,
-1291,
1171,
412,
-1196,
-76,
-378,
656,
-4651,
972,
-1662,
694,
837,
-393,
1931,
1458,
700,
1045,
-1646,
-1269,
-1855,
159,
-1614,
758,
336,
-72,
1567,
-97,
1300,
-1701,
-291,
-488,
-1662,
-393,
820,
-3448,
1731,
792,
-339,
298,
-1174,
-710,
332,
-733,
-2407,
-276,
437,
-904,
337,
-799,
612,
-892,
-1111,
835,
-3260,
-372,
1257,
285,
-1397,
-2146,
1234,
-1987,
152,
-241,
-845,
201,
1007,
-1333,
-1865,
142,
1153,
-484,
-780,
1797,
332,
940,
9,
2617,
95,
-338,
-5,
186,
-1085,
1197,
1244,
-552,
-2075,
150,
692,
1489,
1485,
714,
-394,
990,
1172,
1498,
-1136,
-551,
-412,
1231,
-1508,
-3581,
352,
-685,
-63,
919,
-1465,
1358,
-2958,
-123,
1761,
384,
-1015,
1532,
635,
78,
1503,
-5263,
-1542,
457,
-664,
445,
177,
537,
1325,
-903,
190,
-4401,
-1240,
-1445,
1181,
-417,
-1035,
-105,
-110,
88,
-57,
-4624,
-87,
-3241,
-1571,
-1498,
-4084,
387,
-513,
-3243,
1481,
1640,
-503,
509,
462,
-376,
-636,
1301,
1982,
-2323,
-984,
178,
803,
-1792,
-1351,
781,
1208,
-488,
205,
-900,
1869,
803,
-3069,
-149,
-2686,
542,
-435,
-96,
-162,
-771,
-420,
963,
-2132,
1448,
2497,
-24,
-550,
946,
-1099,
-755,
830,
-1403,
67,
-1530,
-217,
964,
1491,
1096,
-1887,
321,
1277,
-757,
-890,
-458,
273,
1617,
1306,
-835,
-1160,
-1641,
-1300,
-523,
1460,
-985,
-2801,
1190,
-377,
336,
112,
589,
1169,
728,
-1479,
-2965,
-181,
854,
-638,
-1723,
346,
1371,
-1491,
-1585,
2058,
-1434,
-2204,
-1580,
186,
-894,
-2046,
-176,
434,
-734,
-8,
1556,
-1251,
-468,
-2241,
-656,
-1511,
1202,
-107,
2442,
-726,
612,
366,
-914,
-574,
978,
231,
-190,
-2168,
1494,
721,
421,
-2381,
959,
1267,
-1557,
1112,
289,
-1978,
163,
1345,
-964,
1386,
1124,
686,
695,
-1611,
-2777,
650,
-2056,
832,
1572,
330,
1090,
-108,
-84,
-167,
-1442,
-1773,
-10,
-832,
-1061,
-2117,
-2336,
2068,
936,
1034,
842,
1880,
-839,
-851,
-1039,
-1291,
-3306,
-1449,
898,
787,
-1116,
790,
985,
-898,
546,
718,
-1691,
-12,
-172,
-1751,
-242,
560,
-361,
-290,
305,
178,
2362,
-2669,
-127,
-1830,
668,
-638,
1519,
955,
-1436,
61,
-728,
387,
514,
-291,
-93,
2835,
2074,
610,
-105,
-739,
119,
59,
-367,
268,
-419,
27,
-919,
733,
564,
-193,
59,
-292,
-547,
-2874,
-1983,
-1013,
-1009,
-370,
388,
-1646,
1109,
-678,
-1214,
1610,
-318,
1142,
1077,
-2074,
701,
1925,
687,
1490,
454,
-1589,
1694,
126,
-1174,
646,
402,
546,
-1117,
-538,
283,
1177,
-2352,
813,
711,
-640,
-1768,
-623,
-301,
-3599,
1214,
-1761,
-1612,
438,
186,
-1181,
-679,
492,
-1727,
440,
432,
605,
-2113,
-1963,
1357,
240,
108,
-2249,
1239,
240,
-2863,
-836,
2440,
607,
1600,
-274,
385,
-2271,
1325,
701,
142,
317,
-326,
-1553,
-2731,
-121,
1344,
-107,
-1319,
-687,
-3097,
-1058,
-2223,
-1039,
-2139,
1366,
-1365,
1446,
512,
-1269,
690,
3040,
-4508,
1278,
425,
-2723,
-96,
-565,
-1002,
-3078,
-832,
2365,
-866,
89,
-578,
633,
-4235,
-1791,
-1193,
-1214,
-892,
1064,
658,
-95,
-465,
1596,
-539,
-1234,
-701,
1107,
-57,
1367,
-312,
-697,
-533,
683,
-105,
-1309,
2892,
370,
1880,
-83,
-1968,
-1808,
1017,
305,
1258,
-2095,
2198,
-2484,
-1498,
-2243,
2368,
-1263,
1078,
-13,
1343,
573,
-2398,
982,
1167,
6,
712,
798,
298,
-5310,
-1859,
-1354,
1923,
-923,
-1357,
1811,
-1738,
3194,
1593,
-2115,
582,
-281,
-833,
401,
-2219,
1248,
700,
-432,
1802,
-222,
989,
1914,
1371,
852,
-613,
-315,
766,
-540,
509,
-803,
1923,
-3251,
483,
1468,
1010,
-50,
216,
-1325,
-87,
-1300,
595,
-1080,
-2487,
-746,
-395,
-37,
-173,
-61,
-642,
209,
708,
-2911,
-442,
311,
2455,
470,
-619,
-2513,
-689,
997,
-1275,
482,
-42,
2746,
-2407,
906,
-1348,
-414,
-2800,
-1379,
-1137,
1211,
2000,
-1016,
-1682,
-99,
1542,
-2301,
-1802,
767,
2105,
-1322,
-1857,
526,
-1335,
193,
2205,
-588,
63,
841,
310,
1129,
-839,
-864,
-16,
-413,
-304,
2100,
1633,
-1693,
-1452,
127,
1572,
748,
1170,
1316,
-266,
-839,
1145,
-1849,
574,
1096,
326,
-1785,
-1467,
-1355,
582,
207,
984,
-1068,
818,
423,
-353,
1448,
1159,
-403,
-447,
779,
-450,
717,
-86,
830,
1910,
362,
-1352,
-3097,
1678,
1022,
716,
587,
-2990,
-526,
1708,
-301,
274,
-768,
-1233,
1341,
-784,
-218,
-1779,
201,
2134,
695,
-1279,
-1498,
617,
1573,
531,
-196,
177,
-284,
-629,
217,
-1414,
375,
-2135,
1146,
1782,
-779,
-848,
965,
856,
-1876,
399,
-1105,
597,
-95,
-2170,
-97,
-1748,
-1220,
299,
-20,
1089,
-472,
-965,
-756,
1438,
-822,
571,
1252,
671,
-2599,
1287,
-598,
1557,
889,
1326,
309,
-926,
-946,
-1551,
250,
1429,
-1097,
-17,
138,
1214,
-1218,
-732,
1319,
-2961,
47,
-1544,
-2316,
446,
496,
885,
-649,
1752,
1049,
391,
1633,
-74,
1408,
-120,
-2242,
71,
-1704,
820,
235,
2034,
1240,
-656,
-3800,
1261,
433,
-235,
-448,
-2148,
1431,
1484,
-308,
809,
-966,
567,
-1233,
915,
-695,
622,
-2205,
2397,
1338,
-1972,
1411,
1083,
222,
-3036,
-254,
980,
1545,
84,
-646,
1276,
-1387,
-2035,
-1054,
-1551,
-2365,
-974,
-173,
259,
-189,
741,
361,
-1607,
-343,
-1619,
1221,
1048,
-410,
-596,
174,
896,
-1020,
-1579,
-1932,
-1146,
-2286,
469,
572,
-147,
-62,
1329,
-1865,
-1075,
-4197,
800,
1019,
1462,
108,
1459,
1004,
367,
1174,
393,
352,
2574,
-1368,
475,
164,
-1838,
2048,
263,
1883,
1032,
269,
-346,
-282,
-1741,
-1246,
1344,
808,
3141,
-1846,
233,
-359,
290,
-725,
-1404,
-1457,
-598,
-3139,
1,
-1545,
896,
921,
339,
-1265,
-158,
1349,
-2017,
664,
-4070,
857,
-143,
1151,
-123,
1648,
-484,
17,
1745,
-57,
-1282,
1310,
-1212,
-1838,
-3332,
281,
-1258,
-2950,
-799,
-955,
147,
-1043,
-119,
-45,
426,
-113,
36,
-641,
1623,
56,
-3105,
283,
110,
785,
1719,
268,
800,
1609,
1407,
-1461,
96,
603,
-641,
-710,
-2374,
-1412,
-1266,
-2413,
-370,
1170,
-399,
1345,
3081,
-251,
1037,
-718,
-3050,
-884,
1184,
781,
1133,
-2112,
-1953,
329,
946,
-402,
870,
-1483,
-798,
1673,
418,
1513,
-1283,
1186,
-447,
1133,
1553,
-2115,
887,
-478,
1721,
262,
2558,
1774,
2000,
-363,
711,
1006,
898,
691,
949,
1377,
144,
80,
610,
1498,
243,
-4299,
-710,
1432,
1038,
121,
2070,
-1224,
295,
-1364,
-1071,
-816,
-473,
1204,
875,
-58,
-581,
182,
578,
2591,
354,
396,
-1604,
-2889,
-864,
638,
-576,
795,
-990,
1055,
444,
155,
-1052,
-1810,
-1265,
1326,
2590,
-887,
634,
-983,
-2430,
1290,
632,
682,
370,
779,
-954,
950,
-1168,
1177,
375,
504,
-981,
-1005,
433,
600,
770,
-1496,
-1048,
1831,
1026,
1522,
-110,
2170,
-348,
-753,
229,
1603,
464,
341,
-1820,
2265,
-40,
-1527,
-3238,
-1985,
-3180,
1056,
-875,
-1866,
946,
829,
1141,
-804,
-2173,
-2516,
7,
709,
-122,
-129,
100,
805,
1340,
869,
944,
-1114,
-3371,
1868,
-2092,
460,
1949,
1398,
-794,
-1878,
1188,
-1160,
445,
1775,
-1415,
-961,
1096,
-613,
56,
-1953,
1317,
-548,
-1834,
1130,
-2427,
-332,
-2268,
-1102,
1494,
-101,
-965,
943,
-405,
165,
817,
-154,
379,
-2324,
428,
182,
-1017,
-951,
2767,
-4,
179,
1081,
-1960,
1275,
791,
539,
-1116,
-2488,
-324,
-3493,
-369,
32,
-172,
802,
-987,
-703,
-128,
-1169,
831,
-2195,
440,
1909,
-1143,
-1251,
1120,
-347,
1567,
-2706,
422,
1009,
-853,
-469,
186,
1291,
-1136,
977,
-68,
58,
-415,
2170,
92,
-764,
-328,
581,
-1583,
-904,
357,
-2330,
1292,
992,
-2195,
1243,
-816,
-2723,
206,
1370,
-434,
1355,
555,
-1237,
1385,
-556,
-1015,
428,
1680,
1047,
-574,
777,
806,
1262,
-494,
-119,
447,
-4138,
-229,
910,
1893,
1031,
588,
-935,
-267,
750,
1162,
-544,
592,
233,
974,
895,
-1556,
-749,
-2360,
-961,
-487,
-1080,
-31,
-735,
296,
-1538,
-1555,
260,
652,
-1528,
3431,
1231,
-337,
1653,
-760,
-758,
-920,
1826,
553,
-780,
-2579,
836,
-497,
-887,
418,
-796,
962,
-130,
-40,
1291,
713,
516,
-1233,
468,
1066,
-464,
889,
2151,
-1381,
1528,
157,
592,
1587,
1141,
550,
410,
-2437,
-1248,
1232,
-3444,
-1003,
-207,
417,
1269,
118,
3029,
-1473,
339,
-3010,
-155,
767,
1084,
-785,
-2184,
-297,
-2611,
-2451,
72,
-416,
-2413,
9,
750,
-282,
12,
-2040,
-1898,
-668,
-200,
572,
991,
-222,
685,
-3871,
-355,
-534,
586,
910,
652,
-1641,
672,
-2544,
-3426,
-349,
-2113,
-1305,
-808,
882,
779,
993,
-19,
-1299,
139,
-1660,
-1180,
121,
1242,
73,
-282,
1392,
-716,
-613,
-2896,
765,
1125,
2670,
-2548,
1312,
-3402,
1085,
-1181,
-2147,
-1255,
-2167,
1085,
-380,
457,
-392,
-2705,
-2993,
-167,
-1381,
-977,
-955,
-998,
-48,
-1330,
-915,
1427,
-4127,
-3017,
-739,
740,
1270,
1243,
362,
1583,
625,
-109,
-1046,
27,
-2652,
-952,
-3053,
51,
-637,
-1001,
-3446,
-407,
-2721,
1244,
-983,
-2509,
345,
62,
-426,
328,
69,
-350,
2125,
564,
-626,
-3077,
2449,
146,
343,
-957,
-1246,
1388,
719,
1218,
-151,
425,
-1718,
2521,
-1545,
359,
1509,
1411,
-972,
272,
-3234,
-1317,
750,
-437,
-893,
2174,
-26,
-1969,
1171,
494,
745,
22,
-1670,
68,
-1049,
335,
171,
480,
714,
-820,
1386,
504,
1867,
126,
-276,
1204,
-440,
-3016,
-82,
-3003,
244,
-1657,
-1074,
-459,
-3048,
-1097,
-1467,
397,
877,
273,
-2558,
731,
1162,
-2201,
402,
1286,
552,
-408,
754,
-1230,
-1949,
892,
638,
1652,
793,
-512,
925,
1198,
816,
-636,
20,
-33,
1946,
80,
-2810,
63,
-1580,
-362,
-1662,
-849,
-2287,
423,
-2149,
-403,
-1445,
-1703,
-1851,
1666,
-3526,
329,
507,
-1496,
949,
500,
855,
748,
411,
1075,
1464,
2040,
-1127,
246,
385,
347,
-68,
-2623,
297,
1049,
-398,
401,
-1293,
1456,
734,
-1347,
693,
951,
-1538,
595,
440,
5,
794,
-1606,
3930,
264,
-2904,
-686,
-2044,
-2504,
917,
-746,
2094,
-782,
388,
844,
-130,
-2871,
-3234,
808,
-914,
-1118,
-697,
-162,
-327,
642,
327,
1070,
-853,
-252,
661,
-226,
-1464,
-541,
1024,
-2724,
-2372,
-208,
2191,
-1703,
-1933,
-446,
704,
-1603,
-869,
1502,
-365,
959,
1906,
292,
-1993,
-1674,
-850,
-2964,
973,
1701,
-2254,
-1628,
52,
645,
-426,
615,
1738,
-1253,
982,
-2992,
-902,
-35,
-2217,
-1224,
-1326,
768,
1319,
954,
106,
43,
1784,
573,
1679,
-526,
1972,
748,
810,
-260,
-2741,
867,
-510,
-646,
413,
-2145,
-2525,
-249,
-958,
-338,
-1232,
-2675,
-708,
-2069,
-128,
-2153,
168,
-809,
1510,
-2506,
323,
990,
542,
1037,
-528,
312,
418,
-146,
597,
-1134,
843,
1290,
-332,
833,
-855,
-1609,
-757,
769,
1052,
-783,
1343,
-3879,
1298,
-1194,
-311,
-859,
-1838,
-1800,
1338,
38,
787,
540,
1872,
-266,
730,
538,
-518,
1327,
-2731,
-3041,
-528,
-1677,
163,
-742,
1191,
-690,
1024,
-128,
-31,
-388,
-383,
-1265,
-1293,
-1116,
-3072,
-541,
-160,
591,
-2980,
941,
302,
-3370,
-250,
-5063,
923,
727,
-1787,
1145,
-714,
1237,
759,
778,
-817,
1870,
-10,
-333,
1165,
-43,
-4539,
448,
861,
-2135,
504,
929,
1819,
843,
754,
-560,
-2067,
965,
479,
698,
-32,
-2340,
-697,
580,
597,
-1216,
1316,
579,
-101,
1524,
1066,
1171,
-1509,
143,
-996,
-2589,
-759,
-3130,
388,
-136,
511,
-1574,
327,
95,
2033,
-1629,
-326,
808,
1285,
-344,
-1009,
-1776,
-768,
902,
389,
-95,
-498,
-331,
-1656,
-1101,
653,
1443,
-3239,
-439,
725,
-2961,
1350,
-838,
-1343,
1809,
756,
-2129,
787,
-1696,
-2213,
-790,
-1315,
-401,
1299,
-34,
-442,
-275,
-148,
1035,
-148,
386,
1984,
868,
1201,
345,
397,
1765,
-277,
-1585,
1103,
1005,
1486,
-904,
-1447,
1519,
-698,
-1166,
-2003,
536,
1310,
-2912,
-2067,
-323,
-538,
1347,
605,
-559,
-87,
-2815,
-1137,
-766,
-494,
-266,
-712,
998,
2628,
-2625,
787,
601,
1045,
-1115,
-1870,
711,
655,
179,
-1105,
82,
1898,
916,
594,
-1080,
-525,
-1170,
-104,
389,
-3017,
2222,
247,
1300,
-940,
-50,
-2278,
-147,
1321,
-1024,
96,
531,
-162,
630,
-592,
689,
-316,
1197,
1271,
867,
-1928,
2171,
-2351,
-565,
1317,
-2976,
757,
1343,
758,
-1510,
-472,
-3142,
1801,
-861,
393,
-1880,
808,
735,
-1288,
-93,
-2301,
1701,
-2153,
909,
711,
1721,
670,
70,
-896,
-3521,
-1436,
442,
-469,
-144,
94,
-2037,
2,
-2680,
344,
739,
-745,
651,
-1435,
887,
-227,
-948,
315,
-1326,
-818,
558,
1049,
547,
-2772,
-1506,
38,
-174,
35,
770,
-195,
-1334,
-1024,
298,
-284,
1165,
748,
-857,
-3301,
217,
-386,
598,
-640,
-2074,
1288,
-690,
-1814,
728,
-1850,
-3518,
-440,
435,
-2404,
-360,
1595,
1751,
742,
-4280,
1348,
-1562,
-2180,
-275,
-1054,
91,
-3391,
-117,
841,
1307,
-2647,
2046,
-2308,
-130,
676,
-785,
-1123,
154,
977,
-1482,
428,
-322,
889,
1476,
401,
-175,
-2277,
693,
542,
-1376,
390,
-420,
763,
1311,
-1390,
-1425,
43,
-2448,
-1005,
-1787,
1158,
-3398,
1219,
971,
413,
155,
-197,
1194,
-435,
1323,
-1694,
1030,
576,
684,
-243,
1239,
700,
0,
1040,
778,
866,
414,
-598,
171,
-3325,
-3077,
730,
281,
692,
487,
-528,
548,
-279,
557,
933,
414,
-2237,
613,
1299,
267,
1419,
-2342,
8,
1460,
887,
465,
-135,
-725,
671,
-4688,
-2266,
-612,
-558,
-1334,
690,
225,
-1154,
604,
-225,
-224,
-2018,
1240,
1766,
-2251,
-289,
105,
1290,
-1531,
-2040,
-1091,
231,
-1811,
415,
-776,
565,
1504,
-611,
1213,
-608,
1212,
-843,
-810,
-2145,
-19,
-918,
638,
-540,
-3124,
17,
-2216,
-3104,
-2864,
-730,
-1209,
-1027,
-822,
258,
301,
309,
-997,
296,
-857,
-505,
-1415,
-1570,
-2297,
-2258,
-1428,
1477,
478,
-452,
958,
-920,
2599,
485,
123,
-221,
415,
345,
-2284,
-1217,
-3051,
-513,
-2537,
1393,
735,
865,
1829,
260,
-1299,
42,
743,
-769,
-530,
-2399,
-960,
694,
527,
508,
996,
484,
-1388,
-659,
470,
1711,
-568,
571,
173,
-47,
685,
880,
963,
-1946,
386,
-12,
-275,
-1327,
-419,
578,
-802,
-286,
-2333,
-461,
1422,
-1839,
268,
350,
-1630,
388,
-2543,
347,
-419,
1416,
-1003,
-1592,
927,
-469,
-27,
22,
-2197,
-1197,
-1081,
297,
981,
-1226,
1391,
495,
1036,
-508,
-1419,
-2841,
1089,
1315,
-4935,
1499,
-77,
-856,
352,
1281,
1300,
700,
-1355,
833,
688,
2045,
-1454,
583,
301,
-1592,
-3120,
-2020,
25,
688,
-1212,
50,
-273,
358,
111,
127,
-506,
10,
-1131,
-3310,
701,
203,
-1800,
-967,
-632,
-1253,
973,
31,
-988,
-3815,
792,
-2116,
2086,
-1623,
-1033,
-515,
1397,
-201,
-2096,
-681,
-3923,
-3496,
2432,
-365,
-2254,
1024,
440,
-876,
-9,
-2379,
-784,
-549,
381,
-461,
8,
488,
-576,
-262,
1266,
-1606,
-508,
1029,
-4214,
-2185,
1502,
1797,
1050,
-2206,
244,
-4154,
-18,
255,
690,
-340,
-33,
1094,
-572,
456,
-1343,
564,
-18,
1077,
732,
374,
2636,
-967,
-1765,
725,
358,
894,
-677,
323,
-1499,
2298,
-2262,
940,
611,
2349,
-919,
-885,
1495,
1664,
-1880,
-1575,
-2375,
805,
-1958,
-2244,
1291,
519,
508,
2938,
-1555,
223,
-1423,
-876,
1698,
1088,
2673,
832,
-78,
-2362,
265,
702,
-378,
75,
248,
1111,
-2931,
-3285,
1658,
-1866,
1491,
-1723,
-1702,
931,
-214,
-15,
-2950,
-1600,
548,
33,
452,
1188,
-1370,
874,
-895,
1134,
121,
1224,
-535,
326,
1864,
522,
-1445,
1268,
2630,
-1582,
1190,
-2010,
-407,
1187,
319,
-1880,
-1,
-668,
-479,
-944,
-1194,
-3988,
1069,
-475,
897,
-208,
-2905,
-3003,
-597,
-434,
932,
-884,
249,
-2541,
444,
-1328,
917,
-111,
495,
-531,
-660,
351,
-628,
1293,
1095,
1581,
767,
-733,
325,
-710,
-2225,
355,
1129,
-763,
-380,
-3833,
1305,
-337,
333,
-271,
771,
-607,
-1120,
-1160,
993,
1046,
-677,
-56,
510,
1312,
700,
2120,
-34,
-1626,
1203,
514,
-563,
-2141,
782,
2159,
-388,
490,
103,
-1157,
-29,
2492,
232,
157,
846,
442,
-1515,
-130,
1071,
-2117,
-2310,
-1343,
679,
684,
-564,
-619,
698,
-423,
818,
654,
1440,
-361,
-285,
793,
87,
493,
-225,
-168,
-710,
-1173,
1715,
960,
-380,
1466,
904,
1589,
-1788,
-691,
1693,
1388,
-382,
325,
118,
-696,
-1271,
722,
-2269,
-1793,
2461,
545,
-293,
-886,
-392,
603,
-1030,
1067,
-1588,
911,
604,
-492,
-254,
421,
1009,
-2584,
391,
1786,
1306,
-1768,
1426,
1066,
53,
-788,
-282,
-352,
-159,
220,
-792,
1111,
-1020,
1463,
2461,
4,
50,
-2999,
1499,
1918,
342,
1041,
-1078,
1066,
-2071,
1065,
1065,
1034,
1145,
658,
609,
1129,
859,
-2295,
163,
-5001,
-829,
-207,
919,
-1159,
420,
876,
10,
990,
-683,
-945,
428,
998,
341,
-245,
-959,
764,
291,
2844,
566,
-909,
899,
-1678,
77,
43,
502,
1094,
-1228,
240,
-2470,
808,
1673,
794,
285,
1420,
1444,
-470,
519,
-618,
-740,
35,
-2534,
-2514,
1459,
914,
-930,
-712,
933,
-3550,
805,
808,
2382,
-536,
-292,
-62,
660,
71,
-842,
-2895,
3014,
1052,
-65,
-1432,
612,
1024,
1140,
1183,
-1584,
1475,
-599,
218,
1503,
-4010,
934,
-4073,
-770,
21,
-459,
-775,
847,
-177,
1023,
1761,
-215,
-149,
380,
-2329,
-1700,
20,
241,
964,
-319,
16,
807,
1166,
-1302,
1350,
-1588,
-583,
-2153,
394,
-898,
-2480,
-745,
-3219,
-963,
170,
-1120,
1247,
-276,
-3329,
1159,
0,
1130,
306,
1289,
-521,
-929,
-813,
-1079,
-1247,
1164,
262,
1206,
-2922,
1544,
-853,
-789,
173,
1130,
-695,
-956,
-847,
1430,
-169,
613,
-127,
-746,
-3734,
459,
-506,
-2903,
-100,
1980,
-579,
1566,
-1540,
445,
-542,
245,
1443,
315,
-2639,
-2459,
-2194,
924,
1099,
-275,
-1363,
672,
-1433,
-724,
-925,
1411,
-35,
1297,
-264,
-2044,
-1594,
-1860,
78,
-465,
-615,
-125,
-3148,
-706,
-105,
640,
-1898,
-2923,
2519,
511,
-46,
1872,
1750,
108,
687,
970,
-1726,
1268,
-1561,
179,
-4523,
367,
-1333,
-5913,
1538,
-849,
960,
-1578,
286,
-3392,
-3688,
-2670,
-532,
-449,
-2083,
31,
-244,
160,
1516,
-287,
-941,
0,
-1477,
1684,
-1094,
-17,
-2651,
401,
179,
906,
1343,
-403,
-1146,
319,
-704,
-475,
6,
545,
1418,
-858,
298,
-346,
-158,
-572,
1158,
337,
891,
847,
616,
866,
-479,
778,
-853,
1026,
-726,
-815,
-1456,
-638,
-470,
-304,
-847,
681,
-6,
1605,
1545,
-677,
1387,
-3004,
-198,
-202,
-408,
530,
846,
1700,
253,
1240,
-2243,
760,
717,
363,
956,
-2912,
666,
301,
-228,
-349,
-658,
-591,
1933,
-749,
-182,
1080,
-433,
76,
-2426,
-140,
-390,
-4248,
-114,
919,
-148,
-3186,
561,
1733,
-1241,
-795,
831,
225,
2912,
-3345,
-1230,
2962,
-1391,
-1999,
-3866,
671,
-719,
982,
840,
-1333,
-691,
-177,
1925,
-1008,
-982,
1413,
431,
1399,
-967,
392,
258,
211,
-1586,
961,
-281,
1054,
1243,
638,
-78,
847,
1384,
1512,
-736,
510,
-794,
-639,
-847,
-2515,
-402,
1704,
-917,
1389,
927,
-2760,
-1623,
107,
195,
356,
995,
-852,
-1398,
-1563,
-1651,
-557,
802,
1400,
-1266,
-4169,
256,
-3956,
-1679,
-1414,
3013,
292,
-483,
1002,
-2769,
-958,
-606,
1074,
174,
-1303,
1545,
668,
505,
1283,
2304,
1054,
-1820,
419,
-957,
1240,
-999,
-696,
-804,
-1958,
1071,
791,
-1522,
-1559,
-38,
-180,
611,
600,
-497,
-687,
-2134,
-614,
-1305,
-378,
1357,
-4045,
409,
-1959,
-1594,
678,
-1034,
-369,
442,
-469,
913,
57,
-892,
202,
269,
1257,
738,
1491,
13,
3809,
-1532,
970,
1462,
1786,
1464,
-1435,
704,
-1898,
429,
-336,
-1719,
-3444,
-32,
-495,
286,
128,
45,
-1946,
974,
-2032,
1077,
-454,
1089,
-3861,
-1315,
15,
691,
-1597,
133,
-989,
-529,
-682,
901,
940,
1202,
-1193,
-670,
2214,
533,
-1002,
-871,
-491,
-82,
-1568,
-1924,
371,
1692,
-831,
-545,
333,
-398,
1473,
-173,
2047,
-2502,
-63,
-547,
993,
731,
-937,
1224,
2400,
-475,
709,
-1102,
1586,
165,
2145,
-1719,
625,
196,
-1027,
-1565,
-3161,
-1500,
436,
374,
-835,
-1177,
1341,
-2545,
682,
-3192,
516,
-2991,
209,
-2840,
850,
19,
-288,
909,
-1030,
2213,
558,
1003,
-1209,
-2935,
-1420,
277,
749,
-1961,
1123,
-2754,
896,
-1572,
-369,
1705,
-1188,
800,
1440,
857,
-1973,
-3085,
713,
1390,
-42,
970,
505,
-2970,
-893,
149,
-611,
658,
-185,
1265,
393,
-199,
750,
-3141,
137,
1138,
178,
-1894,
-141,
1647,
-939,
-4258,
193,
91,
-714,
534,
71,
-387,
-1377,
157,
61,
1327,
1098,
1246,
-1632,
55,
-2246,
-227,
-190,
648,
179,
1565,
769,
488,
2076,
-278,
783,
-4167,
-570,
-484,
-1092,
1236,
-981,
-852,
1137,
885,
-1125,
761,
-321,
570,
1473,
-1179,
-3618,
1720,
1475,
-463,
-136,
-461,
269,
-443,
-1156,
-233,
469,
277,
-1824,
1027,
-87,
-2884,
-786,
2527,
419,
274,
1429,
620,
-1075,
887,
-280,
-516,
-929,
-373,
1313,
-48,
1006,
-398,
590,
1140,
467,
-1334,
345,
-1726,
-1625,
2274,
-2745,
890,
-2240,
951,
885,
-104,
52,
-292,
479,
121,
1683,
642,
1013,
-721,
496,
-335,
505,
682,
-553,
2068,
-2002,
897,
-1529,
1061,
2844,
-1543,
-495,
-1897,
357,
2876,
-1636,
289,
493,
-969,
-1241,
-2314,
-2848,
-614,
-604,
834,
-3438,
2737,
1277,
-10,
-166,
1751,
-463,
2193,
-3724,
-1222,
1120,
-2620,
-184,
762,
-599,
-2752,
521,
631,
481,
-751,
-602,
-1234,
-684,
-1238,
-285,
-533,
-216,
12,
1179,
492,
2754,
-2141,
-1939,
425,
770,
-181,
1108,
4874,
-710,
359,
-257,
784,
-2388,
668,
451,
-285,
-3014,
1362,
-1371,
809,
1636,
694,
1516,
1058,
1681,
-1171,
853,
-2192,
695,
-1746,
-1586,
1422,
-767,
-1360,
1583,
-134,
-793,
-1748,
1014,
691,
335,
-242,
-2180,
-1078,
-517,
965,
630,
333,
119,
-165,
-837,
534,
1383,
-320,
-4604,
-705,
-771,
-52,
-3082,
-871,
-2418,
-43,
-160,
955,
-366,
-28,
-2286,
-72,
-3530,
878,
160,
712,
765,
-758,
-950,
-1044,
-1042,
-1981,
533,
-1407,
1513,
250,
319,
-1325,
989,
423,
-354,
932,
813,
-336,
1011,
759,
-1265,
289,
465,
-686,
1387,
352,
-2605,
-866,
-1362,
882,
-919,
856,
891,
705,
1453,
518,
654,
-1136,
0,
3159,
-4235,
-327,
557,
690,
-892,
579,
255,
820,
1260,
1442,
141,
-1061,
34,
1102,
-2059,
-469,
-481,
-1963,
1025,
-645,
-171,
-18,
-3391,
-958,
616,
251,
-1787,
243,
-1689,
-1477,
632,
-142,
1159,
-2046,
615,
727,
-301,
-1122,
839,
-447,
-616,
-843,
456,
208,
-447,
-2359,
1028,
219,
-2156,
-1189,
199,
3050,
-4045,
556,
987,
-1501,
202,
91,
-219,
1488,
-390,
-3879,
-437,
-668,
772,
1107,
-315,
-643,
-2317,
1192,
-567,
-83,
1178,
-297,
-887,
-2454,
1724,
1643,
406,
1350,
544,
143,
-450,
842,
-670,
-423,
237,
-1120,
-163,
-2603,
1667,
2161,
-745,
479,
951,
1380,
552,
-421,
1261,
-525,
-311,
-66,
-225,
-2300,
257,
-535,
449,
903,
-2149,
-502,
233,
180,
-2511,
-2772,
-3179,
-3165,
-658,
349,
-2216,
-843,
722,
58,
-1741,
-120,
-687,
-1499,
-468,
-366,
921,
852,
1208,
-1939,
-4006,
1479,
-21,
-2163,
31,
-681,
1206,
1604,
-3499,
-1244,
-1323,
-57,
-1362,
796,
1378,
410,
-667,
954,
-2042,
-328,
1265,
1205,
251,
-1594,
671,
845,
905,
-2072,
-460,
-1220,
544,
2055,
564,
-444,
7,
-769,
565,
-1780,
-2654,
1307,
-1900,
702,
-1437,
1725,
-305,
-1314,
-1199,
751,
632,
894,
-4164,
1431,
442,
-898,
1172,
-4070,
748,
919,
313,
-1784,
1616,
-2637,
193,
24,
-1089,
-1014,
152,
287,
141,
-2022,
949,
-1018,
172,
177,
-2165,
140,
-364,
-2185,
1933,
-669,
556,
1569,
1338,
-3783,
409,
902,
-274,
-179,
955,
-1523,
1803,
707,
-866,
-535,
320,
1399,
-391,
-476,
722,
863,
-1410,
-193,
-1135,
-364,
675,
1359,
-2752,
940,
957,
-1866,
-3453,
-54,
-411,
840,
-1157,
-1061,
1081,
202,
-510,
-1620,
495,
-924,
-6163,
774,
381,
-1580,
-822,
-682,
1194,
-1837,
-2818,
1537,
818,
2375,
1257,
-2191,
-1377,
-4210,
1354,
-1797,
-720,
1178,
1015,
1062,
93,
-2318,
887,
-133,
-1617,
-362,
-923,
-1010,
-2082,
-642,
1179,
1253,
553,
1435,
-3299,
-969,
-1336,
-952,
284,
808,
2922,
500,
695,
-2002,
1331,
42,
1354,
-1406,
857,
-650,
-137,
1652,
-1722,
346,
926,
-163,
-796,
845,
-220,
-2062,
-171,
1380,
-17,
-1696,
-166,
170,
1265,
364,
-390,
764,
-2301,
-1377,
484,
1109,
291,
1126,
-1182,
1044,
1070,
922,
3250,
287,
160,
-2530,
599,
292,
1941,
-305,
1403,
571,
-456,
837,
-3819,
944,
-469,
140,
1441,
836,
534,
-2586,
-3616,
444,
854,
479,
-432,
359,
-1132,
-2189,
975,
-842,
-2666,
-1716,
1640,
265,
785,
-2505,
2061,
757,
599,
-942,
428,
1624,
16,
323,
265,
488,
-4142,
-665,
-66,
1710,
609,
-3718,
-2050,
-401,
1717,
-1859,
-717,
-513,
-292,
-1434,
721,
-80,
383,
-611,
-633,
-130,
962,
473,
-349,
-1675,
1704,
969,
220,
1362,
725,
-305,
-991,
434,
-1321,
302,
422,
720,
-1973,
-796,
-2,
1050,
610,
1315,
-1006,
-1706,
-428,
-2677,
-1725,
-178,
952,
501,
1551,
251,
1547,
-1362,
427,
-2789,
968,
922,
-894,
1299,
-3069,
772,
259,
1169,
-853,
-297,
-3166,
-784,
-637,
2183,
-1172,
-1346,
512,
-718,
1086,
969,
-2721,
-1628,
493,
1119,
129,
586,
1003,
1269,
-1023,
-901,
-3070,
1108,
1078,
1355,
337,
1439,
2728,
783,
-3516,
409,
-1266,
-729,
804,
-53,
-3724,
-1486,
-151,
-664,
-1217,
-2018,
-204,
-2738,
-2040,
1632,
545,
-1778,
226,
341,
912,
558,
524,
361,
-1276,
1220,
-2251,
-1000,
617,
47,
697,
-23,
-509,
828,
899,
2434,
-1010,
554,
-95,
1331,
298,
514,
204,
79,
-1208,
817,
-2872,
-1038,
-3842,
-1154,
611,
-91,
887,
-797,
1073,
-120,
-128,
1555,
568,
-393,
1499,
-2081,
-19,
791,
-2536,
399,
-970,
1310,
1179,
-2065,
898,
-390,
631,
-435,
159,
797,
-2859,
2452,
2218,
-1418,
-765,
807,
-661,
-1196,
-1147,
827,
-40,
1892,
731,
1826,
-2473,
-3877,
718,
1727,
580,
1295,
294,
-850,
778,
618,
-1317,
24,
999,
-1653,
-248,
-3045,
-2383,
-417,
266,
-921,
1699,
590,
281,
-468,
117,
-307,
335,
-990,
883,
402,
-277,
439,
-2425,
-457,
-1804,
1323,
1278,
-402,
782,
865,
229,
2122,
-557,
-108,
1639,
212,
-97,
-561,
-1308,
-3188,
411,
-86,
715,
873,
-703,
447,
-1563,
-3685,
-3829,
309,
-1022,
-156,
1819,
-1460,
-910,
-612,
-683,
-577,
80,
2700,
1769,
-608,
1016,
926,
711,
937,
83,
575,
1671,
484,
887,
1621,
-2221,
840,
-2139,
47,
-570,
-414,
-675,
557,
51,
-1410,
533,
146,
-2968,
-1255,
-364,
-808,
489,
814,
91,
1339,
783,
1334,
-89,
2113,
589,
408,
454,
-200,
-2077,
176,
-2698,
-1153,
-674,
-678,
1188,
891,
-1983,
401,
-2462,
1513,
-412,
279,
-210,
-2734,
-2710,
1128,
532,
-866,
1229,
106,
-1720,
-136,
1192,
555,
-1905,
338,
-450,
757,
1188,
1729,
-644,
-636,
-578,
-3576,
-2354,
-2163,
-833,
-1397,
-77,
-1732,
-2186,
111,
-1085,
250,
-825,
-1392,
-1915,
281,
258,
-531,
170,
921,
443,
-2353,
-243,
-1097,
-643,
553,
-558,
982,
1113,
-1871,
-504,
363,
-41,
461,
-23,
-31,
313,
1479,
2073,
-208,
-1224,
-1418,
1731,
-3141,
-2037,
-1373,
1371,
-2156,
1314,
1501,
-1067,
-1958,
523,
-1931,
-1021,
1078,
412,
950,
950,
909,
1080,
1272,
-408,
-311,
800,
-228,
578,
-28,
530,
-22,
-736,
-941,
-54,
-292,
-1214,
424,
-556,
597,
389,
-72,
1324,
-2129,
-2777,
114,
-767,
-1165,
-1110,
-2712,
876,
2071,
1340,
-761,
1137,
-221,
-3741,
1004,
-2229,
-1017,
1055,
613,
-2719,
-306,
-563,
1577,
-2695,
-1995,
1111,
-1628,
785,
1741,
1718,
-148,
-1494,
-796,
1109,
-984,
803,
-30,
104,
-419,
-847,
966,
-2221,
1828,
-994,
598,
-2518,
22,
2874,
1061,
956,
-2297,
1254,
340,
-494,
1286,
1371,
695,
-2295,
755,
44,
-76,
-1654,
494,
892,
-2245,
-906,
-170,
687,
101,
1041,
-3591,
1296,
-927,
1317,
681,
-995,
-919,
-797,
-1422,
1814,
-2343,
-1760,
568,
-1954,
1455,
368,
-2449,
1346,
575,
-97,
1392,
-433,
1031,
-2666,
949,
1038,
609,
307,
-2382,
770,
-81,
-356,
-3,
789,
-313,
-301,
1120,
-1037,
-787,
882,
-513,
-1609,
486,
1009,
-171,
834,
1382,
1188,
-269,
-991,
-711,
-3483,
1758,
1300,
350,
1038,
589,
315,
-582,
862,
326,
-671,
-302,
416,
965,
806,
-3189,
1017,
36,
-3486,
794,
-2204,
222,
-1096,
332,
2560,
-66,
-1448,
-878,
477,
-905,
1540,
-1580,
-278,
586,
407,
-803,
454,
488,
916,
-2485,
946,
1465,
1760,
-719,
665,
1264,
-968,
-1169,
-701,
-324,
2554,
-423,
-3843,
-378,
1191,
972,
-1499,
-269,
-616,
958,
-527,
-637,
-957,
1064,
-44,
899,
1773,
669,
-523,
-306,
110,
-4900,
1321,
1301,
586,
-2296,
1211,
-1270,
-519,
-413,
954,
23,
-2242,
1318,
849,
-482,
-2320,
170,
640,
1140,
1375,
-763,
1077,
-2403,
-603,
-1969,
-1911,
-627,
321,
1400,
-4494,
851,
-122,
-553,
264,
539,
-107,
234,
501,
48,
522,
-635,
-2331,
49,
576,
-2505,
1535,
867,
256,
-915,
-585,
-329,
-1630,
314,
-819,
212,
1335,
-1387,
119,
-10,
247,
606,
1772,
1431,
-3270,
680,
1299,
1260,
-2169,
-3843,
-2075,
85,
916,
1398,
1353,
-1039,
-2610,
-635,
-855,
-2988,
-2027,
823,
1158,
-194,
1841,
710,
944,
-2152,
1521,
936,
-2924,
2045,
-1780,
2562,
215,
2052,
-60,
-2507,
-1391,
370,
881,
-40,
-219,
1853,
210,
836,
769,
-466,
1088,
-2593,
-1696,
995,
-841,
-1349,
-3209,
-891,
-1955,
1446,
-2741,
1014,
-2993,
129,
-468,
-1096,
863,
1409,
296,
-850,
1569,
2137,
372,
1853,
220,
554,
600,
-1040,
866,
766,
-1161,
-2722,
-93,
482,
-3323,
1292,
1164,
-2380,
-2004,
183,
423,
105,
-1095,
-573,
-1012,
1075,
147,
1970,
-1610,
307,
392,
-532,
1874,
-72,
1009,
-3328,
427,
404,
342,
347,
-5039,
-1502,
1280,
-1596,
-266,
644,
-820,
-1241,
902,
2367,
-3111,
446,
458,
-250,
1599,
-2725,
-924,
-3124,
637,
-176,
-555,
754,
19,
1246,
-2718,
-442,
1159,
157,
1369,
1469,
1414,
881,
-4,
2106,
59,
-471,
-2763,
-2643,
-21,
1727,
445,
-739,
467,
-1517,
1498,
-1118,
-2875,
226,
-4659,
715,
26,
-568,
1965,
-98,
821,
-1021,
2188,
-478,
-348,
1995,
1269,
329,
10,
267,
-215,
1991,
1220,
800,
-574,
485,
-2969,
-15,
900,
362,
-3229,
1,
-2948,
301,
132,
-1194,
628,
2170,
-484,
1691,
-1229,
-1801,
1841,
541,
1235,
1055,
1865,
-1241,
251,
-387,
1265,
-1317,
-896,
-2208,
1141,
412,
304,
853,
-107,
1370,
2243,
-320,
2345,
-2041,
831,
-1114,
103,
-3175,
1553,
973,
-2671,
-3877,
163,
71,
-697,
-2085,
-731,
2633,
919,
-950,
163,
656,
-175,
-159,
-905,
-3575,
524,
916,
-432,
1931,
-1339,
959,
-2421,
-2834,
-496,
436,
-193,
-169,
751,
1035,
1809,
-4085,
3152,
-2038,
-1473,
1297,
637,
795,
995,
1094,
-2367,
778,
1026,
708,
203,
-1310,
1567,
-1969,
417,
353,
-2748,
-2369,
-662,
426,
1940,
1490,
-2159,
515,
1320,
-1294,
772,
-1013,
-2518,
-947,
-956,
-321,
61,
-590,
-1982,
-1002,
-480,
-1428,
449,
641,
1274,
-2015,
178,
819,
-1634,
662,
945,
642,
1393,
782,
677,
174,
1294,
8,
1702,
-2439,
805,
-2571,
394,
-1524,
354,
-57,
789,
-501,
328,
1499,
718,
-578,
262,
-228,
-1989,
-541,
-1535,
-267,
-3934,
526,
1620,
968,
-403,
-985,
1190,
1202,
-2983,
-2104,
840,
-31,
552,
-763,
1439,
613,
819,
-1542,
-1357,
1246,
-2049,
-1788,
-115,
1703,
-1198,
481,
-52,
66,
224,
-1986,
112,
207,
-2289,
-17,
785,
-2820,
-1331,
-878,
-898,
1615,
2415,
1254,
-1810,
787,
-1298,
1335,
760,
-1410,
1416,
-2767,
-474,
-2818,
-2023,
532,
-2531,
-434,
1847,
1880,
694,
-223,
72,
-3249,
-854,
1110,
-237,
-25,
2772,
-851,
1293,
-3540,
426,
339,
-6,
1158,
-233,
1066,
822,
-1762,
704,
-42,
-3612,
-69,
1449,
-294,
706,
-1967,
852,
-36,
-576,
633,
848,
-1039,
958,
638,
1385,
-236,
969,
1312,
1168,
-435,
-2030,
-546,
-146,
-3498,
483,
-1066,
-254,
-883,
859,
260,
-104,
-3090,
-2626,
-489,
-1334,
907,
1362,
-51,
-518,
1158,
297,
-3220,
365,
-2207,
685,
-2288,
-2332,
-1029,
-413,
-577,
57,
489,
334,
-1021,
-1515,
-1022,
-978,
-442,
539,
1548,
-1225,
-3428,
-992,
-183,
-1665,
-438,
-1702,
899,
999,
696,
-760,
226,
1740,
375,
2796,
-1424,
348,
-733,
-1309,
994,
-867,
-753,
-1828,
141,
950,
-417,
563,
-845,
-270,
1741,
599,
623,
-728,
-979,
1568,
1785,
-2720,
-1871,
340,
1627,
472,
-2562,
-773,
611,
-363,
-1602,
-78,
690,
-2449,
-2242,
1083,
-1403,
-1343,
343,
1603,
357,
-333,
1650,
-3176,
360,
636,
1055,
333,
1028,
2365,
-3946,
-9,
1398,
1073,
-1139,
-689,
782,
925,
101,
823,
-3621,
450,
671,
-277,
361,
819,
-2754,
965,
891,
-230,
682,
176,
-194,
-821,
-2127,
30,
1387,
1057,
-2022,
-1721,
939,
666,
-287,
-1115,
507,
220,
954,
1446,
942,
426,
-151,
1381,
283,
186,
60,
-960,
455,
481,
1550,
593,
-1775,
-593,
-476,
-149,
703,
449,
1486,
531,
-1371,
-1654,
491,
120,
-1544,
-820,
55,
296,
965,
1112,
-527,
-2249,
883,
-77,
-2826,
-2832,
-3198,
-4269,
814,
-2569,
1341,
991,
755,
-934,
2493,
1828,
-1789,
-3364,
1265,
-333,
-255,
1247,
1415,
-1664,
-94,
-907,
-1388,
1946,
994,
-1467,
1065,
-2635,
-196,
1265,
829,
-1164,
1784,
-297,
1687,
-40,
1783,
-1331,
-95,
294,
-100,
-1161,
1011,
1187,
718,
-375,
-2023,
-536,
1090,
-46,
2326,
843,
653,
-2061,
-2320,
166,
-692,
188,
79,
1586,
-632,
-3551,
-2168,
-552,
-1846,
-548,
-626,
-759,
399,
80,
728,
274,
1035,
-33,
-1051,
-1597,
808,
383,
-414,
-2655,
-141,
387,
141,
-956,
-1290,
1149,
438,
1541,
884,
482,
672,
2010,
274,
-2112,
-233,
427,
118,
-1451,
-767,
12,
2166,
-207,
-276,
1173,
1179,
155,
-2509,
1008,
-167,
996,
599,
1294,
1371,
-968,
-404,
1333,
-574,
811,
1482,
-1600,
-485,
-2010,
-114,
1449,
-3483,
754,
1361,
-2496,
864,
1438,
332,
949,
1898,
1374,
625,
845,
2025,
1130,
-995,
285,
-2849,
-215,
-1230,
284,
59,
-1853,
-2001,
1020,
-1007,
1134,
788,
820,
332,
1342,
125,
86,
921,
251,
-857,
-2142,
-381,
609,
-1497,
747,
-716,
83,
-386,
689,
456,
-424,
1428,
1391,
-1220,
-846,
851,
-1035,
-1424,
579,
-2197,
803,
116,
348,
418,
438,
-833,
328,
1238,
1207,
1084,
44,
-3013,
192,
28,
-1461,
-3970,
1127,
1425,
-399,
1338,
-550,
-1477,
15,
-618,
1186,
1179,
-4639,
-112,
406,
-1717,
538,
-1353,
-467,
-1175,
-4207,
-9,
-585,
-769,
-94,
-330,
391,
-581,
-701,
1266,
-991,
-207,
-131,
875,
1108,
-685,
-1403,
34,
1598,
-904,
-1486,
-316,
-2300,
-2166,
-1142,
756,
558,
1428,
-607,
780,
1477,
-1403,
1561,
-3893,
-598,
190,
-1811,
-412,
-2030,
282,
-235,
313,
1266,
-65,
711,
381,
219,
1095,
980,
-2556,
-948,
-1251,
-560,
316,
568,
1068,
-670,
-3913,
2218,
-1555,
-618,
768,
793,
-46,
7,
-1589,
-1493,
813,
749,
848,
-1274,
-973,
-303,
-3829,
-667,
1201,
348,
193,
1116,
580,
-2625,
-1199,
-700,
-585,
-1540,
921,
187,
660,
-2777,
-36,
634,
8,
2723,
-417,
-1546,
-144,
657,
-509,
-2820,
-4577,
248,
1426,
-2974,
1595,
-1420,
885,
-2487,
-132,
999,
548,
-231,
426,
-582,
1391,
951,
2590,
-827,
55,
1172,
657,
2132,
33,
1333,
199,
-3002,
614,
225,
-2404,
-1228,
-106,
-1996,
-742,
937,
